svm_type c_svc
kernel_type rbf
gamma 0.0625
nr_class 5
total_sv 5037
rho 0.783915 0.581451 -0.164332 0.953657 0.267288 -0.0566788 0.799355 -0.378161 0.943931 0.800581
label 5 4 3 2 1
probA -1.51689 -2.04691 -2.58269 -2.93471 -0.921831 -2.15399 -2.3527 -1.56358 -1.71646 -1.18457
probB 0.0272909 0.0928082 0.302057 0.253112 0.159133 0.691175 0.485694 0.64297 0.256312 -0.0223334
nr_sv 1101 1462 1073 760 641
SV
0 0.6011248115751262 1 1 1:1 2:-0.95718 3:-1 4:-1 5:-1 6:-0.984375 7:-0.95718 8:-0.985612 9:1 10:-1 11:-1 12:-0.95718 13:-0.333333 14:-1 15:-1 16:-0.333333 
1 0 0 0 1:1 2:0.87136 3:1 4:-1 5:1 6:-0.945312 7:0.113552 8:-0.928058 9:1 10:-1 11:-1 12:0.566767 13:0.333333 14:-1 15:-1 16:-0.333333 
1 1 0 0 1:-1 2:-1 3:-0.333333 4:-1 5:1 6:-0.9375 7:0.113552 8:-0.928058 9:1 10:-1 11:-1 12:0.566767 13:0.333333 14:-1 15:-1 16:-0.333333 
1 1 1 1 1:1 2:0.8808 3:1 4:-1 5:1 6:-0.914062 7:0.31791 8:-0.884892 9:1 10:-1 11:-1 12:0.658507 13:1 14:-1 15:-1 16:0.333333 
1 0 0 0 1:-1 2:-1 3:-0.333333 4:-1 5:1 6:-0.90625 7:0.31791 8:-0.884892 9:1 10:-1 11:-1 12:0.658507 13:0.333333 14:-1 15:-1 16:-0.333333 
1 1 0 0 1:-0.333333 2:-1 3:0.333333 4:-1 5:-1 6:-0.898438 7:0.171476 8:-0.884892 9:0.755556 10:-1 11:-1 12:0.0358733 13:-0.333333 14:-1 15:-1 16:-1 
1 1 1 1 1:0.333333 2:-1 3:1 4:-1 5:1 6:-0.976562 7:-0.51886 8:-0.985612 9:-0.1 10:-0.953488 12:-0.51886 13:-0.333333 14:-0.333333 15:-1 16:-0.333333 
1 1 1 1 1:-1 2:-1 3:-0.333333 4:-1 5:1 6:-0.960938 7:-0.0125733 8:-0.971223 9:0.266667 10:-0.953488 11:-0.333333 12:-0.0125733 13:-0.333333 14:-0.333333 15:-0.333333 16:-1 
1 1 1 1 1:1 2:0.32246 3:-1 4:-1 5:-1 6:-0.953125 7:0.071185 8:-0.956835 9:0.45 10:-0.953488 11:-0.5 12:0.107487 13:0.333333 14:-1 15:-0.333333 16:-0.333333 
1 1 0 0 1:1 2:0.84434 3:1 4:-1 5:1 6:-0.945312 7:0.225816 8:-0.942446 9:0.56 10:-0.953488 11:-0.6 12:0.722267 13:0.333333 14:-1 15:-1 16:-0.333333 
1 1 0 0 1:-1 2:-1 3:-0.333333 4:-1 5:1 6:-0.9375 7:0.225816 8:-0.942446 9:0.56 10:-0.953488 11:-0.6 12:0.722267 13:0.333333 14:-1 15:-1 16:-0.333333 
1 1 1 1 1:1 2:0.38306 3:-1 4:-1 5:-1 6:-0.890625 7:0.0987133 8:-0.884892 9:0.755556 10:-0.953488 11:-0.777778 12:0.433993 13:0.333333 14:-1 15:-1 16:-0.333333 
1 1 1 0 1:1 2:0.832 3:1 4:-1 5:1 6:-0.882812 7:0.172042 8:-0.870504 9:0.78 10:-0.953488 11:-0.8 12:0.68864 13:0.333333 14:-1 15:-1 16:-0.333333 
1 0 0 0 1:-0.333333 2:-1 3:-1 4:-1 5:-1 6:-0.96875 8:-0.985612 9:-0.1 10:-1 11:-1 13:-0.333333 14:-1 15:-1 16:0.333333 
1 0.4917506614078157 0 0 1:1 2:0.0304 3:-1 4:-1 5:-1 6:-0.960938 7:0.0101333 8:-0.971223 9:0.266667 10:-1 11:-1 12:0.0101333 13:-0.333333 14:-1 15:-1 16:0.333333 
1 0 0 0 1:1 2:0.51812 3:-1 4:-1 5:-1 6:-0.960938 7:0.470067 8:-0.956835 9:1 10:-1 11:-1 12:0.470067 13:0.333333 14:-1 15:-1 16:-0.333333 
1 1 1 1 1:1 2:0.25716 3:1 4:-1 5:1 6:-0.953125 7:-0.313985 8:-0.956835 9:0.45 10:-1 11:-1 12:-0.332813 13:0.333333 14:-1 15:-1 16:0.333333 
1 1 0 0 1:1 2:0.88898 3:1 4:-1 5:1 6:-0.921875 7:0.180789 8:-0.913669 9:0.685714 10:-1 11:-1 12:0.840487 13:0.333333 14:-1 15:-1 16:-0.333333 
1 1 0 0 1:-1 2:-1 3:-0.333333 4:-1 5:1 6:-0.914062 7:0.180789 8:-0.913669 9:0.685714 10:-1 11:-1 12:0.840487 13:0.333333 14:-1 15:-1 16:-0.333333 
1 1 0 0 1:1 2:0.78608 3:-1 4:-1 5:-1 6:-0.90625 7:0.25645 8:-0.899281 9:0.725 10:-1 11:-1 12:0.807227 13:0.333333 14:-1 15:-1 16:-0.333333 
1 0.7847045494316095 0 0 1:1 2:0.88736 3:1 4:-1 5:1 6:-0.898438 7:0.326551 8:-0.884892 9:0.755556 10:-1 11:-1 12:0.85414 13:0.333333 14:-1 15:-1 16:-0.333333 
1 0 0 0 1:-1 2:-1 3:-0.333333 4:-1 5:1 6:-0.890625 7:0.326551 8:-0.884892 9:0.755556 10:-1 11:-1 12:0.85414 13:0.333333 14:-1 15:-1 16:-0.333333 
1 1 0 0 1:-0.333333 2:-1 3:0.333333 4:-1 5:-1 6:-0.882812 7:0.193896 8:-0.884892 9:0.56 10:-1 11:-1 12:0.22448 13:-0.333333 14:-1 15:-1 16:-1 
1 1 0 0 1:-1 2:-1 3:-0.333333 4:-1 5:-1 6:-0.875 7:0.193896 8:-0.884892 9:0.56 10:-1 11:-1 12:0.22448 13:-1 14:-1 15:-1 16:-1 
1 1 1 1 1:-1 2:-1 3:-0.333333 4:-1 5:-1 6:-0.851562 7:0.126897 8:-0.870504 9:0.45 10:-0.953488 11:-0.833333 12:-0.472067 13:-0.333333 14:-0.333333 15:-0.333333 16:0.333333 
1 1 1 1 1:-1 2:-1 3:-0.333333 4:-1 5:-1 6:-0.84375 7:0.126897 8:-0.870504 9:0.45 10:-0.953488 11:-0.833333 12:-0.472067 13:-0.333333 14:-1 15:-0.333333 16:-0.333333 
1 1 0 0 1:-0.333333 2:-1 3:-1 4:-1 5:-1 6:-0.835938 7:0.0402123 8:-0.870504 9:0.323077 10:-0.953488 11:-0.846154 12:-0.472067 13:-1 14:-1 15:-1 16:-0.333333 
0 1 0 0 1:-0.333333 2:-1 3:-1 4:-1 5:-1 6:-0.984375 7:-1 8:-1 9:1 10:-1 11:-1 12:-1 13:-1 14:-1 15:-1 16:-0.333333 
1 1 1 1 1:1 2:0.07188 3:-1 4:-1 5:-1 6:-0.898438 7:-0.07164 8:-0.899281 9:0.511111 10:-0.953488 11:-0.777778 12:0.146227 13:0.333333 14:-1 15:-1 16:-0.333333 
1 1 1 0 1:1 2:0.7823 3:1 4:-1 5:1 6:-0.890625 7:0.013754 8:-0.884892 9:0.56 10:-0.953488 11:-0.8 12:0.537113 13:0.333333 14:-1 15:-1 16:-0.333333 
1 1 1 0 1:-1 2:-1 3:-0.333333 4:-1 5:1 6:-0.882812 7:0.013754 8:-0.884892 9:0.56 10:-0.953488 11:-0.8 12:0.537113 13:0.333333 14:-1 15:-1 16:-0.333333 
1 1 1 1 1:-0.333333 2:-1 3:0.333333 4:-1 5:-1 6:-0.875 7:-0.0784055 8:-0.884892 9:0.4 10:-0.953488 11:-0.818182 12:-0.0486067 13:-0.333333 14:-1 15:-1 16:-1 
1 1 1 1 1:-1 2:-1 3:-0.333333 4:-1 5:-1 6:-0.867188 7:-0.0784055 8:-0.884892 9:0.4 10:-0.953488 11:-0.818182 12:-0.0486067 13:-1 14:-1 15:-1 16:-1 
1 1 1 0 1:1 2:0.1458 3:-1 4:-1 5:-1 6:-0.859375 7:-0.0597217 8:-0.870504 9:0.45 10:-0.953488 11:-0.833333 12:-0.0239667 13:-0.333333 14:-1 15:-1 16:-0.333333 
1 1 1 1 1:-0.333333 2:-1 3:-0.333333 4:-1 5:-1 6:-0.851562 7:-0.132051 8:-0.870504 9:0.323077 10:-0.953488 11:-0.846154 12:-0.618067 13:-0.333333 14:-1 15:-1 16:-0.333333 
1 1 0.1020129499820892 1 1:-0.333333 2:-1 3:-1 4:-1 5:-1 6:-0.96875 7:-0.62875 8:-0.985612 9:-0.1 10:-1 11:-1 12:-0.62875 13:-0.333333 14:-1 15:-1 16:0.333333 
0.4156802138093488 0 0 0 1:1 2:-0.39338 3:-1 4:-1 5:-1 6:-0.984375 7:-0.39338 8:-0.985612 9:1 10:-1 11:-1 12:-0.39338 13:-0.333333 14:-1 15:-1 16:-0.333333 
1 0 0 0 1:1 2:0.8718 3:1 4:-1 5:1 6:-0.976562 7:0.23921 8:-0.971223 9:1 10:-1 11:-1 12:0.23921 13:0.333333 14:-1 15:-1 16:-0.333333 
1 1 1 0 1:1 2:-0.24754 3:-1 4:-1 5:-1 6:-0.960938 7:0.07696 8:-0.956835 9:1 10:-1 11:-1 12:0.07696 13:0.333333 14:-1 15:-1 16:-0.333333 
1 0 0 0 1:1 2:-0.72106 3:-1 4:-1 5:-1 6:-0.984375 7:-0.72106 8:-0.985612 9:1 10:-1 11:-1 12:-0.72106 13:-0.333333 14:-1 15:-1 16:-0.333333 
1 1 0 0 1:1 2:0.87128 3:1 4:-1 5:1 6:-0.859375 7:0.226822 8:-0.841727 9:0.816667 10:-1 11:-1 12:0.390807 13:0.333333 14:-1 15:-1 16:-0.333333 
1 1 1 0 1:-1 2:-1 3:-0.333333 4:-1 5:1 6:-0.851562 7:0.226822 8:-0.841727 9:0.816667 10:-1 11:-1 12:0.390807 13:0.333333 14:-1 15:-1 16:-0.333333 
1 1 0.4863234626724912 0 1:1 2:0.87418 3:1 4:-1 5:1 6:-0.84375 7:0.276618 8:-0.827338 9:0.830769 10:-1 11:-1 12:0.502827 13:0.333333 14:-1 15:-1 16:-1 
1 1 0 0 1:-1 2:-1 3:-0.333333 4:-1 5:1 6:-0.835938 7:0.276618 8:-0.827338 9:0.830769 10:-1 11:-1 12:0.502827 13:-0.333333 14:-1 15:-1 16:-1 
1 1 0 0 1:1 2:0.87204 3:1 4:-1 5:1 6:-0.828125 7:0.319149 8:-0.81295 9:0.842857 10:-1 11:-1 12:0.8725 13:0.333333 14:-1 15:-1 16:-1 
1 1 0 0 1:-1 2:-1 3:-0.333333 4:-1 5:1 6:-0.820312 7:0.319149 8:-0.81295 9:0.842857 10:-1 11:-1 12:0.8725 13:-0.333333 14:-1 15:-1 16:-1 
1 1 0 0 1:1 2:0.87412 3:1 4:-1 5:1 6:-0.8125 7:0.356147 8:-0.798561 9:0.853333 10:-1 11:-1 12:0.873447 13:0.333333 14:-1 15:-1 16:-1 
1 1 0 0 1:-1 2:-1 3:-0.333333 4:-1 5:1 6:-0.804688 7:0.356147 8:-0.798561 9:0.853333 10:-1 11:-1 12:0.873447 13:-0.333333 14:-1 15:-1 16:-1 
1 1 1 0 1:-0.333333 2:-1 3:0.333333 4:-1 5:-1 6:-0.796875 7:0.271387 8:-0.798561 9:0.725 10:-1 11:-1 12:0.24872 13:-0.333333 14:-1 15:-1 16:-1 
1 1 0 0 1:-1 2:-1 3:-0.333333 4:-1 5:-1 6:-0.789062 7:0.271387 8:-0.798561 9:0.725 10:-1 11:-1 12:0.24872 13:-1 14:-1 15:-1 16:-1 
1 0 0 0 1:1 2:0.59598 3:-1 4:-1 5:-1 6:-0.78125 7:0.290481 8:-0.784173 9:0.741176 10:-1 11:-1 12:0.1567 13:-0.333333 14:-1 15:-1 16:-0.333333 
1 0 0 0 1:-1 2:-1 3:-0.333333 4:-1 5:-1 6:-0.773438 7:0.290481 8:-0.784173 9:0.741176 10:-1 11:-1 12:0.1567 13:-0.333333 14:-1 15:-1 16:-0.333333 
1 0 0 0 1:-1 2:-1 3:-0.333333 4:-1 5:-1 6:-0.765625 7:0.290481 8:-0.784173 9:0.741176 10:-1 11:-1 12:0.1567 13:-0.333333 14:-1 15:-1 16:-0.333333 
1 1 1 0 1:1 2:0.05816 3:-1 4:-1 5:-1 6:-0.757812 7:0.277574 8:-0.769784 9:0.755556 10:-1 11:-1 12:-0.115287 13:-0.333333 14:-1 15:-1 16:-0.333333 
1 1 1 0 1:-0.333333 2:-1 3:-0.333333 4:-1 5:-1 6:-0.75 7:0.210334 8:-0.769784 9:0.652632 10:-1 11:-1 12:-0.115287 13:-0.333333 14:-1 15:-1 16:-0.333333 
1 0.02561454533947725 0 0 1:-0.333333 2:-1 3:-1 4:-1 5:-1 6:-0.96875 8:-0.985612 9:-0.1 10:-1 11:-1 13:-0.333333 14:-1 15:-1 16:0.333333 
1 1 0 0 1:1 2:0.88666 3:1 4:-1 5:1 6:-0.9375 7:0.226544 8:-0.942446 9:0.56 10:-1 11:-1 12:0.377573 13:0.333333 14:-1 15:-1 16:-1 
1 0 0 0 1:-1 2:-1 3:-0.333333 4:-1 5:1 6:-0.929688 7:0.226544 8:-0.942446 9:0.56 10:-1 11:-1 12:0.377573 13:-0.333333 14:-1 15:-1 16:-1 
1 1 0 0 1:1 2:-0.13938 3:-1 4:-1 5:-1 6:-0.960938 7:0.34962 8:-0.956835 9:1 10:-1 11:-1 12:0.34962 13:0.333333 14:-1 15:-1 16:-0.333333 
0 0 0.2767382715893497 0 1:1 2:-0.92514 3:-1 4:-1 5:-1 6:-0.984375 7:-0.92514 8:-0.985612 9:1 10:-1 11:-1 12:-0.92514 13:-0.333333 14:-1 15:-1 16:-0.333333 
1 0 0 0 1:1 2:0.8733 3:1 4:-1 5:1 6:-0.976562 7:-0.02592 8:-0.971223 9:1 10:-1 11:-1 12:-0.02592 13:0.333333 14:-1 15:-1 16:-0.333333 
1 0 0 0 1:-1 2:-1 3:-0.333333 4:-1 5:1 6:-0.96875 7:-0.02592 8:-0.971223 9:1 10:-1 11:-1 12:-0.02592 13:0.333333 14:-1 15:-1 16:-0.333333 
1 0 0 0 1:1 2:0.72734 3:-1 4:-1 5:-1 6:-0.960938 7:0.225167 8:-0.956835 9:1 10:-1 11:-1 12:0.225167 13:0.333333 14:-1 15:-1 16:-0.333333 
1 0 0 0 1:1 2:0.64214 3:-1 4:-1 5:-1 6:-0.960938 7:0.4988 8:-0.956835 9:1 10:-1 11:-1 12:0.4988 13:0.333333 14:-1 15:-1 16:-0.333333 
1 0 0 0 1:1 2:0.66278 3:-1 4:-1 5:-1 6:-0.9375 7:0.599904 8:-0.928058 9:1 10:-1 11:-1 12:0.715087 13:0.333333 14:-1 15:-1 16:-0.333333 
1 0 0 0 1:1 2:0.72108 3:-1 4:-1 5:-1 6:-0.914062 7:0.653026 8:-0.899281 9:1 10:-1 11:-1 12:0.744813 13:0.333333 14:-1 15:-1 16:-0.333333 
1 0 0 0 1:1 2:0.71596 3:-1 4:-1 5:-1 6:-0.960938 7:0.511553 8:-0.956835 9:1 10:-1 11:-1 12:0.511553 13:0.333333 14:-1 15:-1 16:-0.333333 
1 0 0 0 1:1 2:0.73762 3:-1 4:-1 5:-1 6:-0.9375 7:0.623396 8:-0.928058 9:1 10:-1 11:-1 12:0.766093 13:0.333333 14:-1 15:-1 16:-0.333333 
1 0.001520369709946603 0 0 1:0.333333 2:-1 3:-1 4:-1 5:-1 6:-0.984375 7:-1 8:-1 9:1 10:-0.953488 11:1 12:-1 13:-1 14:-0.333333 15:-1 16:-0.333333 
1 0 0 0 1:1 2:0.87448 3:1 4:-1 5:1 6:-0.976562 7:0.0657 8:-0.971223 9:1 10:-1 11:-1 12:0.0657 13:0.333333 14:-1 15:-1 16:-0.333333 
1 0 0 0 1:-1 2:-1 3:-0.333333 4:-1 5:1 6:-0.96875 7:0.0657 8:-0.971223 9:1 10:-1 11:-1 12:0.0657 13:0.333333 14:-1 15:-1 16:-0.333333 
1 0 0 0 1:1 2:0.48248 3:-1 4:-1 5:-1 6:-0.960938 7:0.204627 8:-0.956835 9:1 10:-1 11:-1 12:0.204627 13:0.333333 14:-1 15:-1 16:-0.333333 
1 0 0 0 1:1 2:0.7639 3:1 4:-1 5:1 6:-0.953125 7:0.344445 8:-0.942446 9:1 10:-1 11:-1 12:0.706953 13:0.333333 14:-1 15:-1 16:-0.333333 
1 0 0 0 1:-1 2:-1 3:-0.333333 4:-1 5:1 6:-0.945312 7:0.344445 8:-0.942446 9:1 10:-1 11:-1 12:0.706953 13:0.333333 14:-1 15:-1 16:-0.333333 
1 0 0 0 1:1 2:0.72778 3:-1 4:-1 5:-1 6:-0.9375 7:0.421112 8:-0.928058 9:1 10:-1 11:-1 12:0.658053 13:0.333333 14:-1 15:-1 16:-0.333333 
1 0 0 0 1:1 2:0.88278 3:1 4:-1 5:1 6:-0.929688 7:0.498057 8:-0.913669 9:1 10:-1 11:-1 12:0.791487 13:0.333333 14:-1 15:-1 16:-0.333333 
1 0 0 0 1:1 2:0.88842 3:1 4:-1 5:1 6:-0.90625 7:0.592877 8:-0.884892 9:1 10:-1 11:-1 12:0.879153 13:0.333333 14:-1 15:-1 16:-0.333333 
1 0 0 0 1:-1 2:-1 3:-0.333333 4:-1 5:1 6:-0.898438 7:0.592877 8:-0.884892 9:1 10:-1 11:-1 12:0.879153 13:0.333333 14:-1 15:-1 16:-0.333333 
1 0 0 0 1:-0.333333 2:-1 3:0.333333 4:-1 5:-1 6:-0.890625 7:0.415891 8:-0.884892 9:0.755556 10:-1 11:-1 12:0.25156 13:-0.333333 14:-1 15:-1 16:-1 
1 0 0 0 1:-0.333333 2:-1 3:-1 4:-1 5:-1 6:-0.875 7:0.274302 8:-0.884892 9:0.56 10:-1 11:-1 12:-0.370527 13:-1 14:-1 15:-1 16:-0.333333 
1 0 0 0 1:0.333333 2:-1 3:-1 4:-1 5:-1 6:-0.984375 7:-1 8:-1 9:1 10:-0.953488 11:1 12:-1 13:-1 14:-0.333333 15:-1 16:-0.333333 
1 0 0 0 1:-1 2:-1 3:-0.333333 4:-1 5:-1 6:-0.976562 7:-0.27376 8:-0.985612 9:1 10:-1 11:-1 12:-0.27376 13:-0.333333 14:-1 15:-1 16:-0.333333 
1 1 1 1 1:-0.333333 2:-1 3:-1 4:-1 5:-1 6:-0.96875 7:-0.63688 8:-0.985612 9:-0.1 10:-1 11:-1 12:-0.63688 13:-0.333333 14:-1 15:-1 16:0.333333 
1 1 0.1344538245100313 0 1:1 2:0.02166 3:-1 4:-1 5:-1 6:-0.960938 7:-0.417367 8:-0.971223 9:0.266667 10:-1 11:-1 12:-0.417367 13:-0.333333 14:-1 15:-1 16:0.333333 
1 1 0 0 1:1 2:0.88044 3:1 4:-1 5:1 6:-0.953125 7:-0.092915 8:-0.956835 9:0.45 10:-1 11:-1 12:-0.0326333 13:0.333333 14:-1 15:-1 16:0.333333 
1 1 0.758420054176123 0 1:-1 2:-1 3:-0.333333 4:-1 5:1 6:-0.945312 7:-0.092915 8:-0.956835 9:0.45 10:-1 11:-1 12:-0.0326333 13:0.333333 14:-1 15:-1 16:-0.333333 
1 1 1 1 1:1 2:-0.4718 3:-1 4:-1 5:-1 6:-0.9375 7:-0.168692 8:-0.942446 9:0.56 10:-1 11:-1 12:0.143433 13:0.333333 14:-1 15:-1 16:-0.333333 
1 0 0 0 1:1 2:0.6798 3:1 4:-1 5:1 6:-0.976562 7:0.50778 8:-0.971223 9:1 10:-1 11:-1 12:0.50778 13:0.333333 14:-1 15:-1 16:-0.333333 
1 1 1 0 1:1 2:-0.4039 3:-1 4:-1 5:-1 6:-0.960938 7:0.203887 8:-0.956835 9:1 10:-1 11:-1 12:0.203887 13:0.333333 14:-1 15:-1 16:-0.333333 
1 0 0 0 1:0.333333 2:-1 3:-1 4:-1 5:-1 6:-0.984375 7:-1 8:-1 9:1 10:-0.953488 11:1 12:-1 13:-1 14:-0.333333 15:-1 16:-0.333333 
1 0 0 0 1:0.333333 2:-1 3:-1 4:-1 5:-1 6:-0.984375 7:-1 8:-1 9:1 10:-0.953488 11:1 12:-1 13:-1 14:-0.333333 15:-1 16:-0.333333 
1 1 1 1 1:1 2:0.80976 3:1 4:-1 5:1 6:-0.96875 7:-0.33744 8:-0.971223 9:0.266667 10:-0.953488 11:-0.333333 12:-0.33744 13:0.333333 14:-0.333333 15:-0.333333 16:0.333333 
1 1 1 1 1:-1 2:-1 3:-0.333333 4:-1 5:1 6:-0.960938 7:-0.33744 8:-0.971223 9:0.266667 10:-0.953488 11:-0.333333 12:-0.33744 13:0.333333 14:-1 15:-0.333333 16:-0.333333 
1 1 1 1 1:1 2:0.59152 3:-1 4:-1 5:-1 6:-0.953125 7:-0.1052 8:-0.956835 9:0.45 10:-0.953488 11:-0.5 12:0.193067 13:0.333333 14:-1 15:-1 16:-0.333333 
1 1 1 0 1:1 2:0.84434 3:1 4:-1 5:1 6:-0.945312 7:0.084708 8:-0.942446 9:0.56 10:-0.953488 11:-0.6 12:0.74854 13:0.333333 14:-1 15:-1 16:-0.333333 
1 1 1 0 1:-1 2:-1 3:-0.333333 4:-1 5:1 6:-0.9375 7:0.084708 8:-0.942446 9:0.56 10:-0.953488 11:-0.6 12:0.74854 13:0.333333 14:-1 15:-1 16:-0.333333 
1 1 1 0 1:1 2:0.63604 3:-1 4:-1 5:-1 6:-0.929688 7:0.176597 8:-0.928058 9:0.633333 10:-0.953488 11:-0.666667 12:0.690633 13:0.333333 14:-1 15:-1 16:-0.333333 
1 1 0 0 1:1 2:0.85938 3:1 4:-1 5:1 6:-0.921875 7:0.274137 8:-0.913669 9:0.685714 10:-0.953488 11:-0.714286 12:0.77992 13:0.333333 14:-1 15:-1 16:-0.333333 
1 1 0 0 1:-1 2:-1 3:-0.333333 4:-1 5:1 6:-0.914062 7:0.274137 8:-0.913669 9:0.685714 10:-0.953488 11:-0.714286 12:0.77992 13:0.333333 14:-1 15:-1 16:-0.333333 
1 1 1 1 1:0.333333 2:-1 3:-1 4:-1 5:-1 6:-0.90625 7:0.11487 8:-0.913669 9:0.45 10:-0.906977 11:-0.5 12:0.16514 13:-0.333333 14:-0.333333 15:-1 16:-0.333333 
1 1 0 0 1:1 2:0.72182 3:-1 4:-1 5:-1 6:-0.859375 7:0.16944 8:-0.870504 9:0.45 10:-0.906977 11:-0.666667 12:0.188353 13:-0.333333 14:-1 15:-1 16:-0.333333 
1 1 0.3965224291828051 0 1:-1 2:-1 3:-0.333333 4:-1 5:-1 6:-0.851562 7:0.16944 8:-0.870504 9:0.45 10:-0.906977 11:-0.666667 12:0.188353 13:-0.333333 14:-1 15:-1 16:-0.333333 
1 1 1 1 1:1 2:0.24806 3:-1 4:-1 5:-1 6:-0.84375 7:0.175488 8:-0.856115 9:0.492308 10:-0.906977 11:-0.692308 12:-0.01004 13:0.333333 14:-1 15:-1 16:0.333333 
1 0 0 0 1:1 2:-0.51556 3:-1 4:-1 5:-1 6:-0.984375 7:-0.51556 8:-0.985612 9:1 10:-1 11:-1 12:-0.51556 13:-0.333333 14:-1 15:-1 16:-0.333333 
1 0 0 0 1:1 2:0.66138 3:-1 4:-1 5:-1 6:-0.929688 7:0.63256 8:-0.913669 9:1 10:-1 11:-1 12:0.702607 13:0.333333 14:-1 15:-1 16:-0.333333 
1 1 1 0 1:0.333333 2:-1 3:-1 4:-1 5:-1 6:-0.90625 7:0.456387 8:-0.899281 9:0.725 10:-0.953488 11:-0.75 12:0.172373 13:-0.333333 14:-0.333333 15:-1 16:-0.333333 
1 1 1 0.3592434331210578 1:1 2:0.83736 3:1 4:-1 5:1 6:-0.890625 7:0.512776 8:-0.870504 9:0.78 10:-0.953488 11:-0.8 12:0.158887 13:0.333333 14:-0.333333 15:-0.333333 16:0.333333 
1 1 1 0 1:-1 2:-1 3:-0.333333 4:-1 5:1 6:-0.882812 7:0.512776 8:-0.870504 9:0.78 10:-0.953488 11:-0.8 12:0.158887 13:0.333333 14:-1 15:-0.333333 16:-0.333333 
1 1 0 0 1:-0.333333 2:-1 3:0.333333 4:-1 5:-1 6:-0.875 7:0.375251 8:-0.870504 9:0.6 10:-0.953488 11:-0.818182 12:0.158887 13:-0.333333 14:-1 15:-1 16:-1 
1 1 0 0 1:-1 2:-1 3:-0.333333 4:-1 5:-1 6:-0.867188 7:0.375251 8:-0.870504 9:0.6 10:-0.953488 11:-0.818182 12:0.158887 13:-1 14:-1 15:-1 16:-1 
1 1 0 0 1:1 2:-0.10956 3:-1 4:-1 5:-1 6:-0.960938 7:0.23766 8:-0.956835 9:1 10:-1 11:-1 12:0.23766 13:0.333333 14:-1 15:-1 16:-0.333333 
1 1 1 0 1:1 2:-0.35038 3:1 4:-1 5:1 6:-0.953125 7:0.09065 8:-0.942446 9:1 10:-1 11:-1 12:0.13344 13:0.333333 14:-1 15:-1 16:-0.333333 
1 1 1 1 1:1 2:0.87552 3:1 4:1 5:1 6:-0.945312 7:0.247624 8:-0.928058 9:1 10:-1 11:-1 12:0.138527 13:1 14:-1 15:-0.333333 16:-0.333333 
1 1 1 1 1:-1 2:-1 3:-0.333333 4:-1 5:1 6:-0.9375 7:0.247624 8:-0.928058 9:1 10:-1 11:-1 12:0.138527 13:0.333333 14:-1 15:-0.333333 16:-1 
1 1 1 1 1:1 2:0.7156 3:-1 4:-1 5:-1 6:-0.929688 7:0.32562 8:-0.913669 9:1 10:-1 11:-1 12:0.41358 13:0.333333 14:-1 15:-0.333333 16:-0.333333 
1 0 0 0 1:1 2:0.8647 3:1 4:-1 5:1 6:-0.921875 7:0.402631 8:-0.899281 9:1 10:-1 11:-1 12:0.818607 13:0.333333 14:-1 15:-1 16:-0.333333 
1 0 0 0 1:-1 2:-1 3:-0.333333 4:-1 5:1 6:-0.914062 7:0.402631 8:-0.899281 9:1 10:-1 11:-1 12:0.818607 13:0.333333 14:-1 15:-1 16:-0.333333 
1 0 0 0 1:1 2:0.87652 3:-1 4:-1 5:-1 6:-0.90625 7:0.461868 8:-0.884892 9:1 10:-1 11:-1 12:0.81894 13:0.333333 14:-1 15:-1 16:-0.333333 
1 0 0 0 1:1 2:0.8793 3:1 4:-1 5:1 6:-0.898438 7:0.508249 8:-0.870504 9:1 10:-1 11:-1 12:0.873507 13:0.333333 14:-1 15:-1 16:-0.333333 
1 0 0 0 1:-1 2:-1 3:-0.333333 4:-1 5:1 6:-0.890625 7:0.508249 8:-0.870504 9:1 10:-1 11:-1 12:0.873507 13:0.333333 14:-1 15:-1 16:-0.333333 
1 0 0 0 1:-0.333333 2:-1 3:0.333333 4:-1 5:-1 6:-0.882812 7:0.357424 8:-0.870504 9:0.78 10:-1 11:-1 12:0.25194 13:-0.333333 14:-1 15:-1 16:-1 
1 0 0 0 1:-1 2:-1 3:-0.333333 4:-1 5:-1 6:-0.875 7:0.357424 8:-0.870504 9:0.78 10:-1 11:-1 12:0.25194 13:-1 14:-1 15:-1 16:-1 
1 1 1 0 1:-1 2:-1 3:-0.333333 4:-1 5:-1 6:-0.84375 7:0.424092 8:-0.841727 9:0.816667 10:-1 11:-1 12:0.17162 13:-0.333333 14:-1 15:-0.333333 16:-0.333333 
1 0 0 0 1:-0.333333 2:-1 3:-1 4:-1 5:-1 6:-0.835938 7:0.314546 8:-0.841727 9:0.661538 10:-1 11:-1 12:0.17162 13:-1 14:-1 15:-1 16:-0.333333 
1 0 0 0 1:0.333333 2:-1 3:-1 4:-1 5:-1 6:-0.984375 7:-1 8:-1 9:1 10:-0.953488 11:1 12:-1 13:-1 14:-0.333333 15:-1 16:-0.333333 
1 0 0 0 1:1 2:-0.5301 3:-1 4:-1 5:-1 6:-0.984375 7:-0.5301 8:-0.985612 9:1 10:-1 11:-1 12:-0.5301 13:-0.333333 14:-1 15:-1 16:-0.333333 
1 0 0 0 1:1 2:0.88192 3:1 4:-1 5:1 6:-0.976562 7:0.17591 8:-0.971223 9:1 10:-1 11:-1 12:0.17591 13:0.333333 14:-1 15:-1 16:-0.333333 
1 0 0 0 1:1 2:0.73318 3:-1 4:-1 5:-1 6:-0.960938 7:0.361667 8:-0.956835 9:1 10:-1 11:-1 12:0.361667 13:0.333333 14:-1 15:-1 16:-0.333333 
1 0 0 0 1:1 2:0.77166 3:-1 4:-1 5:-1 6:-0.9375 7:0.548984 8:-0.928058 9:1 10:-1 11:-1 12:0.7977 13:0.333333 14:-1 15:-1 16:-0.333333 
1 1 1 0 1:1 2:0.25688 3:-1 4:-1 5:-1 6:-0.71875 7:0.246192 8:-0.741007 9:0.6 10:-0.953488 11:-0.909091 12:0.32286 13:-0.333333 14:-1 15:-1 16:-0.333333 
1 1 1 0 1:-1 2:-1 3:-0.333333 4:-1 5:-1 6:-0.710938 7:0.246192 8:-0.741007 9:0.6 10:-0.953488 11:-0.909091 12:0.32286 13:-0.333333 14:-1 15:-1 16:-0.333333 
1 1 1 0 1:-1 2:-1 3:-0.333333 4:-1 5:-1 6:-0.703125 7:0.246192 8:-0.741007 9:0.6 10:-0.953488 11:-0.909091 12:0.32286 13:-0.333333 14:-1 15:-1 16:-0.333333 
1 1 1 1 1:-0.333333 2:-1 3:-1 4:-1 5:-1 6:-0.695312 7:0.19201 8:-0.741007 9:0.521739 10:-0.953488 11:-0.913043 12:-0.175113 13:-1 14:-1 15:-1 16:-0.333333 
1 0 0 0 1:1 2:0.86014 3:1 4:-1 5:1 6:-0.90625 7:0.589369 8:-0.870504 9:1 10:-1 11:-1 12:0.730467 13:0.333333 14:-1 15:-1 16:-0.333333 
1 0 0 0 1:-1 2:-1 3:-0.333333 4:-1 5:1 6:-0.898438 7:0.589369 8:-0.870504 9:1 10:-1 11:-1 12:0.730467 13:0.333333 14:-1 15:-1 16:-0.333333 
1 0 0 0 1:1 2:0.85606 3:-1 4:-1 5:-1 6:-0.890625 7:0.616038 8:-0.856115 9:1 10:-1 11:-1 12:0.734867 13:0.333333 14:-1 15:-1 16:-0.333333 
1 0 0 0 1:1 2:0.87128 3:1 4:-1 5:1 6:-0.882812 7:0.639242 8:-0.841727 9:1 10:-1 11:-1 12:0.862493 13:0.333333 14:-1 15:-1 16:-0.333333 
1 0 0 0 1:-1 2:-1 3:-0.333333 4:-1 5:1 6:-0.875 7:0.639242 8:-0.841727 9:1 10:-1 11:-1 12:0.862493 13:0.333333 14:-1 15:-1 16:-0.333333 
1 0 0 0 1:-0.333333 2:-1 3:0.333333 4:-1 5:-1 6:-0.867188 7:0.502638 8:-0.841727 9:0.816667 10:-1 11:-1 12:0.242447 13:-0.333333 14:-1 15:-1 16:-1 
1 0 0 0 1:-0.333333 2:-1 3:-1 4:-1 5:-1 6:-0.851562 7:0.387051 8:-0.841727 9:0.661538 10:-1 11:-1 12:-0.37624 13:-1 14:-1 15:-1 16:-0.333333 
1 1 1 1 1:-0.333333 2:-1 3:1 4:-1 5:1 6:-0.976562 7:-0.49887 8:-0.985612 9:-0.1 10:-1 11:-1 12:-0.49887 13:-0.333333 14:-1 15:-1 16:-0.333333 
1 1 0 0 1:1 2:0.87682 3:1 4:-1 5:1 6:-0.96875 7:-0.0403067 8:-0.971223 9:0.266667 10:-1 11:-1 12:-0.0403067 13:0.333333 14:-1 15:-1 16:-0.333333 
1 1 0 0 1:-1 2:-1 3:-0.333333 4:-1 5:1 6:-0.960938 7:-0.0403067 8:-0.971223 9:0.266667 10:-1 11:-1 12:-0.0403067 13:-0.333333 14:-1 15:-1 16:-1 
1 1 0 0 1:1 2:0.71228 3:-1 4:-1 5:-1 6:-0.953125 7:0.14784 8:-0.956835 9:0.45 10:-1 11:-1 12:0.196367 13:0.333333 14:-1 15:-1 16:-0.333333 
1 0 0 0 1:1 2:0.88532 3:1 4:-1 5:1 6:-0.945312 7:0.295336 8:-0.942446 9:0.56 10:-1 11:-1 12:0.824807 13:0.333333 14:-1 15:-1 16:-0.333333 
1 0 0 0 1:-1 2:-1 3:-0.333333 4:-1 5:1 6:-0.9375 7:0.295336 8:-0.942446 9:0.56 10:-1 11:-1 12:0.824807 13:0.333333 14:-1 15:-1 16:-0.333333 
1 0 0 0 1:1 2:0.73706 3:-1 4:-1 5:-1 6:-0.929688 7:0.368957 8:-0.928058 9:0.633333 10:-1 11:-1 12:0.77822 13:0.333333 14:-1 15:-1 16:-0.333333 
1 0 0 0 1:1 2:0.88818 3:1 4:-1 5:1 6:-0.921875 7:0.443131 8:-0.913669 9:0.685714 10:-1 11:-1 12:0.836853 13:0.333333 14:-1 15:-1 16:-0.333333 
1 0 0 0 1:-1 2:-1 3:-0.333333 4:-1 5:1 6:-0.914062 7:0.443131 8:-0.913669 9:0.685714 10:-1 11:-1 12:0.836853 13:0.333333 14:-1 15:-1 16:-0.333333 
1 0 0 0 1:1 2:0.78986 3:-1 4:-1 5:-1 6:-0.90625 7:0.486473 8:-0.899281 9:0.725 10:-1 11:-1 12:0.805033 13:0.333333 14:-1 15:-1 16:-0.333333 
1 0 0 0 1:1 2:0.8808 3:1 4:-1 5:1 6:-0.898438 7:0.530287 8:-0.884892 9:0.755556 10:-1 11:-1 12:0.852947 13:0.333333 14:-1 15:-1 16:-0.333333 
1 0 0 0 1:-1 2:-1 3:-0.333333 4:-1 5:1 6:-0.890625 7:0.530287 8:-0.884892 9:0.755556 10:-1 11:-1 12:0.852947 13:0.333333 14:-1 15:-1 16:-0.333333 
1 0 0 0 1:-0.333333 2:-1 3:0.333333 4:-1 5:-1 6:-0.882812 7:0.377258 8:-0.884892 9:0.56 10:-1 11:-1 12:0.223553 13:-0.333333 14:-1 15:-1 16:-1 
1 0 0 0 1:-1 2:-1 3:-0.333333 4:-1 5:-1 6:-0.875 7:0.377258 8:-0.884892 9:0.56 10:-1 11:-1 12:0.223553 13:-1 14:-1 15:-1 16:-1 
1 0 0 0 1:1 2:0.63668 3:-1 4:-1 5:-1 6:-0.867188 7:0.400842 8:-0.870504 9:0.6 10:-1 11:-1 12:0.172493 13:-0.333333 14:-1 15:-1 16:-0.333333 
1 0 0 0 1:-1 2:-1 3:-0.333333 4:-1 5:-1 6:-0.859375 7:0.400842 8:-0.870504 9:0.6 10:-1 11:-1 12:0.172493 13:-0.333333 14:-1 15:-1 16:-0.333333 
1 0 0 0 1:-1 2:-1 3:-0.333333 4:-1 5:-1 6:-0.851562 7:0.400842 8:-0.870504 9:0.6 10:-1 11:-1 12:0.172493 13:-0.333333 14:-1 15:-1 16:-0.333333 
1 1 0 0 1:-0.333333 2:-1 3:-1 4:-1 5:-1 6:-0.84375 7:0.284105 8:-0.870504 9:0.45 10:-1 11:-1 12:-0.45444 13:-1 14:-1 15:-1 16:-0.333333 
1 1 1 1 1:-0.333333 2:-1 3:-1 4:-1 5:-1 6:-0.96875 7:-0.62875 8:-0.985612 9:-0.1 10:-1 11:-1 12:-0.62875 13:-0.333333 14:-1 15:-1 16:0.333333 
1 1 0 0 1:1 2:0.05162 3:-1 4:-1 5:-1 6:-0.960938 7:-0.40196 8:-0.971223 9:0.266667 10:-1 11:-1 12:-0.40196 13:-0.333333 14:-1 15:-1 16:0.333333 
1 1 0 0 1:1 2:0.8854 3:1 4:-1 5:1 6:-0.953125 7:-0.08012 8:-0.956835 9:0.45 10:-1 11:-1 12:-0.0209933 13:0.333333 14:-1 15:-1 16:0.333333 
1 1 0 0 1:-1 2:-1 3:-0.333333 4:-1 5:1 6:-0.945312 7:-0.08012 8:-0.956835 9:0.45 10:-1 11:-1 12:-0.0209933 13:0.333333 14:-1 15:-1 16:-0.333333 
1 1 1 0 1:1 2:0.7387 3:-1 4:-1 5:-1 6:-0.9375 7:0.083644 8:-0.942446 9:0.56 10:-1 11:-1 12:0.558573 13:0.333333 14:-1 15:-1 16:-0.333333 
1 1 1 0 1:1 2:-0.06952 3:1 4:-1 5:1 6:-0.929688 7:0.0581167 8:-0.928058 9:0.633333 10:-1 11:-1 12:0.518193 13:0.333333 14:-1 15:-1 16:-0.333333 
1 1 1 1 1:1 2:0.88498 3:1 4:1 5:1 6:-0.921875 7:0.17624 8:-0.913669 9:0.685714 10:-1 11:-1 12:0.518053 13:1 14:-1 15:-0.333333 16:-0.333333 
1 1 1 1 1:-1 2:-1 3:-0.333333 4:-1 5:1 6:-0.914062 7:0.17624 8:-0.913669 9:0.685714 10:-1 11:-1 12:0.518053 13:0.333333 14:-1 15:-0.333333 16:-1 
1 1 1 1 1:0.333333 2:-1 3:-1 4:-1 5:-1 6:-0.90625 7:0.02921 8:-0.913669 9:0.45 10:-0.953488 11:-0.75 12:-0.0615133 13:-0.333333 14:-0.333333 15:-0.333333 16:-0.333333 
1 0 0 0 1:1 2:0.8736 3:1 4:-1 5:1 6:-0.976562 7:0.25238 8:-0.971223 9:1 10:-1 11:-1 12:0.25238 13:0.333333 14:-1 15:-1 16:-0.333333 
1 0 1 0 1:1 2:0.35498 3:-1 4:-1 5:-1 6:-0.773438 7:0.309889 8:-0.726619 9:0.790476 10:-1 11:-1 12:0.0735733 13:-0.333333 14:-1 15:-1 16:-0.333333 
1 0 0 0 1:0.333333 2:-1 3:-1 4:-1 5:-1 6:-0.984375 7:-1 8:-1 9:1 10:-0.953488 11:1 12:-1 13:-1 14:-0.333333 15:-1 16:-0.333333 
1 0 0 0 1:1 2:0.52896 3:-1 4:-1 5:-1 6:-0.960938 7:0.47076 8:-0.956835 9:1 10:-1 11:-1 12:0.47076 13:0.333333 14:-1 15:-1 16:-0.333333 
1 0 0 0 1:1 2:0.72186 3:-1 4:-1 5:-1 6:-0.9375 7:0.604052 8:-0.928058 9:1 10:-1 11:-1 12:0.712313 13:0.333333 14:-1 15:-1 16:-0.333333 
1 1 0 0 1:-1 2:-1 3:-0.333333 4:-1 5:-1 6:-0.875 7:0.334388 8:-0.884892 9:0.56 10:-0.953488 11:-0.8 12:0.197647 13:-1 14:-1 15:-1 16:-1 
1 1 1 1 1:-1 2:-1 3:-0.333333 4:-1 5:-1 6:-0.84375 7:0.231462 8:-0.870504 9:0.45 10:-0.906977 11:-0.666667 12:-0.522113 13:-0.333333 14:-1 15:-0.333333 16:-0.333333 
1 1 0 1 1:-0.333333 2:-1 3:-1 4:-1 5:-1 6:-0.835938 7:0.136734 8:-0.870504 9:0.323077 10:-0.906977 11:-0.692308 12:-0.522113 13:-1 14:-1 15:-1 16:-0.333333 
1 1 1 1 1:1 2:0.84398 3:1 4:-1 5:1 6:-0.945312 7:-0.023676 8:-0.942446 9:0.56 10:-0.953488 11:-0.6 12:0.344 13:0.333333 14:-1 15:-0.333333 16:-1 
1 1 1 0 1:-1 2:-1 3:-0.333333 4:-1 5:1 6:-0.9375 7:-0.023676 8:-0.942446 9:0.56 10:-0.953488 11:-0.6 12:0.344 13:-0.333333 14:-1 15:-1 16:-1 
1 1 1 0 1:1 2:0.40298 3:-1 4:-1 5:-1 6:-0.929688 7:0.0474333 8:-0.928058 9:0.633333 10:-0.953488 11:-0.666667 12:0.69222 13:0.333333 14:-1 15:-1 16:-0.333333 
1 1 1 0 1:1 2:0.72728 3:1 4:-1 5:1 6:-0.921875 7:0.144554 8:-0.913669 9:0.685714 10:-0.953488 11:-0.714286 12:0.65808 13:0.333333 14:-1 15:-1 16:-0.333333 
1 1 1 0 1:-1 2:-1 3:-0.333333 4:-1 5:1 6:-0.914062 7:0.144554 8:-0.913669 9:0.685714 10:-0.953488 11:-0.714286 12:0.65808 13:0.333333 14:-1 15:-1 16:-0.333333 
1 1 1 0 1:1 2:0.75518 3:-1 4:-1 5:-1 6:-0.90625 7:0.220883 8:-0.899281 9:0.725 10:-0.953488 11:-0.75 12:0.62848 13:0.333333 14:-1 15:-1 16:-0.333333 
1 1 0 0 1:1 2:0.86526 3:1 4:-1 5:1 6:-0.898438 7:0.29248 8:-0.884892 9:0.755556 10:-0.953488 11:-0.777778 12:0.782573 13:0.333333 14:-1 15:-1 16:-0.333333 
1 1 0 0 1:-1 2:-1 3:-0.333333 4:-1 5:1 6:-0.890625 7:0.29248 8:-0.884892 9:0.755556 10:-0.953488 11:-0.777778 12:0.782573 13:0.333333 14:-1 15:-1 16:-0.333333 
1 1 0 0 1:-0.333333 2:-1 3:0.333333 4:-1 5:-1 6:-0.882812 7:0.163232 8:-0.884892 9:0.56 10:-0.953488 11:-0.8 12:0.206813 13:-0.333333 14:-1 15:-1 16:-1 
1 1 0 0 1:-1 2:-1 3:-0.333333 4:-1 5:-1 6:-0.875 7:0.163232 8:-0.884892 9:0.56 10:-0.953488 11:-0.8 12:0.206813 13:-1 14:-1 15:-1 16:-1 
1 1 1 1 1:-1 2:-1 3:-0.333333 4:-1 5:-1 6:-0.84375 7:0.112292 8:-0.870504 9:0.45 10:-0.906977 11:-0.666667 12:-0.428273 13:-0.333333 14:-1 15:-0.333333 16:-0.333333 
1 1 1 1 1:-0.333333 2:-1 3:-1 4:-1 5:-1 6:-0.835938 7:0.0267308 8:-0.870504 9:0.323077 10:-0.906977 11:-0.692308 12:-0.428273 13:-1 14:-1 15:-1 16:-0.333333 
1 0 0 0 1:1 2:0.87824 3:1 4:-1 5:1 6:-0.976562 7:-0.00305 8:-0.971223 9:1 10:-1 11:-1 12:-0.00305 13:0.333333 14:-1 15:-1 16:-0.333333 
1 0 0 0 1:-1 2:-1 3:-0.333333 4:-1 5:1 6:-0.96875 7:-0.00305 8:-0.971223 9:1 10:-1 11:-1 12:-0.00305 13:0.333333 14:-1 15:-1 16:-0.333333 
1 0 0 0 1:1 2:0.87646 3:1 4:-1 5:1 6:-0.960938 7:0.29012 8:-0.956835 9:1 10:-1 11:-1 12:0.29012 13:0.333333 14:-1 15:-1 16:-1 
1 1 1 1 1:1 2:0.84896 3:1 4:-1 5:1 6:-0.929688 7:0.50229 8:-0.913669 9:1 10:-1 11:-1 12:0.71446 13:1 14:-1 15:-0.333333 16:0.333333 
1 1 0.8141923136886202 0 1:-1 2:-1 3:-0.333333 4:-1 5:1 6:-0.921875 7:0.50229 8:-0.913669 9:1 10:-1 11:-1 12:0.71446 13:0.333333 14:-1 15:-0.333333 16:-0.333333 
1 0 0 0 1:-0.333333 2:-1 3:0.333333 4:-1 5:-1 6:-0.914062 7:0.287677 8:-0.913669 9:0.685714 10:-1 11:-1 12:0.22426 13:-0.333333 14:-1 15:-1 16:-1 
0.1146761360207202 0 0 0 1:-1 2:-1 3:-0.333333 4:-1 5:-1 6:-0.90625 7:0.287677 8:-0.913669 9:0.685714 10:-1 11:-1 12:0.22426 13:-1 14:-1 15:-1 16:-1 
1 1 1 1 1:1 2:0.46332 3:-1 4:1 5:-1 6:-0.890625 7:0.347718 8:-0.884892 9:0.755556 10:-1 11:-1 12:0.0385733 13:0.333333 14:-1 15:-0.333333 16:0.333333 
1 1 1 1 1:-1 2:-1 3:-0.333333 4:-1 5:-1 6:-0.882812 7:0.347718 8:-0.884892 9:0.755556 10:-1 11:-1 12:0.0385733 13:0.333333 14:-1 15:-0.333333 16:0.333333 
1 1 1 0 1:-1 2:-1 3:-0.333333 4:-1 5:-1 6:-0.875 7:0.347718 8:-0.884892 9:0.755556 10:-1 11:-1 12:0.0385733 13:-0.333333 14:-1 15:-0.333333 16:-0.333333 
1 0 0 0 1:1 2:0.44918 3:-1 4:-1 5:-1 6:-0.867188 7:0.357864 8:-0.870504 9:0.78 10:-1 11:-1 12:0.521633 13:-0.333333 14:-1 15:-1 16:-0.333333 
1 0 0 0 1:-1 2:-1 3:-0.333333 4:-1 5:-1 6:-0.859375 7:0.357864 8:-0.870504 9:0.78 10:-1 11:-1 12:0.521633 13:-0.333333 14:-1 15:-1 16:-0.333333 
1 0 0 0 1:-1 2:-1 3:-0.333333 4:-1 5:-1 6:-0.851562 7:0.357864 8:-0.870504 9:0.78 10:-1 11:-1 12:0.521633 13:-0.333333 14:-1 15:-1 16:-0.333333 
1 0 0 0 1:1 2:0.56232 3:-1 4:-1 5:-1 6:-0.960938 7:0.479527 8:-0.956835 9:1 10:-1 11:-1 12:0.479527 13:0.333333 14:-1 15:-1 16:-0.333333 
1 0 0 0 1:1 2:0.72778 3:-1 4:-1 5:-1 6:-0.9375 7:0.610604 8:-0.928058 9:1 10:-1 11:-1 12:0.725587 13:0.333333 14:-1 15:-1 16:-0.333333 
1 0 0 0 1:1 2:0.79042 3:1 4:-1 5:1 6:-0.90625 7:0.702957 8:-0.884892 9:1 10:-1 11:-1 12:0.85688 13:0.333333 14:-1 15:-1 16:-0.333333 
1 1 1 0 1:1 2:-0.36968 3:1 4:-1 5:1 6:-0.976562 7:-0.17746 8:-0.971223 9:1 10:-1 11:-1 12:-0.17746 13:0.333333 14:-1 15:-1 16:-0.333333 
1 1 1 1 1:1 2:0.88486 3:1 4:1 5:1 6:-0.96875 7:0.176647 8:-0.956835 9:1 10:-1 11:-1 12:0.176647 13:1 14:-1 15:-0.333333 16:-0.333333 
1 1 1 0 1:-1 2:-1 3:-0.333333 4:-1 5:1 6:-0.960938 7:0.176647 8:-0.956835 9:1 10:-1 11:-1 12:0.176647 13:0.333333 14:-1 15:-0.333333 16:-1 
1 1 1 0 1:1 2:0.88586 3:1 4:-1 5:1 6:-0.953125 7:0.35395 8:-0.942446 9:1 10:-1 11:-1 12:0.467013 13:0.333333 14:-1 15:-0.333333 16:-1 
1 1 1 0 1:0.333333 2:-1 3:-1 4:-1 5:-1 6:-0.9375 7:0.08316 8:-0.942446 9:0.56 10:-0.953488 11:-0.6 12:0.256907 13:-0.333333 14:-0.333333 15:-1 16:-0.333333 
1 1 1 0 1:1 2:0.84878 3:-1 4:-1 5:-1 6:-0.90625 7:0.315065 8:-0.899281 9:0.725 10:-0.953488 11:-0.75 12:0.701573 13:0.333333 14:-1 15:-1 16:-0.333333 
1 1 0 0 1:1 2:0.85916 3:1 4:-1 5:1 6:-0.898438 7:0.37552 8:-0.884892 9:0.755556 10:-0.953488 11:-0.777778 12:0.84954 13:0.333333 14:-1 15:-1 16:-0.333333 
1 1 0 0 1:-1 2:-1 3:-0.333333 4:-1 5:1 6:-0.890625 7:0.37552 8:-0.884892 9:0.755556 10:-0.953488 11:-0.777778 12:0.84954 13:0.333333 14:-1 15:-1 16:-0.333333 
1 1 0 0 1:-0.333333 2:-1 3:0.333333 4:-1 5:-1 6:-0.882812 7:0.237968 8:-0.884892 9:0.56 10:-0.953488 11:-0.8 12:0.23598 13:-0.333333 14:-1 15:-1 16:-1 
1 1 0 0 1:-1 2:-1 3:-0.333333 4:-1 5:-1 6:-0.875 7:0.237968 8:-0.884892 9:0.56 10:-0.953488 11:-0.8 12:0.23598 13:-1 14:-1 15:-1 16:-1 
1 0 0 0 1:1 2:0.33772 3:-1 4:-1 5:-1 6:-0.867188 7:0.247036 8:-0.870504 9:0.6 10:-0.953488 11:-0.818182 12:0.0656267 13:-0.333333 14:-1 15:-1 16:-0.333333 
1 1 0 1 1:-0.333333 2:-1 3:-0.333333 4:-1 5:-1 6:-0.859375 7:0.143117 8:-0.870504 9:0.45 10:-0.953488 11:-0.833333 12:-0.554093 13:-0.333333 14:-1 15:-1 16:-0.333333 
1 1 0 1 1:-0.333333 2:-1 3:-1 4:-1 5:-1 6:-0.96875 7:-0.47197 8:-0.985612 9:-0.1 10:-1 11:-1 12:-0.47197 13:-0.333333 14:-1 15:-1 16:0.333333 
1 0 0 0 1:1 2:0.48348 3:-1 4:-1 5:-1 6:-0.960938 7:0.55078 8:-0.956835 9:1 10:-1 11:-1 12:0.55078 13:0.333333 14:-1 15:-1 16:-0.333333 
0.1834569548400098 0 0 0 1:-0.333333 2:-1 3:-1 4:-1 5:-1 6:-0.851562 7:0.448737 8:-0.841727 9:0.661538 10:-1 11:-1 12:-0.38022 13:-1 14:-1 15:-1 16:-0.333333 
1 0 0 0 1:-1 2:-1 3:-0.333333 4:-1 5:-1 6:-0.976562 7:-0.27146 8:-0.985612 9:1 10:-1 11:-1 12:-0.27146 13:-0.333333 14:-1 15:-1 16:-0.333333 
1 1 1 1 1:-0.333333 2:-1 3:-1 4:-1 5:-1 6:-0.96875 7:-0.63573 8:-0.985612 9:-0.1 10:-1 11:-1 12:-0.63573 13:-0.333333 14:-1 15:-1 16:0.333333 
1 1 1 1 1:1 2:-0.49382 3:-1 4:-1 5:-1 6:-0.960938 7:-0.588427 8:-0.971223 9:0.266667 10:-1 11:-1 12:-0.588427 13:-0.333333 14:-1 15:-1 16:0.333333 
1 1 1 0 1:1 2:0.79114 3:1 4:-1 5:1 6:-0.953125 7:-0.243535 8:-0.956835 9:0.45 10:-1 11:-1 12:-0.234227 13:0.333333 14:-1 15:-1 16:0.333333 
1 1 1 0 1:-1 2:-1 3:-0.333333 4:-1 5:1 6:-0.945312 7:-0.243535 8:-0.956835 9:0.45 10:-1 11:-1 12:-0.234227 13:0.333333 14:-1 15:-1 16:-0.333333 
1 1 0 0 1:1 2:0.21138 3:1 4:-1 5:1 6:-0.976562 7:0.27191 8:-0.971223 9:1 10:-1 11:-1 12:0.27191 13:0.333333 14:-1 15:-1 16:-0.333333 
1 1 0 0 1:1 2:0.88798 3:1 4:-1 5:1 6:-0.953125 7:0.57896 8:-0.942446 9:1 10:-1 11:-1 12:0.661133 13:0.333333 14:-1 15:-0.333333 16:-1 
1 0 0 0 1:1 2:0.74384 3:-1 4:-1 5:-1 6:-0.9375 7:0.611936 8:-0.928058 9:1 10:-1 11:-1 12:0.83862 13:0.333333 14:-1 15:-1 16:-0.333333 
1 0 0 0 1:1 2:0.7867 3:1 4:-1 5:1 6:-0.929688 7:0.641063 8:-0.913669 9:1 10:-1 11:-1 12:0.806173 13:0.333333 14:-1 15:-1 16:-0.333333 
1 0 0 0 1:1 2:0.78806 3:1 4:-1 5:1 6:-0.90625 7:0.689747 8:-0.884892 9:1 10:-1 11:-1 12:0.819433 13:0.333333 14:-1 15:-1 16:-0.333333 
1 0 0 0 1:-0.333333 2:-1 3:-1 4:-1 5:-1 6:-0.851562 7:0.375122 8:-0.870504 9:0.6 10:-1 11:-1 12:-0.46388 13:-1 14:-1 15:-1 16:-0.333333 
0.4893749949815853 0 0 0 1:1 2:-0.73052 3:-1 4:-1 5:-1 6:-0.984375 7:-0.73052 8:-0.985612 9:1 10:-1 11:-1 12:-0.73052 13:-0.333333 14:-1 15:-1 16:-0.333333 
1 0 0 0 1:0.333333 2:-1 3:-1 4:-1 5:-1 6:-0.984375 7:-1 8:-1 9:1 10:-0.953488 11:1 12:-1 13:-1 14:-0.333333 15:-1 16:-0.333333 
1 1 1 1 1:1 2:0.77842 3:1 4:-1 5:1 6:-0.96875 7:-0.364473 8:-0.971223 9:0.266667 10:-0.953488 11:-0.333333 12:-0.364473 13:0.333333 14:-0.333333 15:-0.333333 16:0.333333 
1 1 1 1 1:-1 2:-1 3:-0.333333 4:-1 5:1 6:-0.960938 7:-0.364473 8:-0.971223 9:0.266667 10:-0.953488 11:-0.333333 12:-0.364473 13:0.333333 14:-1 15:-0.333333 16:-0.333333 
1 1 1 1 1:1 2:0.44624 3:-1 4:-1 5:-1 6:-0.953125 7:-0.161795 8:-0.956835 9:0.45 10:-0.953488 11:-0.5 12:0.117607 13:0.333333 14:-1 15:-1 16:-0.333333 
1 1 1 0 1:1 2:0.77832 3:1 4:-1 5:1 6:-0.945312 7:0.026228 8:-0.942446 9:0.56 10:-0.953488 11:-0.6 12:0.66766 13:0.333333 14:-1 15:-1 16:-0.333333 
1 1 1 0 1:-1 2:-1 3:-0.333333 4:-1 5:1 6:-0.9375 7:0.026228 8:-0.942446 9:0.56 10:-0.953488 11:-0.6 12:0.66766 13:0.333333 14:-1 15:-1 16:-0.333333 
1 1 1 0 1:1 2:0.40924 3:-1 4:-1 5:-1 6:-0.929688 7:0.0900633 8:-0.928058 9:0.633333 10:-0.953488 11:-0.666667 12:0.5446 13:0.333333 14:-1 15:-1 16:-0.333333 
1 1 1 1 1:1 2:-0.33732 3:-1 4:1 5:-1 6:-0.976562 7:-0.0801 8:-0.971223 9:1 10:-1 11:-1 12:-0.0801 13:0.333333 14:-1 15:-0.333333 16:0.333333 
1 1 1 1 1:1 2:0.77244 3:1 4:-1 5:1 6:-0.96875 7:0.20408 8:-0.956835 9:1 10:-1 11:-1 12:0.20408 13:1 14:-1 15:-0.333333 16:0.333333 
1 1 1 0 1:-1 2:-1 3:-0.333333 4:-1 5:1 6:-0.960938 7:0.20408 8:-0.956835 9:1 10:-1 11:-1 12:0.20408 13:0.333333 14:-1 15:-0.333333 16:-0.333333 
0.4974666028847892 0 0 0 1:-1 2:-1 3:-0.333333 4:-1 5:-1 6:-0.976562 7:-0.26798 8:-0.985612 9:1 10:-1 11:-1 12:-0.26798 13:-0.333333 14:-1 15:-1 16:-0.333333 
1 1 1 1 1:-0.333333 2:-1 3:-1 4:-1 5:-1 6:-0.96875 7:-0.63399 8:-0.985612 9:-0.1 10:-1 11:-1 12:-0.63399 13:-0.333333 14:-1 15:-1 16:0.333333 
1 1 1 0 1:1 2:0.00166 3:-1 4:-1 5:-1 6:-0.960938 7:-0.422107 8:-0.971223 9:0.266667 10:-1 11:-1 12:-0.422107 13:-0.333333 14:-1 15:-1 16:0.333333 
1 1 0 0 1:1 2:0.87558 3:1 4:-1 5:1 6:-0.953125 7:-0.097685 8:-0.956835 9:0.45 10:-1 11:-1 12:-0.04092 13:0.333333 14:-1 15:-1 16:0.333333 
1 1 1 0 1:-1 2:-1 3:-0.333333 4:-1 5:1 6:-0.945312 7:-0.097685 8:-0.956835 9:0.45 10:-1 11:-1 12:-0.04092 13:0.333333 14:-1 15:-1 16:-0.333333 
1 1 1 0 1:1 2:0.72832 3:-1 4:-1 5:-1 6:-0.9375 7:0.067516 8:-0.942446 9:0.56 10:-1 11:-1 12:0.535187 13:0.333333 14:-1 15:-1 16:-0.333333 
1 1 0 0 1:1 2:0.87868 3:1 4:-1 5:1 6:-0.929688 7:0.20271 8:-0.928058 9:0.633333 10:-1 11:-1 12:0.827527 13:0.333333 14:-1 15:-1 16:-0.333333 
1 0.5372305596915454 0 0 1:-1 2:-1 3:-0.333333 4:-1 5:1 6:-0.921875 7:0.20271 8:-0.928058 9:0.633333 10:-1 11:-1 12:0.827527 13:0.333333 14:-1 15:-1 16:-0.333333 
1 1 0 0 1:1 2:0.74082 3:-1 4:-1 5:-1 6:-0.914062 7:0.279583 8:-0.913669 9:0.685714 10:-1 11:-1 12:0.782607 13:0.333333 14:-1 15:-1 16:-0.333333 
1 0 0 0 1:1 2:0.87964 3:1 4:-1 5:1 6:-0.90625 7:0.35459 8:-0.899281 9:0.725 10:-1 11:-1 12:0.833047 13:0.333333 14:-1 15:-1 16:-0.333333 
1 0 0 0 1:-1 2:-1 3:-0.333333 4:-1 5:1 6:-0.898438 7:0.35459 8:-0.899281 9:0.725 10:-1 11:-1 12:0.833047 13:0.333333 14:-1 15:-1 16:-0.333333 
1 1 1 0 1:0.333333 2:-1 3:-1 4:-1 5:-1 6:-0.890625 7:0.20408 8:-0.899281 9:0.511111 10:-0.953488 11:-0.777778 12:0.20682 13:-0.333333 14:-0.333333 15:-1 16:-0.333333 
1 1 1 1 1:1 2:0.85718 3:-1 4:1 5:-1 6:-0.882812 7:0.26939 8:-0.884892 9:0.56 10:-0.953488 11:-0.8 12:0.245607 13:-0.333333 14:-0.333333 15:-0.333333 16:0.333333 
1 1 1 1 1:1 2:0.8513 3:1 4:-1 5:1 6:-0.875 7:0.322291 8:-0.870504 9:0.6 10:-0.953488 11:-0.818182 12:0.23616 13:0.333333 14:-0.333333 15:-0.333333 16:0.333333 
1 1 1 1 1:-1 2:-1 3:-0.333333 4:-1 5:1 6:-0.867188 7:0.322291 8:-0.870504 9:0.6 10:-0.953488 11:-0.818182 12:0.23616 13:0.333333 14:-1 15:-0.333333 16:-0.333333 
1 1 0 0 1:-0.333333 2:-1 3:0.333333 4:-1 5:-1 6:-0.859375 7:0.2121 8:-0.870504 9:0.45 10:-0.953488 11:-0.833333 12:0.23616 13:-0.333333 14:-1 15:-1 16:-1 
1 1 0 0 1:-1 2:-1 3:-0.333333 4:-1 5:-1 6:-0.851562 7:0.2121 8:-0.870504 9:0.45 10:-0.953488 11:-0.833333 12:0.23616 13:-1 14:-1 15:-1 16:-1 
1 0 0 0 1:1 2:0.67912 3:-1 4:-1 5:-1 6:-0.84375 7:0.248025 8:-0.856115 9:0.492308 10:-0.953488 11:-0.846154 12:0.176807 13:-0.333333 14:-1 15:-1 16:-0.333333 
1 1 1 1 1:1 2:0.16546 3:-1 4:1 5:-1 6:-0.835938 7:0.242127 8:-0.841727 9:0.528571 10:-0.953488 11:-0.857143 12:-0.0518067 13:0.333333 14:-1 15:-0.333333 16:0.333333 
1 1 1 1 1:-1 2:-1 3:-0.333333 4:-1 5:-1 6:-0.828125 7:0.242127 8:-0.841727 9:0.528571 10:-0.953488 11:-0.857143 12:-0.0518067 13:0.333333 14:-1 15:-0.333333 16:0.333333 
1 1 1 1 1:-1 2:-1 3:-0.333333 4:-1 5:-1 6:-0.820312 7:0.242127 8:-0.841727 9:0.528571 10:-0.953488 11:-0.857143 12:-0.0518067 13:-0.333333 14:-1 15:-0.333333 16:-0.333333 
1 1 0 0 1:-0.333333 2:-1 3:-1 4:-1 5:-1 6:-0.8125 7:0.159319 8:-0.841727 9:0.413333 10:-0.953488 11:-0.866667 12:-0.0518067 13:-1 14:-1 15:-1 16:-0.333333 
1 0.4321170531305461 0 0 1:0.333333 2:-1 3:-1 4:-1 5:-1 6:-0.984375 7:-1 8:-1 9:1 10:-0.953488 11:1 12:-1 13:-1 14:-0.333333 15:-1 16:-0.333333 
1 1 1 1 1:1 2:-0.29542 3:-1 4:1 5:-1 6:-0.976562 7:-0.64771 8:-0.985612 9:-0.1 10:-0.953488 12:-0.64771 13:-0.333333 14:-0.333333 15:-0.333333 16:0.333333 
1 1 1 1 1:1 2:0.53634 3:1 4:-1 5:1 6:-0.953125 7:-0.10897 8:-0.956835 9:0.45 10:-0.953488 11:-0.5 12:0.18804 13:0.333333 14:-1 15:-1 16:-0.333333 
1 1 1 0 1:-1 2:-1 3:-0.333333 4:-1 5:1 6:-0.945312 7:-0.10897 8:-0.956835 9:0.45 10:-0.953488 11:-0.5 12:0.18804 13:0.333333 14:-1 15:-1 16:-0.333333 
1 1 1 0 1:1 2:0.46334 3:-1 4:-1 5:-1 6:-0.9375 7:0.005492 8:-0.942446 9:0.56 10:-0.953488 11:-0.6 12:0.44096 13:0.333333 14:-1 15:-1 16:-0.333333 
1 0 0 0 1:-0.333333 2:-1 3:-1 4:-1 5:-1 6:-0.96875 8:-0.985612 9:-0.1 10:-1 11:-1 13:-0.333333 14:-1 15:-1 16:0.333333 
1 1 1 1 1:0.333333 2:-1 3:-1 4:-1 5:-1 6:-0.960938 7:-0.333333 8:-0.985612 9:-0.466667 10:-0.953488 11:-0.333333 12:-0.333333 13:-1 14:-0.333333 15:-1 16:0.333333 
1 1 1 1 1:1 2:-0.87986 3:-1 4:1 5:-1 6:-0.953125 7:-0.469965 8:-0.971223 9:-0.1 10:-0.953488 11:-0.5 12:-0.959953 13:-0.333333 14:-0.333333 15:-0.333333 16:1 
1 1 1 1 1:1 2:0.82336 3:1 4:-1 5:1 6:-0.945312 7:-0.2113 8:-0.956835 9:0.12 10:-0.953488 11:-0.6 12:-0.352167 13:0.333333 14:-0.333333 15:-0.333333 16:0.333333 
1 1 1 1 1:-1 2:-1 3:-0.333333 4:-1 5:1 6:-0.9375 7:-0.2113 8:-0.956835 9:0.12 10:-0.953488 11:-0.6 12:-0.352167 13:0.333333 14:-1 15:-0.333333 16:-0.333333 
1 1 1 1 1:1 2:0.25924 3:1 4:-1 5:1 6:-0.929688 7:-0.132877 8:-0.942446 9:0.266667 10:-0.953488 11:-0.666667 12:0.06758 13:0.333333 14:-1 15:-1 16:-1 
1 1 1 0 1:-1 2:-1 3:-0.333333 4:-1 5:1 6:-0.921875 7:-0.132877 8:-0.942446 9:0.266667 10:-0.953488 11:-0.666667 12:0.06758 13:-0.333333 14:-1 15:-1 16:-1 
1 1 1 1 1:1 2:0.84364 3:1 4:-1 5:1 6:-0.914062 7:0.00662571 8:-0.928058 9:0.371429 10:-0.953488 11:-0.714286 12:0.64208 13:0.333333 14:-1 15:-1 16:-1 
1 1 0.03134958401648455 0 1:-1 2:-1 3:-0.333333 4:-1 5:1 6:-0.90625 7:0.00662571 8:-0.928058 9:0.371429 10:-0.953488 11:-0.714286 12:0.64208 13:-0.333333 14:-1 15:-1 16:-1 
1 1 1 0 1:1 2:0.65984 3:-1 4:-1 5:-1 6:-0.898438 7:0.0882775 8:-0.913669 9:0.45 10:-0.953488 11:-0.75 12:0.587573 13:0.333333 14:-1 15:-1 16:-0.333333 
1 1 1 0 1:1 2:0.85326 3:1 4:-1 5:1 6:-0.890625 7:0.173276 8:-0.899281 9:0.511111 10:-0.953488 11:-0.777778 12:0.78558 13:0.333333 14:-1 15:-1 16:-0.333333 
1 1 1 0 1:-1 2:-1 3:-0.333333 4:-1 5:1 6:-0.882812 7:0.173276 8:-0.899281 9:0.511111 10:-0.953488 11:-0.777778 12:0.78558 13:0.333333 14:-1 15:-1 16:-0.333333 
1 1 1 1 1:-0.333333 2:-1 3:0.333333 4:-1 5:-1 6:-0.875 7:0.055948 8:-0.899281 9:0.34 10:-0.953488 11:-0.8 12:0.171033 13:-0.333333 14:-1 15:-1 16:-1 
1 1 0 0 1:-1 2:-1 3:-0.333333 4:-1 5:-1 6:-0.867188 7:0.055948 8:-0.899281 9:0.34 10:-0.953488 11:-0.8 12:0.171033 13:-1 14:-1 15:-1 16:-1 
1 0 0 0 1:1 2:0.74464 3:-1 4:-1 5:-1 6:-0.859375 7:0.118556 8:-0.884892 9:0.4 10:-0.953488 11:-0.818182 12:0.1993 13:-0.333333 14:-1 15:-1 16:-0.333333 
1 1 0 0 1:-1 2:-1 3:-0.333333 4:-1 5:-1 6:-0.851562 7:0.118556 8:-0.884892 9:0.4 10:-0.953488 11:-0.818182 12:0.1993 13:-0.333333 14:-1 15:-1 16:-0.333333 
1 1 1 1 1:1 2:-0.31094 3:-1 4:-1 5:-1 6:-0.84375 7:0.082765 8:-0.870504 9:0.45 10:-0.953488 11:-0.833333 12:-0.188767 13:0.333333 14:-1 15:-1 16:0.333333 
1 1 1 1 1:1 2:-0.78102 3:1 4:-1 5:1 6:-0.835938 7:0.01632 8:-0.856115 9:0.492308 10:-0.953488 11:-0.846154 12:-0.115773 13:0.333333 14:-1 15:-1 16:-0.333333 
1 1 1 1 1:1 2:0.86862 3:1 4:-1 5:1 6:-0.773438 7:0.266647 8:-0.769784 9:0.652632 10:-0.953488 11:-0.894737 12:0.751207 13:1 14:-1 15:-0.333333 16:0.333333 
1 1 1 1 1:-1 2:-1 3:-0.333333 4:-1 5:1 6:-0.765625 7:0.266647 8:-0.769784 9:0.652632 10:-0.953488 11:-0.894737 12:0.751207 13:0.333333 14:-1 15:-0.333333 16:-0.333333 
1 1 1 1 1:-0.333333 2:-1 3:0.333333 4:-1 5:-1 6:-0.757812 7:0.203315 8:-0.769784 9:0.56 10:-0.953488 11:-0.9 12:0.210073 13:-0.333333 14:-1 15:-1 16:-1 
1 1 1 0 1:-1 2:-1 3:-0.333333 4:-1 5:-1 6:-0.75 7:0.203315 8:-0.769784 9:0.56 10:-0.953488 11:-0.9 12:0.210073 13:-1 14:-1 15:-1 16:-1 
1 1 1 0 1:1 2:0.5359 3:-1 4:-1 5:-1 6:-0.742188 7:0.219152 8:-0.755396 9:0.580952 10:-0.953488 11:-0.904762 12:0.13484 13:-0.333333 14:-1 15:-1 16:-0.333333 
1 1 1 1 1:1 2:0.83864 3:1 4:-1 5:1 6:-0.679688 7:0.172202 8:-0.697842 9:0.511111 10:-0.860465 11:-0.777778 12:0.22498 13:0.333333 14:-1 15:-0.333333 16:-1 
1 1 1 1 1:-1 2:-1 3:-0.333333 4:-1 5:1 6:-0.671875 7:0.172202 8:-0.697842 9:0.511111 10:-0.860465 11:-0.777778 12:0.22498 13:-0.333333 14:-1 15:-1 16:-1 
1 1 1 1 1:1 2:0.63632 3:-1 4:-1 5:-1 6:-0.664062 7:0.188778 8:-0.683453 9:0.528571 10:-0.860465 11:-0.785714 12:0.77042 13:0.333333 14:-1 15:-1 16:-0.333333 
1 1 1 1 1:1 2:-0.31424 3:1 4:-1 5:1 6:-0.65625 7:0.171432 8:-0.669065 9:0.544828 10:-0.860465 11:-0.793103 12:0.386907 13:0.333333 14:-1 15:-1 16:-0.333333 
1 1 1 1 1:-1 2:-1 3:-0.333333 4:-1 5:-1 6:-0.609375 7:0.133036 8:-0.640288 9:0.466667 10:-0.813953 11:-0.757576 12:-0.432527 13:-1 14:-1 15:-1 16:-1 
1 1 1 1 1:1 2:0.70586 3:1 4:-1 5:1 6:-0.5625 7:0.172536 8:-0.582734 9:0.524324 10:-0.813953 11:-0.783784 12:0.427247 13:0.333333 14:-1 15:-1 16:-1 
1 1 1 1 1:-1 2:-1 3:-0.333333 4:-1 5:1 6:-0.554688 7:0.172536 8:-0.582734 9:0.524324 10:-0.813953 11:-0.783784 12:0.427247 13:-0.333333 14:-1 15:-1 16:-1 
1 1 1 1 1:0.333333 2:-1 3:1 4:-1 5:1 6:-0.976562 7:-0.34105 8:-0.985612 9:-0.1 10:-0.953488 12:-0.34105 13:-0.333333 14:-0.333333 15:-1 16:-0.333333 
1 0 0 0 1:-0.333333 2:-1 3:-1 4:-1 5:-1 6:-0.953125 7:0.0601867 8:-0.971223 9:0.266667 10:-1 11:-1 12:0.0601867 13:-1 14:-1 15:-1 16:-0.333333 
1 1 1 1 1:1 2:-0.43662 3:1 4:-1 5:1 6:-0.976562 7:-0.40704 8:-0.971223 9:1 10:-1 11:-1 12:-0.40704 13:0.333333 14:-1 15:-1 16:-0.333333 
1 1 1 1 1:1 2:0.88156 3:1 4:1 5:1 6:-0.96875 7:0.0224933 8:-0.956835 9:1 10:-1 11:-1 12:0.0224933 13:1 14:-1 15:-0.333333 16:-0.333333 
1 1 1 1 1:-1 2:-1 3:-0.333333 4:-1 5:1 6:-0.960938 7:0.0224933 8:-0.956835 9:1 10:-1 11:-1 12:0.0224933 13:0.333333 14:-1 15:-0.333333 16:-1 
1 1 1 0 1:1 2:0.89028 3:1 4:-1 5:1 6:-0.929688 7:0.454507 8:-0.913669 9:1 10:-1 11:-1 12:0.88652 13:0.333333 14:-1 15:-0.333333 16:-1 
1 0 0 0 1:1 2:0.88786 3:-1 4:-1 5:-1 6:-0.914062 7:0.516414 8:-0.899281 9:1 10:-1 11:-1 12:0.8871 13:0.333333 14:-1 15:-1 16:-0.333333 
1 0 0 0 1:1 2:0.80398 3:1 4:-1 5:1 6:-0.90625 7:0.55236 8:-0.884892 9:1 10:-1 11:-1 12:0.860707 13:0.333333 14:-1 15:-1 16:-0.333333 
1 0 0 0 1:-1 2:-1 3:-0.333333 4:-1 5:1 6:-0.898438 7:0.55236 8:-0.884892 9:1 10:-1 11:-1 12:0.860707 13:0.333333 14:-1 15:-1 16:-0.333333 
1 0 0 0 1:-0.333333 2:-1 3:0.333333 4:-1 5:-1 6:-0.890625 7:0.379876 8:-0.884892 9:0.755556 10:-1 11:-1 12:0.230613 13:-0.333333 14:-1 15:-1 16:-1 
1 1 1 1 1:1 2:0.55076 3:-1 4:1 5:-1 6:-0.867188 7:0.430135 8:-0.856115 9:0.8 10:-1 11:-1 12:0.1042 13:0.333333 14:-1 15:-0.333333 16:0.333333 
1 1 1 1 1:-1 2:-1 3:-0.333333 4:-1 5:-1 6:-0.859375 7:0.430135 8:-0.856115 9:0.8 10:-1 11:-1 12:0.1042 13:0.333333 14:-1 15:-0.333333 16:0.333333 
1 1 1 0 1:-1 2:-1 3:-0.333333 4:-1 5:-1 6:-0.851562 7:0.430135 8:-0.856115 9:0.8 10:-1 11:-1 12:0.1042 13:-0.333333 14:-1 15:-0.333333 16:-0.333333 
1 0 0 0 1:-0.333333 2:-1 3:-1 4:-1 5:-1 6:-0.84375 7:0.310957 8:-0.856115 9:0.633333 10:-1 11:-1 12:0.1042 13:-1 14:-1 15:-1 16:-0.333333 
1 0 0 0 1:-0.333333 2:-1 3:-1 4:-1 5:-1 6:-0.96875 8:-0.985612 9:-0.1 10:-1 11:-1 13:-0.333333 14:-1 15:-1 16:0.333333 
1 1 0 0.8200329040738776 1:-0.333333 2:-1 3:-1 4:-1 5:-1 6:-0.960938 7:-0.333333 8:-0.985612 9:-0.466667 10:-1 11:-1 12:-0.333333 13:-1 14:-1 15:-1 16:0.333333 
0 0 1 0.7053038055005801 1:1 2:-0.9465 3:-1 4:-1 5:-1 6:-0.984375 7:-0.9465 8:-0.985612 9:1 10:-1 11:-1 12:-0.9465 13:-0.333333 14:-1 15:-1 16:-0.333333 
1 0.7650590456439744 0 0 1:1 2:0.44404 3:1 4:-1 5:1 6:-0.976562 7:0.19007 8:-0.971223 9:1 10:-1 11:-1 12:0.19007 13:0.333333 14:-1 15:-1 16:-0.333333 
1 1 0 0 1:-0.333333 2:-1 3:-1 4:-1 5:-1 6:-0.953125 7:-0.20662 8:-0.971223 9:0.266667 10:-1 11:-1 12:-0.20662 13:-1 14:-1 15:-1 16:-0.333333 
1 0 0 0 1:1 2:0.8791 3:1 4:-1 5:1 6:-0.976562 7:-0.0033 8:-0.971223 9:1 10:-1 11:-1 12:-0.0033 13:0.333333 14:-1 15:-1 16:-0.333333 
1 0 0 0 1:-1 2:-1 3:-0.333333 4:-1 5:1 6:-0.96875 7:-0.0033 8:-0.971223 9:1 10:-1 11:-1 12:-0.0033 13:0.333333 14:-1 15:-1 16:-0.333333 
1 1 1 0 1:1 2:0.18828 3:-1 4:-1 5:-1 6:-0.960938 7:0.06056 8:-0.956835 9:1 10:-1 11:-1 12:0.06056 13:0.333333 14:-1 15:-1 16:-0.333333 
1 0 0 0 1:1 2:0.87922 3:1 4:-1 5:1 6:-0.953125 7:0.265225 8:-0.942446 9:1 10:-1 11:-1 12:0.648867 13:0.333333 14:-1 15:-1 16:-0.333333 
1 0 0 0 1:-1 2:-1 3:-0.333333 4:-1 5:1 6:-0.945312 7:0.265225 8:-0.942446 9:1 10:-1 11:-1 12:0.648867 13:0.333333 14:-1 15:-1 16:-0.333333 
1 0 0 0 1:1 2:0.88566 3:1 4:-1 5:1 6:-0.890625 7:0.351678 8:-0.870504 9:1 10:-1 11:-1 12:0.837447 13:0.333333 14:-1 15:-1 16:-0.333333 
1 1 0 0 1:-1 2:-1 3:-0.333333 4:-1 5:1 6:-0.882812 7:0.351678 8:-0.870504 9:1 10:-1 11:-1 12:0.837447 13:0.333333 14:-1 15:-1 16:-0.333333 
1 1 0 0 1:1 2:0.7497 3:-1 4:-1 5:-1 6:-0.875 7:0.39148 8:-0.856115 9:1 10:-1 11:-1 12:0.79166 13:0.333333 14:-1 15:-1 16:-0.333333 
1 0 0 0 1:1 2:0.88716 3:1 4:-1 5:1 6:-0.867188 7:0.436542 8:-0.841727 9:1 10:-1 11:-1 12:0.84084 13:0.333333 14:-1 15:-1 16:-0.333333 
1 1 0 0 1:-1 2:-1 3:-0.333333 4:-1 5:1 6:-0.859375 7:0.436542 8:-0.841727 9:1 10:-1 11:-1 12:0.84084 13:0.333333 14:-1 15:-1 16:-0.333333 
1 1 0 0 1:1 2:0.80982 3:-1 4:-1 5:-1 6:-0.851562 7:0.467648 8:-0.827338 9:1 10:-1 11:-1 12:0.81556 13:0.333333 14:-1 15:-1 16:-0.333333 
1 1 0 0 1:1 2:0.88844 3:1 4:-1 5:1 6:-0.84375 7:0.500017 8:-0.81295 9:1 10:-1 11:-1 12:0.861807 13:0.333333 14:-1 15:-1 16:-0.333333 
1 1 0 0 1:-1 2:-1 3:-0.333333 4:-1 5:1 6:-0.835938 7:0.500017 8:-0.81295 9:1 10:-1 11:-1 12:0.861807 13:0.333333 14:-1 15:-1 16:-0.333333 
1 1 0 0 1:-0.333333 2:-1 3:0.333333 4:-1 5:-1 6:-0.828125 7:0.392873 8:-0.81295 9:0.842857 10:-1 11:-1 12:0.232753 13:-0.333333 14:-1 15:-1 16:-1 
1 0 0 0 1:-1 2:-1 3:-0.333333 4:-1 5:-1 6:-0.820312 7:0.392873 8:-0.81295 9:0.842857 10:-1 11:-1 12:0.232753 13:-1 14:-1 15:-1 16:-1 
1 0 0 0 1:1 2:-0.48272 3:-1 4:-1 5:-1 6:-0.984375 7:-0.48272 8:-0.985612 9:1 10:-1 11:-1 12:-0.48272 13:-0.333333 14:-1 15:-1 16:-0.333333 
1 1 1 1 1:1 2:0.89098 3:1 4:-1 5:1 6:-0.921875 7:0.415091 8:-0.899281 9:1 10:-1 11:-1 12:0.71422 13:1 14:-1 15:-1 16:-0.333333 
1 0 0 0 1:-1 2:-1 3:-0.333333 4:-1 5:1 6:-0.914062 7:0.415091 8:-0.899281 9:1 10:-1 11:-1 12:0.71422 13:0.333333 14:-1 15:-1 16:-0.333333 
1 0.08614590601454322 0 0 1:-0.333333 2:-1 3:0.333333 4:-1 5:-1 6:-0.90625 7:0.238205 8:-0.899281 9:0.725 10:-1 11:-1 12:0.142487 13:-0.333333 14:-1 15:-1 16:-1 
1 0 0 0 1:-1 2:-1 3:-0.333333 4:-1 5:-1 6:-0.898438 7:0.238205 8:-0.899281 9:0.725 10:-1 11:-1 12:0.142487 13:-1 14:-1 15:-1 16:-1 
1 0 0 0 1:1 2:0.2155 3:-1 4:-1 5:-1 6:-0.890625 7:0.235682 8:-0.884892 9:0.755556 10:-1 11:-1 12:0.0354933 13:-0.333333 14:-1 15:-1 16:-0.333333 
1 0 0 0 1:-1 2:-1 3:-0.333333 4:-1 5:-1 6:-0.882812 7:0.235682 8:-0.884892 9:0.755556 10:-1 11:-1 12:0.0354933 13:-0.333333 14:-1 15:-1 16:-0.333333 
1 0 0 0 1:-1 2:-1 3:-0.333333 4:-1 5:-1 6:-0.875 7:0.235682 8:-0.884892 9:0.755556 10:-1 11:-1 12:0.0354933 13:-0.333333 14:-1 15:-1 16:-0.333333 
1 0 0 0 1:-1 2:-1 3:-0.333333 4:-1 5:-1 6:-0.859375 7:0.292014 8:-0.870504 9:0.78 10:-1 11:-1 12:0.00483333 13:-0.333333 14:-1 15:-1 16:-0.333333 
1 1 1 1 1:1 2:0.0145 3:-1 4:-1 5:-1 6:-0.851562 7:0.266785 8:-0.856115 9:0.8 10:-1 11:-1 12:0.343 13:0.333333 14:-1 15:-1 16:0.333333 
1 1 0 0 1:1 2:0.88926 3:1 4:-1 5:1 6:-0.84375 7:0.318658 8:-0.841727 9:0.816667 10:-1 11:-1 12:0.567587 13:0.333333 14:-1 15:-1 16:-0.333333 
1 1 0 0 1:-1 2:-1 3:-0.333333 4:-1 5:1 6:-0.835938 7:0.318658 8:-0.841727 9:0.816667 10:-1 11:-1 12:0.567587 13:0.333333 14:-1 15:-1 16:-0.333333 
1 1 0 0 1:1 2:0.8903 3:1 4:-1 5:1 6:-0.828125 7:0.362631 8:-0.827338 9:0.830769 10:-1 11:-1 12:0.59802 13:0.333333 14:-1 15:-1 16:-1 
1 1 0 0 1:-1 2:-1 3:-0.333333 4:-1 5:1 6:-0.820312 7:0.362631 8:-0.827338 9:0.830769 10:-1 11:-1 12:0.59802 13:-0.333333 14:-1 15:-1 16:-1 
1 1 0 0 1:0.333333 2:-1 3:-1 4:-1 5:-1 6:-0.984375 7:-1 8:-1 9:1 10:-0.953488 11:1 12:-1 13:-1 14:-0.333333 15:-1 16:-0.333333 
1 0.793926247558337 0 0 1:-0.333333 2:-1 3:-1 4:-1 5:-1 6:-0.96875 8:-0.985612 9:-0.1 10:-1 11:-1 13:-0.333333 14:-1 15:-1 16:0.333333 
1 1 0 0 1:1 2:0.65816 3:-1 4:-1 5:-1 6:-0.914062 7:0.375857 8:-0.884892 9:1 10:-1 11:-1 12:0.710987 13:0.333333 14:-1 15:-1 16:-0.333333 
1 1 0 0 1:1 2:0.4795 3:1 4:-1 5:1 6:-0.90625 7:0.387373 8:-0.870504 9:1 10:-1 11:-1 12:0.651773 13:0.333333 14:-1 15:-1 16:-0.333333 
1 1 0 0 1:-0.333333 2:-1 3:-1 4:-1 5:-1 6:-0.96875 8:-0.985612 9:-0.1 10:-1 11:-1 13:-0.333333 14:-1 15:-1 16:0.333333 
1 0 0 0 1:1 2:0.03164 3:-1 4:-1 5:-1 6:-0.960938 7:0.0105467 8:-0.971223 9:0.266667 10:-1 11:-1 12:0.0105467 13:-0.333333 14:-1 15:-1 16:0.333333 
1 0 0 0 1:1 2:0.88016 3:1 4:-1 5:1 6:-0.953125 7:0.22795 8:-0.956835 9:0.45 10:-1 11:-1 12:-0.0294 13:0.333333 14:-1 15:-1 16:0.333333 
1 0 0 0 1:-1 2:-1 3:-0.333333 4:-1 5:1 6:-0.945312 7:0.22795 8:-0.956835 9:0.45 10:-1 11:-1 12:-0.0294 13:0.333333 14:-1 15:-1 16:-0.333333 
1 0 0 0 1:1 2:0.79584 3:-1 4:-1 5:-1 6:-0.9375 7:0.341528 8:-0.942446 9:0.56 10:-1 11:-1 12:0.569213 13:0.333333 14:-1 15:-1 16:-0.333333 
1 1 0 0 1:0.333333 2:-1 3:-1 4:-1 5:-1 6:-0.984375 7:-1 8:-1 9:1 10:-0.953488 11:1 12:-1 13:-1 14:-0.333333 15:-1 16:-0.333333 
1 1 1 1 1:1 2:0.493 3:-1 4:-1 5:-1 6:-0.9375 7:-0.095868 8:-0.956835 9:0.12 10:-0.906977 11:-0.2 12:0.506887 13:0.333333 14:-1 15:-1 16:-0.333333 
1 1 1 1 1:1 2:0.77754 3:1 4:-1 5:1 6:-0.929688 7:0.0497 8:-0.942446 9:0.266667 10:-0.906977 11:-0.333333 12:0.6689 13:0.333333 14:-1 15:-1 16:-0.333333 
1 1 1 0 1:-1 2:-1 3:-0.333333 4:-1 5:1 6:-0.921875 7:0.0497 8:-0.942446 9:0.266667 10:-0.906977 11:-0.333333 12:0.6689 13:0.333333 14:-1 15:-1 16:-0.333333 
1 0 0 0 1:1 2:0.88048 3:1 4:-1 5:1 6:-0.921875 7:0.467209 8:-0.899281 9:1 10:-1 11:-1 12:0.87644 13:0.333333 14:-1 15:-1 16:-0.333333 
1 0 0 0 1:-1 2:-1 3:-0.333333 4:-1 5:1 6:-0.914062 7:0.467209 8:-0.899281 9:1 10:-1 11:-1 12:0.87644 13:0.333333 14:-1 15:-1 16:-0.333333 
1 0 0 0 1:-0.333333 2:-1 3:0.333333 4:-1 5:-1 6:-0.90625 7:0.283807 8:-0.899281 9:0.725 10:-1 11:-1 12:0.25098 13:-0.333333 14:-1 15:-1 16:-1 
1 0 0 0 1:-1 2:-1 3:-0.333333 4:-1 5:-1 6:-0.898438 7:0.283807 8:-0.899281 9:0.725 10:-1 11:-1 12:0.25098 13:-1 14:-1 15:-1 16:-1 
1 0 0 0 1:1 2:0.8899 3:1 4:-1 5:1 6:-0.90625 7:0.623364 8:-0.870504 9:1 10:-1 11:-1 12:0.843893 13:0.333333 14:-1 15:-1 16:-0.333333 
1 0 0 0 1:-1 2:-1 3:-0.333333 4:-1 5:1 6:-0.898438 7:0.623364 8:-0.870504 9:1 10:-1 11:-1 12:0.843893 13:0.333333 14:-1 15:-1 16:-0.333333 
1 0 0 0 1:1 2:0.76166 3:-1 4:-1 5:-1 6:-0.890625 7:0.637194 8:-0.856115 9:1 10:-1 11:-1 12:0.803633 13:0.333333 14:-1 15:-1 16:-0.333333 
1 0 0 0 1:1 2:0.79006 3:1 4:-1 5:1 6:-0.882812 7:0.651091 8:-0.841727 9:1 10:-1 11:-1 12:0.813873 13:0.333333 14:-1 15:-1 16:-0.333333 
1 0 0 0 1:-1 2:-1 3:-0.333333 4:-1 5:1 6:-0.875 7:0.651091 8:-0.841727 9:1 10:-1 11:-1 12:0.813873 13:0.333333 14:-1 15:-1 16:-0.333333 
1 0 0 0 1:-0.333333 2:-1 3:0.333333 4:-1 5:-1 6:-0.867188 7:0.5135 8:-0.841727 9:0.816667 10:-1 11:-1 12:0.183907 13:-0.333333 14:-1 15:-1 16:-1 
1 0 0 0 1:-0.333333 2:-1 3:-1 4:-1 5:-1 6:-0.828125 7:0.414273 8:-0.827338 9:0.685714 10:-1 11:-1 12:-0.45406 13:-1 14:-1 15:-1 16:-0.333333 
1 0 0 0 1:1 2:0.7734 3:1 4:-1 5:1 6:-0.976562 7:0.39158 8:-0.971223 9:1 10:-1 11:-1 12:0.39158 13:0.333333 14:-1 15:-1 16:-0.333333 
1 1 1 1 1:0.333333 2:-1 3:-1 4:-1 5:-1 6:-0.960938 7:-0.07228 8:-0.971223 9:0.266667 10:-0.953488 11:-0.333333 12:-0.07228 13:-0.333333 14:-0.333333 15:-1 16:-0.333333 
1 1 1 0 1:1 2:0.85704 3:-1 4:-1 5:-1 6:-0.890625 7:0.398908 8:-0.870504 9:0.78 10:-0.953488 11:-0.8 12:0.766767 13:0.333333 14:-1 15:-1 16:-0.333333 
1 1 1 1 1:0.333333 2:-1 3:1 4:-1 5:1 6:-0.882812 7:0.271735 8:-0.870504 9:0.6 10:-0.906977 11:-0.636364 12:0.200567 13:-0.333333 14:-0.333333 15:-1 16:-0.333333 
1 1 1 1 1:1 2:0.7017 3:1 4:1 5:1 6:-0.875 7:0.307565 8:-0.856115 9:0.633333 10:-0.906977 11:-0.666667 12:0.186247 13:0.333333 14:-0.333333 15:-0.333333 16:-0.333333 
1 1 1 1 1:-1 2:-1 3:-0.333333 4:-1 5:1 6:-0.867188 7:0.307565 8:-0.856115 9:0.633333 10:-0.906977 11:-0.666667 12:0.186247 13:-0.333333 14:-0.333333 15:-0.333333 16:-1 
1 1 1 1 1:-0.333333 2:-1 3:0.333333 4:-1 5:-1 6:-0.859375 7:0.206983 8:-0.856115 9:0.492308 10:-0.906977 11:-0.692308 12:-0.432767 13:-0.333333 14:-1 15:-0.333333 16:-1 
1 1 1 1 1:-1 2:-1 3:-0.333333 4:-1 5:-1 6:-0.851562 7:0.206983 8:-0.856115 9:0.492308 10:-0.906977 11:-0.692308 12:-0.432767 13:-1 14:-1 15:-1 16:-1 
1 1 1 1 1:1 2:0.8796 3:1 4:-1 5:1 6:-0.96875 7:-0.00629333 8:-0.956835 9:1 10:-1 11:-1 12:-0.00629333 13:1 14:-1 15:-1 16:-0.333333 
1 1 0.7800822394163521 0 1:-1 2:-1 3:-0.333333 4:-1 5:1 6:-0.960938 7:-0.00629333 8:-0.956835 9:1 10:-1 11:-1 12:-0.00629333 13:0.333333 14:-1 15:-1 16:-1 
1 1 0 0 1:0.333333 2:-1 3:-1 4:-1 5:-1 6:-0.984375 7:-1 8:-1 9:1 10:-0.953488 11:1 12:-1 13:-1 14:-0.333333 15:-1 16:-0.333333 
1 1 1 1 1:1 2:-0.31724 3:-1 4:1 5:-1 6:-0.976562 7:-0.65862 8:-0.985612 9:-0.1 10:-0.953488 12:-0.65862 13:-0.333333 14:-0.333333 15:-0.333333 16:0.333333 
1 1 0 0 1:-0.333333 2:-1 3:-1 4:-1 5:-1 6:-0.96875 8:-0.985612 9:-0.1 10:-1 11:-1 13:-0.333333 14:-1 15:-1 16:0.333333 
1 0 0 0 1:1 2:0.71596 3:-1 4:-1 5:-1 6:-0.960938 7:0.496147 8:-0.956835 9:1 10:-1 11:-1 12:0.496147 13:0.333333 14:-1 15:-1 16:-0.333333 
1 0 0 0 1:1 2:0.72662 3:-1 4:-1 5:-1 6:-0.9375 7:0.620236 8:-0.928058 9:1 10:-1 11:-1 12:0.776233 13:0.333333 14:-1 15:-1 16:-0.333333 
1 1 0.6580218097568393 0 1:0.333333 2:-1 3:1 4:-1 5:1 6:-0.90625 7:0.481583 8:-0.899281 9:0.725 10:-0.953488 11:-0.75 12:0.250493 13:-0.333333 14:-0.333333 15:-1 16:-0.333333 
1 1 0 0 1:-1 2:-1 3:-0.333333 4:-1 5:-1 6:-0.875 7:0.3689 8:-0.884892 9:0.56 10:-0.953488 11:-0.8 12:-0.387887 13:-1 14:-1 15:-1 16:-1 
1 1 0 0 1:-0.333333 2:-1 3:-1 4:-1 5:-1 6:-0.867188 7:0.244455 8:-0.884892 9:0.4 10:-0.953488 11:-0.818182 12:-0.387887 13:-1 14:-1 15:-1 16:-0.333333 
1 0 0 0 1:1 2:0.75306 3:1 4:-1 5:1 6:-0.976562 7:-0.03618 8:-0.971223 9:1 10:-1 11:-1 12:-0.03618 13:0.333333 14:-1 15:-1 16:-0.333333 
1 0 0 0 1:-1 2:-1 3:-0.333333 4:-1 5:1 6:-0.96875 7:-0.03618 8:-0.971223 9:1 10:-1 11:-1 12:-0.03618 13:0.333333 14:-1 15:-1 16:-0.333333 
1 1 1 1 1:1 2:0.7825 3:1 4:-1 5:1 6:-0.960938 7:0.3364 8:-0.942446 9:1 10:-1 11:-1 12:0.554193 13:1 14:-1 15:-1 16:-0.333333 
1 1 0 0 1:0.333333 2:-1 3:-1 4:-1 5:-1 6:-0.984375 7:-1 8:-1 9:1 10:-0.953488 11:1 12:-1 13:-1 14:-0.333333 15:-1 16:-0.333333 
1 1 1 1 1:1 2:-0.57058 3:-1 4:1 5:-1 6:-0.976562 7:-0.78529 8:-0.985612 9:-0.1 10:-0.953488 12:-0.78529 13:-0.333333 14:-0.333333 15:-0.333333 16:0.333333 
1 1 1 1 1:1 2:0.80716 3:1 4:-1 5:1 6:-0.96875 7:-0.254473 8:-0.971223 9:0.266667 10:-0.953488 11:-0.333333 12:-0.254473 13:0.333333 14:-0.333333 15:-0.333333 16:0.333333 
1 1 1 1 1:-1 2:-1 3:-0.333333 4:-1 5:1 6:-0.960938 7:-0.254473 8:-0.971223 9:0.266667 10:-0.953488 11:-0.333333 12:-0.254473 13:0.333333 14:-1 15:-0.333333 16:-0.333333 
1 1 1 1 1:1 2:0.8301 3:1 4:-1 5:1 6:-0.953125 7:0.01667 8:-0.956835 9:0.45 10:-0.953488 11:-0.5 12:0.35556 13:0.333333 14:-1 15:-1 16:-1 
1 1 0 0 1:1 2:0.84216 3:1 4:-1 5:1 6:-0.945312 7:0.181768 8:-0.942446 9:0.56 10:-0.953488 11:-0.6 12:0.826473 13:0.333333 14:-1 15:-1 16:-1 
1 1 1 0 1:-1 2:-1 3:-0.333333 4:-1 5:1 6:-0.9375 7:0.181768 8:-0.942446 9:0.56 10:-0.953488 11:-0.6 12:0.826473 13:0.333333 14:-1 15:-1 16:-1 
1 1 1 0.1211282099810413 1:1 2:0.71316 3:-1 4:-1 5:-1 6:-0.804688 7:0.293764 8:-0.798561 9:0.725 10:-0.953488 11:-0.875 12:0.82154 13:0.333333 14:-1 15:-1 16:-0.333333 
1 1 1 1 1:1 2:0.88026 3:1 4:-1 5:1 6:-0.796875 7:0.328264 8:-0.784173 9:0.741176 10:-0.953488 11:-0.882353 12:0.823 13:1 14:-1 15:-1 16:-0.333333 
1 1 1 0 1:-1 2:-1 3:-0.333333 4:-1 5:1 6:-0.789062 7:0.328264 8:-0.784173 9:0.741176 10:-0.953488 11:-0.882353 12:0.823 13:0.333333 14:-1 15:-1 16:-0.333333 
1 1 1 1 1:1 2:0.7115 3:-1 4:-1 5:-1 6:-0.78125 7:0.349554 8:-0.769784 9:0.755556 10:-0.953488 11:-0.888889 12:0.768307 13:0.333333 14:-1 15:-1 16:-0.333333 
1 1 1 0 1:1 2:0.88152 3:1 4:-1 5:1 6:-0.773438 7:0.377553 8:-0.755396 9:0.768421 10:-0.953488 11:-0.894737 12:0.824427 13:0.333333 14:-1 15:-1 16:-0.333333 
1 1 1 0 1:-1 2:-1 3:-0.333333 4:-1 5:1 6:-0.765625 7:0.377553 8:-0.755396 9:0.768421 10:-0.953488 11:-0.894737 12:0.824427 13:0.333333 14:-1 15:-1 16:-0.333333 
1 1 1 1 1:-0.333333 2:-1 3:0.333333 4:-1 5:-1 6:-0.757812 7:0.308675 8:-0.755396 9:0.67 10:-0.953488 11:-0.9 12:0.197673 13:-0.333333 14:-1 15:-1 16:-1 
1 1 1 0 1:-1 2:-1 3:-0.333333 4:-1 5:-1 6:-0.75 7:0.308675 8:-0.755396 9:0.67 10:-0.953488 11:-0.9 12:0.197673 13:-1 14:-1 15:-1 16:-1 
1 1 1 0.1116825301794042 1:-0.333333 2:-1 3:-1 4:-1 5:-1 6:-0.742188 7:0.246357 8:-0.755396 9:0.580952 10:-0.953488 11:-0.904762 12:-0.372827 13:-1 14:-1 15:-1 16:-0.333333 
1 1 1 1 1:1 2:0.38018 3:-1 4:-1 5:-1 6:-0.84375 7:0.584211 8:-0.827338 9:0.830769 10:-1 11:-1 12:0.0561133 13:0.333333 14:-1 15:-1 16:0.333333 
1 1 0 0 1:1 2:0.71222 3:1 4:-1 5:1 6:-0.835938 7:0.593354 8:-0.81295 9:0.842857 10:-1 11:-1 12:0.626853 13:0.333333 14:-1 15:-1 16:-0.333333 
1 0 0 0 1:-1 2:-1 3:-0.333333 4:-1 5:1 6:-0.828125 7:0.593354 8:-0.81295 9:0.842857 10:-1 11:-1 12:0.626853 13:0.333333 14:-1 15:-1 16:-0.333333 
1 1 0 0 1:1 2:0.72972 3:-1 4:-1 5:-1 6:-0.820312 7:0.602445 8:-0.798561 9:0.853333 10:-1 11:-1 12:0.607373 13:0.333333 14:-1 15:-1 16:-0.333333 
1 1 0 0 1:1 2:0.88826 3:1 4:-1 5:1 6:-0.8125 7:0.620309 8:-0.784173 9:0.8625 10:-1 11:-1 12:0.776733 13:0.333333 14:-1 15:-1 16:-0.333333 
1 0 0 0 1:-1 2:-1 3:-0.333333 4:-1 5:1 6:-0.804688 7:0.620309 8:-0.784173 9:0.8625 10:-1 11:-1 12:0.776733 13:0.333333 14:-1 15:-1 16:-0.333333 
1 1 0 0 1:1 2:0.7075 3:-1 4:-1 5:-1 6:-0.796875 7:0.625438 8:-0.769784 9:0.870588 10:-1 11:-1 12:0.77516 13:0.333333 14:-1 15:-1 16:-0.333333 
1 1 0 0 1:1 2:0.88316 3:1 4:-1 5:1 6:-0.789062 7:0.639756 8:-0.755396 9:0.877778 10:-1 11:-1 12:0.826307 13:0.333333 14:-1 15:-1 16:-0.333333 
1 1 0 0 1:-1 2:-1 3:-0.333333 4:-1 5:1 6:-0.78125 7:0.639756 8:-0.755396 9:0.877778 10:-1 11:-1 12:0.826307 13:0.333333 14:-1 15:-1 16:-0.333333 
1 1 1 0 1:1 2:0.77686 3:-1 4:-1 5:-1 6:-0.773438 7:0.646972 8:-0.741007 9:0.884211 10:-1 11:-1 12:0.789173 13:0.333333 14:-1 15:-1 16:-0.333333 
1 1 0 0 1:1 2:0.88504 3:1 4:-1 5:1 6:-0.765625 7:0.658875 8:-0.726619 9:0.89 10:-1 11:-1 12:0.848353 13:0.333333 14:-1 15:-1 16:-0.333333 
1 1 0 0 1:-1 2:-1 3:-0.333333 4:-1 5:1 6:-0.757812 7:0.658875 8:-0.726619 9:0.89 10:-1 11:-1 12:0.848353 13:0.333333 14:-1 15:-1 16:-0.333333 
1 1 0 0 1:-0.333333 2:-1 3:0.333333 4:-1 5:-1 6:-0.75 7:0.579881 8:-0.726619 9:0.790476 10:-1 11:-1 12:0.220633 13:-0.333333 14:-1 15:-1 16:-1 
1 0 0 0 1:-1 2:-1 3:-0.333333 4:-1 5:-1 6:-0.742188 7:0.579881 8:-0.726619 9:0.790476 10:-1 11:-1 12:0.220633 13:-1 14:-1 15:-1 16:-1 
1 1 0 0 1:-0.333333 2:-1 3:-1 4:-1 5:-1 6:-0.734375 7:0.508068 8:-0.726619 9:0.7 10:-1 11:-1 12:-0.371653 13:-1 14:-1 15:-1 16:-0.333333 
1 1 1 1 1:1 2:0.7956 3:1 4:-1 5:1 6:-0.953125 7:-0.0127 8:-0.942446 9:1 10:-1 11:-1 12:0.27848 13:0.333333 14:-1 15:-0.333333 16:-1 
1 1 0 0 1:-1 2:-1 3:-0.333333 4:-1 5:1 6:-0.945312 7:-0.0127 8:-0.942446 9:1 10:-1 11:-1 12:0.27848 13:-0.333333 14:-1 15:-1 16:-1 
1 1 0 0 1:1 2:0.87782 3:-1 4:-1 5:-1 6:-0.9375 7:0.165404 8:-0.928058 9:1 10:-1 11:-1 12:0.84918 13:0.333333 14:-1 15:-1 16:-0.333333 
1 0 0 0 1:1 2:0.78286 3:1 4:-1 5:1 6:-0.929688 7:0.268313 8:-0.913669 9:1 10:-1 11:-1 12:0.81876 13:0.333333 14:-1 15:-1 16:-0.333333 
1 0 0 0 1:-1 2:-1 3:-0.333333 4:-1 5:1 6:-0.921875 7:0.268313 8:-0.913669 9:1 10:-1 11:-1 12:0.81876 13:0.333333 14:-1 15:-1 16:-0.333333 
1 1 0 0 1:-0.333333 2:-1 3:0.333333 4:-1 5:-1 6:-0.914062 7:0.0871257 8:-0.913669 9:0.685714 10:-1 11:-1 12:0.220227 13:-0.333333 14:-1 15:-1 16:-1 
1 1 0 0 1:-1 2:-1 3:-0.333333 4:-1 5:-1 6:-0.90625 7:0.0871257 8:-0.913669 9:0.685714 10:-1 11:-1 12:0.220227 13:-1 14:-1 15:-1 16:-1 
1 1 0 0 1:-0.333333 2:-1 3:-1 4:-1 5:-1 6:-0.898438 7:-0.048765 8:-0.913669 9:0.45 10:-1 11:-1 12:-0.405713 13:-1 14:-1 15:-1 16:-0.333333 
1 1 0 0 1:0.333333 2:-1 3:-1 4:-1 5:-1 6:-0.984375 7:-1 8:-1 9:1 10:-0.953488 11:1 12:-1 13:-1 14:-0.333333 15:-1 16:-0.333333 
1 1 1 1 1:1 2:-0.64526 3:-1 4:1 5:-1 6:-0.976562 7:-0.82263 8:-0.985612 9:-0.1 10:-0.953488 12:-0.82263 13:-0.333333 14:-0.333333 15:-0.333333 16:0.333333 
1 1 1 1 1:1 2:0.60724 3:1 4:-1 5:1 6:-0.96875 7:-0.346007 8:-0.971223 9:0.266667 10:-0.953488 11:-0.333333 12:-0.346007 13:0.333333 14:-0.333333 15:-0.333333 16:0.333333 
1 1 1 1 1:-1 2:-1 3:-0.333333 4:-1 5:1 6:-0.960938 7:-0.346007 8:-0.971223 9:0.266667 10:-0.953488 11:-0.333333 12:-0.346007 13:0.333333 14:-1 15:-0.333333 16:-0.333333 
1 1 1 1 1:1 2:0.81514 3:1 4:-1 5:1 6:-0.953125 7:-0.05572 8:-0.956835 9:0.45 10:-0.953488 11:-0.5 12:0.25904 13:0.333333 14:-1 15:-1 16:-1 
1 1 1 0 1:-1 2:-1 3:-0.333333 4:-1 5:1 6:-0.945312 7:-0.05572 8:-0.956835 9:0.45 10:-0.953488 11:-0.5 12:0.25904 13:-0.333333 14:-1 15:-1 16:-1 
1 1 1 0 1:1 2:0.82898 3:1 4:-1 5:1 6:-0.9375 7:0.12122 8:-0.942446 9:0.56 10:-0.953488 11:-0.6 12:0.750453 13:0.333333 14:-1 15:-1 16:-1 
1 1 0 0 1:-1 2:-1 3:-0.333333 4:-1 5:1 6:-0.929688 7:0.12122 8:-0.942446 9:0.56 10:-0.953488 11:-0.6 12:0.750453 13:-0.333333 14:-1 15:-1 16:-1 
1 1 1 0 1:1 2:0.64634 3:-1 4:-1 5:-1 6:-0.921875 7:0.20874 8:-0.928058 9:0.633333 10:-0.953488 11:-0.666667 12:0.763487 13:0.333333 14:-1 15:-1 16:-0.333333 
1 1 0 0 1:1 2:0.70412 3:1 4:-1 5:1 6:-0.914062 7:0.279509 8:-0.913669 9:0.685714 10:-0.953488 11:-0.714286 12:0.72648 13:0.333333 14:-1 15:-1 16:-0.333333 
1 1 0 0 1:-1 2:-1 3:-0.333333 4:-1 5:1 6:-0.90625 7:0.279509 8:-0.913669 9:0.685714 10:-0.953488 11:-0.714286 12:0.72648 13:0.333333 14:-1 15:-1 16:-0.333333 
1 1 0.9425574565846964 0 1:-0.333333 2:-1 3:0.333333 4:-1 5:-1 6:-0.898438 7:0.11957 8:-0.913669 9:0.45 10:-0.953488 11:-0.75 12:0.11682 13:-0.333333 14:-1 15:-1 16:-1 
1 1 0 0 1:-1 2:-1 3:-0.333333 4:-1 5:-1 6:-0.890625 7:0.11957 8:-0.913669 9:0.45 10:-0.953488 11:-0.75 12:0.11682 13:-1 14:-1 15:-1 16:-1 
1 0 0 0 1:1 2:0.66102 3:-1 4:-1 5:-1 6:-0.882812 7:0.179731 8:-0.899281 9:0.511111 10:-0.953488 11:-0.777778 12:0.121713 13:-0.333333 14:-1 15:-1 16:-0.333333 
1 1 1 1 1:1 2:0.17726 3:-1 4:1 5:-1 6:-0.875 7:0.179484 8:-0.884892 9:0.56 10:-0.953488 11:-0.8 12:-0.0539067 13:0.333333 14:-1 15:-0.333333 16:0.333333 
1 1 1 1 1:1 2:0.12002 3:-1 4:1 5:-1 6:-0.867188 7:0.174078 8:-0.870504 9:0.6 10:-0.953488 11:-0.818182 12:0.319433 13:1 14:-1 15:0.333333 16:1 
1 1 1 1 1:-0.333333 2:-1 3:-0.333333 4:-1 5:-1 6:-0.859375 7:0.0762383 8:-0.870504 9:0.45 10:-0.953488 11:-0.833333 12:-0.23424 13:0.333333 14:-1 15:0.333333 16:0.333333 
1 1 0 0 1:0.333333 2:-1 3:-1 4:-1 5:-1 6:-0.984375 7:-1 8:-1 9:1 10:-0.953488 11:1 12:-1 13:-1 14:-0.333333 15:-1 16:-0.333333 
1 1 0 0 1:-0.333333 2:-1 3:-1 4:-1 5:-1 6:-0.96875 8:-0.985612 9:-0.1 10:-1 11:-1 13:-0.333333 14:-1 15:-1 16:0.333333 
1 0 0 0 1:1 2:0.52502 3:-1 4:-1 5:-1 6:-0.960938 7:0.457487 8:-0.956835 9:1 10:-1 11:-1 12:0.457487 13:0.333333 14:-1 15:-1 16:-0.333333 
1 1 0 0 1:-0.333333 2:-1 3:-1 4:-1 5:-1 6:-0.96875 8:-0.985612 9:-0.1 10:-1 11:-1 13:-0.333333 14:-1 15:-1 16:0.333333 
1 0 0 0 1:1 2:-0.64782 3:-1 4:-1 5:-1 6:-0.984375 7:-0.64782 8:-0.985612 9:1 10:-1 11:-1 12:-0.64782 13:-0.333333 14:-1 15:-1 16:-0.333333 
1 1 0 0 1:0.333333 2:-1 3:-1 4:-1 5:-1 6:-0.984375 7:-1 8:-1 9:1 10:-0.953488 11:1 12:-1 13:-1 14:-0.333333 15:-1 16:-0.333333 
1 0 0 0 1:1 2:0.67944 3:-1 4:-1 5:-1 6:-0.960938 7:0.517193 8:-0.956835 9:1 10:-1 11:-1 12:0.517193 13:0.333333 14:-1 15:-1 16:-0.333333 
1 0 0 0 1:1 2:0.42368 3:-1 4:-1 5:-1 6:-0.9375 7:0.572544 8:-0.928058 9:1 10:-1 11:-1 12:0.663527 13:0.333333 14:-1 15:-1 16:-0.333333 
1 1 1 1 1:1 2:0.88736 3:1 4:-1 5:1 6:-0.914062 7:0.58412 8:-0.884892 9:1 10:-1 11:-1 12:0.603413 13:1 14:-1 15:-1 16:-0.333333 
1 1 1 1 1:1 2:0.72836 3:1 4:-1 5:1 6:-0.882812 7:0.570567 8:-0.841727 9:1 10:-1 11:-1 12:0.534427 13:1 14:-1 15:-0.333333 16:0.333333 
1 1 1 0 1:-1 2:-1 3:-0.333333 4:-1 5:1 6:-0.875 7:0.570567 8:-0.841727 9:1 10:-1 11:-1 12:0.534427 13:0.333333 14:-1 15:-0.333333 16:-0.333333 
1 0 0 0 1:-0.333333 2:-1 3:0.333333 4:-1 5:-1 6:-0.867188 7:0.439687 8:-0.841727 9:0.816667 10:-1 11:-1 12:0.189913 13:-0.333333 14:-1 15:-1 16:-1 
1 0 0 0 1:1 2:0.12694 3:-1 4:-1 5:-1 6:-0.851562 7:0.415629 8:-0.827338 9:0.830769 10:-1 11:-1 12:-0.0482333 13:-0.333333 14:-1 15:-1 16:-0.333333 
1 0 0 0 1:-1 2:-1 3:-0.333333 4:-1 5:-1 6:-0.84375 7:0.415629 8:-0.827338 9:0.830769 10:-1 11:-1 12:-0.0482333 13:-0.333333 14:-1 15:-1 16:-0.333333 
1 0 0 0 1:-1 2:-1 3:-0.333333 4:-1 5:-1 6:-0.835938 7:0.415629 8:-0.827338 9:0.830769 10:-1 11:-1 12:-0.0482333 13:-0.333333 14:-1 15:-1 16:-0.333333 
0.7095774390639517 0 0 0 1:1 2:0.73842 3:-1 4:-1 5:-1 6:-0.828125 7:0.438686 8:-0.81295 9:0.842857 10:-1 11:-1 12:-0.04488 13:-0.333333 14:-1 15:-1 16:-0.333333 
1 0 0 0 1:-1 2:-1 3:-0.333333 4:-1 5:-1 6:-0.820312 7:0.438686 8:-0.81295 9:0.842857 10:-1 11:-1 12:-0.04488 13:-0.333333 14:-1 15:-1 16:-0.333333 
1 1 1 1 1:1 2:-0.71712 3:-1 4:-1 5:-1 6:-0.8125 7:0.361632 8:-0.798561 9:0.853333 10:-1 11:-1 12:0.0494133 13:0.333333 14:-1 15:-1 16:0.333333 
1 1 1 1 1:-1 2:-1 3:-0.333333 4:-1 5:-1 6:-0.625 7:0.27904 8:-0.625899 9:0.706667 10:-0.906977 11:-0.866667 12:0.20276 13:-0.333333 14:-1 15:-1 16:-0.333333 
1 1 1 1 1:1 2:0.75826 3:-1 4:-1 5:-1 6:-0.617188 7:0.294499 8:-0.611511 9:0.716129 10:-0.906977 11:-0.870968 12:0.16684 13:-0.333333 14:-1 15:-1 16:-0.333333 
1 1 1 1 1:-1 2:-1 3:-0.333333 4:-1 5:-1 6:-0.609375 7:0.294499 8:-0.611511 9:0.716129 10:-0.906977 11:-0.870968 12:0.16684 13:-0.333333 14:-1 15:-1 16:-0.333333 
1 1 1 1 1:-1 2:-1 3:-0.333333 4:-1 5:-1 6:-0.601562 7:0.294499 8:-0.611511 9:0.716129 10:-0.906977 11:-0.870968 12:0.16684 13:-0.333333 14:-1 15:-1 16:-0.333333 
1 1 1 0 1:1 2:0.74134 3:-1 4:-1 5:-1 6:-0.59375 7:0.308463 8:-0.597122 9:0.725 10:-0.906977 11:-0.875 12:0.747287 13:-0.333333 14:-1 15:-1 16:-0.333333 
1 1 1 1 1:-1 2:-1 3:-0.333333 4:-1 5:-1 6:-0.585938 7:0.308463 8:-0.597122 9:0.725 10:-0.906977 11:-0.875 12:0.747287 13:-0.333333 14:-1 15:-1 16:-0.333333 
1 1 1 1 1:0.333333 2:-1 3:-1 4:-1 5:-1 6:-0.578125 7:0.268812 8:-0.597122 9:0.666667 10:-0.860465 11:-0.818182 12:0.166533 13:-0.333333 14:-0.333333 15:-1 16:0.333333 
1 1 1 1 1:1 2:0.82792 3:1 4:-1 5:1 6:-0.539062 7:0.292237 8:-0.539568 9:0.702703 10:-0.860465 11:-0.837838 12:0.687307 13:0.333333 14:-1 15:-1 16:-0.333333 
1 1 1 1 1:-1 2:-1 3:-0.333333 4:-1 5:1 6:-0.53125 7:0.292237 8:-0.539568 9:0.702703 10:-0.860465 11:-0.837838 12:0.687307 13:0.333333 14:-1 15:-1 16:-0.333333 
1 1 1 1 1:1 2:-0.00932 3:-1 4:-1 5:-1 6:-0.523438 7:0.284301 8:-0.52518 9:0.710526 10:-0.860465 11:-0.842105 12:0.396633 13:0.333333 14:-1 15:-1 16:-0.333333 
1 1 1 1 1:1 2:0.8648 3:1 4:-1 5:1 6:-0.515625 7:0.299186 8:-0.510791 9:0.717949 10:-0.860465 11:-0.846154 12:0.561133 13:0.333333 14:-1 15:-1 16:-0.333333 
1 1 1 1 1:-1 2:-1 3:-0.333333 4:-1 5:1 6:-0.507812 7:0.299186 8:-0.510791 9:0.717949 10:-0.860465 11:-0.846154 12:0.561133 13:0.333333 14:-1 15:-1 16:-0.333333 
1 1 1 1 1:-1 2:-1 3:-0.333333 4:-1 5:-1 6:-0.445312 7:0.305831 8:-0.467626 9:0.693023 10:-0.860465 11:-0.860465 12:0.2068 13:-0.333333 14:-1 15:-1 16:-0.333333 
1 1 1 1 1:-1 2:-1 3:-0.333333 4:-1 5:-1 6:-0.421875 7:0.315166 8:-0.453237 9:0.7 10:-0.860465 11:-0.863636 12:0.156047 13:-0.333333 14:-1 15:-1 16:-0.333333 
1 1 1 1 1:1 2:0.27934 3:-1 4:-1 5:-1 6:-0.414062 7:0.31437 8:-0.438849 9:0.706667 10:-0.860465 11:-0.866667 12:0.582493 13:-0.333333 14:-1 15:-1 16:-0.333333 
1 1 1 1 1:1 2:0.37578 3:-1 4:1 5:-1 6:-0.40625 7:0.315705 8:-0.42446 9:0.713043 10:-0.860465 11:-0.869565 12:0.457227 13:0.333333 14:-1 15:-0.333333 16:0.333333 
1 1 1 1 1:-0.333333 2:-1 3:-1 4:1 5:-1 6:-0.398438 7:0.287711 8:-0.42446 9:0.67234 10:-0.860465 11:-0.87234 12:-0.11496 13:0.333333 14:-1 15:0.333333 16:1 
1 0 0 0 1:1 2:-0.62772 3:-1 4:-1 5:-1 6:-0.984375 7:-0.62772 8:-0.985612 9:1 10:-1 11:-1 12:-0.62772 13:-0.333333 14:-1 15:-1 16:-0.333333 
1 1 1 1 1:1 2:-0.39102 3:1 4:-1 5:1 6:-0.976562 7:-0.6233 8:-0.971223 9:1 10:-1 11:-1 12:-0.6233 13:0.333333 14:-1 15:-1 16:-0.333333 
1 1 1 1 1:1 2:-0.17566 3:1 4:1 5:1 6:-0.96875 7:-0.474087 8:-0.956835 9:1 10:-1 11:-1 12:-0.474087 13:1 14:-1 15:-0.333333 16:-0.333333 
1 0 0 0 1:1 2:0.42186 3:-1 4:-1 5:-1 6:-0.960938 7:0.425347 8:-0.956835 9:1 10:-1 11:-1 12:0.425347 13:0.333333 14:-1 15:-1 16:-0.333333 
1 0 0 0 1:1 2:0.73762 3:-1 4:-1 5:-1 6:-0.9375 7:0.579796 8:-0.928058 9:1 10:-1 11:-1 12:0.6816 13:0.333333 14:-1 15:-1 16:-0.333333 
1 0 0 0 1:1 2:0.67548 3:1 4:-1 5:1 6:-0.929688 7:0.595743 8:-0.913669 9:1 10:-1 11:-1 12:0.76614 13:0.333333 14:-1 15:-1 16:-0.333333 
1 0 0 0 1:1 2:0.88354 3:-1 4:-1 5:-1 6:-0.914062 7:0.636857 8:-0.899281 9:1 10:-1 11:-1 12:0.765547 13:0.333333 14:-1 15:-1 16:-0.333333 
1 1 1 1 1:-0.333333 2:-1 3:-1 4:1 5:-1 6:-0.867188 7:0.372158 8:-0.870504 9:0.6 10:-1 11:-1 12:-0.41502 13:-0.333333 14:-1 15:-0.333333 16:0.333333 
1 0 0 0 1:-0.333333 2:-1 3:-1 4:-1 5:-1 6:-0.835938 7:0.454914 8:-0.827338 9:0.685714 10:-1 11:-1 12:-0.406867 13:-1 14:-1 15:-1 16:-0.333333 
1 0 0 0 1:1 2:0.88356 3:1 4:-1 5:1 6:-0.976562 7:-0.00168 8:-0.971223 9:1 10:-1 11:-1 12:-0.00168 13:0.333333 14:-1 15:-1 16:-0.333333 
1 0 0 0 1:-1 2:-1 3:-0.333333 4:-1 5:1 6:-0.96875 7:-0.00168 8:-0.971223 9:1 10:-1 11:-1 12:-0.00168 13:0.333333 14:-1 15:-1 16:-0.333333 
1 0 0 0 1:1 2:-0.69098 3:-1 4:-1 5:-1 6:-0.984375 7:-0.69098 8:-0.985612 9:1 10:-1 11:-1 12:-0.69098 13:-0.333333 14:-1 15:-1 16:-0.333333 
1 1 1 1 1:1 2:-0.13536 3:1 4:-1 5:1 6:-0.976562 7:-0.41317 8:-0.971223 9:1 10:-1 11:-1 12:-0.41317 13:0.333333 14:-1 15:-1 16:-0.333333 
1 1 1 1 1:1 2:0.88268 3:1 4:1 5:1 6:-0.96875 7:0.01878 8:-0.956835 9:1 10:-1 11:-1 12:0.01878 13:1 14:-1 15:-0.333333 16:-0.333333 
1 1 1 1 1:-1 2:-1 3:-0.333333 4:-1 5:1 6:-0.960938 7:0.01878 8:-0.956835 9:1 10:-1 11:-1 12:0.01878 13:0.333333 14:-1 15:-0.333333 16:-1 
1 1 1 0 1:1 2:0.88148 3:1 4:-1 5:1 6:-0.953125 7:0.234455 8:-0.942446 9:1 10:-1 11:-1 12:0.542933 13:0.333333 14:-1 15:-0.333333 16:-1 
0.3081021082211349 0 0 0 1:-1 2:-1 3:-0.333333 4:-1 5:1 6:-0.945312 7:0.234455 8:-0.942446 9:1 10:-1 11:-1 12:0.542933 13:-0.333333 14:-1 15:-1 16:-1 
1 0 0 0 1:1 2:0.88616 3:-1 4:-1 5:-1 6:-0.9375 7:0.364796 8:-0.928058 9:1 10:-1 11:-1 12:0.88344 13:0.333333 14:-1 15:-1 16:-0.333333 
1 0 0 0 1:1 2:0.88818 3:1 4:-1 5:1 6:-0.929688 7:0.452027 8:-0.913669 9:1 10:-1 11:-1 12:0.885273 13:0.333333 14:-1 15:-1 16:-0.333333 
1 0 0 0 1:-1 2:-1 3:-0.333333 4:-1 5:1 6:-0.921875 7:0.452027 8:-0.913669 9:1 10:-1 11:-1 12:0.885273 13:0.333333 14:-1 15:-1 16:-0.333333 
1 0 0 0 1:-0.333333 2:-1 3:0.333333 4:-1 5:-1 6:-0.914062 7:0.244594 8:-0.913669 9:0.685714 10:-1 11:-1 12:0.258113 13:-0.333333 14:-1 15:-1 16:-1 
1 0 0 0 1:-1 2:-1 3:-0.333333 4:-1 5:-1 6:-0.90625 7:0.244594 8:-0.913669 9:0.685714 10:-1 11:-1 12:0.258113 13:-1 14:-1 15:-1 16:-1 
0.1989315077367131 0 0 0 1:-1 2:-1 3:-0.333333 4:-1 5:-1 6:-0.890625 7:0.317713 8:-0.899281 9:0.725 10:-1 11:-1 12:0.23924 13:-0.333333 14:-1 15:-1 16:-0.333333 
1 0 0 0 1:-1 2:-1 3:-0.333333 4:-1 5:-1 6:-0.882812 7:0.317713 8:-0.899281 9:0.725 10:-1 11:-1 12:0.23924 13:-0.333333 14:-1 15:-1 16:-0.333333 
1 0 0 0 1:-0.333333 2:-1 3:-1 4:-1 5:-1 6:-0.875 7:0.1713 8:-0.899281 9:0.511111 10:-1 11:-1 12:-0.390153 13:-1 14:-1 15:-1 16:-0.333333 
1 1 1 1 1:1 2:-0.85618 3:1 4:-1 5:1 6:-0.976562 7:-0.81063 8:-0.971223 9:1 10:-1 11:-1 12:-0.81063 13:0.333333 14:-1 15:-1 16:-0.333333 
1 0 0 0 1:1 2:0.87652 3:1 4:-1 5:1 6:-0.976562 7:0.05251 8:-0.971223 9:1 10:-1 11:-1 12:0.05251 13:0.333333 14:-1 15:-1 16:-0.333333 
1 0 0 0 1:-1 2:-1 3:-0.333333 4:-1 5:1 6:-0.96875 7:0.05251 8:-0.971223 9:1 10:-1 11:-1 12:0.05251 13:0.333333 14:-1 15:-1 16:-0.333333 
1 0 0 0 1:1 2:0.72556 3:-1 4:-1 5:-1 6:-0.960938 7:0.27686 8:-0.956835 9:1 10:-1 11:-1 12:0.27686 13:0.333333 14:-1 15:-1 16:-0.333333 
1 0 0 0 1:1 2:0.8823 3:1 4:-1 5:1 6:-0.953125 7:0.42822 8:-0.942446 9:1 10:-1 11:-1 12:0.828127 13:0.333333 14:-1 15:-1 16:-0.333333 
1 0 0 0 1:-1 2:-1 3:-0.333333 4:-1 5:1 6:-0.945312 7:0.42822 8:-0.942446 9:1 10:-1 11:-1 12:0.828127 13:0.333333 14:-1 15:-1 16:-0.333333 
1 0 0 0 1:1 2:0.8783 3:1 4:-1 5:1 6:-0.929688 7:0.4259 8:-0.913669 9:1 10:-1 11:-1 12:0.76976 13:0.333333 14:-1 15:-1 16:-0.333333 
1 0 0 0 1:-1 2:-1 3:-0.333333 4:-1 5:1 6:-0.921875 7:0.4259 8:-0.913669 9:1 10:-1 11:-1 12:0.76976 13:0.333333 14:-1 15:-1 16:-0.333333 
1 0 0 0 1:-0.333333 2:-1 3:0.333333 4:-1 5:-1 6:-0.914062 7:0.2222 8:-0.913669 9:0.685714 10:-1 11:-1 12:0.145087 13:-0.333333 14:-1 15:-1 16:-1 
1 0 0 0 1:-1 2:-1 3:-0.333333 4:-1 5:-1 6:-0.90625 7:0.2222 8:-0.913669 9:0.685714 10:-1 11:-1 12:0.145087 13:-1 14:-1 15:-1 16:-1 
1 0 0 0 1:1 2:0.8727 3:1 4:-1 5:1 6:-0.976562 7:0.04919 8:-0.971223 9:1 10:-1 11:-1 12:0.04919 13:0.333333 14:-1 15:-1 16:-0.333333 
1 0 0 0 1:-1 2:-1 3:-0.333333 4:-1 5:1 6:-0.96875 7:0.04919 8:-0.971223 9:1 10:-1 11:-1 12:0.04919 13:0.333333 14:-1 15:-1 16:-0.333333 
1 0 0 0 1:1 2:0.66852 3:-1 4:-1 5:-1 6:-0.960938 7:0.255633 8:-0.956835 9:1 10:-1 11:-1 12:0.255633 13:0.333333 14:-1 15:-1 16:-0.333333 
1 0 0 0 1:1 2:-0.55042 3:-1 4:-1 5:-1 6:-0.984375 7:-0.55042 8:-0.985612 9:1 10:-1 11:-1 12:-0.55042 13:-0.333333 14:-1 15:-1 16:-0.333333 
1 0 0 0 1:1 2:-0.68372 3:-1 4:-1 5:-1 6:-0.984375 7:-0.68372 8:-0.985612 9:1 10:-1 11:-1 12:-0.68372 13:-0.333333 14:-1 15:-1 16:-0.333333 
1 0 0 0 1:1 2:0.8791 3:1 4:-1 5:1 6:-0.976562 7:0.01876 8:-0.971223 9:1 10:-1 11:-1 12:0.01876 13:0.333333 14:-1 15:-1 16:-0.333333 
1 0 0 0 1:-1 2:-1 3:-0.333333 4:-1 5:1 6:-0.96875 7:0.01876 8:-0.971223 9:1 10:-1 11:-1 12:0.01876 13:0.333333 14:-1 15:-1 16:-0.333333 
1 1 1 1 1:1 2:-0.41222 3:1 4:-1 5:1 6:-0.960938 7:-0.1249 8:-0.956835 9:1 10:-1 11:-1 12:-0.1249 13:0.333333 14:-1 15:-1 16:-1 
1 1 1 1 1:-0.333333 2:-1 3:-1 4:1 5:-1 6:-0.976562 7:-0.5665 8:-0.985612 9:-0.1 10:-1 11:-1 12:-0.5665 13:-0.333333 14:-1 15:-0.333333 16:0.333333 
1 1 1 1 1:-0.333333 2:-1 3:-1 4:-1 5:-1 6:-0.96875 7:-0.711 8:-0.985612 9:-0.466667 10:-1 11:-1 12:-0.711 13:-0.333333 14:-1 15:-0.333333 16:1 
1 1 1 1 1:-1 2:-1 3:-0.333333 4:-1 5:-1 6:-0.960938 7:-0.711 8:-0.985612 9:-0.466667 10:-1 11:-1 12:-0.711 13:-1 14:-1 15:-0.333333 16:0.333333 
1 1 0 1 1:-0.333333 2:-1 3:-1 4:-1 5:-1 6:-0.953125 7:-0.78325 8:-0.985612 9:-0.65 10:-1 11:-1 12:-1 13:-1 14:-1 15:-1 16:0.333333 
1 0 0 0 1:-1 2:-1 3:-0.333333 4:-1 5:-1 6:-0.976562 7:-0.27724 8:-0.985612 9:1 10:-1 11:-1 12:-0.27724 13:-0.333333 14:-1 15:-1 16:-0.333333 
1 1 0 0 1:1 2:-0.28428 3:-1 4:-1 5:-1 6:-0.960938 7:0.3064 8:-0.956835 9:1 10:-1 11:-1 12:0.3064 13:0.333333 14:-1 15:-1 16:-0.333333 
1 1 0 0 1:1 2:-0.26448 3:1 4:-1 5:1 6:-0.953125 7:0.16368 8:-0.942446 9:1 10:-1 11:-1 12:0.110773 13:0.333333 14:-1 15:-1 16:-0.333333 
1 1 1 1 1:1 2:0.78914 3:1 4:1 5:1 6:-0.945312 7:0.288772 8:-0.928058 9:1 10:-1 11:-1 12:0.0801267 13:1 14:-1 15:-0.333333 16:-0.333333 
1 1 1 0 1:-1 2:-1 3:-0.333333 4:-1 5:1 6:-0.9375 7:0.288772 8:-0.928058 9:1 10:-1 11:-1 12:0.0801267 13:0.333333 14:-1 15:-0.333333 16:-1 
1 1 1 1 1:0.333333 2:-1 3:-1 4:-1 5:-1 6:-0.929688 7:0.0739767 8:-0.928058 9:0.633333 10:-0.953488 11:-0.666667 12:-0.158447 13:-0.333333 14:-0.333333 15:-0.333333 16:-0.333333 
1 1 1 1 1:1 2:0.85596 3:1 4:-1 5:1 6:-0.914062 7:0.247285 8:-0.899281 9:0.725 10:-0.953488 11:-0.75 12:0.17814 13:0.333333 14:-0.333333 15:-0.333333 16:0.333333 
1 1 1 1 1:-1 2:-1 3:-0.333333 4:-1 5:1 6:-0.90625 7:0.247285 8:-0.899281 9:0.725 10:-0.953488 11:-0.75 12:0.17814 13:0.333333 14:-1 15:-0.333333 16:-0.333333 
1 1 1 0 1:1 2:-0.10462 3:-1 4:-1 5:-1 6:-0.898438 7:0.208184 8:-0.884892 9:0.755556 10:-0.953488 11:-0.777778 12:0.4766 13:0.333333 14:-1 15:-1 16:-0.333333 
1 1 0 0 1:1 2:0.86066 3:1 4:-1 5:1 6:-0.890625 7:0.273432 8:-0.870504 9:0.78 10:-0.953488 11:-0.8 12:0.537333 13:0.333333 14:-1 15:-1 16:-0.333333 
1 1 1 0 1:-1 2:-1 3:-0.333333 4:-1 5:1 6:-0.882812 7:0.273432 8:-0.870504 9:0.78 10:-0.953488 11:-0.8 12:0.537333 13:0.333333 14:-1 15:-1 16:-0.333333 
1 1 1 0 1:-0.333333 2:-1 3:0.333333 4:-1 5:-1 6:-0.875 7:0.157665 8:-0.870504 9:0.6 10:-0.953488 11:-0.818182 12:-0.08132 13:-0.333333 14:-1 15:-1 16:-1 
1 1 0 0 1:-1 2:-1 3:-0.333333 4:-1 5:-1 6:-0.867188 7:0.157665 8:-0.870504 9:0.6 10:-0.953488 11:-0.818182 12:-0.08132 13:-1 14:-1 15:-1 16:-1 
1 0 0 0 1:1 2:0.55938 3:-1 4:-1 5:-1 6:-0.859375 7:0.191142 8:-0.856115 9:0.633333 10:-0.953488 11:-0.833333 12:0.140013 13:-0.333333 14:-1 15:-1 16:-0.333333 
1 1 0 0 1:-1 2:-1 3:-0.333333 4:-1 5:-1 6:-0.851562 7:0.191142 8:-0.856115 9:0.633333 10:-0.953488 11:-0.833333 12:0.140013 13:-0.333333 14:-1 15:-1 16:-0.333333 
1 1 0 0 1:-1 2:-1 3:-0.333333 4:-1 5:-1 6:-0.84375 7:0.191142 8:-0.856115 9:0.633333 10:-0.953488 11:-0.833333 12:0.140013 13:-0.333333 14:-1 15:-1 16:-0.333333 
1 1 1 1 1:1 2:0.48726 3:-1 4:1 5:-1 6:-0.828125 7:0.127211 8:-0.841727 9:0.528571 10:-0.906977 11:-0.714286 12:0.0155467 13:-0.333333 14:-0.333333 15:-0.333333 16:0.333333 
1 1 1 1 1:-1 2:-1 3:-0.333333 4:-1 5:-1 6:-0.820312 7:0.127211 8:-0.841727 9:0.528571 10:-0.906977 11:-0.714286 12:0.0155467 13:-0.333333 14:-0.333333 15:-0.333333 16:0.333333 
1 1 1 1 1:-1 2:-1 3:-0.333333 4:-1 5:-1 6:-0.8125 7:0.127211 8:-0.841727 9:0.528571 10:-0.906977 11:-0.714286 12:0.0155467 13:-0.333333 14:-1 15:-0.333333 16:-0.333333 
1 1 1 1 1:1 2:-0.28126 3:-1 4:-1 5:-1 6:-0.804688 7:0.09998 8:-0.827338 9:0.56 10:-0.906977 11:-0.733333 12:-0.264667 13:-0.333333 14:-1 15:-1 16:-0.333333 
1 1 1 1 1:-1 2:-1 3:-0.333333 4:-1 5:-1 6:-0.796875 7:0.09998 8:-0.827338 9:0.56 10:-0.906977 11:-0.733333 12:-0.264667 13:-0.333333 14:-1 15:-1 16:-0.333333 
1 1 1 1 1:-1 2:-1 3:-0.333333 4:-1 5:-1 6:-0.789062 7:0.09998 8:-0.827338 9:0.56 10:-0.906977 11:-0.733333 12:-0.264667 13:-0.333333 14:-1 15:-1 16:-0.333333 
1 1 1 0 1:1 2:0.48176 3:-1 4:-1 5:-1 6:-0.78125 7:0.123841 8:-0.81295 9:0.5875 10:-0.906977 11:-0.75 12:0.229253 13:-0.333333 14:-1 15:-1 16:-0.333333 
1 1 1 0 1:-1 2:-1 3:-0.333333 4:-1 5:-1 6:-0.773438 7:0.123841 8:-0.81295 9:0.5875 10:-0.906977 11:-0.75 12:0.229253 13:-0.333333 14:-1 15:-1 16:-0.333333 
1 1 1 0 1:-1 2:-1 3:-0.333333 4:-1 5:-1 6:-0.765625 7:0.123841 8:-0.81295 9:0.5875 10:-0.906977 11:-0.75 12:0.229253 13:-0.333333 14:-1 15:-1 16:-0.333333 
1 1 1 0 1:1 2:0.5065 3:-1 4:-1 5:-1 6:-0.757812 7:0.146351 8:-0.798561 9:0.611765 10:-0.906977 11:-0.764706 12:0.235667 13:-0.333333 14:-1 15:-1 16:-0.333333 
1 1 1 0 1:-1 2:-1 3:-0.333333 4:-1 5:-1 6:-0.75 7:0.146351 8:-0.798561 9:0.611765 10:-0.906977 11:-0.764706 12:0.235667 13:-0.333333 14:-1 15:-1 16:-0.333333 
1 1 1 0 1:-1 2:-1 3:-0.333333 4:-1 5:-1 6:-0.742188 7:0.146351 8:-0.798561 9:0.611765 10:-0.906977 11:-0.764706 12:0.235667 13:-0.333333 14:-1 15:-1 16:-0.333333 
1 1 1 0 1:1 2:0.55356 3:-1 4:-1 5:-1 6:-0.734375 7:0.168973 8:-0.784173 9:0.633333 10:-0.906977 11:-0.777778 12:0.51394 13:-0.333333 14:-1 15:-1 16:-0.333333 
1 1 1 0 1:-1 2:-1 3:-0.333333 4:-1 5:-1 6:-0.726562 7:0.168973 8:-0.784173 9:0.633333 10:-0.906977 11:-0.777778 12:0.51394 13:-0.333333 14:-1 15:-1 16:-0.333333 
1 1 1 1 1:1 2:-0.5813 3:-1 4:-1 5:-1 6:-0.71875 7:0.129485 8:-0.769784 9:0.652632 10:-0.906977 11:-0.789474 12:0.159587 13:0.333333 14:-1 15:-1 16:0.333333 
1 1 1 1 1:1 2:0.85608 3:1 4:-1 5:1 6:-0.710938 7:0.165815 8:-0.755396 9:0.67 10:-0.906977 11:-0.8 12:0.276113 13:0.333333 14:-1 15:-1 16:-0.333333 
1 1 1 1 1:-1 2:-1 3:-0.333333 4:-1 5:1 6:-0.703125 7:0.165815 8:-0.755396 9:0.67 10:-0.906977 11:-0.8 12:0.276113 13:0.333333 14:-1 15:-1 16:-0.333333 
1 1 1 1 1:-1 2:-1 3:-0.333333 4:-1 5:-1 6:-0.695312 7:0.165815 8:-0.755396 9:0.67 10:-0.906977 11:-0.8 12:0.276113 13:-0.333333 14:-1 15:-1 16:-1 
1 1 1 1 1:0.333333 2:-1 3:-1 4:-1 5:-1 6:-0.6875 7:0.1103 8:-0.755396 9:0.580952 10:-0.860465 11:-0.714286 12:-0.24174 13:-1 14:-0.333333 15:-1 16:-0.333333 
1 1 1 1 1:1 2:0.22258 3:-1 4:1 5:-1 6:-0.679688 7:0.115404 8:-0.741007 9:0.6 10:-0.860465 11:-0.727273 12:0.02622 13:-0.333333 14:-0.333333 15:-0.333333 16:0.333333 
1 1 1 1 1:-0.333333 2:-1 3:-1 4:1 5:-1 6:-0.671875 7:0.0669078 8:-0.741007 9:0.521739 10:-0.860465 11:-0.73913 12:-0.592473 13:-0.333333 14:-0.333333 15:0.333333 16:1 
1 0 0 0 1:1 2:0.52172 3:-1 4:-1 5:-1 6:-0.960938 7:0.5316 8:-0.956835 9:1 10:-1 11:-1 12:0.5316 13:0.333333 14:-1 15:-1 16:-0.333333 
1 0 0 0 1:1 2:0.4687 3:-1 4:-1 5:-1 6:-0.9375 7:0.58916 8:-0.928058 9:1 10:-1 11:-1 12:0.62424 13:0.333333 14:-1 15:-1 16:-0.333333 
1 0 0 0 1:-0.333333 2:-1 3:-1 4:-1 5:-1 6:-0.851562 7:0.397636 8:-0.870504 9:0.6 10:-1 11:-1 12:-0.405173 13:-1 14:-1 15:-1 16:-0.333333 
1 0 0 0 1:1 2:0.8721 3:1 4:-1 5:1 6:-0.976562 7:-0.01352 8:-0.971223 9:1 10:-1 11:-1 12:-0.01352 13:0.333333 14:-1 15:-1 16:-0.333333 
1 0 0 0 1:-1 2:-1 3:-0.333333 4:-1 5:1 6:-0.96875 7:-0.01352 8:-0.971223 9:1 10:-1 11:-1 12:-0.01352 13:0.333333 14:-1 15:-1 16:-0.333333 
1 0 0 0 1:1 2:0.79518 3:1 4:-1 5:1 6:-0.921875 7:0.2948 8:-0.913669 9:1 10:-1 11:-1 12:0.336873 13:0.333333 14:-1 15:-1 16:-0.333333 
1 0 0 0 1:-1 2:-1 3:-0.333333 4:-1 5:1 6:-0.914062 7:0.2948 8:-0.913669 9:1 10:-1 11:-1 12:0.336873 13:0.333333 14:-1 15:-1 16:-0.333333 
1 1 1 0 1:1 2:0.3252 3:-1 4:-1 5:-1 6:-0.90625 7:0.299143 8:-0.899281 9:1 10:-1 11:-1 12:0.277813 13:0.333333 14:-1 15:-1 16:-0.333333 
1 0 0 0 1:1 2:0.81748 3:1 4:-1 5:1 6:-0.898438 7:0.363935 8:-0.884892 9:1 10:-1 11:-1 12:0.645953 13:0.333333 14:-1 15:-1 16:-0.333333 
1 0 0 0 1:-1 2:-1 3:-0.333333 4:-1 5:1 6:-0.890625 7:0.363935 8:-0.884892 9:1 10:-1 11:-1 12:0.645953 13:0.333333 14:-1 15:-1 16:-0.333333 
1 1 0 0 1:1 2:0.82628 3:-1 4:-1 5:-1 6:-0.882812 7:0.415307 8:-0.870504 9:1 10:-1 11:-1 12:0.65632 13:0.333333 14:-1 15:-1 16:-0.333333 
1 0 0 0 1:1 2:0.8396 3:1 4:-1 5:1 6:-0.875 7:0.457736 8:-0.856115 9:1 10:-1 11:-1 12:0.827787 13:0.333333 14:-1 15:-1 16:-0.333333 
1 0 0 0 1:-1 2:-1 3:-0.333333 4:-1 5:1 6:-0.867188 7:0.457736 8:-0.856115 9:1 10:-1 11:-1 12:0.827787 13:0.333333 14:-1 15:-1 16:-0.333333 
1 0 0 0 1:-0.333333 2:-1 3:0.333333 4:-1 5:-1 6:-0.859375 7:0.325215 8:-0.856115 9:0.8 10:-1 11:-1 12:0.22196 13:-0.333333 14:-1 15:-1 16:-1 
1 0 0 0 1:-1 2:-1 3:-0.333333 4:-1 5:-1 6:-0.851562 7:0.325215 8:-0.856115 9:0.8 10:-1 11:-1 12:0.22196 13:-1 14:-1 15:-1 16:-1 
1 0 0 0 1:-0.333333 2:-1 3:-1 4:-1 5:-1 6:-0.84375 7:0.21478 8:-0.856115 9:0.633333 10:-1 11:-1 12:-0.3868 13:-1 14:-1 15:-1 16:-0.333333 
1 0 0 0 1:1 2:0.8791 3:1 4:-1 5:1 6:-0.976562 7:-0.02061 8:-0.971223 9:1 10:-1 11:-1 12:-0.02061 13:0.333333 14:-1 15:-1 16:-0.333333 
1 0 0 0 1:-1 2:-1 3:-0.333333 4:-1 5:1 6:-0.96875 7:-0.02061 8:-0.971223 9:1 10:-1 11:-1 12:-0.02061 13:0.333333 14:-1 15:-1 16:-0.333333 
1 0 0 0 1:-1 2:-1 3:-0.333333 4:-1 5:-1 6:-0.960938 7:-0.02061 8:-0.971223 9:1 10:-1 11:-1 12:-0.02061 13:-0.333333 14:-1 15:-1 16:-1 
1 1 0 0 1:0.333333 2:-1 3:-1 4:-1 5:-1 6:-0.984375 7:-1 8:-1 9:1 10:-0.953488 11:1 12:-1 13:-1 14:-0.333333 15:-1 16:-0.333333 
1 1 1 1 1:1 2:-0.25266 3:-1 4:1 5:-1 6:-0.976562 7:-0.62633 8:-0.985612 9:-0.1 10:-0.953488 12:-0.62633 13:-0.333333 14:-0.333333 15:-0.333333 16:0.333333 
1 1 1 1 1:-1 2:-1 3:-0.333333 4:-1 5:-1 6:-0.96875 7:-0.62633 8:-0.985612 9:-0.1 10:-0.953488 12:-0.62633 13:-0.333333 14:-0.333333 15:-0.333333 16:0.333333 
1 1 1 1 1:0.333333 2:-1 3:-1 4:-1 5:-1 6:-0.960938 7:-0.750887 8:-0.985612 9:-0.466667 10:-0.906977 11:0.333333 12:-0.750887 13:-0.333333 14:-0.333333 15:-0.333333 16:0.333333 
1 1 1 0 1:1 2:-0.24082 3:1 4:-1 5:1 6:-0.976562 7:-0.1324 8:-0.971223 9:1 10:-1 11:-1 12:-0.1324 13:0.333333 14:-1 15:-1 16:-0.333333 
1 1 1 0 1:1 2:0.8429 3:1 4:-1 5:1 6:-0.867188 7:0.246502 8:-0.841727 9:0.661538 10:-0.906977 11:-0.692308 12:0.842893 13:0.333333 14:-1 15:-1 16:-0.333333 
1 1 1 0 1:-1 2:-1 3:-0.333333 4:-1 5:1 6:-0.859375 7:0.246502 8:-0.841727 9:0.661538 10:-0.906977 11:-0.692308 12:0.842893 13:0.333333 14:-1 15:-1 16:-0.333333 
1 1 1 1 1:-0.333333 2:-1 3:0.333333 4:-1 5:-1 6:-0.851562 7:0.157466 8:-0.841727 9:0.528571 10:-0.906977 11:-0.714286 12:0.229473 13:-0.333333 14:-1 15:-1 16:-1 
1 1 1 0 1:-1 2:-1 3:-0.333333 4:-1 5:-1 6:-0.84375 7:0.157466 8:-0.841727 9:0.528571 10:-0.906977 11:-0.714286 12:0.229473 13:-1 14:-1 15:-1 16:-1 
1 1 1 0 1:1 2:0.71916 3:-1 4:-1 5:-1 6:-0.835938 7:0.194912 8:-0.827338 9:0.56 10:-0.906977 11:-0.733333 12:0.187353 13:-0.333333 14:-1 15:-1 16:-0.333333 
1 1 1 0 1:-1 2:-1 3:-0.333333 4:-1 5:-1 6:-0.828125 7:0.194912 8:-0.827338 9:0.56 10:-0.906977 11:-0.733333 12:0.187353 13:-0.333333 14:-1 15:-1 16:-0.333333 
1 1 1 1 1:1 2:-0.11774 3:-1 4:-1 5:-1 6:-0.820312 7:0.175371 8:-0.81295 9:0.5875 10:-0.906977 11:-0.75 12:-0.13286 13:0.333333 14:-1 15:-1 16:0.333333 
1 1 1 1 1:1 2:0.85398 3:1 4:-1 5:1 6:-0.8125 7:0.215289 8:-0.798561 9:0.611765 10:-0.906977 11:-0.764706 12:0.485133 13:0.333333 14:-1 15:-1 16:-0.333333 
1 1 1 0 1:-1 2:-1 3:-0.333333 4:-1 5:1 6:-0.804688 7:0.215289 8:-0.798561 9:0.611765 10:-0.906977 11:-0.764706 12:0.485133 13:0.333333 14:-1 15:-1 16:-0.333333 
1 1 1 1 1:1 2:0.85444 3:1 4:-1 5:1 6:-0.796875 7:0.250798 8:-0.784173 9:0.633333 10:-0.906977 11:-0.777778 12:0.530227 13:0.333333 14:-1 15:-1 16:-1 
1 1 1 0 1:-1 2:-1 3:-0.333333 4:-1 5:1 6:-0.789062 7:0.250798 8:-0.784173 9:0.633333 10:-0.906977 11:-0.777778 12:0.530227 13:-0.333333 14:-1 15:-1 16:-1 
1 1 1 1 1:1 2:0.6569 3:-1 4:-1 5:-1 6:-0.78125 7:0.272172 8:-0.769784 9:0.652632 10:-0.906977 11:-0.789474 12:0.78844 13:0.333333 14:-1 15:-1 16:-0.333333 
1 1 1 0 1:1 2:0.86826 3:1 4:-1 5:1 6:-0.773438 7:0.301976 8:-0.755396 9:0.67 10:-0.906977 11:-0.8 12:0.7932 13:0.333333 14:-1 15:-1 16:-0.333333 
1 1 1 0 1:-1 2:-1 3:-0.333333 4:-1 5:1 6:-0.765625 7:0.301976 8:-0.755396 9:0.67 10:-0.906977 11:-0.8 12:0.7932 13:0.333333 14:-1 15:-1 16:-0.333333 
1 1 1 1 1:1 2:0.72112 3:-1 4:-1 5:-1 6:-0.757812 7:0.321935 8:-0.741007 9:0.685714 10:-0.906977 11:-0.809524 12:0.74876 13:0.333333 14:-1 15:-1 16:-0.333333 
1 1 1 1 1:1 2:0.8629 3:1 4:-1 5:1 6:-0.75 7:0.346525 8:-0.726619 9:0.7 10:-0.906977 11:-0.818182 12:0.817427 13:0.333333 14:-1 15:-1 16:-0.333333 
1 1 1 0 1:-1 2:-1 3:-0.333333 4:-1 5:1 6:-0.742188 7:0.346525 8:-0.726619 9:0.7 10:-0.906977 11:-0.818182 12:0.817427 13:0.333333 14:-1 15:-1 16:-0.333333 
1 1 1 1 1:-0.333333 2:-1 3:0.333333 4:-1 5:-1 6:-0.734375 7:0.28798 8:-0.726619 9:0.617391 10:-0.906977 11:-0.826087 12:0.194673 13:-0.333333 14:-1 15:-1 16:-1 
1 1 1 1 1:-1 2:-1 3:-0.333333 4:-1 5:-1 6:-0.726562 7:0.28798 8:-0.726619 9:0.617391 10:-0.906977 11:-0.826087 12:0.194673 13:-1 14:-1 15:-1 16:-1 
1 1 1 1 1:-0.333333 2:-1 3:-1 4:-1 5:-1 6:-0.71875 7:0.234314 8:-0.726619 9:0.541667 10:-0.906977 11:-0.833333 12:-0.379033 13:-1 14:-1 15:-1 16:-0.333333 
1 0 0 0 1:1 2:0.54056 3:-1 4:-1 5:-1 6:-0.960938 7:0.471673 8:-0.956835 9:1 10:-1 11:-1 12:0.471673 13:0.333333 14:-1 15:-1 16:-0.333333 
1 0 0 0 1:1 2:0.71824 3:-1 4:-1 5:-1 6:-0.9375 7:0.602384 8:-0.928058 9:1 10:-1 11:-1 12:0.712487 13:0.333333 14:-1 15:-1 16:-0.333333 
1 0 0 0 1:-0.333333 2:-1 3:-1 4:-1 5:-1 6:-0.851562 7:0.400633 8:-0.870504 9:0.6 10:-1 11:-1 12:-0.411493 13:-1 14:-1 15:-1 16:-0.333333 
1 1 1 1 1:1 2:-0.79988 3:1 4:-1 5:1 6:-0.976562 7:-0.82066 8:-0.971223 9:1 10:-1 11:-1 12:-0.82066 13:0.333333 14:-1 15:-1 16:-0.333333 
1 1 1 1 1:1 2:0.83296 3:1 4:1 5:1 6:-0.96875 7:-0.269453 8:-0.956835 9:1 10:-1 11:-1 12:-0.269453 13:1 14:-1 15:-0.333333 16:-0.333333 
1 1 1 1 1:-1 2:-1 3:-0.333333 4:-1 5:1 6:-0.960938 7:-0.269453 8:-0.956835 9:1 10:-1 11:-1 12:-0.269453 13:0.333333 14:-1 15:-0.333333 16:-1 
1 1 1 1 1:1 2:0.70024 3:1 4:-1 5:1 6:-0.953125 7:-0.02703 8:-0.942446 9:1 10:-1 11:-1 12:0.24444 13:0.333333 14:-1 15:-0.333333 16:-1 
1 1 0 0 1:-1 2:-1 3:-0.333333 4:-1 5:1 6:-0.945312 7:-0.02703 8:-0.942446 9:1 10:-1 11:-1 12:0.24444 13:-0.333333 14:-1 15:-1 16:-1 
1 0 0 0 1:1 2:-0.70402 3:-1 4:-1 5:-1 6:-0.984375 7:-0.70402 8:-0.985612 9:1 10:-1 11:-1 12:-0.70402 13:-0.333333 14:-1 15:-1 16:-0.333333 
1 1 1 1 1:1 2:-0.38928 3:1 4:-1 5:1 6:-0.976562 7:-0.54665 8:-0.971223 9:1 10:-1 11:-1 12:-0.54665 13:0.333333 14:-1 15:-1 16:-0.333333 
0 1 1 1 1:1 2:-0.98004 3:-1 4:-1 5:-1 6:-0.984375 7:-0.98004 8:-0.985612 9:1 10:-1 11:-1 12:-0.98004 13:-0.333333 14:-1 15:-1 16:-0.333333 
1 0 0 0 1:-0.333333 2:-1 3:-1 4:-1 5:-1 6:-0.953125 7:-0.0401333 8:-0.971223 9:0.266667 10:-1 11:-1 12:-0.0401333 13:-1 14:-1 15:-1 16:-0.333333 
1 1 0 0 1:-0.333333 2:-1 3:-1 4:-1 5:-1 6:-0.96875 8:-0.985612 9:-0.1 10:-1 11:-1 13:-0.333333 14:-1 15:-1 16:0.333333 
1 1 0 1 1:-0.333333 2:-1 3:-1 4:-1 5:-1 6:-0.960938 7:-0.333333 8:-0.985612 9:-0.466667 10:-1 11:-1 12:-0.333333 13:-1 14:-1 15:-1 16:0.333333 
1 1 0 0 1:0.333333 2:-1 3:-1 4:-1 5:-1 6:-0.984375 7:-1 8:-1 9:1 10:-0.953488 11:1 12:-1 13:-1 14:-0.333333 15:-1 16:-0.333333 
1 1 1 1 1:1 2:-0.54048 3:-1 4:1 5:-1 6:-0.976562 7:-0.77024 8:-0.985612 9:-0.1 10:-0.953488 12:-0.77024 13:-0.333333 14:-0.333333 15:-0.333333 16:0.333333 
1 1 1 0 1:1 2:0.68896 3:1 4:-1 5:1 6:-0.929688 7:0.159557 8:-0.913669 9:0.685714 10:-0.953488 11:-0.714286 12:0.601767 13:0.333333 14:-1 15:-1 16:-0.333333 
1 1 1 0 1:-1 2:-1 3:-0.333333 4:-1 5:1 6:-0.921875 7:0.159557 8:-0.913669 9:0.685714 10:-0.953488 11:-0.714286 12:0.601767 13:0.333333 14:-1 15:-1 16:-0.333333 
1 1 1 0 1:1 2:0.6721 3:-1 4:-1 5:-1 6:-0.914062 7:0.223625 8:-0.899281 9:0.725 10:-0.953488 11:-0.75 12:0.565707 13:0.333333 14:-1 15:-1 16:-0.333333 
1 1 0 0 1:1 2:0.86014 3:1 4:-1 5:1 6:-0.90625 7:0.294349 8:-0.884892 9:0.755556 10:-0.953488 11:-0.777778 12:0.7404 13:0.333333 14:-1 15:-1 16:-0.333333 
1 1 0 0 1:-1 2:-1 3:-0.333333 4:-1 5:1 6:-0.898438 7:0.294349 8:-0.884892 9:0.755556 10:-0.953488 11:-0.777778 12:0.7404 13:0.333333 14:-1 15:-1 16:-0.333333 
1 1 1 0 1:1 2:0.85336 3:-1 4:-1 5:-1 6:-0.890625 7:0.35025 8:-0.870504 9:0.78 10:-0.953488 11:-0.8 12:0.7952 13:0.333333 14:-1 15:-1 16:-0.333333 
1 1 0 0 1:1 2:0.86946 3:1 4:-1 5:1 6:-0.882812 7:0.397451 8:-0.856115 9:0.8 10:-0.953488 11:-0.818182 12:0.860987 13:0.333333 14:-1 15:-1 16:-0.333333 
1 1 0 0 1:-1 2:-1 3:-0.333333 4:-1 5:1 6:-0.875 7:0.397451 8:-0.856115 9:0.8 10:-0.953488 11:-0.818182 12:0.860987 13:0.333333 14:-1 15:-1 16:-0.333333 
1 1 0 0 1:-0.333333 2:-1 3:0.333333 4:-1 5:-1 6:-0.867188 7:0.280997 8:-0.856115 9:0.633333 10:-0.953488 11:-0.833333 12:0.24094 13:-0.333333 14:-1 15:-1 16:-1 
1 1 0 0 1:-1 2:-1 3:-0.333333 4:-1 5:-1 6:-0.859375 7:0.280997 8:-0.856115 9:0.633333 10:-0.953488 11:-0.833333 12:0.24094 13:-1 14:-1 15:-1 16:-1 
1 1 0 0 1:-0.333333 2:-1 3:-1 4:-1 5:-1 6:-0.851562 7:0.182458 8:-0.856115 9:0.492308 10:-0.953488 11:-0.846154 12:-0.376847 13:-1 14:-1 15:-1 16:-0.333333 
1 1 0 0 1:0.333333 2:-1 3:-1 4:-1 5:-1 6:-0.984375 7:-1 8:-1 9:1 10:-0.953488 11:1 12:-1 13:-1 14:-0.333333 15:-1 16:-0.333333 
1 1 1 1 1:0.333333 2:-1 3:-1 4:1 5:-1 6:-0.976562 7:-1 8:-1 9:1 10:-0.906977 11:1 12:-1 13:-1 14:0.333333 15:-0.333333 16:0.333333 
1 1 1 1 1:-1 2:-1 3:-0.333333 4:-1 5:-1 6:-0.96875 7:-1 8:-1 9:1 10:-0.906977 11:1 12:-1 13:-1 14:0.333333 15:-0.333333 16:0.333333 
1 0 0 0 1:1 2:-0.41636 3:-1 4:-1 5:-1 6:-0.984375 7:-0.41636 8:-0.985612 9:1 10:-1 11:-1 12:-0.41636 13:-0.333333 14:-1 15:-1 16:-0.333333 
1 1 1 1 1:1 2:-0.50466 3:1 4:-1 5:1 6:-0.976562 7:-0.46051 8:-0.971223 9:1 10:-1 11:-1 12:-0.46051 13:0.333333 14:-1 15:-1 16:-0.333333 
1 1 1 1 1:1 2:0.88268 3:1 4:1 5:1 6:-0.96875 7:-0.01278 8:-0.956835 9:1 10:-1 11:-1 12:-0.01278 13:1 14:-1 15:-0.333333 16:-0.333333 
1 1 1 1 1:-1 2:-1 3:-0.333333 4:-1 5:1 6:-0.960938 7:-0.01278 8:-0.956835 9:1 10:-1 11:-1 12:-0.01278 13:0.333333 14:-1 15:-0.333333 16:-1 
1 1 1 0 1:1 2:0.88586 3:1 4:-1 5:1 6:-0.953125 7:0.21188 8:-0.942446 9:1 10:-1 11:-1 12:0.421293 13:0.333333 14:-1 15:-0.333333 16:-1 
1 1 1 0 1:1 2:-0.47472 3:-1 4:-1 5:-1 6:-0.9375 7:0.07456 8:-0.928058 9:1 10:-1 11:-1 12:0.431273 13:0.333333 14:-1 15:-1 16:-0.333333 
1 0 0 0 1:1 2:0.8913 3:1 4:-1 5:1 6:-0.929688 7:0.210683 8:-0.913669 9:1 10:-1 11:-1 12:0.434147 13:0.333333 14:-1 15:-1 16:-0.333333 
1 0 0 0 1:-1 2:-1 3:-0.333333 4:-1 5:1 6:-0.921875 7:0.210683 8:-0.913669 9:1 10:-1 11:-1 12:0.434147 13:0.333333 14:-1 15:-1 16:-0.333333 
1 1 0 0 1:1 2:0.79498 3:-1 4:-1 5:-1 6:-0.914062 7:0.294154 8:-0.899281 9:1 10:-1 11:-1 12:0.403853 13:0.333333 14:-1 15:-1 16:-0.333333 
1 0 0 0 1:1 2:0.89256 3:1 4:-1 5:1 6:-0.90625 7:0.368955 8:-0.884892 9:1 10:-1 11:-1 12:0.859613 13:0.333333 14:-1 15:-1 16:-0.333333 
1 0 0 0 1:-1 2:-1 3:-0.333333 4:-1 5:1 6:-0.898438 7:0.368955 8:-0.884892 9:1 10:-1 11:-1 12:0.859613 13:0.333333 14:-1 15:-1 16:-0.333333 
1 1 0 0 1:-0.333333 2:-1 3:0.333333 4:-1 5:-1 6:-0.890625 7:0.216849 8:-0.884892 9:0.755556 10:-1 11:-1 12:0.22918 13:-0.333333 14:-1 15:-1 16:-1 
1 0 0 0 1:-1 2:-1 3:-0.333333 4:-1 5:-1 6:-0.882812 7:0.216849 8:-0.884892 9:0.755556 10:-1 11:-1 12:0.22918 13:-1 14:-1 15:-1 16:-1 
1 1 0 0 1:0.333333 2:-1 3:-1 4:-1 5:-1 6:-0.984375 7:-1 8:-1 9:1 10:-0.953488 11:1 12:-1 13:-1 14:-0.333333 15:-1 16:-0.333333 
1 0 0 0 1:1 2:-0.5283 3:-1 4:-1 5:-1 6:-0.984375 7:-0.5283 8:-0.985612 9:1 10:-1 11:-1 12:-0.5283 13:-0.333333 14:-1 15:-1 16:-0.333333 
1 0 0 0 1:1 2:0.87738 3:1 4:-1 5:1 6:-0.976562 7:0.17454 8:-0.971223 9:1 10:-1 11:-1 12:0.17454 13:0.333333 14:-1 15:-1 16:-0.333333 
1 1 1 0 1:1 2:0.0272 3:-1 4:-1 5:-1 6:-0.960938 7:0.125427 8:-0.956835 9:1 10:-1 11:-1 12:0.125427 13:0.333333 14:-1 15:-1 16:-0.333333 
1 0 0 0 1:1 2:0.88746 3:1 4:-1 5:1 6:-0.953125 7:0.315935 8:-0.942446 9:1 10:-1 11:-1 12:0.597347 13:0.333333 14:-1 15:-1 16:-0.333333 
1 0 0 0 1:-1 2:-1 3:-0.333333 4:-1 5:1 6:-0.945312 7:0.315935 8:-0.942446 9:1 10:-1 11:-1 12:0.597347 13:0.333333 14:-1 15:-1 16:-0.333333 
1 0 0 0 1:1 2:0.52876 3:-1 4:-1 5:-1 6:-0.9375 7:0.3585 8:-0.928058 9:1 10:-1 11:-1 12:0.48114 13:0.333333 14:-1 15:-1 16:-0.333333 
1 0 0 0 1:1 2:0.88712 3:1 4:-1 5:1 6:-0.929688 7:0.446603 8:-0.913669 9:1 10:-1 11:-1 12:0.76778 13:0.333333 14:-1 15:-1 16:-0.333333 
1 0 0 0 1:-1 2:-1 3:-0.333333 4:-1 5:1 6:-0.921875 7:0.446603 8:-0.913669 9:1 10:-1 11:-1 12:0.76778 13:0.333333 14:-1 15:-1 16:-0.333333 
1 0 0 0 1:1 2:0.87088 3:-1 4:-1 5:-1 6:-0.914062 7:0.507214 8:-0.899281 9:1 10:-1 11:-1 12:0.762253 13:0.333333 14:-1 15:-1 16:-0.333333 
1 0 0 0 1:-1 2:-1 3:-0.333333 4:-1 5:-1 6:-0.828125 7:0.525348 8:-0.798561 9:0.853333 10:-1 11:-1 12:0.169353 13:-0.333333 14:-1 15:-1 16:-0.333333 
1 0 0 0 1:-1 2:-1 3:-0.333333 4:-1 5:-1 6:-0.820312 7:0.525348 8:-0.798561 9:0.853333 10:-1 11:-1 12:0.169353 13:-0.333333 14:-1 15:-1 16:-0.333333 
1 0 0 0 1:1 2:0.6504 3:-1 4:-1 5:-1 6:-0.8125 7:0.533164 8:-0.784173 9:0.8625 10:-1 11:-1 12:0.0888867 13:-0.333333 14:-1 15:-1 16:-0.333333 
1 0 0 0 1:-1 2:-1 3:-0.333333 4:-1 5:-1 6:-0.804688 7:0.533164 8:-0.784173 9:0.8625 10:-1 11:-1 12:0.0888867 13:-0.333333 14:-1 15:-1 16:-0.333333 
1 1 0 0 1:1 2:0.8937 3:1 4:-1 5:1 6:-0.789062 7:0.5458 8:-0.755396 9:0.877778 10:-1 11:-1 12:0.64806 13:0.333333 14:-1 15:-1 16:-0.333333 
1 1 0 0 1:-1 2:-1 3:-0.333333 4:-1 5:1 6:-0.78125 7:0.5458 8:-0.755396 9:0.877778 10:-1 11:-1 12:0.64806 13:0.333333 14:-1 15:-1 16:-0.333333 
1 1 1 1 1:1 2:0.51 3:-1 4:-1 5:-1 6:-0.773438 7:0.543916 8:-0.741007 9:0.884211 10:-1 11:-1 12:0.60126 13:0.333333 14:-1 15:-1 16:-0.333333 
1 1 0 0 1:1 2:0.89264 3:1 4:-1 5:1 6:-0.765625 7:0.561352 8:-0.726619 9:0.89 10:-1 11:-1 12:0.765447 13:0.333333 14:-1 15:-1 16:-0.333333 
1 1 0 0 1:-1 2:-1 3:-0.333333 4:-1 5:1 6:-0.757812 7:0.561352 8:-0.726619 9:0.89 10:-1 11:-1 12:0.765447 13:0.333333 14:-1 15:-1 16:-0.333333 
1 1 1 1 1:1 2:0.5217 3:-1 4:-1 5:-1 6:-0.75 7:0.559464 8:-0.71223 9:0.895238 10:-1 11:-1 12:0.641447 13:0.333333 14:-1 15:-1 16:-0.333333 
1 1 1 0 1:1 2:0.89282 3:1 4:-1 5:1 6:-0.742188 7:0.574616 8:-0.697842 9:0.9 10:-1 11:-1 12:0.769053 13:0.333333 14:-1 15:-1 16:-0.333333 
1 1 1 0 1:-1 2:-1 3:-0.333333 4:-1 5:1 6:-0.734375 7:0.574616 8:-0.697842 9:0.9 10:-1 11:-1 12:0.769053 13:0.333333 14:-1 15:-1 16:-0.333333 
1 1 1 1 1:1 2:0.8658 3:-1 4:-1 5:-1 6:-0.726562 7:0.587277 8:-0.683453 9:0.904348 10:-1 11:-1 12:0.760107 13:0.333333 14:-1 15:-1 16:-0.333333 
1 1 1 1 1:1 2:0.87786 3:-1 4:-1 5:-1 6:-0.71875 7:0.599384 8:-0.669065 9:0.908333 10:-1 11:-1 12:0.878827 13:0.333333 14:-1 15:-1 16:0.333333 
1 1 1 0 1:1 2:0.59978 3:-1 4:-1 5:-1 6:-0.648438 7:0.586822 8:-0.582734 9:0.858065 10:-1 11:-1 12:0.164087 13:-0.333333 14:-1 15:-1 16:-0.333333 
1 1 1 1 1:-1 2:-1 3:-0.333333 4:-1 5:-1 6:-0.640625 7:0.586822 8:-0.582734 9:0.858065 10:-1 11:-1 12:0.164087 13:-0.333333 14:-1 15:-1 16:-0.333333 
1 1 1 1 1:-1 2:-1 3:-0.333333 4:-1 5:-1 6:-0.632812 7:0.586822 8:-0.582734 9:0.858065 10:-1 11:-1 12:0.164087 13:-0.333333 14:-1 15:-1 16:-0.333333 
1 1 1 1 1:1 2:0.14084 3:-1 4:-1 5:-1 6:-0.625 7:0.572885 8:-0.568345 9:0.8625 10:-1 11:-1 12:-0.08646 13:-0.333333 14:-1 15:-1 16:-0.333333 
1 1 1 1 1:-0.333333 2:-1 3:-0.333333 4:-1 5:-1 6:-0.617188 7:0.525222 8:-0.568345 9:0.8 10:-1 11:-1 12:-0.08646 13:-0.333333 14:-1 15:-1 16:-0.333333 
1 1 1 1 1:1 2:-0.51942 3:1 4:-1 5:1 6:-0.976562 7:-0.63125 8:-0.971223 9:1 10:-1 11:-1 12:-0.63125 13:0.333333 14:-1 15:-1 16:-0.333333 
1 1 1 1 1:1 2:0.88184 3:1 4:1 5:1 6:-0.96875 7:-0.126887 8:-0.956835 9:1 10:-1 11:-1 12:-0.126887 13:1 14:-1 15:-0.333333 16:-0.333333 
1 1 1 1 1:-1 2:-1 3:-0.333333 4:-1 5:1 6:-0.960938 7:-0.126887 8:-0.956835 9:1 10:-1 11:-1 12:-0.126887 13:0.333333 14:-1 15:-0.333333 16:-1 
