svm_type c_svc
kernel_type rbf
gamma 0.0344828
nr_class 2
total_sv 3241
rho -0.0454712
label 2 1
probA -1.7977
probB 0.088956
nr_sv 1619 1622
SV
1 1:1 2:-0.17536 3:-1 5:-0.857143 6:-0.884802 8:1 9:-0.777778 10:-1 11:1 12:-0.965699 13:-0.56627 14:-0.971223 15:1 16:-1 17:-1 18:-1 19:-1 20:-0.969697 22:-0.56627 23:0.333333 24:-1 25:-1 26:-0.333333 28:-1 29:-0.333333 
1 1:1 2:0.87588 3:-1 5:-0.857143 6:-0.909854 8:1 9:-0.777778 10:1 11:1 12:-0.957725 13:-0.0855533 14:-0.956835 15:1 16:-1 17:-1 18:-1 19:-1 20:-0.969697 21:-0.333333 22:-0.0855533 23:1 24:-1 25:-1 26:-0.333333 28:-0.333333 29:-0.333333 
1 1:-1 2:-1 3:-1 5:-1 6:-1 8:-0.333333 9:-1 10:-1 11:1 12:-0.950654 13:-0.0855533 14:-0.956835 15:1 16:-1 17:-1 18:-1 19:-1 20:-0.969697 21:-0.333333 22:-0.0855533 23:0.333333 24:-1 25:-1 26:-1 28:-0.333333 29:-1 
1 1:1 2:-0.04694 3:-1 5:-0.571429 6:-0.744805 8:-1 9:-0.814815 10:-1 11:-1 12:-0.950654 13:-0.0759 14:-0.942446 15:1 16:-1 17:-1 18:-1 19:-1 20:-0.969697 21:-0.5 22:0.21786 23:0.333333 24:-1 25:-1 26:-1 28:-0.333333 29:-0.333333 
1 1:1 2:0.8679 3:-1 5:-0.857143 6:-0.870066 8:-1 9:-0.851852 10:-1 11:-1 12:-0.933805 13:0.239277 14:-0.913669 15:1 16:-1 17:-1 18:-1 19:-1 20:-0.969697 21:-0.666667 22:0.564107 23:0.333333 24:-1 25:-1 26:-1 28:-1 29:-0.333333 
1 1:1 2:0.22682 3:-1 5:-0.428571 6:-0.62544 8:-1 9:-0.777778 10:-1 11:-1 12:-0.924327 13:0.237497 14:-0.899281 15:1 16:-1 17:-1 18:-1 19:-1 20:-0.969697 21:-0.714286 22:0.65536 23:0.333333 24:-1 25:-1 26:-1 28:-1 29:0.333333 
1 1:1 2:0.8808 3:-1 5:-0.857143 6:-0.905433 8:1 9:-0.740741 10:-1 11:1 12:-0.918159 13:0.31791 14:-0.884892 15:1 16:-1 17:-1 18:-1 19:-1 20:-0.969697 21:-0.75 22:0.658507 23:1 24:-1 25:-1 26:-1 28:-1 29:0.333333 
1 1:-0.333333 2:-1 3:-1 5:-1 6:-1 8:0.333333 9:-0.740741 10:-1 11:-1 12:-0.909583 13:0.171476 14:-0.884892 15:0.755556 16:-1 17:-1 18:-0.875 19:-0.777778 20:-0.969697 21:-0.777778 22:0.0358733 23:-0.333333 24:-1 26:-1 28:-1 29:-1 
1 1:0.333333 2:-1 3:1 5:-0.714286 6:-0.842066 8:1 9:-0.740741 10:-1 11:1 12:-0.978487 13:-0.51886 14:-0.985612 15:-0.1 16:-0.953488 18:-1 19:-1 20:-0.939394 21:1 22:-0.51886 23:-0.333333 24:-0.333333 25:-1 26:0.333333 28:-1 29:-0.333333 
1 1:1 2:1 3:-1 5:-0.785714 6:-0.915749 8:1 9:-0.333333 10:1 11:1 12:-0.974876 13:-0.0125733 14:-0.971223 15:0.266667 16:-0.953488 17:-0.333333 18:-1 19:-1 20:-0.939394 21:0.333333 22:-0.0125733 23:0.333333 24:-0.333333 25:-1 26:0.333333 28:-0.333333 29:-0.333333 
1 1:-1 2:-1 3:-1 5:-1 6:-1 8:-0.333333 9:-1 10:-1 11:1 12:-0.962991 13:-0.0125733 14:-0.971223 15:0.266667 16:-0.953488 17:-0.333333 18:-1 19:-1 20:-0.939394 21:0.333333 22:-0.0125733 23:-0.333333 24:-0.333333 25:-1 26:-0.333333 28:-0.333333 29:-1 
1 1:1 2:0.32246 3:-1 5:-0.571429 6:-0.821435 8:-1 9:-0.851852 10:-1 11:-1 12:-0.962991 13:0.071185 14:-0.956835 15:0.45 16:-0.953488 17:-0.5 18:-1 19:-1 20:-0.939394 22:0.107487 23:0.333333 24:-1 25:-1 26:-1 28:-0.333333 29:-0.333333 
1 1:1 2:0.6338 3:-1 5:-0.785714 6:-0.87596 8:-1 9:-0.814815 10:-1 11:-1 12:-0.944637 13:0.293813 14:-0.928058 15:0.633333 16:-0.953488 17:-0.666667 18:-1 19:-1 20:-0.939394 21:-0.333333 22:0.6002 23:0.333333 24:-1 25:-1 26:-1 28:-1 29:-0.333333 
1 1:1 2:-0.03916 3:1 5:-0.785714 6:-0.902486 8:1 9:-0.740741 10:-1 11:1 12:-0.936362 13:0.246246 14:-0.913669 15:0.685714 16:-0.953488 17:-0.714286 18:-1 19:-1 20:-0.909091 21:-0.142857 22:0.47966 23:0.333333 24:-1 25:-1 26:-0.333333 28:-1 29:-0.333333 
1 1:1 2:0.86282 3:-1 5:-0.857143 6:-0.942274 8:1 9:-0.740741 10:1 11:1 12:-0.931999 13:0.323317 14:-0.899281 15:0.725 16:-0.953488 17:-0.75 18:-1 19:-1 20:-0.909091 21:-0.25 22:0.48582 23:1 24:-1 25:-1 26:-0.333333 28:-0.333333 29:-0.333333 
1 1:-1 2:-1 3:-1 5:-1 6:-1 8:-0.333333 9:-1 10:-1 11:1 12:-0.924929 13:0.323317 14:-0.899281 15:0.725 16:-0.953488 17:-0.75 18:-1 19:-1 20:-0.909091 21:-0.25 22:0.48582 23:0.333333 24:-1 25:-1 26:-0.333333 28:-0.333333 29:-1 
1 1:1 2:0.85982 3:-1 5:-0.857143 6:-0.923117 8:-1 9:-0.851852 10:-1 11:-1 12:-0.924929 13:0.382929 14:-0.884892 15:0.755556 16:-0.953488 17:-0.777778 18:-1 19:-1 20:-0.909091 21:-0.333333 22:0.56116 23:0.333333 24:-1 25:-1 26:-1 28:-0.333333 29:-0.333333 
1 1:-1 2:-1 3:-1 5:-1 6:-1 8:-0.333333 9:-1 10:-1 11:1 12:-0.954867 13:-0.20872 14:-0.956835 15:0.45 16:-0.953488 17:-0.5 18:-1 19:-1 20:-0.939394 22:-0.16336 23:-0.333333 24:-0.333333 25:-1 26:-1 28:0.333333 29:-1 
1 1:-1 2:-1 3:-1 5:-1 6:-1 8:-0.333333 9:0.296296 10:-1 11:-1 12:-0.954867 13:-0.20872 14:-0.956835 15:0.45 16:-0.953488 17:-0.5 18:-1 19:-1 20:-0.939394 22:-0.16336 23:-0.333333 24:-1 25:-1 26:-1 28:-0.333333 29:-1 
1 1:1 2:-0.26018 3:-1 5:-0.857143 6:-0.803751 8:-1 9:-0.814815 10:-1 11:-1 12:-0.954867 13:-0.219012 14:-0.942446 15:0.56 16:-0.953488 17:-0.6 18:-1 19:-1 20:-0.939394 21:-0.2 22:-0.195193 23:-0.333333 24:-1 25:-1 26:-1 28:-1 29:-0.333333 
1 1:1 2:0.6815 3:-1 5:-0.857143 6:-0.889223 8:1 9:-0.740741 10:-1 11:1 12:-0.910035 13:-0.0689267 14:-0.928058 15:0.633333 16:-0.953488 17:-0.666667 18:-1 19:-1 20:-0.939394 21:-0.333333 22:0.365307 23:0.333333 24:-1 25:-1 26:-1 28:-1 29:-0.333333 
1 1:-1 2:-1 3:-1 5:-1 6:-1 8:-0.333333 9:-1 10:-1 11:1 12:-0.901911 13:-0.0689267 14:-0.928058 15:0.633333 16:-0.953488 17:-0.666667 18:-1 19:-1 20:-0.939394 21:-0.333333 22:0.365307 23:0.333333 24:-1 25:-1 26:-1 28:-1 29:-0.333333 
1 1:1 2:0.06806 3:-1 5:-0.642857 6:-0.551757 8:-1 9:-0.814815 10:-1 11:-1 12:-0.901911 13:-0.0493571 14:-0.913669 15:0.685714 16:-0.953488 17:-0.714286 18:-1 19:-1 20:-0.939394 21:-0.428571 22:0.163127 23:0.333333 24:-1 25:-1 26:-1 28:-1 29:-0.333333 
1 1:1 2:0.85086 3:-1 5:-0.857143 6:-0.909854 8:1 9:-0.666667 10:-1 11:1 12:-0.888972 13:0.06317 14:-0.899281 15:0.725 16:-0.953488 17:-0.75 18:-1 19:-1 20:-0.939394 21:-0.5 22:0.533473 23:0.333333 24:-1 25:-1 26:-1 28:-1 29:-0.333333 
1 1:-1 2:-1 3:-1 5:-1 6:-1 8:-0.333333 9:-1 10:-1 11:1 12:-0.879645 13:0.06317 14:-0.899281 15:0.725 16:-0.953488 17:-0.75 18:-1 19:-1 20:-0.939394 21:-0.5 22:0.533473 23:0.333333 24:-1 25:-1 26:-1 28:-1 29:-0.333333 
1 1:1 2:0.38306 3:-1 5:-0.785714 6:-0.845014 8:-1 9:-0.888889 10:-1 11:-1 12:-0.879645 13:0.0987133 14:-0.884892 15:0.755556 16:-0.953488 17:-0.777778 18:-1 19:-1 20:-0.939394 21:-0.555556 22:0.433993 23:0.333333 24:-1 25:-1 26:-1 28:-1 29:-0.333333 
1 1:1 2:0.832 3:-1 5:-0.857143 6:-0.842066 8:1 9:-0.777778 10:-1 11:1 12:-0.871521 13:0.172042 14:-0.870504 15:0.78 16:-0.953488 17:-0.8 18:-1 19:-1 20:-0.939394 21:-0.6 22:0.68864 23:0.333333 24:-1 25:-1 26:-1 28:-1 29:-0.333333 
1 1:-1 2:-1 3:-1 5:-1 6:-1 8:-0.333333 9:-1 10:-1 11:1 12:-0.863547 13:0.172042 14:-0.870504 15:0.78 16:-0.953488 17:-0.8 18:-1 19:-1 20:-0.939394 21:-0.6 22:0.68864 23:0.333333 24:-1 25:-1 26:-1 28:-1 29:-0.333333 
1 1:1 2:0.36946 3:-1 5:-0.857143 6:-0.504601 8:-1 9:-0.740741 10:-1 11:-1 12:-0.863547 13:0.189989 14:-0.856115 15:0.8 16:-0.953488 17:-0.818182 18:-1 19:-1 20:-0.939394 21:-0.636364 22:0.528173 23:0.333333 24:-1 25:-1 26:-1 28:-1 29:-0.333333 
1 1:1 2:0.82766 3:-1 5:-0.857143 6:-0.849434 8:1 9:-0.666667 10:-1 11:1 12:-0.833609 13:0.0948859 14:-0.798561 15:0.611765 16:-0.906977 17:-0.764706 18:-0.875 19:-0.882353 20:-0.878788 21:-0.529412 22:0.0832733 23:0.333333 24:-1 26:-0.333333 28:-0.333333 29:0.333333 
1 1:-1 2:-1 3:-1 5:-1 6:-1 8:-0.333333 9:-1 10:-1 11:1 12:-0.824282 13:0.0948859 14:-0.798561 15:0.611765 16:-0.906977 17:-0.764706 18:-0.875 19:-0.882353 20:-0.878788 21:-0.529412 22:0.0832733 23:0.333333 24:-1 25:-1 26:-0.333333 28:-1 29:-0.333333 
1 1:-0.333333 2:-1 3:-1 5:-1 6:-1 8:0.333333 9:-0.777778 10:-1 11:-1 12:-0.824282 13:0.0340589 14:-0.798561 15:0.511111 16:-0.906977 17:-0.777778 18:-0.75 19:-0.777778 20:-0.878788 21:-0.555556 22:0.0832733 23:-0.333333 24:-1 26:-1 28:-1 29:-1 
1 1:-1 2:-1 3:-1 5:-1 6:-1 8:-0.333333 9:-0.518519 10:-1 11:-1 12:-0.824282 13:0.0340589 14:-0.798561 15:0.511111 16:-0.906977 17:-0.777778 18:-0.75 19:-0.777778 20:-0.878788 21:-0.555556 22:0.0832733 23:-1 24:-1 26:-1 28:-1 29:-1 
1 1:1 2:0.46388 3:1 5:-0.857143 6:-0.889223 8:-1 9:-0.259259 10:-1 11:-1 12:-0.824282 13:0.0566811 14:-0.784173 15:0.536842 16:-0.906977 17:-0.789474 18:-0.75 19:-0.789474 20:-0.848485 21:-0.473684 22:0.09718 23:-0.333333 24:-1 26:-0.333333 28:-1 29:-0.333333 
1 1:1 2:0.82054 3:-1 5:-0.857143 6:-0.884802 8:1 9:-0.814815 10:-1 11:1 12:-0.774033 13:0.107607 14:-0.726619 15:0.617391 16:-0.906977 17:-0.826087 18:-0.75 19:-0.826087 20:-0.848485 21:-0.565217 22:0.316713 23:0.333333 24:-1 25:-1 26:-1 28:-1 29:-0.333333 
1 1:-1 2:-1 3:-1 5:-1 6:-1 8:-0.333333 9:-1 10:-1 11:1 12:-0.766511 13:0.107607 14:-0.726619 15:0.617391 16:-0.906977 17:-0.826087 18:-0.75 19:-0.826087 20:-0.848485 21:-0.565217 22:0.316713 23:0.333333 24:-1 25:-1 26:-1 28:-1 29:-0.333333 
1 1:-1 2:-1 3:-1 5:-1 6:-1 8:-0.333333 9:-1 10:-1 11:1 12:-0.677599 13:0.278998 14:-0.597122 15:0.725 16:-0.906977 17:-0.875 18:-0.75 19:-0.875 20:-0.848485 21:-0.6875 22:0.74358 23:0.333333 24:-1 25:-1 26:-1 28:-0.333333 29:-0.333333 
1 1:-0.333333 2:-1 3:-1 5:-1 6:-1 8:0.333333 9:-0.740741 10:-1 11:-1 12:-0.677599 13:0.240241 14:-0.597122 15:0.666667 16:-0.906977 17:-0.878788 18:-0.625 19:-0.818182 20:-0.848485 21:-0.69697 22:0.20094 23:-0.333333 24:-1 26:-1 28:-1 29:-1 
1 1:-1 2:-1 3:-1 5:-1 6:-1 8:-0.333333 10:-1 11:-1 12:-0.677599 13:0.240241 14:-0.597122 15:0.666667 16:-0.906977 17:-0.878788 18:-0.625 19:-0.818182 20:-0.848485 21:-0.69697 22:0.20094 23:-1 24:-1 26:-1 28:-1 29:-1 
1 1:1 2:0.04514 3:1 5:-0.571429 6:-0.786068 8:-1 9:0.62963 10:-1 11:-1 12:-0.677599 13:0.234502 14:-0.582734 15:0.676471 16:-0.906977 17:-0.882353 18:-0.625 19:-0.823529 20:-0.818182 21:-0.647059 22:-0.0490667 23:-0.333333 24:-1 26:-0.333333 28:-1 29:-0.333333 
1 1:-1 2:-1 3:-1 5:-1 6:-1 8:-0.333333 9:-1 10:-1 11:-1 12:-0.635625 13:0.234502 14:-0.582734 15:0.676471 16:-0.906977 17:-0.882353 18:-0.625 19:-0.823529 20:-0.818182 21:-0.647059 22:-0.0490667 23:-0.333333 24:-1 25:-1 26:-0.333333 28:-1 29:-0.333333 
1 1:-1 2:-1 3:-1 5:-1 6:-1 8:-0.333333 10:-1 11:-1 12:-0.635625 13:0.234502 14:-0.582734 15:0.676471 16:-0.906977 17:-0.882353 18:-0.625 19:-0.823529 20:-0.818182 21:-0.647059 22:-0.0490667 23:-0.333333 24:-1 25:-1 26:-0.333333 28:-1 29:-0.333333 
1 1:-0.333333 2:-1 3:-1 5:-1 6:-1 8:-1 9:0.62963 10:-1 11:-1 12:-0.635625 13:0.199231 14:-0.582734 15:0.622857 16:-0.906977 17:-0.885714 18:-0.5 19:-0.771429 20:-0.818182 21:-0.657143 22:-0.65162 23:-1 24:-1 26:-1 28:-1 29:-0.333333 
1 1:0.333333 2:-1 3:-1 5:-0.857143 6:-0.84354 8:-1 9:-0.814815 10:-1 11:-1 12:-0.99985 13:-1 14:-1 15:1 16:-0.953488 17:1 18:-1 19:-1 20:-1 21:-1 22:-1 23:-1 24:-0.333333 25:-1 26:-1 28:-1 29:-0.333333 
1 1:1 2:-0.36364 3:1 5:-0.857143 6:-0.852382 8:-1 10:1 11:-1 12:-0.978637 13:-0.68182 14:-0.985612 15:-0.1 16:-0.953488 18:-1 19:-1 20:-0.969697 22:-0.68182 23:-0.333333 24:-0.333333 25:-1 26:-0.333333 28:-0.333333 29:0.333333 
1 1:1 2:0.82458 3:-1 5:-0.857143 6:-0.930485 8:1 9:-0.740741 10:1 11:1 12:-0.965699 13:-0.15525 14:-0.956835 15:0.45 16:-0.953488 17:-0.5 18:-1 19:-1 20:-0.969697 21:-0.5 22:0.126333 23:1 24:-1 25:-1 26:-0.333333 28:0.333333 29:-0.333333 
1 1:-1 2:-1 3:-1 5:-1 6:-1 8:-0.333333 9:-1 10:-1 11:1 12:-0.958778 13:-0.15525 14:-0.956835 15:0.45 16:-0.953488 17:-0.5 18:-1 19:-1 20:-0.969697 21:-0.5 22:0.126333 23:0.333333 24:-1 25:-1 26:-1 28:-0.333333 29:-1 
1 1:-1 2:-1 3:-1 5:-1 6:-1 8:-0.333333 9:0.296296 10:-1 11:-1 12:-0.958778 13:-0.15525 14:-0.956835 15:0.45 16:-0.953488 17:-0.5 18:-1 19:-1 20:-0.969697 21:-0.5 22:0.126333 23:-0.333333 24:-1 25:-1 26:-1 28:-0.333333 29:-1 
1 1:-0.333333 2:-1 3:-1 5:-1 6:-1 8:-1 9:-0.703704 10:-1 11:-1 12:-0.958478 13:0.092636 14:-0.942446 15:0.56 16:-1 17:-1 18:-0.875 19:-0.6 20:-0.939394 21:-0.2 22:-0.142967 23:0.333333 24:-1 26:-0.333333 28:-1 29:0.333333 
1 1:-0.333333 2:-1 3:-1 5:-1 6:-1 8:-1 9:-0.740741 10:-1 11:-1 12:-0.984956 13:-0.62875 14:-0.985612 15:-0.1 16:-1 17:-1 18:-0.875 20:-0.969697 22:-0.62875 23:-0.333333 24:-1 26:-0.333333 28:-1 29:0.333333 
1 1:1 2:-0.2556 3:1 5:-0.857143 6:-0.929012 8:-1 10:-1 11:-1 12:-0.984956 13:-0.504367 14:-0.971223 15:0.266667 16:-1 17:-1 18:-0.875 19:-0.333333 20:-0.939394 21:0.333333 22:-0.504367 23:-0.333333 24:-1 26:-0.333333 28:-1 29:0.333333 
1 1:1 2:0.25716 3:-1 5:-0.857143 6:-0.933432 8:1 9:-0.777778 10:-1 11:1 12:-0.96946 13:-0.313985 14:-0.956835 15:0.45 16:-1 17:-1 18:-0.875 19:-0.5 20:-0.939394 22:-0.332813 23:0.333333 24:-1 26:-0.333333 28:-1 29:0.333333 
1 1:1 2:0.88586 3:-1 5:-0.857143 6:-0.934906 8:1 9:-0.703704 10:1 11:1 12:-0.961486 13:-0.074016 14:-0.942446 15:0.56 16:-1 17:-1 18:-0.875 19:-0.6 20:-0.939394 21:-0.2 22:0.295807 23:1 24:-1 25:-1 26:-0.333333 28:-0.333333 29:-0.333333 
1 1:-1 2:-1 3:-1 5:-1 6:-1 8:-0.333333 9:-1 10:-1 11:1 12:-0.954566 13:-0.074016 14:-0.942446 15:0.56 16:-1 17:-1 18:-0.875 19:-0.6 20:-0.939394 21:-0.2 22:0.295807 23:0.333333 24:-1 25:-1 26:-1 28:-0.333333 29:-1 
1 1:1 2:0.74662 3:-1 5:-0.857143 6:-0.921643 8:-1 9:-0.888889 10:-1 11:-1 12:-0.954566 13:0.0627567 14:-0.928058 15:0.633333 16:-1 17:-1 18:-0.875 19:-0.666667 20:-0.939394 21:-0.333333 22:0.62988 23:0.333333 24:-1 25:-1 26:-1 28:-0.333333 29:-0.333333 
1 1:-0.333333 2:-1 3:-1 5:-1 6:-1 8:0.333333 9:-0.740741 10:-1 11:-1 12:-0.919813 13:0.193896 14:-0.884892 15:0.56 16:-1 17:-1 18:-0.75 19:-0.6 20:-0.939394 21:-0.6 22:0.22448 23:-0.333333 24:-1 26:-1 28:-1 29:-1 
1 1:0.333333 2:-1 3:1 5:-0.785714 6:-0.930485 8:-1 9:0.62963 10:-1 11:-1 12:-0.919813 13:0.08536 14:-0.884892 15:0.4 16:-0.953488 17:-0.818182 18:-0.75 19:-0.636364 20:-0.909091 21:-0.454545 22:-0.37088 23:-1 24:-0.333333 26:-0.333333 28:-1 29:-0.333333 
1 1:1 2:0.5838 3:1 5:-0.571429 6:-0.883328 8:-1 9:-0.333333 10:1 11:-1 12:-0.882503 13:0.126897 14:-0.870504 15:0.45 16:-0.953488 17:-0.833333 18:-0.75 19:-0.666667 20:-0.878788 21:-0.333333 22:-0.472067 23:-0.333333 24:-0.333333 25:-1 26:0.333333 28:-0.333333 29:0.333333 
1 1:-1 2:-1 3:-1 5:-1 6:-1 8:-0.333333 9:-1 10:-1 11:-1 12:-0.878291 13:0.126897 14:-0.870504 15:0.45 16:-0.953488 17:-0.833333 18:-0.75 19:-0.666667 20:-0.878788 21:-0.333333 22:-0.472067 23:-0.333333 24:-0.333333 25:-1 26:0.333333 28:-0.333333 29:0.333333 
1 1:-1 2:-1 3:-1 5:-1 6:-1 8:-0.333333 9:-0.0740741 10:-1 11:-1 12:-0.878291 13:0.126897 14:-0.870504 15:0.45 16:-0.953488 17:-0.833333 18:-0.75 19:-0.666667 20:-0.878788 21:-0.333333 22:-0.472067 23:-0.333333 24:-1 25:-1 26:-0.333333 28:-0.333333 29:-0.333333 
1 1:-0.333333 2:-1 3:-1 5:-1 6:-1 8:-1 9:0.62963 10:-1 11:-1 12:-0.878291 13:0.0402123 14:-0.870504 15:0.323077 16:-0.953488 17:-0.846154 18:-0.625 19:-0.538462 20:-0.878788 21:-0.384615 22:-0.472067 23:-1 24:-1 26:-1 28:-1 29:-0.333333 
1 1:-1 2:-1 3:-1 5:-1 6:-1 8:-0.333333 9:0.481481 10:-1 11:-1 12:-0.980593 13:-0.25137 14:-0.971223 15:1 16:-1 17:-1 18:-1 19:-1 20:-0.939394 21:1 22:-0.25137 23:0.333333 24:-1 25:-1 26:0.333333 28:-0.333333 29:0.333333 
1 1:-0.333333 2:-1 3:-1 5:-1 6:-1 8:-1 9:-0.740741 10:-1 11:-1 12:-0.980593 13:-0.500913 14:-0.971223 15:0.266667 16:-1 17:-1 18:-0.875 19:-0.333333 20:-0.939394 21:0.333333 22:-0.500913 23:-0.333333 24:-1 26:-0.333333 28:-0.333333 29:0.333333 
1 1:-0.333333 2:-1 3:-1 5:-1 6:-1 8:-1 9:-0.740741 10:-1 11:-1 12:-0.984956 13:-0.63108 14:-0.985612 15:-0.1 16:-1 17:-1 18:-0.875 20:-0.969697 22:-0.63108 23:-0.333333 24:-1 26:-0.333333 28:-1 29:0.333333 
1 1:1 2:-0.53402 3:1 5:-0.714286 6:-0.87596 8:-1 10:-1 11:-1 12:-0.984956 13:-0.598727 14:-0.971223 15:0.266667 16:-1 17:-1 18:-0.875 19:-0.333333 20:-0.939394 21:0.333333 22:-0.598727 23:-0.333333 24:-1 26:-0.333333 28:-1 29:0.333333 
1 1:0.333333 2:-1 3:-1 5:-0.642857 6:-0.796383 8:-1 9:-0.814815 10:-1 11:-1 12:-0.971867 13:-0.383036 14:-0.956835 15:0.12 16:-0.953488 17:-0.6 18:-0.875 19:-0.6 20:-0.939394 21:-0.2 22:-0.217673 23:-0.333333 24:-0.333333 25:-1 26:-1 28:-1 29:-0.333333 
1 1:-0.333333 2:-1 3:-1 5:-1 6:-1 8:-1 9:-0.62963 10:-1 11:-1 12:-0.963292 13:-0.485863 14:-0.956835 15:-0.1 16:-0.953488 17:-0.666667 18:-0.75 19:-0.333333 20:-0.939394 21:-0.333333 22:-0.373 23:-1 24:-0.333333 26:-1 28:-1 29:0.333333 
1 1:1 2:0.63374 3:-1 5:-0.857143 6:-0.899539 8:-1 9:-0.814815 10:-1 11:-1 12:-0.963292 13:-0.32592 14:-0.942446 15:0.0571429 16:-0.953488 17:-0.714286 18:-0.75 19:-0.428571 20:-0.939394 21:-0.428571 22:-0.45542 23:-0.333333 24:-0.333333 26:-1 28:-1 29:1 
1 1:1 2:-0.90848 3:1 5:-0.642857 6:-0.842066 8:-1 10:1 11:-1 12:-0.951256 13:-0.302827 14:-0.971223 15:0.266667 16:-1 17:-1 18:-0.875 19:-0.333333 20:-0.939394 21:0.333333 22:-0.302827 23:0.333333 24:-1 26:0.333333 28:-0.333333 29:1 
1 1:1 2:0.87306 3:-1 5:-0.857143 6:-0.946695 8:1 9:-0.666667 10:1 11:1 12:-0.880548 13:0.267653 14:-0.841727 15:0.816667 16:-1 17:-1 18:-0.875 19:-0.833333 20:-0.848485 21:-0.166667 22:0.504173 23:1 24:-1 25:-1 26:-0.333333 28:-0.333333 29:-0.333333 
1 1:1 2:0.3537 3:-1 5:-0.785714 6:-0.915749 8:-1 9:-0.814815 10:-1 11:-1 12:-0.844441 13:0.222392 14:-0.81295 15:0.706667 16:-1 17:-1 18:-0.75 19:-0.733333 20:-0.848485 21:-0.333333 22:0.0413467 23:0.333333 24:-1 25:-1 26:-1 28:-1 29:0.333333 
1 1:1 2:0.87732 3:-1 5:-0.857143 6:-0.943748 8:1 9:-0.666667 10:-1 11:1 12:-0.832255 13:0.263325 14:-0.798561 15:0.725 16:-1 17:-1 18:-0.75 19:-0.75 20:-0.848485 21:-0.375 22:0.66712 23:0.333333 24:-1 25:-1 26:-1 28:-1 29:-0.333333 
1 1:-1 2:-1 3:-1 5:-1 6:-1 8:-0.333333 9:-1 10:-1 11:1 12:-0.825184 13:0.263325 14:-0.798561 15:0.725 16:-1 17:-1 18:-0.75 19:-0.75 20:-0.848485 21:-0.375 22:0.66712 23:0.333333 24:-1 25:-1 26:-1 28:-1 29:-0.333333 
1 1:1 2:0.73572 3:-1 5:-0.857143 6:-0.940801 8:-1 9:-0.851852 10:-1 11:-1 12:-0.825184 13:0.291113 14:-0.784173 15:0.741176 16:-1 17:-1 18:-0.75 19:-0.764706 20:-0.848485 21:-0.411765 22:0.65558 23:0.333333 24:-1 25:-1 26:-1 28:-1 29:-0.333333 
1 1:1 2:0.88054 3:-1 5:-0.857143 6:-0.946695 8:1 9:-0.777778 10:-1 11:1 12:-0.818715 13:0.323859 14:-0.769784 15:0.755556 16:-1 17:-1 18:-0.75 19:-0.777778 20:-0.848485 21:-0.444444 22:0.831193 23:0.333333 24:-1 25:-1 26:-1 28:-1 29:-0.333333 
1 1:-1 2:-1 3:-1 5:-1 6:-1 8:-0.333333 9:-1 10:-1 11:1 12:-0.812096 13:0.323859 14:-0.769784 15:0.755556 16:-1 17:-1 18:-0.75 19:-0.777778 20:-0.848485 21:-0.444444 22:0.831193 23:0.333333 24:-1 25:-1 26:-1 28:-1 29:-0.333333 
1 1:1 2:0.18512 3:-1 5:-0.714286 6:-0.893644 8:-1 9:-0.814815 10:-1 11:-1 12:-0.812096 13:0.316557 14:-0.755396 15:0.768421 16:-1 17:-1 18:-0.75 19:-0.789474 20:-0.848485 21:-0.473684 22:0.60046 23:0.333333 24:-1 25:-1 26:-1 28:-1 29:-0.333333 
1 1:0.333333 2:-1 3:1 5:-0.857143 6:-0.934906 8:1 9:-0.666667 10:-1 11:1 12:-0.803972 13:0.250729 14:-0.755396 15:0.67 16:-0.953488 17:-0.9 18:-0.75 19:-0.8 20:-0.818182 21:-0.4 22:0.0218867 23:-0.333333 24:-0.333333 25:-1 26:-0.333333 28:-1 29:-0.333333 
1 1:1 2:0.41488 3:-1 5:-0.857143 6:-0.822909 8:-1 9:-0.62963 10:1 11:-1 12:-0.95607 13:0.50302 14:-0.942446 15:1 16:-1 17:-1 18:-1 19:-1 20:-0.969697 21:-0.5 22:0.680767 23:0.333333 24:-1 25:-1 26:-1 28:-0.333333 29:0.333333 
1 1:-1 2:-1 3:-1 5:-1 6:-1 8:-0.333333 9:-0.962963 10:-1 11:-1 12:-0.944336 13:0.50302 14:-0.942446 15:1 16:-1 17:-1 18:-1 19:-1 20:-0.969697 21:-0.5 22:0.680767 23:0.333333 24:-1 25:-1 26:-1 28:-0.333333 29:0.333333 
1 1:0.333333 2:-1 3:1 5:-0.857143 6:-0.934906 8:-1 10:1 11:-1 12:-0.979389 13:-0.29577 14:-0.985612 15:-0.1 16:-0.953488 18:-1 19:-1 20:-0.939394 21:1 22:-0.29577 23:-0.333333 24:-0.333333 25:-1 26:0.333333 28:-0.333333 29:0.333333 
1 1:-1 2:-1 3:-1 5:-1 6:-1 8:-0.333333 9:-0.962963 10:-1 11:-1 12:-0.968106 13:-0.29577 14:-0.985612 15:-0.1 16:-0.953488 18:-1 19:-1 20:-0.939394 21:1 22:-0.29577 23:-0.333333 24:-0.333333 25:-1 26:0.333333 28:-0.333333 29:0.333333 
1 1:1 2:-0.45212 3:-1 5:-0.571429 6:-0.735963 8:-1 9:-0.777778 10:-1 11:-1 12:-0.968106 13:-0.347887 14:-0.971223 15:0.266667 16:-0.953488 17:-0.333333 18:-1 19:-1 20:-0.939394 21:0.333333 22:-0.347887 23:-0.333333 24:-0.333333 25:-1 26:-0.333333 28:-0.333333 29:0.333333 
1 1:1 2:0.68758 3:-1 5:-0.857143 6:-0.933432 8:1 9:-0.703704 10:-1 11:1 12:-0.941778 13:-0.180573 14:-0.942446 15:0.266667 16:-0.953488 17:-0.666667 18:-0.875 19:-0.666667 20:-0.939394 21:-0.333333 22:-0.01326 23:0.333333 24:-1 26:-1 28:-1 29:0.333333 
1 1:-1 2:-1 3:-1 5:-1 6:-1 8:-0.333333 9:-1 10:-1 11:1 12:-0.935159 13:-0.180573 14:-0.942446 15:0.266667 16:-0.953488 17:-0.666667 18:-0.875 19:-0.666667 20:-0.939394 21:-0.333333 22:-0.01326 23:0.333333 24:-1 25:-1 26:-1 28:-1 29:-0.333333 
1 1:1 2:-0.39036 3:-1 5:-0.714286 6:-0.822909 8:-1 9:-0.888889 10:-1 11:-1 12:-0.935159 13:-0.210543 14:-0.928058 15:0.371429 16:-0.953488 17:-0.714286 18:-0.875 19:-0.714286 20:-0.939394 21:-0.428571 22:0.189953 23:0.333333 24:-1 25:-1 26:-1 28:-1 29:-0.333333 
1 1:1 2:0.75716 3:-1 5:-0.857143 6:-0.931959 8:1 9:-0.740741 10:-1 11:1 12:-0.924176 13:-0.08958 14:-0.913669 15:0.45 16:-0.953488 17:-0.75 18:-0.875 19:-0.75 20:-0.939394 21:-0.5 22:0.35146 23:0.333333 24:-1 25:-1 26:-1 28:-1 29:-0.333333 
1 1:-1 2:-1 3:-1 5:-1 6:-1 8:-0.333333 9:-1 10:-1 11:1 12:-0.916955 13:-0.08958 14:-0.913669 15:0.45 16:-0.953488 17:-0.75 18:-0.875 19:-0.75 20:-0.939394 21:-0.5 22:0.35146 23:0.333333 24:-1 25:-1 26:-1 28:-1 29:-0.333333 
1 1:1 2:0.07188 3:-1 5:-0.642857 6:-0.78312 8:-1 9:-0.851852 10:-1 11:-1 12:-0.916955 13:-0.07164 14:-0.899281 15:0.511111 16:-0.953488 17:-0.777778 18:-0.875 19:-0.777778 20:-0.939394 21:-0.555556 22:0.146227 23:0.333333 24:-1 25:-1 26:-1 28:-1 29:-0.333333 
1 1:1 2:0.7823 3:-1 5:-0.857143 6:-0.911328 8:1 9:-0.666667 10:-1 11:1 12:-0.90176 13:0.013754 14:-0.884892 15:0.56 16:-0.953488 17:-0.8 18:-0.875 19:-0.8 20:-0.939394 21:-0.6 22:0.537113 23:0.333333 24:-1 25:-1 26:-1 28:-1 29:-0.333333 
1 1:-1 2:-1 3:-1 5:-1 6:-1 8:-0.333333 9:-1 10:-1 11:1 12:-0.893787 13:0.013754 14:-0.884892 15:0.56 16:-0.953488 17:-0.8 18:-0.875 19:-0.8 20:-0.939394 21:-0.6 22:0.537113 23:0.333333 24:-1 25:-1 26:-1 28:-1 29:-0.333333 
1 1:-0.333333 2:-1 3:-1 5:-1 6:-1 8:0.333333 9:-0.814815 10:-1 11:-1 12:-0.893787 13:-0.0784055 14:-0.884892 15:0.4 16:-0.953488 17:-0.818182 18:-0.75 19:-0.636364 20:-0.939394 21:-0.636364 22:-0.0486067 23:-0.333333 24:-1 26:-1 28:-1 29:-1 
1 1:-1 2:-1 3:-1 5:-1 6:-1 8:-0.333333 9:0.0740741 10:-1 11:-1 12:-0.893787 13:-0.0784055 14:-0.884892 15:0.4 16:-0.953488 17:-0.818182 18:-0.75 19:-0.636364 20:-0.939394 21:-0.636364 22:-0.0486067 23:-1 24:-1 26:-1 28:-1 29:-1 
1 1:1 2:0.1458 3:-1 5:-0.857143 6:-0.921643 8:-1 9:0.62963 10:-1 11:-1 12:-0.893787 13:-0.0597217 14:-0.870504 15:0.45 16:-0.953488 17:-0.833333 18:-0.75 19:-0.666667 20:-0.939394 21:-0.666667 22:-0.0239667 23:-0.333333 24:-1 26:-1 28:-1 29:-0.333333 
1 1:-0.333333 2:-1 3:-1 5:-1 6:-1 8:-0.333333 9:-0.592593 10:-1 11:-1 12:-0.840229 13:-0.132051 14:-0.870504 15:0.323077 16:-0.953488 17:-0.846154 18:-0.625 19:-0.538462 20:-0.939394 21:-0.692308 22:-0.618067 23:-0.333333 24:-1 26:-1 28:-1 29:-0.333333 
1 1:-0.333333 2:-1 3:-1 5:-1 6:-1 8:-1 9:-0.740741 10:-1 11:-1 12:-0.982248 13:-0.62875 14:-0.985612 15:-0.1 16:-1 17:-1 18:-0.875 20:-0.969697 22:-0.62875 23:-0.333333 24:-1 26:-0.333333 28:-1 29:0.333333 
1 1:0.333333 2:-1 3:-1 5:-0.857143 6:-0.901012 8:-1 10:1 11:-1 12:-0.948097 13:-0.4895 14:-0.971223 15:-0.1 16:-0.953488 17:-0.5 18:-0.875 19:-0.5 20:-0.939394 22:-0.566833 23:-0.333333 24:-0.333333 26:-0.333333 28:-0.333333 29:1 
1 1:-1 2:-1 3:-1 5:-1 6:-1 8:-0.333333 9:-0.962963 10:-1 11:-1 12:-0.916203 13:-0.4895 14:-0.971223 15:-0.1 16:-0.953488 17:-0.5 18:-0.875 19:-0.5 20:-0.939394 22:-0.566833 23:-0.333333 24:-0.333333 25:-1 26:-0.333333 28:-0.333333 29:0.333333 
1 1:1 2:-0.24754 3:-1 5:-0.357143 6:-0.600388 8:-1 9:-0.777778 10:-1 11:-1 12:-0.970513 13:0.07696 14:-0.956835 15:1 16:-1 17:-1 18:-1 19:-1 20:-0.969697 21:-0.333333 22:0.07696 23:0.333333 24:-1 25:-1 26:-1 28:-1 29:-0.333333 
1 1:0.333333 2:-1 3:1 5:-0.785714 6:-0.918696 8:-1 10:1 11:-1 12:-0.978938 13:-1 14:-1 15:1 16:-0.906977 17:1 18:-1 19:-1 20:-0.969697 22:-1 23:-1 24:0.333333 25:-1 26:-0.333333 28:-0.333333 29:0.333333 
1 1:-1 2:-1 3:-1 5:-1 6:-1 8:-0.333333 9:-0.962963 10:-1 11:-1 12:-0.975478 13:-1 14:-1 15:1 16:-0.906977 17:1 18:-1 19:-1 20:-0.969697 22:-1 23:-1 24:0.333333 25:-1 26:-0.333333 28:-0.333333 29:0.333333 
1 1:1 2:0.76796 3:-1 5:-0.857143 6:-0.914275 8:1 9:-0.703704 10:-1 11:1 12:-0.9493 13:-0.123798 14:-0.913669 15:0.45 16:-0.906977 17:-0.5 18:-1 19:-1 20:-0.909091 21:-0.25 22:0.544847 23:0.333333 24:-1 25:-1 26:-1 28:-1 29:-0.333333 
1 1:-1 2:-1 3:-1 5:-1 6:-1 8:-0.333333 9:-1 10:-1 11:1 12:-0.941778 13:-0.123798 14:-0.913669 15:0.45 16:-0.906977 17:-0.5 18:-1 19:-1 20:-0.909091 21:-0.25 22:0.544847 23:0.333333 24:-1 25:-1 26:-1 28:-1 29:-0.333333 
1 1:1 2:0.50194 3:-1 5:-0.571429 6:-0.737437 8:-1 9:-0.740741 10:-1 11:-1 12:-0.941778 13:-0.0542711 14:-0.899281 15:0.511111 16:-0.906977 17:-0.555556 18:-1 19:-1 20:-0.909091 21:-0.333333 22:0.46696 23:0.333333 24:-1 25:-1 26:-1 28:-1 29:-0.333333 
1 1:1 2:0.80756 3:-1 5:-0.857143 6:-0.937853 8:1 9:-0.666667 10:-1 11:1 12:-0.929442 13:0.031912 14:-0.884892 15:0.56 16:-0.906977 17:-0.6 18:-1 19:-1 20:-0.909091 21:-0.4 22:0.692487 23:0.333333 24:-1 25:-1 26:-1 28:-1 29:-0.333333 
1 1:-1 2:-1 3:-1 5:-1 6:-1 8:-0.333333 9:-1 10:-1 11:1 12:-0.921468 13:0.031912 14:-0.884892 15:0.56 16:-0.906977 17:-0.6 18:-1 19:-1 20:-0.909091 21:-0.4 22:0.692487 23:0.333333 24:-1 25:-1 26:-1 28:-1 29:-0.333333 
1 1:-0.333333 2:-1 3:-1 5:-1 6:-1 8:0.333333 9:-0.814815 10:-1 11:-1 12:-0.921468 13:-0.0618982 14:-0.884892 15:0.4 16:-0.906977 17:-0.636364 18:-0.875 19:-0.818182 20:-0.909091 21:-0.454545 22:0.103167 23:-0.333333 24:-1 26:-1 28:-1 29:-1 
1 1:-1 2:-1 3:-1 5:-1 6:-1 8:-0.333333 9:-0.481481 10:-1 11:-1 12:-0.921468 13:-0.0618982 14:-0.884892 15:0.4 16:-0.906977 17:-0.636364 18:-0.875 19:-0.818182 20:-0.909091 21:-0.454545 22:0.103167 23:-1 24:-1 26:-1 28:-1 29:-1 
1 1:1 2:-0.14456 3:-1 5:-0.857143 6:-0.946695 8:-1 9:-0.259259 10:-1 11:-1 12:-0.921468 13:-0.0687867 14:-0.870504 15:0.45 16:-0.906977 17:-0.666667 18:-0.875 19:-0.833333 20:-0.909091 21:-0.5 22:-0.112333 23:-0.333333 24:-1 26:-1 28:-1 29:-0.333333 
1 1:-1 2:-1 3:-1 5:-1 6:-1 8:-0.333333 10:-1 11:-1 12:-0.896645 13:-0.0687867 14:-0.870504 15:0.45 16:-0.906977 17:-0.666667 18:-0.875 19:-0.833333 20:-0.909091 21:-0.5 22:-0.112333 23:-0.333333 24:-1 25:-1 26:-1 28:-1 29:-0.333333 
1 1:-0.333333 2:-1 3:-1 5:-1 6:-1 8:-1 9:-0.592593 10:-1 11:-1 12:-0.896645 13:-0.140418 14:-0.870504 15:0.323077 16:-0.906977 17:-0.692308 18:-0.75 19:-0.692308 20:-0.909091 21:-0.538462 22:-0.714853 23:-0.333333 24:-1 26:-1 28:-1 29:0.333333 
1 1:1 2:0.61722 3:-1 5:-0.642857 6:-0.800804 8:-1 9:-0.703704 10:-1 11:-1 12:-0.896645 13:-0.0863014 14:-0.856115 15:0.371429 16:-0.906977 17:-0.714286 18:-0.75 19:-0.714286 20:-0.909091 21:-0.571429 22:-0.17578 23:-0.333333 24:-1 26:-1 28:-1 29:0.333333 
1 1:-1 2:-1 3:-1 5:-1 6:-1 8:-0.333333 9:-0.814815 10:-1 11:-1 12:-0.866707 13:-0.0863014 14:-0.856115 15:0.371429 16:-0.906977 17:-0.714286 18:-0.75 19:-0.714286 20:-0.909091 21:-0.571429 22:-0.17578 23:-0.333333 24:-1 26:-1 28:-1 29:0.333333 
1 1:1 2:-0.72088 3:-1 5:-0.285714 6:-0.656386 8:-1 9:-0.814815 10:-1 11:-1 12:-0.866707 13:-0.128607 14:-0.841727 15:0.413333 16:-0.906977 17:-0.733333 18:-0.75 19:-0.733333 20:-0.909091 21:-0.6 22:-0.367887 23:0.333333 24:-1 25:-1 26:-1 28:-1 29:0.333333 
1 1:1 2:-0.8027 3:1 5:-0.714286 6:-0.864171 8:1 9:-0.666667 10:-1 11:1 12:-0.851061 13:-0.170737 14:-0.827338 15:0.45 16:-0.906977 17:-0.75 18:-0.75 19:-0.75 20:-0.878788 21:-0.5 22:-0.30212 23:0.333333 24:-1 25:-1 26:-0.333333 28:-1 29:-0.333333 
1 1:1 2:0.84894 3:-1 5:-0.857143 6:-0.942274 8:1 9:-0.777778 10:-1 11:1 12:-0.84068 13:-0.0706147 14:-0.784173 15:0.536842 16:-0.906977 17:-0.789474 18:-0.75 19:-0.789474 20:-0.848485 21:-0.473684 22:0.463373 23:0.333333 24:-1 25:-1 26:-1 28:-0.333333 29:-1 
1 1:-1 2:-1 3:-1 5:-1 6:-1 8:-0.333333 9:-1 10:-1 11:1 12:-0.833158 13:-0.0706147 14:-0.784173 15:0.536842 16:-0.906977 17:-0.789474 18:-0.75 19:-0.789474 20:-0.848485 21:-0.473684 22:0.463373 23:-0.333333 24:-1 25:-1 26:-1 28:-1 29:-1 
1 1:1 2:0.85046 3:-1 5:-0.857143 6:-0.939327 8:1 9:-0.814815 10:-1 11:1 12:-0.833158 13:-0.024561 14:-0.769784 15:0.56 16:-0.906977 17:-0.8 18:-0.75 19:-0.8 20:-0.848485 21:-0.5 22:0.847513 23:0.333333 24:-1 25:-1 26:-1 28:-1 29:-1 
1 1:-1 2:-1 3:-1 5:-1 6:-1 8:-0.333333 9:-1 10:-1 11:1 12:-0.825636 13:-0.024561 14:-0.769784 15:0.56 16:-0.906977 17:-0.8 18:-0.75 19:-0.8 20:-0.848485 21:-0.5 22:0.847513 23:-0.333333 24:-1 25:-1 26:-1 28:-1 29:-1 
1 1:1 2:0.83882 3:-1 5:-0.785714 6:-0.902486 8:-1 9:-0.814815 10:-1 11:-1 12:-0.825636 13:0.0165524 14:-0.755396 15:0.580952 16:-0.906977 17:-0.809524 18:-0.75 19:-0.809524 20:-0.848485 21:-0.52381 22:0.846073 23:0.333333 24:-1 25:-1 26:-1 28:-1 29:-0.333333 
1 1:1 2:0.855 3:-1 5:-0.857143 6:-0.937853 8:1 9:-0.62963 10:-1 11:1 12:-0.817512 13:0.0546636 14:-0.741007 15:0.6 16:-0.906977 17:-0.818182 18:-0.75 19:-0.818182 20:-0.848485 21:-0.545455 22:0.848093 23:0.333333 24:-1 25:-1 26:-1 28:-1 29:-0.333333 
1 1:-1 2:-1 3:-1 5:-1 6:-1 8:-0.333333 9:-1 10:-1 11:1 12:-0.809839 13:0.0546636 14:-0.741007 15:0.6 16:-0.906977 17:-0.818182 18:-0.75 19:-0.818182 20:-0.848485 21:-0.545455 22:0.848093 23:0.333333 24:-1 25:-1 26:-1 28:-1 29:-0.333333 
1 1:-0.333333 2:-1 3:-1 5:-1 6:-1 8:0.333333 9:-0.703704 10:-1 11:-1 12:-0.809839 13:0.0088087 14:-0.741007 15:0.521739 16:-0.906977 17:-0.826087 18:-0.625 19:-0.73913 20:-0.848485 21:-0.565217 22:0.231273 23:-0.333333 24:-1 26:-1 28:-1 29:-1 
1 1:1 2:0.88622 3:-1 5:-0.857143 6:-0.943748 8:1 9:-0.814815 10:1 11:1 12:-0.973973 13:0.0251533 14:-0.956835 15:1 16:-1 17:-1 18:-1 19:-1 20:-0.939394 21:0.333333 22:0.0251533 23:1 24:-1 25:-1 26:0.333333 28:-0.333333 29:-0.333333 
1 1:-1 2:-1 3:-1 5:-1 6:-1 8:-0.333333 9:-1 10:-1 11:1 12:-0.967203 13:0.0251533 14:-0.956835 15:1 16:-1 17:-1 18:-1 19:-1 20:-0.939394 21:0.333333 22:0.0251533 23:0.333333 24:-1 25:-1 26:-0.333333 28:-0.333333 29:-1 
1 1:1 2:0.88612 3:-1 5:-0.857143 6:-0.93638 8:1 9:-0.703704 10:-1 11:1 12:-0.967203 13:0.240395 14:-0.942446 15:1 16:-1 17:-1 18:-1 19:-1 20:-0.939394 22:0.56088 23:0.333333 24:-1 25:-1 26:-1 28:-0.333333 29:-1 
1 1:-0.333333 2:-1 3:-1 5:-1 6:-1 8:-1 9:-0.888889 10:-1 11:-1 12:-0.941327 13:0.187363 14:-0.913669 15:0.685714 16:-1 17:-1 18:-0.875 19:-0.714286 20:-0.939394 21:-0.428571 22:0.116653 23:-0.333333 24:-1 26:-1 28:-1 29:-0.333333 
1 1:1 2:-0.68108 3:-1 5:-0.571429 6:-0.849434 8:-1 10:1 11:-1 12:-0.977885 13:-0.43443 14:-0.971223 15:1 16:-1 17:-1 18:-1 19:-1 20:-1 21:-1 22:-0.43443 23:0.333333 24:-1 25:-1 26:-1 28:-0.333333 29:0.333333 
1 1:1 2:-0.3674 3:1 5:-0.785714 6:-0.898065 8:1 9:-0.703704 10:-1 11:1 12:-0.953964 13:-0.412087 14:-0.956835 15:1 16:-1 17:-1 18:-1 19:-1 20:-0.969697 21:-0.333333 22:-0.412087 23:1 24:-1 25:-1 26:-0.333333 28:-0.333333 29:0.333333 
1 1:1 2:0.82576 3:-1 5:-0.857143 6:-0.933432 8:1 9:-0.703704 10:1 11:1 12:-0.952008 13:-0.102625 14:-0.942446 15:1 16:-1 17:-1 18:-1 19:-1 20:-0.969697 21:-0.5 22:-0.07424 23:1 24:-1 25:-1 26:-0.333333 28:0.333333 29:-0.333333 
1 1:-1 2:-1 3:-1 5:-1 6:-1 8:-0.333333 9:-1 10:-1 11:1 12:-0.945539 13:-0.102625 14:-0.942446 15:1 16:-1 17:-1 18:-1 19:-1 20:-0.969697 21:-0.5 22:-0.07424 23:0.333333 24:-1 25:-1 26:-0.333333 28:-0.333333 29:-1 
1 1:1 2:0.84108 3:-1 5:-0.857143 6:-0.937853 8:1 9:-0.777778 10:-1 11:1 12:-0.945539 13:0.086116 14:-0.928058 15:1 16:-1 17:-1 18:-1 19:-1 20:-0.969697 21:-0.6 22:0.433147 23:0.333333 24:-1 25:-1 26:-1 28:-0.333333 29:-1 
1 1:1 2:0.41186 3:-1 5:-0.714286 6:-0.899539 8:-1 9:-0.851852 10:-1 11:-1 12:-0.937566 13:0.140407 14:-0.913669 15:1 16:-1 17:-1 18:-1 19:-1 20:-0.969697 21:-0.666667 22:0.6929 23:0.333333 24:-1 25:-1 26:-1 28:-1 29:-0.333333 
1 1:1 2:0.84644 3:-1 5:-0.785714 6:-0.911328 8:-1 9:-0.740741 10:-1 11:-1 12:-0.926734 13:0.241269 14:-0.899281 15:1 16:-1 17:-1 18:-1 19:-1 20:-0.969697 21:-0.714286 22:0.699793 23:0.333333 24:-1 25:-1 26:-1 28:-1 29:0.333333 
1 1:1 2:0.86056 3:-1 5:-0.857143 6:-0.93638 8:1 9:-0.666667 10:-1 11:1 12:-0.919061 13:0.31868 14:-0.884892 15:1 16:-1 17:-1 18:-1 19:-1 20:-0.969697 21:-0.75 22:0.706287 23:1 24:-1 25:-1 26:-1 28:-1 29:0.333333 
1 1:-0.333333 2:-1 3:-1 5:-1 6:-1 8:0.333333 9:-0.814815 10:-1 11:-1 12:-0.911689 13:0.17216 14:-0.884892 15:0.755556 16:-1 17:-1 18:-0.875 19:-0.777778 20:-0.969697 21:-0.777778 22:0.235667 23:-0.333333 24:-1 26:-1 28:-1 29:-1 
1 1:1 2:-0.23698 3:-1 5:-0.214286 6:-0.678491 8:-1 9:-0.814815 10:-1 11:-1 12:-0.861893 13:0.168235 14:-0.856115 15:0.8 16:-1 17:-1 18:-0.875 19:-0.818182 20:-0.969697 21:-0.818182 22:-0.232953 23:0.333333 24:-1 25:-1 26:-1 28:-1 29:0.333333 
1 1:1 2:0.87128 3:-1 5:-0.857143 6:-0.940801 8:1 9:-0.703704 10:-1 11:1 12:-0.847149 13:0.226822 14:-0.841727 15:0.816667 16:-1 17:-1 18:-0.875 19:-0.833333 20:-0.969697 21:-0.833333 22:0.390807 23:0.333333 24:-1 25:-1 26:-1 28:-1 29:-0.333333 
1 1:-1 2:-1 3:-1 5:-1 6:-1 8:-0.333333 9:-1 10:-1 11:1 12:-0.84068 13:0.226822 14:-0.841727 15:0.816667 16:-1 17:-1 18:-0.875 19:-0.833333 20:-0.969697 21:-0.833333 22:0.390807 23:0.333333 24:-1 25:-1 26:-1 28:-1 29:-0.333333 
1 1:1 2:0.87418 3:-1 5:-0.857143 6:-0.943748 8:1 9:-0.703704 10:-1 11:1 12:-0.84068 13:0.276618 14:-0.827338 15:0.830769 16:-1 17:-1 18:-0.875 19:-0.846154 20:-0.969697 21:-0.846154 22:0.502827 23:0.333333 24:-1 25:-1 26:-1 28:-1 29:-1 
1 1:1 2:0.87204 3:-1 5:-0.857143 6:-0.931959 8:1 9:-0.740741 10:-1 11:1 12:-0.832706 13:0.319149 14:-0.81295 15:0.842857 16:-1 17:-1 18:-0.875 19:-0.857143 20:-0.969697 21:-0.857143 22:0.8725 23:0.333333 24:-1 25:-1 26:-1 28:-1 29:-1 
1 1:1 2:0.87412 3:-1 5:-0.857143 6:-0.933432 8:1 9:-0.703704 10:-1 11:1 12:-0.824282 13:0.356147 14:-0.798561 15:0.853333 16:-1 17:-1 18:-0.875 19:-0.866667 20:-0.969697 21:-0.866667 22:0.873447 23:0.333333 24:-1 25:-1 26:-1 28:-1 29:-1 
1 1:-0.333333 2:-1 3:-1 5:-1 6:-1 8:0.333333 9:-0.777778 10:-1 11:-1 12:-0.815706 13:0.271387 14:-0.798561 15:0.725 16:-1 17:-1 18:-0.75 19:-0.75 20:-0.969697 21:-0.875 22:0.24872 23:-0.333333 24:-1 26:-1 28:-1 29:-1 
1 1:-1 2:-1 3:-1 5:-1 6:-1 8:-0.333333 9:-0.037037 10:-1 11:-1 12:-0.815706 13:0.271387 14:-0.798561 15:0.725 16:-1 17:-1 18:-0.75 19:-0.75 20:-0.969697 21:-0.875 22:0.24872 23:-1 24:-1 26:-1 28:-1 29:-1 
1 1:1 2:0.59598 3:1 5:-0.571429 6:-0.870066 8:-1 9:0.62963 10:-1 11:-1 12:-0.815706 13:0.290481 14:-0.784173 15:0.741176 16:-1 17:-1 18:-0.75 19:-0.764706 20:-0.939394 21:-0.764706 22:0.1567 23:-0.333333 24:-1 26:-0.333333 28:-1 29:-0.333333 
1 1:-0.333333 2:-1 3:-1 5:-1 6:-1 8:-0.333333 9:-0.592593 10:-1 11:-1 12:-0.730104 13:0.210334 14:-0.769784 15:0.652632 16:-1 17:-1 18:-0.625 19:-0.684211 20:-0.939394 21:-0.789474 22:-0.115287 23:-0.333333 24:-1 26:-1 28:-1 29:-0.333333 
1 1:1 2:0.88378 3:-1 5:-0.857143 6:-0.934906 8:1 9:-0.814815 10:-1 11:1 12:-0.96946 13:0.0379733 14:-0.956835 15:1 16:-1 17:-1 18:-1 19:-1 20:-0.969697 21:-0.333333 22:0.0379733 23:1 24:-1 25:-1 26:-0.333333 28:-1 29:-0.333333 
1 1:1 2:0.881 3:-1 5:-0.857143 6:-0.926064 8:1 9:-0.777778 10:-1 11:1 12:-0.907628 13:0.061515 14:-0.956835 15:0.45 16:-1 17:-1 18:-0.875 19:-0.5 20:-1 21:-1 22:-0.251313 23:0.333333 24:-1 26:-1 28:-1 29:0.333333 
1 1:1 2:-0.36262 3:1 5:-0.857143 6:-0.943748 8:-1 9:-0.333333 10:1 11:-1 12:-0.856025 13:0.323298 14:-0.841727 15:0.661538 16:-1 17:-1 18:-0.75 19:-0.692308 20:-0.878788 21:-0.384615 22:-0.29602 23:0.333333 24:-1 25:-1 26:0.333333 28:-0.333333 29:0.333333 
0.6469193678603671 1:1 2:1 3:-1 5:-0.785714 6:-0.873013 8:-1 10:1 11:-1 12:-0.97623 14:-0.985612 15:-0.1 16:-0.953488 18:-1 19:-1 20:-0.969697 23:-0.333333 24:-0.333333 25:-1 26:-0.333333 28:-0.333333 29:0.333333 
1 1:1 2:-0.3352 3:-1 5:-0.785714 6:-0.311552 8:1 9:-0.703704 10:-1 11:1 12:-0.974425 13:-0.59924 14:-0.971223 15:1 16:-1 17:-1 18:-1 19:-1 20:-0.969697 22:-0.59924 23:0.333333 24:-1 25:-1 26:-0.333333 28:-1 29:-0.333333 
1 1:1 2:0.79044 3:-1 5:-0.857143 6:-0.906907 8:1 9:-0.37037 10:1 11:1 12:-0.956973 13:-0.136013 14:-0.956835 15:1 16:-1 17:-1 18:-1 19:-1 20:-0.969697 21:-0.333333 22:-0.136013 23:1 24:-1 25:-1 26:-0.333333 28:-0.333333 29:-0.333333 
1 1:-1 2:-1 3:-1 5:-1 6:-1 8:-0.333333 9:-1 10:-1 11:1 12:-0.943283 13:-0.136013 14:-0.956835 15:1 16:-1 17:-1 18:-1 19:-1 20:-0.969697 21:-0.333333 22:-0.136013 23:0.333333 24:-1 25:-1 26:-1 28:-0.333333 29:-1 
1 1:1 2:0.794 3:-1 5:-0.857143 6:-0.865645 8:1 9:-0.777778 10:-1 11:1 12:-0.943283 13:0.09649 14:-0.942446 15:1 16:-1 17:-1 18:-1 19:-1 20:-0.969697 21:-0.5 22:0.416413 23:0.333333 24:-1 25:-1 26:-1 28:-0.333333 29:-1 
1 1:1 2:-0.34804 3:-1 5:-0.785714 6:-0.840593 8:-1 10:1 11:-1 12:-0.981495 13:0.03021 14:-0.971223 15:1 16:-1 17:-1 18:-1 19:-1 20:-0.969697 22:0.03021 23:0.333333 24:-1 25:-1 26:-0.333333 28:-0.333333 29:0.333333 
1 1:-1 2:-1 3:-1 5:-1 6:-1 8:-0.333333 9:-0.962963 10:-1 11:-1 12:-0.957424 13:0.03021 14:-0.971223 15:1 16:-1 17:-1 18:-1 19:-1 20:-0.969697 22:0.03021 23:0.333333 24:-1 25:-1 26:-0.333333 28:-0.333333 29:0.333333 
1 1:0.333333 2:-1 3:-1 5:-0.785714 6:-0.774278 8:-1 9:-0.888889 10:-1 11:-1 12:-0.95246 13:0.185672 14:-0.942446 15:0.56 16:-0.953488 17:-0.6 18:-1 19:-1 20:-1 21:-1 22:-0.0866267 23:-0.333333 24:-0.333333 25:-1 26:-1 28:-1 29:-0.333333 
1 1:1 2:0.66138 3:-1 5:-0.857143 6:-0.911328 8:-1 9:-0.62963 10:1 11:-1 12:-0.942831 13:0.264957 14:-0.928058 15:0.633333 16:-0.953488 17:-0.666667 18:-1 19:-1 20:-1 21:-1 22:0.180293 23:-0.333333 24:-0.333333 25:-1 26:-1 28:-0.333333 29:0.333333 
1 1:0.333333 2:-1 3:-1 5:-0.857143 6:-0.915749 8:1 9:-0.740741 10:-1 11:1 12:-0.951557 13:-0.081125 14:-0.956835 15:0.45 16:-0.953488 17:-0.5 18:-1 19:-1 20:-0.969697 21:-0.5 22:0.200213 23:-0.333333 24:-0.333333 25:-1 26:-1 28:-1 29:-0.333333 
1 1:0.333333 2:-1 3:1 5:-0.642857 6:-0.845014 8:1 9:-0.333333 10:1 11:1 12:-0.945991 13:-0.2649 14:-0.956835 15:0.12 16:-0.906977 17:-0.2 18:-1 19:-1 20:-0.939394 21:-0.2 22:-0.42422 23:-0.333333 24:0.333333 25:-1 26:-0.333333 28:-0.333333 29:-0.333333 
1 1:1 2:0.60648 3:1 5:-0.857143 6:-0.884802 8:1 9:-0.333333 10:1 11:1 12:-0.942681 13:-0.11967 14:-0.942446 15:0.266667 16:-0.906977 17:-0.333333 18:-1 19:-1 20:-0.909091 22:-0.464507 23:-0.333333 24:0.333333 25:-1 26:0.333333 28:0.333333 29:-1 
1 1:-1 2:-1 3:-1 5:-1 6:-1 8:-0.333333 9:-1 10:-1 11:1 12:-0.933053 13:-0.11967 14:-0.942446 15:0.266667 16:-0.906977 17:-0.333333 18:-1 19:-1 20:-0.909091 22:-0.464507 23:-0.333333 24:-0.333333 25:-1 26:0.333333 28:0.333333 29:-1 
1 1:1 2:0.7505 3:-1 5:-0.785714 6:-0.883328 8:-1 9:-0.814815 10:1 11:-1 12:-0.929442 13:0.071965 14:-0.913669 15:0.45 16:-0.906977 17:-0.5 18:-1 19:-1 20:-0.878788 22:0.633407 23:0.333333 24:-1 25:-1 26:-0.333333 28:-0.333333 29:0.333333 
1 1:1 2:0.79366 3:-1 5:-0.857143 6:-0.933432 8:1 9:-0.740741 10:-1 11:1 12:-0.921017 13:0.152153 14:-0.899281 15:0.511111 16:-0.906977 17:-0.555556 18:-1 19:-1 20:-0.878788 21:-0.111111 22:0.6958 23:1 24:-1 25:-1 26:-0.333333 28:-0.333333 29:0.333333 
1 1:-1 2:-1 3:-1 5:-1 6:-1 8:-0.333333 9:-1 10:-1 11:1 12:-0.913645 13:0.152153 14:-0.899281 15:0.511111 16:-0.906977 17:-0.555556 18:-1 19:-1 20:-0.878788 21:-0.111111 22:0.6958 23:0.333333 24:-1 25:-1 26:-1 28:-0.333333 29:-0.333333 
1 1:-0.333333 2:-1 3:-1 5:-1 6:-1 8:0.333333 9:-0.814815 10:-1 11:-1 12:-0.913645 13:0.036938 14:-0.899281 15:0.34 16:-0.906977 17:-0.6 18:-0.875 19:-0.8 20:-0.878788 21:-0.2 22:0.181387 23:-0.333333 24:-1 26:-1 28:-1 29:-1 
1 1:-1 2:-1 3:-1 5:-1 6:-1 8:-0.333333 9:-0.0740741 10:-1 11:-1 12:-0.913645 13:0.036938 14:-0.899281 15:0.34 16:-0.906977 17:-0.6 18:-0.875 19:-0.8 20:-0.878788 21:-0.2 22:0.181387 23:-1 24:-1 26:-1 28:-1 29:-1 
1 1:1 2:-0.18428 3:1 5:-0.714286 6:-0.881855 8:1 9:-0.703704 10:-1 11:1 12:-0.927787 13:0.548363 14:-0.884892 15:1 16:-1 17:-1 18:-1 19:-1 20:-0.939394 21:-0.5 22:0.46246 23:0.333333 24:-1 25:-1 26:-0.333333 28:-1 29:-0.333333 
1 1:1 2:0.64084 3:-1 5:-0.642857 6:-0.64165 8:-1 9:-0.814815 10:-1 11:-1 12:-0.926734 13:0.558638 14:-0.870504 15:1 16:-1 17:-1 18:-1 19:-1 20:-0.939394 21:-0.555556 22:0.392547 23:1 24:-1 25:-1 26:-0.333333 28:-1 29:0.333333 
1 1:1 2:0.41332 3:1 5:-0.857143 6:-0.818488 8:-1 9:-0.740741 10:-1 11:-1 12:-0.940876 13:0.630831 14:-0.899281 15:1 16:-1 17:-1 18:-1 19:-1 20:-0.939394 21:-0.428571 22:0.67882 23:0.333333 24:-1 25:-1 26:-0.333333 28:-1 29:-0.333333 
1 1:1 2:0.83304 3:-1 5:-0.785714 6:-0.864171 8:-1 9:-0.851852 10:1 11:-1 12:-0.936212 13:0.656108 14:-0.884892 15:1 16:-1 17:-1 18:-1 19:-1 20:-0.939394 21:-0.5 22:0.710627 23:0.333333 24:-1 25:-1 26:-0.333333 28:-0.333333 29:0.333333 
1 1:1 2:0.65818 3:-1 5:-0.857143 6:-0.893644 8:1 9:-0.777778 10:-1 11:1 12:-0.942982 13:-0.566767 14:-0.956835 15:-0.1 16:-0.906977 17:-0.333333 18:-0.875 19:-0.666667 20:-0.939394 21:-0.333333 22:-0.286407 23:0.333333 24:-1 26:-1 28:-1 29:0.333333 
1 1:-1 2:-1 3:-1 5:-1 6:-1 8:-0.333333 9:-1 10:-1 11:1 12:-0.93561 13:-0.566767 14:-0.956835 15:-0.1 16:-0.906977 17:-0.333333 18:-0.875 19:-0.666667 20:-0.939394 21:-0.333333 22:-0.286407 23:0.333333 24:-1 25:-1 26:-1 28:-1 29:-0.333333 
1 1:1 2:0.44402 3:-1 5:-0.571429 6:-0.771331 8:-1 9:-0.333333 10:1 11:-1 12:-0.865503 13:0.418707 14:-0.870504 15:0.6 16:-0.953488 17:-0.818182 18:-0.875 19:-0.818182 20:-1 21:-1 22:-0.51866 23:-0.333333 24:-0.333333 25:-1 26:-1 28:-0.333333 29:0.333333 
1 1:-1 2:-1 3:-1 5:-1 6:-1 8:-0.333333 9:-1 10:-1 11:-1 12:-0.853618 13:0.418707 14:-0.870504 15:0.6 16:-0.953488 17:-0.818182 18:-0.875 19:-0.818182 20:-1 21:-1 22:-0.51866 23:-0.333333 24:-0.333333 25:-1 26:-1 28:-0.333333 29:0.333333 
1 1:-1 2:-1 3:-1 5:-1 6:-1 8:-0.333333 9:0.037037 10:-1 11:-1 12:-0.853618 13:0.418707 14:-0.870504 15:0.6 16:-0.953488 17:-0.818182 18:-0.875 19:-0.818182 20:-1 21:-1 22:-0.51866 23:-0.333333 24:-1 25:-1 26:-1 28:-0.333333 29:-0.333333 
1 1:1 2:0.3689 3:-1 5:-0.857143 6:-0.895118 8:-1 9:-0.814815 10:-1 11:-1 12:-0.975177 13:0.320253 14:-0.956835 15:1 16:-1 17:-1 18:-1 19:-1 20:-0.969697 21:-0.333333 22:0.320253 23:1 24:-1 25:-1 26:-0.333333 28:-1 29:0.333333 
1 1:1 2:0.88826 3:-1 5:-0.857143 6:-0.943748 8:1 9:-0.777778 10:-1 11:1 12:-0.970062 13:0.462255 14:-0.942446 15:1 16:-1 17:-1 18:-1 19:-1 20:-0.969697 21:-0.5 22:0.7133 23:1 24:-1 25:-1 26:-1 28:-1 29:-0.333333 
0.168153682069481 1:0.333333 2:-1 3:-1 5:-0.785714 6:-0.800804 8:-1 10:1 11:-1 12:-0.979389 13:-1 14:-1 15:1 16:-0.906977 17:1 18:-1 19:-1 20:-0.969697 22:-1 23:-1 24:0.333333 25:-1 26:-0.333333 28:-0.333333 29:0.333333 
1 1:-1 2:-1 3:-1 5:-1 6:-1 8:-0.333333 9:-0.962963 10:-1 11:-1 12:-0.95592 13:-1 14:-1 15:1 16:-0.906977 17:1 18:-1 19:-1 20:-0.969697 22:-1 23:-1 24:0.333333 25:-1 26:-0.333333 28:-0.333333 29:0.333333 
1 1:1 2:-0.06898 3:-1 5:-0.785714 6:-0.849434 8:-1 9:-0.777778 10:-1 11:-1 12:-0.95592 13:-0.68966 14:-0.985612 15:-0.466667 16:-0.906977 17:0.333333 18:-1 19:-1 20:-0.969697 21:-0.333333 22:-0.68966 23:-0.333333 24:-0.333333 25:-1 26:-1 28:-0.333333 29:0.333333 
1 1:1 2:0.74686 3:-1 5:-0.857143 6:-0.945222 8:1 9:-0.740741 10:-1 11:1 12:-0.946141 13:-0.33053 14:-0.971223 15:-0.1 16:-0.906977 18:-1 19:-1 20:-0.969697 21:-0.5 22:-0.107373 23:0.333333 24:-1 25:-1 26:-1 28:-1 29:-0.333333 
1 1:1 2:0.60552 3:-1 5:-0.857143 6:-0.929012 8:-1 9:-0.888889 10:-1 11:-1 12:-0.920114 13:0.0445343 14:-0.928058 15:0.371429 16:-0.906977 17:-0.428571 18:-1 19:-1 20:-0.969697 21:-0.714286 22:0.54462 23:0.333333 24:-1 25:-1 26:-1 28:-1 29:-0.333333 
1 1:1 2:0.82758 3:-1 5:-0.857143 6:-0.943748 8:1 9:-0.703704 10:-1 11:1 12:-0.912291 13:0.142415 14:-0.913669 15:0.45 16:-0.906977 17:-0.5 18:-1 19:-1 20:-0.969697 21:-0.75 22:0.74532 23:0.333333 24:-1 25:-1 26:-1 28:-1 29:-0.333333 
1 1:-1 2:-1 3:-1 5:-1 6:-1 8:-0.333333 9:-1 10:-1 11:1 12:-0.904619 13:0.142415 14:-0.913669 15:0.45 16:-0.906977 17:-0.5 18:-1 19:-1 20:-0.969697 21:-0.75 22:0.74532 23:0.333333 24:-1 25:-1 26:-1 28:-1 29:-0.333333 
1 1:1 2:0.81694 3:-1 5:-0.785714 6:-0.899539 8:-1 9:-0.851852 10:-1 11:-1 12:-0.904619 13:0.217362 14:-0.899281 15:0.511111 16:-0.906977 17:-0.555556 18:-1 19:-1 20:-0.969697 21:-0.777778 22:0.750013 23:0.333333 24:-1 25:-1 26:-1 28:-1 29:-0.333333 
1 1:1 2:0.8436 3:-1 5:-0.857143 6:-0.946695 8:1 9:-0.703704 10:-1 11:1 12:-0.895442 13:0.279986 14:-0.884892 15:0.56 16:-0.906977 17:-0.6 18:-1 19:-1 20:-0.969697 21:-0.8 22:0.829373 23:0.333333 24:-1 25:-1 26:-1 28:-1 29:-0.333333 
1 1:-1 2:-1 3:-1 5:-1 6:-1 8:-0.333333 9:-1 10:-1 11:1 12:-0.887318 13:0.279986 14:-0.884892 15:0.56 16:-0.906977 17:-0.6 18:-1 19:-1 20:-0.969697 21:-0.8 22:0.829373 23:0.333333 24:-1 25:-1 26:-1 28:-1 29:-0.333333 
1 1:-0.333333 2:-1 3:-1 5:-1 6:-1 8:0.333333 9:-0.777778 10:-1 11:-1 12:-0.887318 13:0.163624 14:-0.884892 15:0.4 16:-0.906977 17:-0.636364 18:-0.875 19:-0.818182 20:-0.969697 21:-0.818182 22:0.22018 23:-0.333333 24:-1 26:-1 28:-1 29:-1 
1 1:-1 2:-1 3:-1 5:-1 6:-1 8:-0.333333 9:-0.0740741 10:-1 11:-1 12:-0.887318 13:0.163624 14:-0.884892 15:0.4 16:-0.906977 17:-0.636364 18:-0.875 19:-0.818182 20:-0.969697 21:-0.818182 22:0.22018 23:-1 24:-1 26:-1 28:-1 29:-1 
1 1:1 2:-0.72956 3:-1 5:-0.428571 6:-0.525232 8:-1 9:-0.814815 10:-1 11:-1 12:-0.99985 13:-0.72956 14:-0.985612 15:1 16:-1 17:-1 18:-1 19:-1 20:-1 21:-1 22:-0.72956 23:-0.333333 24:-1 25:-1 26:-1 28:-1 29:-0.333333 
1 1:1 2:-0.93074 3:1 5:-0.5 6:-0.588599 8:1 9:-0.777778 10:-1 11:1 12:-0.979389 13:-0.83015 14:-0.971223 15:1 16:-1 17:-1 18:-1 19:-1 20:-0.969697 22:-0.83015 23:0.333333 24:-1 25:-1 26:-0.333333 28:-1 29:-0.333333 
1 1:-0.333333 2:-1 3:-1 5:-1 6:-1 8:-1 9:-0.740741 10:-1 11:-1 12:-0.979841 13:-0.63688 14:-0.985612 15:-0.1 16:-1 17:-1 18:-0.875 20:-0.969697 22:-0.63688 23:-0.333333 24:-1 26:-0.333333 28:-1 29:0.333333 
1 1:1 2:-0.4718 3:-1 5:-0.857143 6:-0.878907 8:-1 9:-0.777778 10:-1 11:-1 12:-0.951106 13:-0.168692 14:-0.942446 15:0.56 16:-1 17:-1 18:-0.875 19:-0.6 20:-0.939394 21:-0.2 22:0.143433 23:0.333333 24:-1 25:-1 26:-1 28:-1 29:-0.333333 
1 1:-0.333333 2:-1 3:-1 5:-1 6:-1 8:-1 9:-0.777778 10:1 11:-1 12:-0.941778 13:-0.307243 14:-0.942446 15:0.266667 16:-1 17:-1 18:-0.75 19:-0.333333 20:-0.939394 21:-0.333333 22:-0.19712 23:-0.333333 24:-1 26:-1 28:-0.333333 29:0.333333 
1 1:1 2:0.81936 3:-1 5:-0.857143 6:-0.886276 8:-1 9:-0.814815 10:-1 11:-1 12:-0.941778 13:-0.1463 14:-0.928058 15:0.371429 16:-1 17:-1 18:-0.75 19:-0.428571 20:-0.939394 21:-0.428571 22:-0.21748 23:0.333333 24:-1 26:-1 28:-0.333333 29:1 
1 1:1 2:-0.4039 3:1 5:-0.857143 6:-0.923117 8:-1 9:-0.777778 10:-1 11:-1 12:-0.960433 13:0.203887 14:-0.956835 15:1 16:-1 17:-1 18:-1 19:-1 20:-0.969697 21:-0.333333 22:0.203887 23:0.333333 24:-1 25:-1 26:-0.333333 28:-1 29:-0.333333 
1 1:1 2:0.69056 3:1 5:-0.857143 6:-0.896591 8:-1 9:-0.851852 10:-1 11:-1 12:-0.952761 13:0.415864 14:-0.928058 15:1 16:-1 17:-1 18:-1 19:-1 20:-0.939394 21:-0.2 22:0.354587 23:1 24:-1 25:-1 26:0.333333 28:-1 29:0.333333 
1 1:1 2:0.43168 3:1 5:-0.785714 6:-0.901012 8:-1 9:-0.592593 10:1 11:-1 12:-0.950053 13:0.4185 14:-0.913669 15:1 16:-1 17:-1 18:-1 19:-1 20:-0.909091 22:0.633113 23:1 24:-1 25:-1 26:0.333333 28:-0.333333 29:0.333333 
1 1:1 2:0.84856 3:-1 5:-0.857143 6:-0.917222 8:1 9:-0.740741 10:-1 11:1 12:-0.946893 13:0.479937 14:-0.899281 15:1 16:-1 17:-1 18:-1 19:-1 20:-0.909091 21:-0.142857 22:0.656933 23:1 24:-1 25:-1 26:0.333333 28:-0.333333 29:0.333333 
1 1:-0.333333 2:-1 3:-1 5:-1 6:-1 8:-1 9:-0.740741 10:-1 11:-1 12:-0.981796 13:-0.78125 14:-0.985612 15:-0.1 16:-1 17:-1 18:-0.875 20:-0.969697 22:-0.78125 23:-0.333333 24:-1 26:-0.333333 28:-1 29:0.333333 
1 1:-0.333333 2:-1 3:-1 5:-1 6:-1 8:-1 10:-1 11:-1 12:-0.976531 13:-0.5125 14:-0.971223 15:-0.32 16:-1 17:-1 18:-0.625 19:0.2 20:-0.939394 21:-0.2 22:-0.333333 23:-1 24:-1 25:1 26:-1 28:-1 29:0.333333 
1 1:1 2:0.05754 3:1 5:-0.857143 6:-0.887749 8:-1 9:-0.814815 10:-1 11:-1 12:-0.976531 13:-0.417493 14:-0.956835 15:-0.1 16:-1 17:-1 18:-0.625 20:-0.909091 22:-0.647487 23:-0.333333 24:-1 25:1 26:-0.333333 28:-1 29:1 
1 1:-0.333333 2:-1 3:-1 5:-1 6:-1 8:-1 9:-0.740741 10:-1 11:-1 12:-0.985708 13:-0.78125 14:-0.985612 15:-0.1 16:-1 17:-1 18:-0.875 20:-0.969697 22:-0.78125 23:-0.333333 24:-1 26:-0.333333 28:-1 29:0.333333 
1 1:1 2:0.0304 3:1 5:-0.857143 6:-0.878907 8:-1 10:-1 11:-1 12:-0.985708 13:-0.5107 14:-0.971223 15:0.266667 16:-1 17:-1 18:-0.875 19:-0.333333 20:-0.939394 21:0.333333 22:-0.5107 23:-0.333333 24:-1 26:-0.333333 28:-1 29:0.333333 
1 1:1 2:0.63784 3:-1 5:-0.857143 6:-0.93638 8:1 9:-0.740741 10:-1 11:1 12:-0.913946 13:-0.223565 14:-0.956835 15:0.45 16:-1 17:-1 18:-0.875 19:-0.5 20:-0.939394 22:-0.110587 23:0.333333 24:-1 26:-0.333333 28:-1 29:0.333333 
1 1:1 2:0.68852 3:1 5:-0.857143 6:-0.926064 8:1 9:-0.333333 10:1 11:1 12:-0.906875 13:-0.041148 14:-0.942446 15:0.56 16:-1 17:-1 18:-0.875 19:-0.6 20:-0.909091 21:0.2 22:0.452253 23:1 24:-1 25:-1 26:0.333333 28:-0.333333 29:-0.333333 
1 1:-1 2:-1 3:-1 5:-1 6:-1 8:-0.333333 9:-1 10:-1 11:1 12:-0.899052 13:-0.041148 14:-0.942446 15:0.56 16:-1 17:-1 18:-0.875 19:-0.6 20:-0.909091 21:0.2 22:0.452253 23:0.333333 24:-1 25:-1 26:-0.333333 28:-0.333333 29:-1 
1 1:0.333333 2:-1 3:-1 5:-0.785714 6:-0.864171 8:-1 9:-0.777778 10:-1 11:-1 12:-0.899052 13:-0.200957 14:-0.942446 15:0.266667 16:-0.953488 17:-0.666667 18:-0.875 19:-0.666667 20:-0.909091 22:0.108787 23:-0.333333 24:-0.333333 25:-1 26:-0.333333 28:-0.333333 29:-0.333333 
1 1:1 2:-0.05062 3:1 5:-0.857143 6:-0.905433 8:-1 9:-0.62963 10:1 11:-1 12:-0.894088 13:-0.17948 14:-0.928058 15:0.371429 16:-0.953488 17:-0.714286 18:-0.875 19:-0.714286 20:-0.878788 21:0.142857 22:-0.1207 23:-0.333333 24:-0.333333 25:-1 26:-0.333333 28:-0.333333 29:0.333333 
1 1:1 2:-0.70574 3:1 5:-0.785714 6:-0.911328 8:1 9:-0.777778 10:-1 11:1 12:-0.89138 13:-0.245263 14:-0.913669 15:0.45 16:-0.953488 17:-0.75 18:-0.875 19:-0.75 20:-0.848485 21:0.25 22:-0.585453 23:0.333333 24:-0.333333 25:-1 26:0.333333 28:-0.333333 29:0.333333 
1 1:1 2:0.82118 3:-1 5:-0.857143 6:-0.929012 8:1 9:-0.777778 10:1 11:1 12:-0.888822 13:-0.126769 14:-0.899281 15:0.511111 16:-0.953488 17:-0.777778 18:-0.875 19:-0.777778 20:-0.848485 21:0.111111 22:0.0216067 23:1 24:-1 25:-1 26:0.333333 28:0.333333 29:-0.333333 
1 1:-1 2:-1 3:-1 5:-1 6:-1 8:-0.333333 9:-1 10:-1 11:1 12:-0.882503 13:-0.126769 14:-0.899281 15:0.511111 16:-0.953488 17:-0.777778 18:-0.875 19:-0.777778 20:-0.848485 21:0.111111 22:0.0216067 23:0.333333 24:-1 25:-1 26:-0.333333 28:-0.333333 29:-1 
1 1:1 2:0.88314 3:-1 5:-0.857143 6:-0.926064 8:1 9:-0.814815 10:-1 11:1 12:-0.968106 13:0.426175 14:-0.942446 15:1 16:-1 17:-1 18:-1 19:-1 20:-0.969697 21:-0.5 22:0.657127 23:1 24:-1 25:-1 26:-1 28:-0.333333 29:-1 
1 1:-1 2:-1 3:-1 5:-1 6:-1 8:-0.333333 9:-1 10:-1 11:1 12:-0.961637 13:0.426175 14:-0.942446 15:1 16:-1 17:-1 18:-1 19:-1 20:-0.969697 21:-0.5 22:0.657127 23:0.333333 24:-1 25:-1 26:-1 28:-0.333333 29:-1 
1 1:1 2:-0.39774 3:1 5:-0.785714 6:-0.769857 8:-1 10:1 11:-1 12:-0.977133 13:-0.69887 14:-0.985612 15:-0.1 16:-0.953488 18:-1 19:-1 20:-0.939394 21:1 22:-0.69887 23:-0.333333 24:-0.333333 25:-1 26:0.333333 28:-0.333333 29:0.333333 
1 1:-1 2:-1 3:-1 5:-1 6:-1 8:-0.333333 9:-0.962963 10:-1 11:-1 12:-0.973371 13:-0.69887 14:-0.985612 15:-0.1 16:-0.953488 18:-1 19:-1 20:-0.939394 21:1 22:-0.69887 23:-0.333333 24:-0.333333 25:-1 26:0.333333 28:-0.333333 29:0.333333 
1 1:1 2:-0.61402 3:-1 5:-0.785714 6:-0.890697 8:-1 9:-0.851852 10:-1 11:-1 12:-0.973371 13:-0.670587 14:-0.971223 15:0.266667 16:-0.953488 17:-0.333333 18:-1 19:-1 20:-0.939394 21:0.333333 22:-0.670587 23:0.333333 24:-1 25:-1 26:-0.333333 28:-0.333333 29:0.333333 
1 1:1 2:0.67822 3:-1 5:-0.857143 6:-0.842066 8:1 9:-0.740741 10:-1 11:1 12:-0.964947 13:-0.333385 14:-0.956835 15:0.45 16:-0.953488 17:-0.5 18:-1 19:-1 20:-0.939394 22:-0.11118 23:0.333333 24:-1 25:-1 26:-1 28:-1 29:-0.333333 
1 1:-1 2:-1 3:-1 5:-1 6:-1 8:-0.333333 9:-1 10:-1 11:1 12:-0.958778 13:-0.333385 14:-0.956835 15:0.45 16:-0.953488 17:-0.5 18:-1 19:-1 20:-0.939394 22:-0.11118 23:0.333333 24:-1 25:-1 26:-1 28:-1 29:-0.333333 
1 1:-1 2:-1 3:-1 5:-1 6:-1 8:-0.333333 9:0.259259 10:-1 11:-1 12:-0.958778 13:-0.333385 14:-0.956835 15:0.45 16:-0.953488 17:-0.5 18:-1 19:-1 20:-0.939394 22:-0.11118 23:-0.333333 24:-1 25:-1 26:-1 28:-1 29:-1 
1 1:1 2:0.02662 3:-1 5:-0.857143 6:-0.90396 8:-1 9:-0.814815 10:-1 11:-1 12:-0.958778 13:-0.261384 14:-0.942446 15:0.56 16:-0.953488 17:-0.6 18:-1 19:-1 20:-0.939394 21:-0.2 22:0.0302733 23:-0.333333 24:-1 25:-1 26:-1 28:-1 29:-0.333333 
1 1:1 2:-0.82208 3:1 5:-0.5 6:-0.840593 8:-1 10:1 11:-1 12:-0.978637 13:-0.91104 14:-0.985612 15:-0.1 16:-0.953488 18:-1 19:-1 20:-0.939394 21:1 22:-0.91104 23:-0.333333 24:-0.333333 25:-1 26:0.333333 28:-0.333333 29:0.333333 
1 1:1 2:0.80976 3:-1 5:-0.857143 6:-0.946695 8:1 9:-0.814815 10:-1 11:1 12:-0.97623 13:-0.33744 14:-0.971223 15:0.266667 16:-0.953488 17:-0.333333 18:-1 19:-1 20:-0.939394 21:0.333333 22:-0.33744 23:0.333333 24:-0.333333 25:-1 26:0.333333 28:-0.333333 29:0.333333 
1 1:-1 2:-1 3:-1 5:-1 6:-1 8:-0.333333 9:-1 10:-1 11:1 12:-0.96961 13:-0.33744 14:-0.971223 15:0.266667 16:-0.953488 17:-0.333333 18:-1 19:-1 20:-0.939394 21:0.333333 22:-0.33744 23:0.333333 24:-1 25:-1 26:-0.333333 28:-0.333333 29:-0.333333 
1 1:1 2:0.59152 3:-1 5:-0.785714 6:-0.881855 8:-1 9:-0.777778 10:-1 11:-1 12:-0.96961 13:-0.1052 14:-0.956835 15:0.45 16:-0.953488 17:-0.5 18:-1 19:-1 20:-0.939394 22:0.193067 23:0.333333 24:-1 25:-1 26:-1 28:-1 29:-0.333333 
0.2781467966284741 1:-1 2:-1 3:-1 5:-1 6:-1 8:-0.333333 9:-1 10:-1 11:1 12:-0.953062 13:0.084708 14:-0.942446 15:0.56 16:-0.953488 17:-0.6 18:-1 19:-1 20:-0.939394 21:-0.2 22:0.74854 23:0.333333 24:-1 25:-1 26:-1 28:-1 29:-0.333333 
1 1:1 2:0.63604 3:-1 5:-0.785714 6:-0.878907 8:-1 9:-0.814815 10:-1 11:-1 12:-0.953062 13:0.176597 14:-0.928058 15:0.633333 16:-0.953488 17:-0.666667 18:-1 19:-1 20:-0.939394 21:-0.333333 22:0.690633 23:0.333333 24:-1 25:-1 26:-1 28:-1 29:-0.333333 
1 1:0.333333 2:-1 3:-1 5:-0.642857 6:-0.895118 8:-1 9:-0.740741 10:-1 11:-1 12:-0.938468 13:0.11487 14:-0.913669 15:0.45 16:-0.906977 17:-0.5 18:-1 19:-1 20:-0.939394 21:-0.5 22:0.16514 23:-0.333333 24:-0.333333 25:-1 26:-1 28:-1 29:-0.333333 
1 1:1 2:0.54926 3:-1 5:-0.785714 6:-0.878907 8:-1 9:-0.814815 10:1 11:-1 12:-0.924026 13:0.163136 14:-0.899281 15:0.511111 16:-0.906977 17:-0.555556 18:-1 19:-1 20:-0.939394 21:-0.555556 22:0.136213 23:-0.333333 24:-0.333333 25:-1 26:-1 28:-0.333333 29:0.333333 
1 1:1 2:0.84324 3:-1 5:-0.857143 6:-0.945222 8:1 9:-0.666667 10:-1 11:1 12:-0.913495 13:0.231146 14:-0.884892 15:0.56 16:-0.906977 17:-0.6 18:-1 19:-1 20:-0.939394 21:-0.6 22:0.130833 23:0.333333 24:-0.333333 25:-1 26:-1 28:-0.333333 29:0.333333 
1 1:-1 2:-1 3:-1 5:-1 6:-1 8:-0.333333 9:-1 10:-1 11:1 12:-0.906424 13:0.231146 14:-0.884892 15:0.56 16:-0.906977 17:-0.6 18:-1 19:-1 20:-0.939394 21:-0.6 22:0.130833 23:0.333333 24:-1 25:-1 26:-1 28:-0.333333 29:-0.333333 
1 1:-0.333333 2:-1 3:-1 5:-1 6:-1 8:0.333333 9:-0.777778 10:-1 11:-1 12:-0.906424 13:0.119224 14:-0.884892 15:0.4 16:-0.906977 17:-0.636364 18:-0.875 19:-0.818182 20:-0.939394 21:-0.636364 22:0.130833 23:-0.333333 24:-1 26:-1 28:-1 29:-1 
1 1:-1 2:-1 3:-1 5:-1 6:-1 8:-0.333333 9:-0.481481 10:-1 11:-1 12:-0.906424 13:0.119224 14:-0.884892 15:0.4 16:-0.906977 17:-0.636364 18:-0.875 19:-0.818182 20:-0.939394 21:-0.636364 22:0.130833 23:-1 24:-1 26:-1 28:-1 29:-1 
1 1:1 2:0.72182 3:-1 5:-0.642857 6:-0.889223 8:-1 9:-0.259259 10:-1 11:-1 12:-0.906424 13:0.16944 14:-0.870504 15:0.45 16:-0.906977 17:-0.666667 18:-0.875 19:-0.833333 20:-0.939394 21:-0.666667 22:0.188353 23:-0.333333 24:-1 26:-1 28:-1 29:-0.333333 
1 1:1 2:0.24806 3:-1 5:-0.857143 6:-0.899539 8:-1 9:-0.814815 10:-1 11:-1 12:-0.876787 13:0.175488 14:-0.856115 15:0.492308 16:-0.906977 17:-0.692308 18:-0.875 19:-0.846154 20:-0.939394 21:-0.692308 22:-0.01004 23:0.333333 24:-1 25:-1 26:-1 28:-1 29:0.333333 
1 1:1 2:-0.2735 3:1 5:-0.785714 6:-0.861224 8:1 9:-0.740741 10:-1 11:1 12:-0.864751 13:0.143417 14:-0.841727 15:0.528571 16:-0.906977 17:-0.714286 18:-0.875 19:-0.857143 20:-0.909091 21:-0.571429 22:0.232127 23:0.333333 24:-1 25:-1 26:-0.333333 28:-1 29:-0.333333 
1 1:1 2:0.85688 3:-1 5:-0.857143 6:-0.937853 8:1 9:-0.740741 10:1 11:1 12:-0.862795 13:0.190981 14:-0.827338 15:0.56 16:-0.906977 17:-0.733333 18:-0.875 19:-0.866667 20:-0.909091 21:-0.6 22:0.277147 23:1 24:-1 25:-1 26:-0.333333 28:-0.333333 29:-0.333333 
1 1:1 2:0.85858 3:-1 5:-0.857143 6:-0.934906 8:1 9:-0.666667 10:-1 11:1 12:-0.857229 13:0.232706 14:-0.81295 15:0.5875 16:-0.906977 17:-0.75 18:-0.875 19:-0.875 20:-0.909091 21:-0.625 22:0.480653 23:1 24:-1 25:-1 26:-0.333333 28:-0.333333 29:-1 
1 1:1 2:0.68448 3:-1 5:-0.785714 6:-0.893644 8:1 9:-0.814815 10:-1 11:1 12:-0.822777 13:0.243434 14:-0.755396 15:0.67 16:-0.906977 17:-0.8 18:-0.875 19:-0.9 20:-0.909091 21:-0.7 22:0.59466 23:0.333333 24:-1 25:-1 26:-1 28:-0.333333 29:-1 
1 1:-1 2:-1 3:-1 5:-1 6:-1 8:-0.333333 9:-1 10:-1 11:1 12:-0.814503 13:0.243434 14:-0.755396 15:0.67 16:-0.906977 17:-0.8 18:-0.875 19:-0.9 20:-0.909091 21:-0.7 22:0.59466 23:-0.333333 24:-1 25:-1 26:-1 28:-1 29:-1 
1 1:-1 2:-1 3:-1 5:-1 6:-1 8:-0.333333 9:0.296296 10:-1 11:-1 12:-0.814503 13:0.243434 14:-0.755396 15:0.67 16:-0.906977 17:-0.8 18:-0.875 19:-0.9 20:-0.909091 21:-0.7 22:0.59466 23:-0.333333 24:-1 25:-1 26:-1 28:-1 29:-1 
1 1:1 2:0.1982 3:-1 5:-0.857143 6:-0.899539 8:1 9:-0.740741 10:-1 11:1 12:-0.977433 13:-0.15868 14:-0.971223 15:1 16:-1 17:-1 18:-1 19:-1 20:-1 21:-1 22:-0.15868 23:0.333333 24:-1 25:-1 26:-1 28:-1 29:-0.333333 
1 1:-1 2:-1 3:-1 5:-1 6:-1 8:-0.333333 9:0.296296 10:-1 11:-1 12:-0.950654 13:-0.07934 14:-0.956835 15:0.45 16:-0.953488 17:-0.5 18:-1 19:-1 20:-1 21:-1 22:0.0660667 23:-0.333333 24:-1 25:-1 26:-1 28:-0.333333 29:-1 
1 1:-0.333333 2:-1 3:-1 5:-1 6:-1 8:-1 9:-0.814815 10:-1 11:-1 12:-0.950654 13:-0.263472 14:-0.956835 15:0.12 16:-0.953488 17:-0.6 18:-0.875 19:-0.6 20:-1 21:-1 22:-0.333333 23:-1 24:-1 26:-1 28:-1 29:-0.333333 
1 1:1 2:0.60832 3:-1 5:-0.857143 6:-0.901012 8:-1 9:-0.62963 10:1 11:-1 12:-0.961336 13:0.573965 14:-0.942446 15:1 16:-1 17:-1 18:-1 19:-1 20:-1 21:-1 22:0.72242 23:0.333333 24:-1 25:-1 26:-1 28:-0.333333 29:0.333333 
1 1:1 2:0.83812 3:-1 5:-0.857143 6:-0.930485 8:1 9:-0.777778 10:-1 11:1 12:-0.948849 13:0.626796 14:-0.928058 15:1 16:-1 17:-1 18:-1 19:-1 20:-1 21:-1 22:0.70876 23:1 24:-1 25:-1 26:-1 28:-0.333333 29:0.333333 
1 1:-1 2:-1 3:-1 5:-1 6:-1 8:-0.333333 9:-1 10:-1 11:1 12:-0.941778 13:0.626796 14:-0.928058 15:1 16:-1 17:-1 18:-1 19:-1 20:-1 21:-1 22:0.70876 23:0.333333 24:-1 25:-1 26:-1 28:-0.333333 29:-0.333333 
1 1:1 2:0.6393 3:-1 5:-0.714286 6:-0.805225 8:-1 9:-0.814815 10:1 11:-1 12:-0.915751 13:0.476711 14:-0.884892 15:0.755556 16:-0.953488 17:-0.777778 18:-1 19:-1 20:-1 21:-1 22:0.165013 23:-0.333333 24:-0.333333 25:-1 26:-1 28:-0.333333 29:0.333333 
1 1:1 2:0.83736 3:-1 5:-0.857143 6:-0.930485 8:1 9:-0.740741 10:-1 11:1 12:-0.908229 13:0.512776 14:-0.870504 15:0.78 16:-0.953488 17:-0.8 18:-1 19:-1 20:-1 21:-1 22:0.158887 23:0.333333 24:-0.333333 25:-1 26:-1 28:-0.333333 29:0.333333 
1 1:-1 2:-1 3:-1 5:-1 6:-1 8:-0.333333 9:-1 10:-1 11:1 12:-0.900557 13:0.512776 14:-0.870504 15:0.78 16:-0.953488 17:-0.8 18:-1 19:-1 20:-1 21:-1 22:0.158887 23:0.333333 24:-1 25:-1 26:-1 28:-0.333333 29:-0.333333 
1 1:1 2:0.44368 3:1 5:-0.571429 6:-0.812593 8:-1 9:-0.333333 10:1 11:-1 12:-0.849406 13:0.25381 14:-0.841727 15:0.528571 16:-0.906977 17:-0.714286 18:-0.875 19:-0.857143 20:-0.939394 21:-0.714286 22:-0.191473 23:-0.333333 24:-0.333333 25:-1 26:-0.333333 28:-0.333333 29:0.333333 
1 1:-1 2:-1 3:-1 5:-1 6:-1 8:-0.333333 9:-1 10:-1 11:-1 12:-0.812998 13:0.25381 14:-0.841727 15:0.528571 16:-0.906977 17:-0.714286 18:-0.875 19:-0.857143 20:-0.939394 21:-0.714286 22:-0.191473 23:-0.333333 24:-0.333333 25:-1 26:-0.333333 28:-0.333333 29:0.333333 
1 1:-1 2:-1 3:-1 5:-1 6:-1 8:-0.333333 9:0.037037 10:-1 11:-1 12:-0.812998 13:0.25381 14:-0.841727 15:0.528571 16:-0.906977 17:-0.714286 18:-0.875 19:-0.857143 20:-0.939394 21:-0.714286 22:-0.191473 23:-0.333333 24:-1 25:-1 26:-0.333333 28:-0.333333 29:-0.333333 
1 1:-0.333333 2:-1 3:-1 5:-1 6:-1 8:-1 9:0.62963 10:-1 11:-1 12:-0.812998 13:0.170223 14:-0.841727 15:0.413333 16:-0.906977 17:-0.733333 18:-0.75 19:-0.733333 20:-0.939394 21:-0.733333 22:-0.518773 23:-1 24:-1 26:-1 28:-1 29:-0.333333 
1 1:-0.333333 2:-1 3:-1 5:-1 6:-1 8:-1 9:0.62963 10:-1 11:-1 12:-0.812998 13:0.0970837 14:-0.841727 15:0.3125 16:-0.906977 17:-0.75 18:-0.625 19:-0.625 20:-0.939394 21:-0.75 22:-0.518773 23:-1 24:-1 25:1 26:-1 28:-1 29:0.333333 
1 1:-1 2:-1 3:-1 5:-1 6:-1 8:-0.333333 9:-0.185185 10:-1 11:-1 12:-0.812998 13:0.0970837 14:-0.841727 15:0.3125 16:-0.906977 17:-0.75 18:-0.625 19:-0.625 20:-0.939394 21:-0.75 22:-0.518773 23:-1 24:-1 25:1 26:-1 28:-1 29:0.333333 
1 1:0.333333 2:-1 3:-1 5:-0.857143 6:-0.842066 8:-1 9:0.62963 10:-1 11:-1 12:-0.812998 13:0.0325494 14:-0.841727 15:0.223529 16:-0.860465 17:-0.647059 18:-0.625 19:-0.647059 20:-0.939394 21:-0.764706 22:-1 23:-1 24:-0.333333 26:-1 28:-1 29:0.333333 
1 1:-0.333333 2:-1 3:-1 5:-1 6:-1 8:-1 9:-0.333333 10:1 11:-1 12:-0.681811 13:-0.0248144 14:-0.841727 15:0.144444 16:-0.860465 17:-0.666667 18:-0.5 19:-0.555556 20:-0.939394 21:-0.777778 22:-1 23:-1 24:-0.333333 26:-1 28:-0.333333 29:0.333333 
1 1:-0.333333 2:-1 3:-1 5:-1 6:-1 8:-1 9:0.62963 10:-1 11:-1 12:-0.681811 13:-0.07614 14:-0.841727 15:0.0736842 16:-0.860465 17:-0.684211 18:-0.375 19:-0.473684 20:-0.939394 21:-0.789474 22:-1 23:-1 24:-0.333333 25:1 26:-1 28:-0.333333 29:1 
1 1:-1 2:-1 3:-1 5:-1 6:-1 8:-0.333333 9:-0.185185 10:-1 11:-1 12:-0.681811 13:-0.07614 14:-0.841727 15:0.0736842 16:-0.860465 17:-0.684211 18:-0.375 19:-0.473684 20:-0.939394 21:-0.789474 22:-1 23:-1 24:-1 25:1 26:-1 28:-0.333333 29:0.333333 
1 1:0.333333 2:-1 3:1 5:-0.857143 6:-0.943748 8:-1 9:0.62963 10:-1 11:-1 12:-0.681811 13:-0.122333 14:-0.841727 15:0.01 16:-0.813953 17:-0.6 18:-0.375 19:-0.5 20:-0.909091 21:-0.7 22:-1 23:-1 24:-0.333333 26:-0.333333 28:-1 29:0.333333 
1 1:-0.333333 2:-1 3:-1 5:-1 6:-1 8:-1 9:-0.333333 10:1 11:-1 12:-0.582368 13:-0.164127 14:-0.841727 15:-0.047619 16:-0.813953 17:-0.619048 18:-0.25 19:-0.428571 20:-0.909091 21:-0.714286 22:-1 23:-1 24:-0.333333 26:-0.333333 28:-0.333333 29:0.333333 
1 1:-0.333333 2:-1 3:-1 5:-1 6:-1 8:-1 9:0.62963 10:-1 11:-1 12:-0.582368 13:-0.202121 14:-0.841727 15:-0.1 16:-0.813953 17:-0.636364 18:-0.125 19:-0.363636 20:-0.909091 21:-0.727273 22:-1 23:-1 24:-0.333333 25:1 26:-0.333333 28:-0.333333 29:1 
1 1:-1 2:-1 3:-1 5:-1 6:-1 8:-0.333333 9:-0.185185 10:-1 11:-1 12:-0.582368 13:-0.202121 14:-0.841727 15:-0.1 16:-0.813953 17:-0.636364 18:-0.125 19:-0.363636 20:-0.909091 21:-0.727273 22:-1 23:-1 24:-1 25:1 26:-1 28:-0.333333 29:0.333333 
1 1:-0.333333 2:-1 3:-1 5:-1 6:-1 8:-1 9:0.62963 10:-1 11:-1 12:-0.582368 13:-0.236811 14:-0.841727 15:-0.147826 16:-0.813953 17:-0.652174 19:-0.304348 20:-0.909091 21:-0.73913 22:-1 23:-1 24:-1 25:1 26:-1 28:-1 29:0.333333 
1 1:-1 2:-1 3:-1 5:-1 6:-1 8:-0.333333 9:-0.740741 10:-1 11:-1 12:-0.582368 13:-0.236811 14:-0.841727 15:-0.147826 16:-0.813953 17:-0.652174 19:-0.304348 20:-0.909091 21:-0.73913 22:-1 23:-1 24:-1 26:-1 28:-1 29:-0.333333 
1 1:-0.333333 2:-1 3:-1 5:-1 6:-1 8:-0.333333 9:-0.962963 10:-1 11:-1 12:-0.582368 13:-0.268611 14:-0.841727 15:-0.191667 16:-0.813953 17:-0.666667 18:0.125 19:-0.25 20:-0.909091 21:-0.75 22:-1 23:-1 24:-1 25:1 26:-1 28:-1 29:-0.333333 
1 1:1 2:-0.10956 3:-1 5:-0.857143 6:-0.404392 8:-1 9:-0.777778 10:-1 11:-1 12:-0.971416 13:0.23766 14:-0.956835 15:1 16:-1 17:-1 18:-1 19:-1 20:-0.969697 21:-0.333333 22:0.23766 23:0.333333 24:-1 25:-1 26:-1 28:-1 29:-0.333333 
1 1:1 2:-0.35038 3:1 5:-0.857143 6:-0.831751 8:1 9:-0.777778 10:-1 11:1 12:-0.954416 13:0.09065 14:-0.942446 15:1 16:-1 17:-1 18:-1 19:-1 20:-0.939394 22:0.13344 23:0.333333 24:-1 25:-1 26:-0.333333 28:-1 29:-0.333333 
1 1:1 2:0.87552 3:-1 5:-0.857143 6:-0.896591 8:1 9:-0.777778 10:1 11:1 12:-0.951708 13:0.247624 14:-0.928058 15:1 16:-1 17:-1 18:-1 19:-1 20:-0.939394 21:-0.2 22:0.138527 23:1 24:-1 25:-1 26:-0.333333 28:-0.333333 29:-0.333333 
1 1:-1 2:-1 3:-1 5:-1 6:-1 8:-0.333333 9:-1 10:-1 11:1 12:-0.943734 13:0.247624 14:-0.928058 15:1 16:-1 17:-1 18:-1 19:-1 20:-0.939394 21:-0.2 22:0.138527 23:0.333333 24:-1 25:-1 26:-0.333333 28:-0.333333 29:-1 
1 1:1 2:0.7156 3:-1 5:-0.857143 6:-0.868592 8:-1 9:-0.888889 10:-1 11:-1 12:-0.943734 13:0.32562 14:-0.913669 15:1 16:-1 17:-1 18:-1 19:-1 20:-0.939394 21:-0.333333 22:0.41358 23:0.333333 24:-1 25:-1 26:-1 28:-0.333333 29:-0.333333 
1 1:1 2:0.7564 3:-1 5:-0.571429 6:-0.87596 8:-1 9:-0.333333 10:1 11:-1 12:-0.907928 13:0.424092 14:-0.841727 15:0.816667 16:-1 17:-1 18:-0.875 19:-0.833333 20:-0.909091 21:-0.5 22:0.17162 23:0.333333 24:-1 25:-1 26:-0.333333 28:-0.333333 29:0.333333 
1 1:-1 2:-1 3:-1 5:-1 6:-1 8:-0.333333 9:-0.925926 10:-1 11:-1 12:-0.893335 13:0.424092 14:-0.841727 15:0.816667 16:-1 17:-1 18:-0.875 19:-0.833333 20:-0.909091 21:-0.5 22:0.17162 23:0.333333 24:-1 25:-1 26:-0.333333 28:-0.333333 29:0.333333 
1 1:-1 2:-1 3:-1 5:-1 6:-1 8:-0.333333 9:0.037037 10:-1 11:-1 12:-0.893335 13:0.424092 14:-0.841727 15:0.816667 16:-1 17:-1 18:-0.875 19:-0.833333 20:-0.909091 21:-0.5 22:0.17162 23:-0.333333 24:-1 25:-1 26:-1 28:-0.333333 29:-0.333333 
1 1:1 2:-0.30822 3:1 5:-0.857143 6:-0.898065 8:-1 10:1 11:-1 12:-0.977133 13:-0.65411 14:-0.985612 15:-0.1 16:-0.953488 18:-1 19:-1 20:-0.939394 21:1 22:-0.65411 23:-0.333333 24:-0.333333 25:-1 26:0.333333 28:-0.333333 29:0.333333 
1 1:1 2:0.77882 3:-1 5:-0.857143 6:-0.923117 8:1 9:-0.666667 10:-1 11:1 12:-0.934557 13:0.61782 14:-0.899281 15:1 16:-1 17:-1 18:-1 19:-1 20:-1 21:-1 22:0.783827 23:1 24:-1 25:-1 26:-1 28:-1 29:0.333333 
1 1:1 2:0.29324 3:-1 5:-0.857143 6:-0.81112 8:-1 9:-0.814815 10:-1 11:-1 12:-0.877689 13:0.439734 14:-0.870504 15:0.78 16:-1 17:-1 18:-0.875 19:-0.8 20:-1 21:-1 22:0.0242 23:0.333333 24:-1 25:-1 26:-1 28:-1 29:0.333333 
1 1:1 2:0.6437 3:1 5:-0.857143 6:-0.741858 8:1 9:-0.777778 10:-1 11:1 12:-0.831804 13:0.355616 14:-0.81295 15:0.706667 16:-1 17:-1 18:-0.75 19:-0.733333 20:-0.969697 21:-0.866667 22:-0.22578 23:0.333333 24:-1 26:-0.333333 28:-1 29:-0.333333 
1 1:-1 2:-1 3:-1 5:-1 6:-1 8:-0.333333 9:-1 10:-1 11:1 12:-0.828945 13:0.355616 14:-0.81295 15:0.706667 16:-1 17:-1 18:-0.75 19:-0.733333 20:-0.969697 21:-0.866667 22:-0.22578 23:-0.333333 24:-1 26:-0.333333 28:-1 29:-0.333333 
1 1:-1 2:-1 3:-1 5:-1 6:-1 8:-0.333333 9:-0.925926 10:-1 11:-1 12:-0.756582 13:0.247078 14:-0.769784 15:0.56 16:-0.953488 17:-0.9 18:-0.625 19:-0.7 20:-0.939394 21:-0.8 22:0.16464 23:-0.333333 24:-1 25:-1 26:-1 28:-1 29:-0.333333 
1 1:-1 2:-1 3:-1 5:-1 6:-1 8:-0.333333 9:-0.111111 10:-1 11:-1 12:-0.756582 13:0.247078 14:-0.769784 15:0.56 16:-0.953488 17:-0.9 18:-0.625 19:-0.7 20:-0.939394 21:-0.8 22:0.16464 23:-0.333333 24:-1 25:-1 26:-1 28:-1 29:-0.333333 
1 1:1 2:0.21778 3:1 5:-0.571429 6:-0.824382 8:-1 9:0.62963 10:-1 11:-1 12:-0.756582 13:0.245683 14:-0.755396 15:0.580952 16:-0.953488 17:-0.904762 18:-0.625 19:-0.714286 20:-0.909091 21:-0.714286 22:-0.0961 23:-0.333333 24:-1 25:-1 26:-0.333333 28:-1 29:-0.333333 
1 1:-1 2:-1 3:-1 5:-1 6:-1 8:-0.333333 9:-1 10:-1 11:-1 12:-0.72198 13:0.245683 14:-0.755396 15:0.580952 16:-0.953488 17:-0.904762 18:-0.625 19:-0.714286 20:-0.909091 21:-0.714286 22:-0.0961 23:-0.333333 24:-1 25:-1 26:-0.333333 28:-1 29:-0.333333 
1 1:-1 2:-1 3:-1 5:-1 6:-1 8:-0.333333 9:-0.111111 10:-1 11:-1 12:-0.72198 13:0.245683 14:-0.755396 15:0.580952 16:-0.953488 17:-0.904762 18:-0.625 19:-0.714286 20:-0.909091 21:-0.714286 22:-0.0961 23:-0.333333 24:-1 25:-1 26:-0.333333 28:-1 29:-0.333333 
1 1:1 2:0.25688 3:1 5:-0.571429 6:-0.850908 8:-1 9:0.62963 10:-1 11:-1 12:-0.72198 13:0.246192 14:-0.741007 15:0.6 16:-0.953488 17:-0.909091 18:-0.625 19:-0.727273 20:-0.878788 21:-0.636364 22:0.32286 23:-0.333333 24:-1 25:-1 26:-0.333333 28:-1 29:-0.333333 
1 1:-1 2:-1 3:-1 5:-1 6:-1 8:-0.333333 9:-1 10:-1 11:-1 12:-0.699112 13:0.246192 14:-0.741007 15:0.6 16:-0.953488 17:-0.909091 18:-0.625 19:-0.727273 20:-0.878788 21:-0.636364 22:0.32286 23:-0.333333 24:-1 25:-1 26:-0.333333 28:-1 29:-0.333333 
1 1:-1 2:-1 3:-1 5:-1 6:-1 8:-0.333333 9:-0.111111 10:-1 11:-1 12:-0.699112 13:0.246192 14:-0.741007 15:0.6 16:-0.953488 17:-0.909091 18:-0.625 19:-0.727273 20:-0.878788 21:-0.636364 22:0.32286 23:-0.333333 24:-1 25:-1 26:-0.333333 28:-1 29:-0.333333 
1 1:-0.333333 2:-1 3:-1 5:-1 6:-1 8:-1 9:0.62963 10:-1 11:-1 12:-0.699112 13:0.19201 14:-0.741007 15:0.521739 16:-0.953488 17:-0.913043 18:-0.5 19:-0.652174 20:-0.878788 21:-0.652174 22:-0.175113 23:-1 24:-1 26:-1 28:-1 29:-0.333333 
1 1:1 2:0.32158 3:-1 5:-0.785714 6:-0.855329 8:-1 9:-0.814815 10:-1 11:-1 12:-0.975177 13:0.39486 14:-0.956835 15:1 16:-1 17:-1 18:-1 19:-1 20:-0.969697 21:-0.333333 22:0.39486 23:1 24:-1 25:-1 26:-0.333333 28:-1 29:0.333333 
1 1:1 2:0.60382 3:-1 5:-0.857143 6:-0.846487 8:1 9:-0.740741 10:-1 11:1 12:-0.96961 13:0.4471 14:-0.942446 15:1 16:-1 17:-1 18:-1 19:-1 20:-0.969697 21:-0.5 22:0.59996 23:1 24:-1 25:-1 26:-1 28:-1 29:-0.333333 
1 1:1 2:0.69446 3:1 5:-0.857143 6:-0.902486 8:1 9:-0.333333 10:1 11:1 12:-0.924929 13:0.496572 14:-0.928058 15:1 16:-1 17:-1 18:-1 19:-1 20:-0.939394 21:-0.2 22:0.539953 23:1 24:-1 25:-1 26:-0.333333 28:-0.333333 29:-0.333333 
1 1:-1 2:-1 3:-1 5:-1 6:-1 8:-0.333333 9:-1 10:-1 11:1 12:-0.916203 13:0.496572 14:-0.928058 15:1 16:-1 17:-1 18:-1 19:-1 20:-0.939394 21:-0.2 22:0.539953 23:0.333333 24:-1 25:-1 26:-0.333333 28:-0.333333 29:-1 
1 1:1 2:0.63006 3:-1 5:-0.785714 6:-0.871539 8:-1 9:-0.777778 10:-1 11:-1 12:-0.916203 13:0.51882 14:-0.913669 15:1 16:-1 17:-1 18:-1 19:-1 20:-0.939394 21:-0.333333 22:0.64278 23:0.333333 24:-1 25:-1 26:-0.333333 28:-0.333333 29:-0.333333 
1 1:-0.333333 2:-1 3:-1 5:-1 6:-1 8:-1 9:0.62963 10:-1 11:-1 12:-0.873176 13:0.387051 14:-0.841727 15:0.661538 16:-1 17:-1 18:-0.75 19:-0.692308 20:-0.939394 21:-0.692308 22:-0.37624 23:-1 24:-1 25:1 26:-1 28:-1 29:-0.333333 
1 1:1 2:0.15432 3:-1 5:-0.785714 6:-0.853855 8:1 9:-0.740741 10:1 11:1 12:-0.976982 13:-0.112253 14:-0.956835 15:1 16:-1 17:-1 18:-1 19:-1 20:-0.939394 21:0.333333 22:-0.112253 23:1 24:-1 25:-1 26:0.333333 28:-0.333333 29:-0.333333 
1 1:1 2:0.8845 3:-1 5:-0.857143 6:-0.930485 8:1 9:-0.666667 10:-1 11:1 12:-0.968106 13:0.136935 14:-0.942446 15:1 16:-1 17:-1 18:-1 19:-1 20:-0.939394 22:0.199727 23:1 24:-1 25:-1 26:-0.333333 28:-0.333333 29:-1 
1 1:1 2:0.77962 3:-1 5:-0.857143 6:-0.930485 8:1 9:-0.814815 10:-1 11:1 12:-0.960132 13:0.265472 14:-0.928058 15:1 16:-1 17:-1 18:-1 19:-1 20:-0.939394 21:-0.2 22:0.606147 23:1 24:-1 25:-1 26:-1 28:-0.333333 29:-1 
1 1:-0.333333 2:-1 3:-1 5:-1 6:-1 8:1 9:-0.740741 10:-1 11:1 12:-0.982699 13:-0.49887 14:-0.985612 15:-0.1 16:-1 17:-1 18:-0.875 20:-0.969697 22:-0.49887 23:-0.333333 24:-1 26:-0.333333 28:-1 29:-0.333333 
1 1:-1 2:-1 3:-1 5:-1 6:-1 8:-0.333333 9:-1 10:-1 11:1 12:-0.940876 13:-0.0403067 14:-0.971223 15:0.266667 16:-1 17:-1 18:-0.875 19:-0.333333 20:-0.969697 21:-0.333333 22:-0.0403067 23:-0.333333 24:-1 26:-1 28:-1 29:-1 
1 1:-0.333333 2:-1 3:-1 5:-1 6:-1 8:-1 9:-0.740741 10:-1 11:-1 12:-0.977584 13:-0.62875 14:-0.985612 15:-0.1 16:-1 17:-1 18:-0.875 20:-0.969697 22:-0.62875 23:-0.333333 24:-1 26:-0.333333 28:-1 29:0.333333 
1 1:1 2:0.88498 3:-1 5:-0.857143 6:-0.924591 8:1 9:-0.777778 10:1 11:1 12:-0.935159 13:0.17624 14:-0.913669 15:0.685714 16:-1 17:-1 18:-0.875 19:-0.714286 20:-0.939394 21:-0.428571 22:0.518053 23:1 24:-1 25:-1 26:-1 28:-0.333333 29:-0.333333 
1 1:-1 2:-1 3:-1 5:-1 6:-1 8:-0.333333 9:-1 10:-1 11:1 12:-0.928238 13:0.17624 14:-0.913669 15:0.685714 16:-1 17:-1 18:-0.875 19:-0.714286 20:-0.939394 21:-0.428571 22:0.518053 23:0.333333 24:-1 25:-1 26:-1 28:-0.333333 29:-1 
1 1:0.333333 2:-1 3:-1 5:-0.857143 6:-0.84354 8:-1 9:-0.814815 10:-1 11:-1 12:-0.928238 13:0.02921 14:-0.913669 15:0.45 16:-0.953488 17:-0.75 18:-0.875 19:-0.75 20:-0.939394 21:-0.5 22:-0.0615133 23:-0.333333 24:-0.333333 25:-1 26:-1 28:-0.333333 29:-0.333333 
1 1:1 2:0.43922 3:1 5:-0.857143 6:-0.877434 8:-1 9:-0.666667 10:1 11:-1 12:-0.922973 13:0.0747667 14:-0.899281 15:0.511111 16:-0.953488 17:-0.777778 18:-0.875 19:-0.777778 20:-0.909091 21:-0.333333 22:0.108067 23:-0.333333 24:-0.333333 25:-1 26:-0.333333 28:-0.333333 29:0.333333 
1 1:0.333333 2:-1 3:-1 5:-0.857143 6:-0.890697 8:1 9:-0.777778 10:-1 11:1 12:-0.916955 13:-0.03271 14:-0.899281 15:0.34 16:-0.906977 17:-0.6 18:-0.875 19:-0.8 20:-0.909091 21:-0.4 22:-0.52026 23:-0.333333 24:0.333333 25:-1 26:-0.333333 28:-0.333333 29:0.333333 
1 1:0.333333 2:-1 3:1 5:-0.785714 6:-0.833224 8:1 9:-0.37037 10:1 11:1 12:-0.911238 13:-0.120645 14:-0.899281 15:0.2 16:-0.860465 17:-0.454545 18:-0.875 19:-0.818182 20:-0.878788 21:-0.272727 22:-0.52026 23:-0.333333 24:0.333333 25:-1 26:0.333333 28:0.333333 29:-0.333333 
1 1:1 2:0.31796 3:1 5:-0.857143 6:-0.834698 8:1 9:-0.37037 10:1 11:1 12:-0.900406 13:-0.084095 14:-0.884892 15:0.266667 16:-0.860465 17:-0.5 18:-0.875 19:-0.833333 20:-0.848485 21:-0.166667 22:-0.56068 23:-0.333333 24:0.333333 25:-1 26:0.333333 28:0.333333 29:-1 
1 1:1 2:0.79806 3:-1 5:-0.857143 6:-0.945222 8:-1 9:-0.888889 10:-1 11:-1 12:-0.889875 13:-0.0162369 14:-0.870504 15:0.323077 16:-0.860465 17:-0.538462 18:-0.875 19:-0.846154 20:-0.848485 21:-0.230769 22:0.0386733 23:0.333333 24:-0.333333 25:-1 26:0.333333 28:0.333333 29:-0.333333 
1 1:1 2:-0.30748 3:-1 5:-0.642857 6:-0.774278 8:-1 9:-0.666667 10:1 11:-1 12:-0.886716 13:-0.03704 14:-0.856115 15:0.371429 16:-0.860465 17:-0.571429 18:-0.875 19:-0.857143 20:-0.848485 21:-0.285714 22:0.269513 23:1 24:-1 25:-1 26:-0.333333 28:0.333333 29:0.333333 
1 1:1 2:0.43244 3:-1 5:-0.857143 6:-0.814067 8:-1 9:-0.851852 10:1 11:-1 12:-0.867008 13:-0.00574133 14:-0.841727 15:0.413333 16:-0.860465 17:-0.6 18:-0.875 19:-0.866667 20:-0.848485 21:-0.333333 22:0.307673 23:1 24:-1 25:-1 26:-1 28:0.333333 29:1 
1 1:1 2:0.79572 3:-1 5:-0.857143 6:-0.942274 8:1 9:-0.703704 10:-1 11:1 12:-0.857831 13:0.04435 14:-0.827338 15:0.45 16:-0.860465 17:-0.625 18:-0.875 19:-0.875 20:-0.848485 21:-0.375 22:0.306893 23:1 24:-1 25:-1 26:-1 28:0.333333 29:0.333333 
1 1:-1 2:-1 3:-1 5:-1 6:-1 8:-0.333333 9:-1 10:-1 11:1 12:-0.851061 13:0.04435 14:-0.827338 15:0.45 16:-0.860465 17:-0.625 18:-0.875 19:-0.875 20:-0.848485 21:-0.375 22:0.306893 23:0.333333 24:-1 25:-1 26:-1 28:-0.333333 29:-0.333333 
1 1:1 2:0.7967 3:-1 5:-0.857143 6:-0.929012 8:-1 9:-0.814815 10:-1 11:-1 12:-0.851061 13:0.0886059 14:-0.81295 15:0.482353 16:-0.860465 17:-0.647059 18:-0.875 19:-0.882353 20:-0.848485 21:-0.411765 22:0.674953 23:0.333333 24:-1 25:-1 26:-1 28:-1 29:-0.333333 
1 1:1 2:0.4297 3:-1 5:-0.785714 6:-0.821435 8:-1 9:-0.777778 10:-1 11:-1 12:-0.820069 13:0.107556 14:-0.798561 15:0.511111 16:-0.860465 17:-0.666667 18:-0.875 19:-0.888889 20:-0.848485 21:-0.444444 22:0.67404 23:0.333333 24:-1 25:-1 26:-1 28:-1 29:0.333333 
1 1:1 2:0.81626 3:-1 5:-0.857143 6:-0.943748 8:1 9:-0.666667 10:-1 11:1 12:-0.807281 13:0.144856 14:-0.784173 15:0.536842 16:-0.860465 17:-0.684211 18:-0.875 19:-0.894737 20:-0.848485 21:-0.473684 22:0.680887 23:1 24:-1 25:-1 26:-1 28:-1 29:0.333333 
1 1:-1 2:-1 3:-1 5:-1 6:-1 8:-0.333333 9:-1 10:-1 11:1 12:-0.799458 13:0.144856 14:-0.784173 15:0.536842 16:-0.860465 17:-0.684211 18:-0.875 19:-0.894737 20:-0.848485 21:-0.473684 22:0.680887 23:0.333333 24:-1 25:-1 26:-1 28:-1 29:-0.333333 
1 1:-0.333333 2:-1 3:-1 5:-1 6:-1 8:0.333333 9:-0.777778 10:-1 11:-1 12:-0.799458 13:0.087613 14:-0.784173 15:0.45 16:-0.860465 17:-0.7 18:-0.75 19:-0.8 20:-0.848485 21:-0.5 22:0.0819867 23:-0.333333 24:-1 26:-1 28:-1 29:-1 
1 1:-1 2:-1 3:-1 5:-1 6:-1 8:-0.333333 10:-1 11:-1 12:-0.799458 13:0.087613 14:-0.784173 15:0.45 16:-0.860465 17:-0.7 18:-0.75 19:-0.8 20:-0.848485 21:-0.5 22:0.0819867 23:-1 24:-1 26:-1 28:-1 29:-1 
1 1:1 2:0.63144 3:1 5:-0.785714 6:-0.871539 8:-1 9:0.62963 10:-1 11:-1 12:-0.799458 13:0.11351 14:-0.769784 15:0.47619 16:-0.860465 17:-0.714286 18:-0.75 19:-0.809524 20:-0.818182 21:-0.428571 22:0.149233 23:-0.333333 24:-1 26:-0.333333 28:-1 29:-0.333333 
1 1:-1 2:-1 3:-1 5:-1 6:-1 8:-0.333333 9:-1 10:-1 11:-1 12:-0.764555 13:0.11351 14:-0.769784 15:0.47619 16:-0.860465 17:-0.714286 18:-0.75 19:-0.809524 20:-0.818182 21:-0.428571 22:0.149233 23:-0.333333 24:-1 25:-1 26:-0.333333 28:-1 29:-0.333333 
1 1:-1 2:-1 3:-1 5:-1 6:-1 8:-0.333333 10:-1 11:-1 12:-0.764555 13:0.11351 14:-0.769784 15:0.47619 16:-0.860465 17:-0.714286 18:-0.75 19:-0.809524 20:-0.818182 21:-0.428571 22:0.149233 23:-0.333333 24:-1 25:-1 26:-0.333333 28:-1 29:-0.333333 
1 1:-0.333333 2:-1 3:-1 5:-1 6:-1 8:-1 9:0.62963 10:-1 11:-1 12:-0.764555 13:0.0628955 14:-0.769784 15:0.4 16:-0.860465 17:-0.727273 18:-0.625 19:-0.727273 20:-0.818182 21:-0.454545 22:-0.456187 23:-1 24:-1 26:-1 28:-1 29:-0.333333 
1 1:1 2:-0.65786 3:-1 5:-0.428571 6:-0.722701 8:1 9:-0.777778 10:-1 11:1 12:-0.969009 13:-0.0510333 14:-0.956835 15:1 16:-1 17:-1 18:-1 19:-1 20:-0.969697 21:-0.333333 22:-0.0510333 23:0.333333 24:-1 25:-1 26:-1 28:-1 29:-1 
1 1:1 2:-0.1028 3:1 5:-0.785714 6:-0.89217 8:1 9:-0.777778 10:1 11:1 12:-0.95592 13:-0.063975 14:-0.942446 15:1 16:-1 17:-1 18:-1 19:-1 20:-0.939394 22:0.0376467 23:0.333333 24:-1 25:-1 26:-0.333333 28:-0.333333 29:-1 
1 1:1 2:0.88316 3:-1 5:-0.857143 6:-0.921643 8:1 9:-0.666667 10:1 11:1 12:-0.953513 13:0.125452 14:-0.928058 15:1 16:-1 17:-1 18:-1 19:-1 20:-0.939394 21:-0.2 22:0.0408333 23:1 24:-1 25:-1 26:-0.333333 28:0.333333 29:-1 
1 1:1 2:0.35498 3:1 5:-0.785714 6:-0.884802 8:-1 9:0.62963 10:-1 11:-1 12:-0.814503 13:0.309889 14:-0.726619 15:0.790476 16:-1 17:-1 18:-0.75 19:-0.809524 20:-0.848485 21:-0.52381 22:0.0735733 23:-0.333333 24:-1 26:-0.333333 28:-1 29:-0.333333 
1 1:1 2:0.73068 3:1 5:-0.857143 6:-0.915749 8:1 9:-0.333333 10:1 11:1 12:-0.925079 13:0.392991 14:-0.913669 15:0.685714 16:-0.953488 17:-0.714286 18:-1 19:-1 20:-0.939394 21:-0.428571 22:0.150847 23:0.333333 24:-0.333333 25:-1 26:-0.333333 28:-0.333333 29:-0.333333 
1 1:-1 2:-1 3:-1 5:-1 6:-1 8:-0.333333 9:-1 10:-1 11:1 12:-0.916955 13:0.392991 14:-0.913669 15:0.685714 16:-0.953488 17:-0.714286 18:-1 19:-1 20:-0.939394 21:-0.428571 22:0.150847 23:-0.333333 24:-0.333333 25:-1 26:-0.333333 28:-0.333333 29:-1 
1 1:1 2:0.73576 3:-1 5:-0.642857 6:-0.868592 8:-1 9:-0.814815 10:-1 11:-1 12:-0.916955 13:0.435838 14:-0.899281 15:0.725 16:-0.953488 17:-0.75 18:-1 19:-1 20:-0.939394 21:-0.5 22:0.15548 23:0.333333 24:-1 25:-1 26:-0.333333 28:-0.333333 29:-0.333333 
1 1:-0.333333 2:-1 3:-1 5:-1 6:-1 8:0.333333 9:-0.703704 10:-1 11:-1 12:-0.901309 13:0.334388 14:-0.884892 15:0.56 16:-0.953488 17:-0.8 18:-0.875 19:-0.8 20:-0.939394 21:-0.6 22:0.197647 23:-0.333333 24:-1 26:-1 28:-1 29:-1 
1 1:0.333333 2:-1 3:1 5:-0.571429 6:-0.865645 8:-1 9:0.62963 10:-1 11:-1 12:-0.901309 13:0.21308 14:-0.884892 15:0.4 16:-0.906977 17:-0.636364 18:-0.875 19:-0.818182 20:-0.909091 21:-0.454545 22:-0.38094 23:-1 24:-0.333333 26:-0.333333 28:-1 29:-0.333333 
1 1:1 2:0.43366 3:1 5:-0.571429 6:-0.794909 8:-1 9:-0.333333 10:1 11:-1 12:-0.873025 13:0.231462 14:-0.870504 15:0.45 16:-0.906977 17:-0.666667 18:-0.875 19:-0.833333 20:-0.878788 21:-0.333333 22:-0.522113 23:-0.333333 24:-0.333333 25:-1 26:0.333333 28:-0.333333 29:0.333333 
1 1:-1 2:-1 3:-1 5:-1 6:-1 8:-0.333333 9:-0.925926 10:-1 11:-1 12:-0.86776 13:0.231462 14:-0.870504 15:0.45 16:-0.906977 17:-0.666667 18:-0.875 19:-0.833333 20:-0.878788 21:-0.333333 22:-0.522113 23:-0.333333 24:-0.333333 25:-1 26:0.333333 28:-0.333333 29:0.333333 
1 1:-1 2:-1 3:-1 5:-1 6:-1 8:-0.333333 9:-0.111111 10:-1 11:-1 12:-0.86776 13:0.231462 14:-0.870504 15:0.45 16:-0.906977 17:-0.666667 18:-0.875 19:-0.833333 20:-0.878788 21:-0.333333 22:-0.522113 23:-0.333333 24:-1 25:-1 26:-0.333333 28:-0.333333 29:-0.333333 
1 1:-0.333333 2:-1 3:-1 5:-1 6:-1 8:-1 9:0.62963 10:-1 11:-1 12:-0.86776 13:0.136734 14:-0.870504 15:0.323077 16:-0.906977 17:-0.692308 18:-0.75 19:-0.692308 20:-0.878788 21:-0.384615 22:-0.522113 23:-1 24:-1 26:-1 28:-1 29:-0.333333 
1 1:1 2:-0.15038 3:-1 5:-0.785714 6:-0.786068 8:-1 10:1 11:-1 12:-0.976531 13:-0.57519 14:-0.985612 15:-0.1 16:-0.953488 18:-1 19:-1 20:-0.969697 22:-0.57519 23:-0.333333 24:-0.333333 25:-1 26:-0.333333 28:-0.333333 29:0.333333 
1 1:1 2:-0.64168 3:1 5:-0.642857 6:-0.815541 8:1 9:-0.814815 10:-1 11:1 12:-0.952159 13:-0.597353 14:-0.971223 15:0.266667 16:-0.953488 17:-0.333333 18:-1 19:-1 20:-0.939394 21:0.333333 22:-0.597353 23:0.333333 24:-0.333333 25:-1 26:0.333333 28:-0.333333 29:0.333333 
1 1:1 2:0.8297 3:-1 5:-0.857143 6:-0.942274 8:1 9:-0.740741 10:1 11:1 12:-0.948247 13:-0.24059 14:-0.956835 15:0.45 16:-0.953488 17:-0.5 18:-1 19:-1 20:-0.939394 22:0.0125467 23:1 24:-1 25:-1 26:-0.333333 28:0.333333 29:-0.333333 
1 1:-1 2:-1 3:-1 5:-1 6:-1 8:-0.333333 9:-1 10:-1 11:1 12:-0.940424 13:-0.24059 14:-0.956835 15:0.45 16:-0.953488 17:-0.5 18:-1 19:-1 20:-0.939394 22:0.0125467 23:0.333333 24:-1 25:-1 26:-0.333333 28:-0.333333 29:-1 
1 1:1 2:0.84398 3:-1 5:-0.857143 6:-0.945222 8:1 9:-0.62963 10:-1 11:1 12:-0.940424 13:-0.023676 14:-0.942446 15:0.56 16:-0.953488 17:-0.6 18:-1 19:-1 20:-0.939394 21:-0.2 22:0.344 23:0.333333 24:-1 25:-1 26:-1 28:-0.333333 29:-1 
1 1:1 2:0.40298 3:-1 5:-0.857143 6:-0.90396 8:-1 9:-0.814815 10:-1 11:-1 12:-0.919362 13:0.0474333 14:-0.928058 15:0.633333 16:-0.953488 17:-0.666667 18:-1 19:-1 20:-0.939394 21:-0.333333 22:0.69222 23:0.333333 24:-1 25:-1 26:-1 28:-1 29:-0.333333 
1 1:-1 2:-1 3:-1 5:-1 6:-1 8:-0.333333 9:-1 10:-1 11:1 12:-0.903866 13:0.144554 14:-0.913669 15:0.685714 16:-0.953488 17:-0.714286 18:-1 19:-1 20:-0.939394 21:-0.428571 22:0.65808 23:0.333333 24:-1 25:-1 26:-1 28:-1 29:-0.333333 
1 1:1 2:0.75518 3:-1 5:-0.714286 6:-0.901012 8:-1 9:-0.851852 10:-1 11:-1 12:-0.903866 13:0.220883 14:-0.899281 15:0.725 16:-0.953488 17:-0.75 18:-1 19:-1 20:-0.939394 21:-0.5 22:0.62848 23:0.333333 24:-1 25:-1 26:-1 28:-1 29:-0.333333 
1 1:-1 2:-1 3:-1 5:-1 6:-1 8:-0.333333 9:-1 10:-1 11:1 12:-0.885964 13:0.29248 14:-0.884892 15:0.755556 16:-0.953488 17:-0.777778 18:-1 19:-1 20:-0.939394 21:-0.555556 22:0.782573 23:0.333333 24:-1 25:-1 26:-1 28:-1 29:-0.333333 
1 1:-0.333333 2:-1 3:-1 5:-1 6:-1 8:0.333333 9:-0.740741 10:-1 11:-1 12:-0.885964 13:0.163232 14:-0.884892 15:0.56 16:-0.953488 17:-0.8 18:-0.875 19:-0.8 20:-0.939394 21:-0.6 22:0.206813 23:-0.333333 24:-1 26:-1 28:-1 29:-1 
1 1:-1 2:-1 3:-1 5:-1 6:-1 8:-0.333333 9:-0.0740741 10:-1 11:-1 12:-0.885964 13:0.163232 14:-0.884892 15:0.56 16:-0.953488 17:-0.8 18:-0.875 19:-0.8 20:-0.939394 21:-0.6 22:0.206813 23:-1 24:-1 26:-1 28:-1 29:-1 
1 1:0.333333 2:-1 3:1 5:-0.785714 6:-0.923117 8:-1 9:0.62963 10:-1 11:-1 12:-0.885964 13:0.0574836 14:-0.884892 15:0.4 16:-0.906977 17:-0.636364 18:-0.875 19:-0.818182 20:-0.909091 21:-0.454545 22:-0.378247 23:-1 24:-0.333333 26:-0.333333 28:-1 29:-0.333333 
1 1:1 2:0.71518 3:-1 5:-0.642857 6:-0.878907 8:-1 9:-0.333333 10:1 11:-1 12:-0.84414 13:0.112292 14:-0.870504 15:0.45 16:-0.906977 17:-0.666667 18:-0.875 19:-0.833333 20:-0.909091 21:-0.5 22:-0.428273 23:-0.333333 24:-0.333333 25:-1 26:-0.333333 28:-0.333333 29:0.333333 
1 1:-1 2:-1 3:-1 5:-1 6:-1 8:-0.333333 9:-0.925926 10:-1 11:-1 12:-0.828945 13:0.112292 14:-0.870504 15:0.45 16:-0.906977 17:-0.666667 18:-0.875 19:-0.833333 20:-0.909091 21:-0.5 22:-0.428273 23:-0.333333 24:-0.333333 25:-1 26:-0.333333 28:-0.333333 29:0.333333 
1 1:-1 2:-1 3:-1 5:-1 6:-1 8:-0.333333 10:-1 11:-1 12:-0.828945 13:0.112292 14:-0.870504 15:0.45 16:-0.906977 17:-0.666667 18:-0.875 19:-0.833333 20:-0.909091 21:-0.5 22:-0.428273 23:-0.333333 24:-1 25:-1 26:-1 28:-0.333333 29:-0.333333 
1 1:-0.333333 2:-1 3:-1 5:-1 6:-1 8:-1 9:0.62963 10:-1 11:-1 12:-0.828945 13:0.0267308 14:-0.870504 15:0.323077 16:-0.906977 17:-0.692308 18:-0.75 19:-0.692308 20:-0.909091 21:-0.538462 22:-0.428273 23:-1 24:-1 26:-1 28:-1 29:-0.333333 
1 1:1 2:0.4706 3:1 5:-0.857143 6:-0.943748 8:-1 9:-0.814815 10:-1 11:-1 12:-0.962389 13:0.33524 14:-0.942446 15:1 16:-1 17:-1 18:-1 19:-1 20:-0.939394 22:0.741767 23:0.333333 24:-1 25:-1 26:-0.333333 28:-1 29:-0.333333 
1 1:1 2:0.82382 3:-1 5:-0.785714 6:-0.896591 8:-1 9:-0.740741 10:1 11:-1 12:-0.959531 13:0.432956 14:-0.928058 15:1 16:-1 17:-1 18:-1 19:-1 20:-0.939394 21:-0.2 22:0.723627 23:0.333333 24:-1 25:-1 26:-0.333333 28:-0.333333 29:0.333333 
1 1:1 2:0.84896 3:-1 5:-0.857143 6:-0.934906 8:1 9:-0.703704 10:-1 11:1 12:-0.950955 13:0.50229 14:-0.913669 15:1 16:-1 17:-1 18:-1 19:-1 20:-0.939394 21:-0.333333 22:0.71446 23:1 24:-1 25:-1 26:-0.333333 28:-0.333333 29:0.333333 
1 1:-1 2:-1 3:-1 5:-1 6:-1 8:-0.333333 9:-1 10:-1 11:1 12:-0.942982 13:0.50229 14:-0.913669 15:1 16:-1 17:-1 18:-1 19:-1 20:-0.939394 21:-0.333333 22:0.71446 23:0.333333 24:-1 25:-1 26:-1 28:-0.333333 29:-0.333333 
1 1:1 2:0.46332 3:1 5:-0.571429 6:-0.873013 8:-1 9:-0.333333 10:1 11:-1 12:-0.936964 13:0.347718 14:-0.884892 15:0.755556 16:-1 17:-1 18:-0.875 19:-0.777778 20:-0.878788 21:-0.111111 22:0.0385733 23:0.333333 24:-1 25:-1 26:0.333333 28:-0.333333 29:0.333333 
1 1:-1 2:-1 3:-1 5:-1 6:-1 8:-0.333333 9:-1 10:-1 11:-1 12:-0.904468 13:0.347718 14:-0.884892 15:0.755556 16:-1 17:-1 18:-0.875 19:-0.777778 20:-0.878788 21:-0.111111 22:0.0385733 23:0.333333 24:-1 25:-1 26:0.333333 28:-0.333333 29:0.333333 
1 1:-1 2:-1 3:-1 5:-1 6:-1 8:-0.333333 9:0.037037 10:-1 11:-1 12:-0.904468 13:0.347718 14:-0.884892 15:0.755556 16:-1 17:-1 18:-0.875 19:-0.777778 20:-0.878788 21:-0.111111 22:0.0385733 23:-0.333333 24:-1 25:-1 26:-0.333333 28:-0.333333 29:-0.333333 
1 1:1 2:0.70796 3:1 5:-0.857143 6:-0.856803 8:-1 9:-0.740741 10:-1 11:-1 12:-0.926734 13:0.703513 14:-0.870504 15:1 16:-1 17:-1 18:-1 19:-1 20:-0.939394 21:-0.555556 22:0.79602 23:1 24:-1 25:-1 26:-0.333333 28:-1 29:0.333333 
1 1:1 2:0.75686 3:1 5:-0.857143 6:-0.926064 8:-1 9:-0.148148 10:1 11:-1 12:-0.922973 13:0.708848 14:-0.856115 15:1 16:-1 17:-1 18:-1 19:-1 20:-0.909091 21:-0.4 22:0.751747 23:1 24:-1 25:-1 26:0.333333 28:-0.333333 29:0.333333 
1 1:1 2:0.86322 3:-1 5:-0.857143 6:-0.917222 8:1 9:-0.62963 10:-1 11:1 12:-0.919663 13:0.722882 14:-0.841727 15:1 16:-1 17:-1 18:-1 19:-1 20:-0.909091 21:-0.454545 22:0.776013 23:1 24:-1 25:-1 26:0.333333 28:-0.333333 29:0.333333 
0.7164657345306777 1:-0.333333 2:-1 3:-1 5:-1 6:-1 8:-1 9:0.62963 10:-1 11:-1 12:-0.911238 13:0.457823 14:-0.841727 15:0.661538 16:-1 17:-1 18:-0.75 19:-0.692308 20:-0.909091 21:-0.538462 22:-0.378927 23:-1 24:-1 25:1 26:-1 28:-1 29:-0.333333 
1 1:0.333333 2:-1 3:-1 5:-0.785714 6:-0.917222 8:-1 9:-0.888889 10:-1 11:-1 12:-0.962991 13:0.08316 14:-0.942446 15:0.56 16:-0.953488 17:-0.6 18:-1 19:-1 20:-0.939394 21:-0.2 22:0.256907 23:-0.333333 24:-0.333333 25:-1 26:-1 28:-1 29:-0.333333 
1 1:1 2:0.41526 3:1 5:-0.857143 6:-0.886276 8:-1 9:-0.62963 10:1 11:-1 12:-0.95592 13:0.13851 14:-0.928058 15:0.633333 16:-0.953488 17:-0.666667 18:-1 19:-1 20:-0.909091 22:0.100373 23:-0.333333 24:-0.333333 25:-1 26:-0.333333 28:-0.333333 29:0.333333 
1 1:1 2:0.84068 3:-1 5:-0.857143 6:-0.896591 8:1 9:-0.777778 10:-1 11:1 12:-0.948849 13:0.23882 14:-0.913669 15:0.685714 16:-0.953488 17:-0.714286 18:-1 19:-1 20:-0.909091 21:-0.142857 22:0.0853133 23:0.333333 24:-0.333333 25:-1 26:-0.333333 28:-0.333333 29:0.333333 
1 1:-1 2:-1 3:-1 5:-1 6:-1 8:-0.333333 9:-1 10:-1 11:1 12:-0.941929 13:0.23882 14:-0.913669 15:0.685714 16:-0.953488 17:-0.714286 18:-1 19:-1 20:-0.909091 21:-0.142857 22:0.0853133 23:0.333333 24:-1 25:-1 26:-0.333333 28:-0.333333 29:-0.333333 
1 1:1 2:0.84878 3:-1 5:-0.785714 6:-0.90396 8:-1 9:-0.814815 10:-1 11:-1 12:-0.941929 13:0.315065 14:-0.899281 15:0.725 16:-0.953488 17:-0.75 18:-1 19:-1 20:-0.909091 21:-0.25 22:0.701573 23:0.333333 24:-1 25:-1 26:-1 28:-1 29:-0.333333 
1 1:-0.333333 2:-1 3:-1 5:-1 6:-1 8:0.333333 9:-0.814815 10:-1 11:-1 12:-0.926283 13:0.237968 14:-0.884892 15:0.56 16:-0.953488 17:-0.8 18:-0.875 19:-0.8 20:-0.909091 21:-0.4 22:0.23598 23:-0.333333 24:-1 26:-1 28:-1 29:-1 
1 1:-0.333333 2:-1 3:-1 5:-1 6:-1 8:-0.333333 9:-0.592593 10:-1 11:-1 12:-0.878742 13:0.143117 14:-0.870504 15:0.45 16:-0.953488 17:-0.833333 18:-0.75 19:-0.666667 20:-0.909091 21:-0.5 22:-0.554093 23:-0.333333 24:-1 26:-1 28:-1 29:-0.333333 
1 1:0.333333 2:-1 3:-1 5:-0.857143 6:-0.933432 8:1 9:-0.814815 10:-1 11:1 12:-0.97623 13:-0.79642 14:-0.985612 15:-0.1 16:-0.953488 18:-1 19:-1 20:-0.969697 22:-0.79642 23:-0.333333 24:-0.333333 25:-1 26:-0.333333 28:-1 29:-0.333333 
1 1:1 2:1 3:-1 5:-0.785714 6:-0.943748 8:1 9:-0.333333 10:1 11:1 12:-0.96946 13:-0.197613 14:-0.971223 15:0.266667 16:-0.953488 17:-0.333333 18:-1 19:-1 20:-0.969697 21:-0.333333 22:-0.197613 23:0.333333 24:-0.333333 25:-1 26:-0.333333 28:-0.333333 29:-0.333333 
1 1:-0.333333 2:-1 3:-1 5:-1 6:-1 8:-1 9:-0.740741 10:-1 11:-1 12:-0.973823 13:-0.47197 14:-0.985612 15:-0.1 16:-1 17:-1 18:-0.875 20:-1 21:-1 22:-0.47197 23:-0.333333 24:-1 26:-1 28:-1 29:0.333333 
1 1:0.333333 2:-1 3:-1 5:-0.642857 6:-0.89217 8:-1 10:-1 11:-1 12:-0.973823 13:-0.64798 14:-0.985612 15:-0.466667 16:-0.953488 17:-0.333333 18:-0.875 19:-0.333333 20:-1 21:-1 22:-0.64798 23:-1 24:-0.333333 26:-1 28:-1 29:0.333333 
1 1:0.333333 2:-1 3:1 5:-0.857143 6:-0.92017 8:-1 10:1 11:-1 12:-0.898601 13:-0.735985 14:-0.985612 15:-0.65 16:-0.906977 18:-0.875 19:-0.5 20:-0.969697 21:-0.5 22:-1 23:-1 24:0.333333 26:-0.333333 28:-0.333333 29:1 
1 1:-1 2:-1 3:-1 5:-1 6:-1 8:-0.333333 9:-0.962963 10:-1 11:-1 12:-0.885964 13:-0.735985 14:-0.985612 15:-0.65 16:-0.906977 18:-0.875 19:-0.5 20:-0.969697 21:-0.5 22:-1 23:-1 24:0.333333 25:-1 26:-0.333333 28:-0.333333 29:0.333333 
1 1:-0.333333 2:-1 3:-1 5:-1 6:-1 8:-1 9:-0.851852 10:-1 11:-1 12:-0.885964 13:-0.788788 14:-0.985612 15:-0.76 16:-0.906977 17:-0.2 18:-0.75 19:-0.2 20:-0.969697 21:-0.6 22:-1 23:-1 24:-0.333333 26:-0.333333 28:-0.333333 29:0.333333 
1 1:-1 2:-1 3:-1 5:-1 6:-1 8:-0.333333 9:-0.962963 10:-1 11:-1 12:-0.885964 13:-0.788788 14:-0.985612 15:-0.76 16:-0.906977 17:-0.2 18:-0.75 19:-0.2 20:-0.969697 21:-0.6 22:-1 23:-1 24:-1 26:-1 28:-1 29:-0.333333 
1 1:-1 2:-1 3:-1 5:-1 6:-1 8:-0.333333 9:-0.851852 10:-1 11:-1 12:-0.885964 13:-0.788788 14:-0.985612 15:-0.76 16:-0.906977 17:-0.2 18:-0.75 19:-0.2 20:-0.969697 21:-0.6 22:-1 23:-1 24:-1 26:-1 28:-1 29:-0.333333 
1 1:1 2:0.09508 3:1 5:-0.857143 6:-0.930485 8:-1 9:-0.777778 10:-1 11:-1 12:-0.885964 13:-0.641477 14:-0.971223 15:-0.466667 16:-0.906977 17:-0.333333 18:-0.75 19:-0.333333 20:-0.939394 21:-0.333333 22:-0.634973 23:-0.333333 24:-1 25:-1 26:-0.333333 28:-1 29:-0.333333 
1 1:1 2:0.73098 3:-1 5:-0.857143 6:-0.934906 8:1 9:-0.703704 10:-1 11:1 12:-0.879194 13:-0.445411 14:-0.956835 15:-0.257143 16:-0.906977 17:-0.428571 18:-0.75 19:-0.428571 20:-0.939394 21:-0.428571 22:-0.05798 23:0.333333 24:-1 25:-1 26:-0.333333 28:-1 29:-0.333333 
1 1:-1 2:-1 3:-1 5:-1 6:-1 8:-0.333333 9:-1 10:-1 11:1 12:-0.872273 13:-0.445411 14:-0.956835 15:-0.257143 16:-0.906977 17:-0.428571 18:-0.75 19:-0.428571 20:-0.939394 21:-0.428571 22:-0.05798 23:0.333333 24:-1 25:-1 26:-0.333333 28:-1 29:-0.333333 
1 1:1 2:0.13658 3:-1 5:-0.642857 6:-0.868592 8:-1 9:-0.666667 10:-1 11:-1 12:-0.872273 13:-0.372663 14:-0.942446 15:-0.1 16:-0.906977 17:-0.5 18:-0.75 19:-0.5 20:-0.939394 21:-0.5 22:0.32088 23:0.333333 24:-1 25:-1 26:-1 28:-1 29:-0.333333 
1 1:1 2:0.77304 3:-1 5:-0.857143 6:-0.923117 8:1 9:-0.740741 10:-1 11:1 12:-0.86099 13:-0.245362 14:-0.928058 15:0.0222222 16:-0.906977 17:-0.555556 18:-0.75 19:-0.555556 20:-0.939394 21:-0.555556 22:0.546867 23:0.333333 24:-1 25:-1 26:-1 28:-1 29:-0.333333 
1 1:-1 2:-1 3:-1 5:-1 6:-1 8:-0.333333 9:-1 10:-1 11:1 12:-0.853468 13:-0.245362 14:-0.928058 15:0.0222222 16:-0.906977 17:-0.555556 18:-0.75 19:-0.555556 20:-0.939394 21:-0.555556 22:0.546867 23:0.333333 24:-1 25:-1 26:-1 28:-1 29:-0.333333 
1 1:1 2:-0.08574 3:-1 5:-0.857143 6:-0.90396 8:-1 9:-0.888889 10:-1 11:-1 12:-0.853468 13:-0.2294 14:-0.913669 15:0.12 16:-0.906977 17:-0.6 18:-0.75 19:-0.6 20:-0.939394 21:-0.6 22:0.274627 23:0.333333 24:-1 25:-1 26:-1 28:-1 29:-0.333333 
1 1:1 2:0.80668 3:-1 5:-0.857143 6:-0.93638 8:1 9:-0.851852 10:-1 11:1 12:-0.842636 13:-0.135211 14:-0.899281 15:0.2 16:-0.906977 17:-0.636364 18:-0.75 19:-0.636364 20:-0.939394 21:-0.636364 22:0.497993 23:0.333333 24:-1 25:-1 26:-1 28:-1 29:-0.333333 
1 1:-1 2:-1 3:-1 5:-1 6:-1 8:-0.333333 9:-1 10:-1 11:1 12:-0.83722 13:-0.135211 14:-0.899281 15:0.2 16:-0.906977 17:-0.636364 18:-0.75 19:-0.636364 20:-0.939394 21:-0.636364 22:0.497993 23:0.333333 24:-1 25:-1 26:-1 28:-1 29:-0.333333 
1 1:-1 2:-1 3:-1 5:-1 6:-1 8:-0.333333 9:0.222222 10:-1 11:-1 12:-0.83722 13:-0.135211 14:-0.899281 15:0.2 16:-0.906977 17:-0.636364 18:-0.75 19:-0.636364 20:-0.939394 21:-0.636364 22:0.497993 23:-0.333333 24:-1 25:-1 26:-1 28:-1 29:-1 
1 1:-0.333333 2:-1 3:-1 5:-1 6:-1 8:-1 9:-0.814815 10:-1 11:-1 12:-0.83722 13:-0.207277 14:-0.899281 15:0.0833333 16:-0.906977 17:-0.666667 18:-0.625 19:-0.5 20:-0.939394 21:-0.666667 22:-0.09302 23:-1 24:-1 26:-1 28:-1 29:-0.333333 
1 1:1 2:0.8131 3:-1 5:-0.857143 6:-0.873013 8:-1 9:-0.814815 10:-1 11:-1 12:-0.957876 13:0.669824 14:-0.928058 15:1 16:-1 17:-1 18:-1 19:-1 20:-1 21:-1 22:0.726753 23:1 24:-1 25:-1 26:-1 28:-1 29:0.333333 
1 1:1 2:0.63456 3:-1 5:-0.785714 6:-0.877434 8:-1 9:-0.481481 10:1 11:-1 12:-0.951106 13:0.663947 14:-0.913669 15:1 16:-1 17:-1 18:-1 19:-1 20:-1 21:-1 22:0.777113 23:1 24:-1 25:-1 26:-1 28:-0.333333 29:0.333333 
1 1:1 2:0.8475 3:-1 5:-0.857143 6:-0.914275 8:1 9:-0.666667 10:-1 11:1 12:-0.93561 13:0.690169 14:-0.899281 15:1 16:-1 17:-1 18:-1 19:-1 20:-1 21:-1 22:0.765053 23:1 24:-1 25:-1 26:-1 28:-0.333333 29:0.333333 
1 1:-1 2:-1 3:-1 5:-1 6:-1 8:-0.333333 9:-1 10:-1 11:1 12:-0.928238 13:0.690169 14:-0.899281 15:1 16:-1 17:-1 18:-1 19:-1 20:-1 21:-1 22:0.765053 23:0.333333 24:-1 25:-1 26:-1 28:-0.333333 29:-0.333333 
1 1:-1 2:-1 3:-1 5:-1 6:-1 8:-0.333333 9:-0.185185 10:-1 11:-1 12:-0.893636 13:0.345256 14:-0.841727 15:0.528571 16:-1 17:-1 18:-0.625 19:-0.571429 20:-1 21:-1 22:-1 23:-1 24:-1 25:1 26:-1 28:-1 29:0.333333 
1 1:-0.333333 2:-1 3:-1 5:-1 6:-1 8:-1 9:0.62963 10:-1 11:-1 12:-0.893636 13:0.255572 14:-0.841727 15:0.413333 16:-1 17:-1 18:-0.5 19:-0.466667 20:-1 21:-1 22:-1 23:-1 24:-1 25:1 26:-1 28:-1 29:0.333333 
1 1:-0.333333 2:-1 3:-1 5:-1 6:-1 8:-1 9:-0.740741 10:-1 11:-1 12:-0.985557 13:-0.63573 14:-0.985612 15:-0.1 16:-1 17:-1 18:-0.875 20:-0.969697 22:-0.63573 23:-0.333333 24:-1 26:-0.333333 28:-1 29:0.333333 
1 1:1 2:-0.49382 3:1 5:-0.785714 6:-0.828803 8:-1 10:-1 11:-1 12:-0.985557 13:-0.588427 14:-0.971223 15:0.266667 16:-1 17:-1 18:-0.875 19:-0.333333 20:-0.939394 21:0.333333 22:-0.588427 23:-0.333333 24:-1 26:-0.333333 28:-1 29:0.333333 
1 1:1 2:0.79114 3:1 5:-0.857143 6:-0.93638 8:1 9:-0.740741 10:-1 11:1 12:-0.960132 13:-0.243535 14:-0.956835 15:0.45 16:-1 17:-1 18:-0.875 19:-0.5 20:-0.909091 21:0.5 22:-0.234227 23:0.333333 24:-1 26:0.333333 28:-1 29:0.333333 
1 1:1 2:0.74806 3:-1 5:-0.857143 6:-0.92017 8:-1 9:-0.888889 10:-1 11:-1 12:-0.896796 13:0.0992371 14:-0.913669 15:0.685714 16:-1 17:-1 18:-0.875 19:-0.714286 20:-0.909091 21:-0.142857 22:0.556267 23:0.333333 24:-1 25:-1 26:-1 28:-1 29:-0.333333 
1 1:1 2:0.11086 3:1 5:-0.785714 6:-0.905433 8:1 9:-0.62963 10:-1 11:1 12:-0.873176 13:0.257286 14:-0.870504 15:0.78 16:-1 17:-1 18:-0.875 19:-0.8 20:-0.878788 21:-0.2 22:0.626067 23:0.333333 24:-1 25:-1 26:-0.333333 28:-1 29:-0.333333 
1 1:1 2:0.80586 3:-1 5:-0.642857 6:-0.902486 8:-1 9:-0.851852 10:-1 11:-1 12:-0.871671 13:0.307156 14:-0.856115 15:0.8 16:-1 17:-1 18:-0.875 19:-0.818182 20:-0.878788 21:-0.272727 22:0.599267 23:1 24:-1 25:-1 26:-0.333333 28:-1 29:0.333333 
1 1:1 2:0.8916 3:-1 5:-0.857143 6:-0.939327 8:1 9:-0.62963 10:-1 11:1 12:-0.865654 13:0.35586 14:-0.841727 15:0.816667 16:-1 17:-1 18:-0.875 19:-0.833333 20:-0.878788 21:-0.333333 22:0.602773 23:1 24:-1 25:-1 26:-0.333333 28:-1 29:-0.333333 
1 1:-0.333333 2:-1 3:-1 5:-1 6:-1 8:0.333333 9:-0.703704 10:-1 11:-1 12:-0.857078 13:0.251563 14:-0.841727 15:0.661538 16:-1 17:-1 18:-0.75 19:-0.692308 20:-0.878788 21:-0.384615 22:0.232487 23:-0.333333 24:-1 26:-1 28:-1 29:-1 
1 1:1 2:0.16244 3:1 5:-0.642857 6:-0.868592 8:-1 9:-0.259259 10:-1 11:-1 12:-0.857078 13:0.245197 14:-0.827338 15:0.685714 16:-1 17:-1 18:-0.75 19:-0.714286 20:-0.848485 21:-0.285714 22:0.0180133 23:-0.333333 24:-1 26:-0.333333 28:-1 29:-0.333333 
1 1:-0.333333 2:-1 3:-1 5:-1 6:-1 8:-1 9:-0.703704 10:-1 11:-1 12:-0.83391 13:0.162184 14:-0.827338 15:0.56 16:-1 17:-1 18:-0.625 19:-0.6 20:-0.848485 21:-0.333333 22:-0.61252 23:-0.333333 24:-1 26:-0.333333 28:-1 29:0.333333 
1 1:1 2:0.88404 3:-1 5:-0.857143 6:-0.93638 8:1 9:-0.740741 10:1 11:1 12:-0.969009 13:0.475953 14:-0.956835 15:1 16:-1 17:-1 18:-1 19:-1 20:-1 21:-1 22:0.475953 23:1 24:-1 25:-1 26:-1 28:-0.333333 29:-0.333333 
1 1:-1 2:-1 3:-1 5:-1 6:-1 8:-0.333333 9:-1 10:-1 11:1 12:-0.962088 13:0.475953 14:-0.956835 15:1 16:-1 17:-1 18:-1 19:-1 20:-1 21:-1 22:0.475953 23:0.333333 24:-1 25:-1 26:-1 28:-0.333333 29:-1 
1 1:1 2:0.88798 3:-1 5:-0.857143 6:-0.942274 8:1 9:-0.777778 10:-1 11:1 12:-0.962088 13:0.57896 14:-0.942446 15:1 16:-1 17:-1 18:-1 19:-1 20:-1 21:-1 22:0.661133 23:0.333333 24:-1 25:-1 26:-1 28:-0.333333 29:-1 
0.2245458785492669 1:0.333333 2:-1 3:-1 5:-0.857143 6:-0.931959 8:-1 9:-0.814815 10:-1 11:-1 12:-0.99985 13:-1 14:-1 15:1 16:-0.953488 17:1 18:-1 19:-1 20:-1 21:-1 22:-1 23:-1 24:-0.333333 25:-1 26:-1 28:-1 29:-0.333333 
1 1:1 2:-0.87184 3:1 5:-0.714286 6:-0.709438 8:-1 10:1 11:-1 12:-0.981796 13:-0.93592 14:-0.985612 15:-0.1 16:-0.953488 18:-1 19:-1 20:-0.969697 22:-0.93592 23:-0.333333 24:-0.333333 25:-1 26:-0.333333 28:-0.333333 29:0.333333 
1 1:1 2:0.77842 3:-1 5:-0.857143 6:-0.883328 8:1 9:-0.740741 10:-1 11:1 12:-0.977433 13:-0.364473 14:-0.971223 15:0.266667 16:-0.953488 17:-0.333333 18:-1 19:-1 20:-0.969697 21:-0.333333 22:-0.364473 23:0.333333 24:-0.333333 25:-1 26:-0.333333 28:-0.333333 29:0.333333 
1 1:-1 2:-1 3:-1 5:-1 6:-1 8:-0.333333 9:-1 10:-1 11:1 12:-0.968708 13:-0.364473 14:-0.971223 15:0.266667 16:-0.953488 17:-0.333333 18:-1 19:-1 20:-0.969697 21:-0.333333 22:-0.364473 23:0.333333 24:-1 25:-1 26:-0.333333 28:-0.333333 29:-0.333333 
1 1:1 2:0.44624 3:-1 5:-0.857143 6:-0.73449 8:-1 9:-0.777778 10:-1 11:-1 12:-0.968708 13:-0.161795 14:-0.956835 15:0.45 16:-0.953488 17:-0.5 18:-1 19:-1 20:-0.969697 21:-0.5 22:0.117607 23:0.333333 24:-1 25:-1 26:-1 28:-1 29:-0.333333 
1 1:1 2:0.77832 3:-1 5:-0.857143 6:-0.802278 8:1 9:-0.777778 10:-1 11:1 12:-0.957424 13:0.026228 14:-0.942446 15:0.56 16:-0.953488 17:-0.6 18:-1 19:-1 20:-0.969697 21:-0.6 22:0.66766 23:0.333333 24:-1 25:-1 26:-1 28:-1 29:-0.333333 
1 1:-1 2:-1 3:-1 5:-1 6:-1 8:-0.333333 9:-1 10:-1 11:1 12:-0.947946 13:0.026228 14:-0.942446 15:0.56 16:-0.953488 17:-0.6 18:-1 19:-1 20:-0.969697 21:-0.6 22:0.66766 23:0.333333 24:-1 25:-1 26:-1 28:-1 29:-0.333333 
1 1:1 2:0.40924 3:-1 5:-0.857143 6:-0.909854 8:-1 9:-0.851852 10:-1 11:-1 12:-0.947946 13:0.0900633 14:-0.928058 15:0.633333 16:-0.953488 17:-0.666667 18:-1 19:-1 20:-0.969697 21:-0.666667 22:0.5446 23:0.333333 24:-1 25:-1 26:-1 28:-1 29:-0.333333 
1 1:1 2:-0.10876 3:1 5:-0.857143 6:-0.850908 8:1 9:-0.703704 10:-1 11:1 12:-0.941628 13:0.06166 14:-0.913669 15:0.685714 16:-0.953488 17:-0.714286 18:-1 19:-1 20:-0.939394 21:-0.428571 22:0.3596 23:0.333333 24:-1 25:-1 26:-0.333333 28:-1 29:-0.333333 
1 1:1 2:-0.72514 3:-1 5:-0.714286 6:-0.133241 8:1 9:-0.703704 10:1 11:1 12:-0.937566 13:-0.03669 14:-0.899281 15:0.725 16:-0.953488 17:-0.75 18:-1 19:-1 20:-0.939394 21:-0.5 22:-0.141553 23:1 24:-1 25:-1 26:-0.333333 28:-0.333333 29:-0.333333 
1 1:1 2:0.82946 3:-1 5:-0.857143 6:-0.845014 8:1 9:-0.777778 10:1 11:1 12:-0.916805 13:0.0595489 14:-0.884892 15:0.755556 16:-0.953488 17:-0.777778 18:-1 19:-1 20:-0.939394 21:-0.555556 22:-0.00148 23:1 24:-1 25:-1 26:-0.333333 28:0.333333 29:-1 
1 1:-1 2:-1 3:-1 5:-1 6:-1 8:-0.333333 9:-1 10:-1 11:1 12:-0.908981 13:0.0595489 14:-0.884892 15:0.755556 16:-0.953488 17:-0.777778 18:-1 19:-1 20:-0.939394 21:-0.555556 22:-0.00148 23:0.333333 24:-1 25:-1 26:-1 28:0.333333 29:-1 
1 1:1 2:0.05048 3:1 5:-0.785714 6:-0.870066 8:-1 9:-0.814815 10:-1 11:-1 12:-0.908981 13:0.058642 14:-0.870504 15:0.78 16:-0.953488 17:-0.8 18:-1 19:-1 20:-0.909091 21:-0.4 22:0.0516 23:0.333333 24:-1 25:-1 26:-0.333333 28:-0.333333 29:-0.333333 
