svm_type c_svc
kernel_type rbf
gamma 0.0666667
nr_class 2
total_sv 3176
rho 0.19616
label 2 1
probA -1.70839
probB -0.0228528
nr_sv 1586 1590
SV
1 1:-0.0359755 2:-1 3:-0.99985 4:-0.95718 5:-0.985612 6:1 7:-1 8:-1 9:-1 10:-1 11:-0.95718 12:-0.333333 13:-1 14:-1 15:-0.333333 
1 1:-0.884802 2:-1 3:-0.965699 4:-0.56627 5:-0.971223 6:1 7:-1 8:-1 9:-1 10:-1 11:-0.56627 12:0.333333 13:-1 14:-1 15:-0.333333 
1 1:-0.909854 2:1 3:-0.957725 4:-0.0855533 5:-0.956835 6:1 7:-1 8:-1 9:-1 10:-1 11:-0.0855533 12:1 13:-1 14:-0.333333 15:-0.333333 
1 1:-1 2:-1 3:-0.950654 4:-0.0855533 5:-0.956835 6:1 7:-1 8:-1 9:-1 10:-1 11:-0.0855533 12:0.333333 13:-1 14:-0.333333 15:-1 
1 1:-0.744805 2:-1 3:-0.950654 4:-0.0759 5:-0.942446 6:1 7:-1 8:-1 9:-1 10:-1 11:0.21786 12:0.333333 13:-1 14:-0.333333 15:-0.333333 
1 1:-0.883328 2:-1 3:-0.941026 4:0.113552 5:-0.928058 6:1 7:-1 8:-1 9:-1 10:-1 11:0.566767 12:0.333333 13:-1 14:-1 15:-0.333333 
1 1:-0.62544 2:-1 3:-0.924327 4:0.237497 5:-0.899281 6:1 7:-1 8:-1 9:-1 10:-1 11:0.65536 12:0.333333 13:-1 14:-1 15:0.333333 
1 1:-0.905433 2:-1 3:-0.918159 4:0.31791 5:-0.884892 6:1 7:-1 8:-1 9:-1 10:-1 11:0.658507 12:1 13:-1 14:-1 15:0.333333 
1 1:-0.842066 2:-1 3:-0.978487 4:-0.51886 5:-0.985612 6:-0.1 7:-0.953488 9:-1 10:-1 11:-0.51886 12:-0.333333 13:-0.333333 14:-1 15:-0.333333 
1 1:-0.915749 2:1 3:-0.974876 4:-0.0125733 5:-0.971223 6:0.266667 7:-0.953488 8:-0.333333 9:-1 10:-1 11:-0.0125733 12:0.333333 13:-0.333333 14:-0.333333 15:-0.333333 
1 1:-1 2:-1 3:-0.962991 4:-0.0125733 5:-0.971223 6:0.266667 7:-0.953488 8:-0.333333 9:-1 10:-1 11:-0.0125733 12:-0.333333 13:-0.333333 14:-0.333333 15:-1 
1 1:-0.821435 2:-1 3:-0.962991 4:0.071185 5:-0.956835 6:0.45 7:-0.953488 8:-0.5 9:-1 10:-1 11:0.107487 12:0.333333 13:-1 14:-0.333333 15:-0.333333 
1 1:-0.942274 2:1 3:-0.931999 4:0.323317 5:-0.899281 6:0.725 7:-0.953488 8:-0.75 9:-1 10:-1 11:0.48582 12:1 13:-1 14:-0.333333 15:-0.333333 
1 1:-1 2:-1 3:-0.924929 4:0.323317 5:-0.899281 6:0.725 7:-0.953488 8:-0.75 9:-1 10:-1 11:0.48582 12:0.333333 13:-1 14:-0.333333 15:-1 
1 1:-0.923117 2:-1 3:-0.924929 4:0.382929 5:-0.884892 6:0.755556 7:-0.953488 8:-0.777778 9:-1 10:-1 11:0.56116 12:0.333333 13:-1 14:-0.333333 15:-0.333333 
1 1:-0.865645 2:-1 3:-0.976832 4:-0.25474 5:-0.971223 6:1 7:-1 8:-1 9:-1 10:-1 11:-0.25474 12:0.333333 13:-1 14:-1 15:-0.333333 
1 1:-1 2:-1 3:-0.954867 4:-0.20872 5:-0.956835 6:0.45 7:-0.953488 8:-0.5 9:-1 10:-1 11:-0.16336 12:-0.333333 13:-0.333333 14:0.333333 15:-1 
1 1:-1 2:-1 3:-0.954867 4:-0.20872 5:-0.956835 6:0.45 7:-0.953488 8:-0.5 9:-1 10:-1 11:-0.16336 12:-0.333333 13:-1 14:-0.333333 15:-1 
1 1:-0.803751 2:-1 3:-0.954867 4:-0.219012 5:-0.942446 6:0.56 7:-0.953488 8:-0.6 9:-1 10:-1 11:-0.195193 12:-0.333333 13:-1 14:-1 15:-0.333333 
1 1:-0.889223 2:-1 3:-0.910035 4:-0.0689267 5:-0.928058 6:0.633333 7:-0.953488 8:-0.666667 9:-1 10:-1 11:0.365307 12:0.333333 13:-1 14:-1 15:-0.333333 
1 1:-1 2:-1 3:-0.901911 4:-0.0689267 5:-0.928058 6:0.633333 7:-0.953488 8:-0.666667 9:-1 10:-1 11:0.365307 12:0.333333 13:-1 14:-1 15:-0.333333 
1 1:-0.551757 2:-1 3:-0.901911 4:-0.0493571 5:-0.913669 6:0.685714 7:-0.953488 8:-0.714286 9:-1 10:-1 11:0.163127 12:0.333333 13:-1 14:-1 15:-0.333333 
1 1:-0.909854 2:-1 3:-0.888972 4:0.06317 5:-0.899281 6:0.725 7:-0.953488 8:-0.75 9:-1 10:-1 11:0.533473 12:0.333333 13:-1 14:-1 15:-0.333333 
1 1:-1 2:-1 3:-0.879645 4:0.06317 5:-0.899281 6:0.725 7:-0.953488 8:-0.75 9:-1 10:-1 11:0.533473 12:0.333333 13:-1 14:-1 15:-0.333333 
1 1:-0.845014 2:-1 3:-0.879645 4:0.0987133 5:-0.884892 6:0.755556 7:-0.953488 8:-0.777778 9:-1 10:-1 11:0.433993 12:0.333333 13:-1 14:-1 15:-0.333333 
1 1:-0.842066 2:-1 3:-0.871521 4:0.172042 5:-0.870504 6:0.78 7:-0.953488 8:-0.8 9:-1 10:-1 11:0.68864 12:0.333333 13:-1 14:-1 15:-0.333333 
1 1:-1 2:-1 3:-0.863547 4:0.172042 5:-0.870504 6:0.78 7:-0.953488 8:-0.8 9:-1 10:-1 11:0.68864 12:0.333333 13:-1 14:-1 15:-0.333333 
1 1:-0.504601 2:-1 3:-0.863547 4:0.189989 5:-0.856115 6:0.8 7:-0.953488 8:-0.818182 9:-1 10:-1 11:0.528173 12:0.333333 13:-1 14:-1 15:-0.333333 
1 1:-0.849434 2:-1 3:-0.833609 4:0.0948859 5:-0.798561 6:0.611765 7:-0.906977 8:-0.764706 9:-0.875 10:-0.882353 11:0.0832733 12:0.333333 13:-1 14:-0.333333 15:0.333333 
1 1:-1 2:-1 3:-0.824282 4:0.0948859 5:-0.798561 6:0.611765 7:-0.906977 8:-0.764706 9:-0.875 10:-0.882353 11:0.0832733 12:0.333333 13:-1 14:-1 15:-0.333333 
1 1:-1 2:-1 3:-0.824282 4:0.0340589 5:-0.798561 6:0.511111 7:-0.906977 8:-0.777778 9:-0.75 10:-0.777778 11:0.0832733 12:-0.333333 13:-1 14:-1 15:-1 
1 1:-1 2:-1 3:-0.824282 4:0.0340589 5:-0.798561 6:0.511111 7:-0.906977 8:-0.777778 9:-0.75 10:-0.777778 11:0.0832733 12:-1 13:-1 14:-1 15:-1 
1 1:-0.889223 2:-1 3:-0.824282 4:0.0566811 5:-0.784173 6:0.536842 7:-0.906977 8:-0.789474 9:-0.75 10:-0.789474 11:0.09718 12:-0.333333 13:-1 14:-1 15:-0.333333 
1 1:-0.884802 2:-1 3:-0.774033 4:0.107607 5:-0.726619 6:0.617391 7:-0.906977 8:-0.826087 9:-0.75 10:-0.826087 11:0.316713 12:0.333333 13:-1 14:-1 15:-0.333333 
1 1:-1 2:-1 3:-0.766511 4:0.107607 5:-0.726619 6:0.617391 7:-0.906977 8:-0.826087 9:-0.75 10:-0.826087 11:0.316713 12:0.333333 13:-1 14:-1 15:-0.333333 
1 1:-1 2:-1 3:-0.677599 4:0.278998 5:-0.597122 6:0.725 7:-0.906977 8:-0.875 9:-0.75 10:-0.875 11:0.74358 12:0.333333 13:-1 14:-0.333333 15:-0.333333 
1 1:-1 2:-1 3:-0.677599 4:0.240241 5:-0.597122 6:0.666667 7:-0.906977 8:-0.878788 9:-0.625 10:-0.818182 11:0.20094 12:-0.333333 13:-1 14:-1 15:-1 
1 1:-1 2:-1 3:-0.677599 4:0.240241 5:-0.597122 6:0.666667 7:-0.906977 8:-0.878788 9:-0.625 10:-0.818182 11:0.20094 12:-1 13:-1 14:-1 15:-1 
1 1:-0.786068 2:-1 3:-0.677599 4:0.234502 5:-0.582734 6:0.676471 7:-0.906977 8:-0.882353 9:-0.625 10:-0.823529 11:-0.0490667 12:-0.333333 13:-1 14:-1 15:-0.333333 
1 1:-1 2:-1 3:-0.635625 4:0.234502 5:-0.582734 6:0.676471 7:-0.906977 8:-0.882353 9:-0.625 10:-0.823529 11:-0.0490667 12:-0.333333 13:-1 14:-1 15:-0.333333 
1 1:-1 2:-1 3:-0.635625 4:0.234502 5:-0.582734 6:0.676471 7:-0.906977 8:-0.882353 9:-0.625 10:-0.823529 11:-0.0490667 12:-0.333333 13:-1 14:-1 15:-0.333333 
1 1:-1 2:-1 3:-0.635625 4:0.199231 5:-0.582734 6:0.622857 7:-0.906977 8:-0.885714 9:-0.5 10:-0.771429 11:-0.65162 12:-1 13:-1 14:-1 15:-0.333333 
1 1:-0.852382 2:1 3:-0.978637 4:-0.68182 5:-0.985612 6:-0.1 7:-0.953488 9:-1 10:-1 11:-0.68182 12:-0.333333 13:-0.333333 14:-0.333333 15:0.333333 
1 1:-0.930485 2:1 3:-0.965699 4:-0.15525 5:-0.956835 6:0.45 7:-0.953488 8:-0.5 9:-1 10:-1 11:0.126333 12:1 13:-1 14:0.333333 15:-0.333333 
1 1:-1 2:-1 3:-0.958778 4:-0.15525 5:-0.956835 6:0.45 7:-0.953488 8:-0.5 9:-1 10:-1 11:0.126333 12:0.333333 13:-1 14:-0.333333 15:-1 
1 1:-1 2:-1 3:-0.958778 4:-0.15525 5:-0.956835 6:0.45 7:-0.953488 8:-0.5 9:-1 10:-1 11:0.126333 12:-0.333333 13:-1 14:-0.333333 15:-1 
1 1:-1 2:-1 3:-0.984956 4:-0.62875 5:-0.985612 6:-0.1 7:-1 8:-1 9:-0.875 11:-0.62875 12:-0.333333 13:-1 14:-1 15:0.333333 
1 1:-0.933432 2:-1 3:-0.96946 4:-0.313985 5:-0.956835 6:0.45 7:-1 8:-1 9:-0.875 10:-0.5 11:-0.332813 12:0.333333 13:-1 14:-1 15:0.333333 
1 1:-0.934906 2:1 3:-0.961486 4:-0.074016 5:-0.942446 6:0.56 7:-1 8:-1 9:-0.875 10:-0.6 11:0.295807 12:1 13:-1 14:-0.333333 15:-0.333333 
1 1:-1 2:-1 3:-0.954566 4:-0.074016 5:-0.942446 6:0.56 7:-1 8:-1 9:-0.875 10:-0.6 11:0.295807 12:0.333333 13:-1 14:-0.333333 15:-1 
1 1:-0.921643 2:-1 3:-0.954566 4:0.0627567 5:-0.928058 6:0.633333 7:-1 8:-1 9:-0.875 10:-0.666667 11:0.62988 12:0.333333 13:-1 14:-0.333333 15:-0.333333 
1 1:-0.930485 2:-1 3:-0.919813 4:0.08536 5:-0.884892 6:0.4 7:-0.953488 8:-0.818182 9:-0.75 10:-0.636364 11:-0.37088 12:-1 13:-0.333333 14:-1 15:-0.333333 
1 1:-0.883328 2:1 3:-0.882503 4:0.126897 5:-0.870504 6:0.45 7:-0.953488 8:-0.833333 9:-0.75 10:-0.666667 11:-0.472067 12:-0.333333 13:-0.333333 14:-0.333333 15:0.333333 
1 1:-1 2:-1 3:-0.878291 4:0.126897 5:-0.870504 6:0.45 7:-0.953488 8:-0.833333 9:-0.75 10:-0.666667 11:-0.472067 12:-0.333333 13:-0.333333 14:-0.333333 15:0.333333 
1 1:-1 2:-1 3:-0.878291 4:0.126897 5:-0.870504 6:0.45 7:-0.953488 8:-0.833333 9:-0.75 10:-0.666667 11:-0.472067 12:-0.333333 13:-1 14:-0.333333 15:-0.333333 
1 1:-1 2:-1 3:-0.878291 4:0.0402123 5:-0.870504 6:0.323077 7:-0.953488 8:-0.846154 9:-0.625 10:-0.538462 11:-0.472067 12:-1 13:-1 14:-1 15:-0.333333 
1 1:-0.868592 2:1 3:-0.985407 4:-0.25137 5:-0.971223 6:1 7:-1 8:-1 9:-1 10:-1 11:-0.25137 12:0.333333 13:-1 14:-0.333333 15:0.333333 
1 1:-1 2:-1 3:-0.980593 4:-0.25137 5:-0.971223 6:1 7:-1 8:-1 9:-1 10:-1 11:-0.25137 12:0.333333 13:-1 14:-0.333333 15:0.333333 
1 1:-1 2:-1 3:-0.980593 4:-0.500913 5:-0.971223 6:0.266667 7:-1 8:-1 9:-0.875 10:-0.333333 11:-0.500913 12:-0.333333 13:-1 14:-0.333333 15:0.333333 
1 1:-1 2:-1 3:-0.984956 4:-0.63108 5:-0.985612 6:-0.1 7:-1 8:-1 9:-0.875 11:-0.63108 12:-0.333333 13:-1 14:-1 15:0.333333 
1 1:-0.87596 2:-1 3:-0.984956 4:-0.598727 5:-0.971223 6:0.266667 7:-1 8:-1 9:-0.875 10:-0.333333 11:-0.598727 12:-0.333333 13:-1 14:-1 15:0.333333 
1 1:-0.926064 2:-1 3:-0.980292 4:-0.228795 5:-0.956835 6:0.45 7:-1 8:-1 9:-0.875 10:-0.5 11:-0.217673 12:0.333333 13:-1 14:-1 15:0.333333 
1 1:-1 2:-1 3:-0.971867 4:-0.228795 5:-0.956835 6:0.45 7:-1 8:-1 9:-0.875 10:-0.5 11:-0.217673 12:0.333333 13:-1 14:-1 15:-0.333333 
1 1:-0.796383 2:-1 3:-0.971867 4:-0.383036 5:-0.956835 6:0.12 7:-0.953488 8:-0.6 9:-0.875 10:-0.6 11:-0.217673 12:-0.333333 13:-0.333333 14:-1 15:-0.333333 
1 1:-1 2:-1 3:-0.963292 4:-0.485863 5:-0.956835 6:-0.1 7:-0.953488 8:-0.666667 9:-0.75 10:-0.333333 11:-0.373 12:-1 13:-0.333333 14:-1 15:0.333333 
1 1:-0.899539 2:-1 3:-0.963292 4:-0.32592 5:-0.942446 6:0.0571429 7:-0.953488 8:-0.714286 9:-0.75 10:-0.428571 11:-0.45542 12:-0.333333 13:-0.333333 14:-1 15:1 
1 1:-0.842066 2:1 3:-0.951256 4:-0.302827 5:-0.971223 6:0.266667 7:-1 8:-1 9:-0.875 10:-0.333333 11:-0.302827 12:0.333333 13:-1 14:-0.333333 15:1 
1 1:-0.946695 2:1 3:-0.880548 4:0.267653 5:-0.841727 6:0.816667 7:-1 8:-1 9:-0.875 10:-0.833333 11:0.504173 12:1 13:-1 14:-0.333333 15:-0.333333 
1 1:-0.915749 2:-1 3:-0.844441 4:0.222392 5:-0.81295 6:0.706667 7:-1 8:-1 9:-0.75 10:-0.733333 11:0.0413467 12:0.333333 13:-1 14:-1 15:0.333333 
1 1:-0.943748 2:-1 3:-0.832255 4:0.263325 5:-0.798561 6:0.725 7:-1 8:-1 9:-0.75 10:-0.75 11:0.66712 12:0.333333 13:-1 14:-1 15:-0.333333 
1 1:-1 2:-1 3:-0.825184 4:0.263325 5:-0.798561 6:0.725 7:-1 8:-1 9:-0.75 10:-0.75 11:0.66712 12:0.333333 13:-1 14:-1 15:-0.333333 
1 1:-0.940801 2:-1 3:-0.825184 4:0.291113 5:-0.784173 6:0.741176 7:-1 8:-1 9:-0.75 10:-0.764706 11:0.65558 12:0.333333 13:-1 14:-1 15:-0.333333 
1 1:-0.946695 2:-1 3:-0.818715 4:0.323859 5:-0.769784 6:0.755556 7:-1 8:-1 9:-0.75 10:-0.777778 11:0.831193 12:0.333333 13:-1 14:-1 15:-0.333333 
1 1:-1 2:-1 3:-0.812096 4:0.323859 5:-0.769784 6:0.755556 7:-1 8:-1 9:-0.75 10:-0.777778 11:0.831193 12:0.333333 13:-1 14:-1 15:-0.333333 
1 1:-0.893644 2:-1 3:-0.812096 4:0.316557 5:-0.755396 6:0.768421 7:-1 8:-1 9:-0.75 10:-0.789474 11:0.60046 12:0.333333 13:-1 14:-1 15:-0.333333 
1 1:-0.934906 2:-1 3:-0.803972 4:0.250729 5:-0.755396 6:0.67 7:-0.953488 8:-0.9 9:-0.75 10:-0.8 11:0.0218867 12:-0.333333 13:-0.333333 14:-1 15:-0.333333 
1 1:-0.822909 2:1 3:-0.95607 4:0.50302 5:-0.942446 6:1 7:-1 8:-1 9:-1 10:-1 11:0.680767 12:0.333333 13:-1 14:-0.333333 15:0.333333 
1 1:-1 2:-1 3:-0.944336 4:0.50302 5:-0.942446 6:1 7:-1 8:-1 9:-1 10:-1 11:0.680767 12:0.333333 13:-1 14:-0.333333 15:0.333333 
1 1:-0.934906 2:1 3:-0.979389 4:-0.29577 5:-0.985612 6:-0.1 7:-0.953488 9:-1 10:-1 11:-0.29577 12:-0.333333 13:-0.333333 14:-0.333333 15:0.333333 
1 1:-1 2:-1 3:-0.968106 4:-0.29577 5:-0.985612 6:-0.1 7:-0.953488 9:-1 10:-1 11:-0.29577 12:-0.333333 13:-0.333333 14:-0.333333 15:0.333333 
1 1:-0.735963 2:-1 3:-0.968106 4:-0.347887 5:-0.971223 6:0.266667 7:-0.953488 8:-0.333333 9:-1 10:-1 11:-0.347887 12:-0.333333 13:-0.333333 14:-0.333333 15:0.333333 
1 1:-0.933432 2:-1 3:-0.941778 4:-0.180573 5:-0.942446 6:0.266667 7:-0.953488 8:-0.666667 9:-0.875 10:-0.666667 11:-0.01326 12:0.333333 13:-1 14:-1 15:0.333333 
1 1:-1 2:-1 3:-0.935159 4:-0.180573 5:-0.942446 6:0.266667 7:-0.953488 8:-0.666667 9:-0.875 10:-0.666667 11:-0.01326 12:0.333333 13:-1 14:-1 15:-0.333333 
1 1:-0.822909 2:-1 3:-0.935159 4:-0.210543 5:-0.928058 6:0.371429 7:-0.953488 8:-0.714286 9:-0.875 10:-0.714286 11:0.189953 12:0.333333 13:-1 14:-1 15:-0.333333 
1 1:-0.931959 2:-1 3:-0.924176 4:-0.08958 5:-0.913669 6:0.45 7:-0.953488 8:-0.75 9:-0.875 10:-0.75 11:0.35146 12:0.333333 13:-1 14:-1 15:-0.333333 
1 1:-1 2:-1 3:-0.916955 4:-0.08958 5:-0.913669 6:0.45 7:-0.953488 8:-0.75 9:-0.875 10:-0.75 11:0.35146 12:0.333333 13:-1 14:-1 15:-0.333333 
1 1:-0.78312 2:-1 3:-0.916955 4:-0.07164 5:-0.899281 6:0.511111 7:-0.953488 8:-0.777778 9:-0.875 10:-0.777778 11:0.146227 12:0.333333 13:-1 14:-1 15:-0.333333 
1 1:-0.911328 2:-1 3:-0.90176 4:0.013754 5:-0.884892 6:0.56 7:-0.953488 8:-0.8 9:-0.875 10:-0.8 11:0.537113 12:0.333333 13:-1 14:-1 15:-0.333333 
1 1:-1 2:-1 3:-0.893787 4:0.013754 5:-0.884892 6:0.56 7:-0.953488 8:-0.8 9:-0.875 10:-0.8 11:0.537113 12:0.333333 13:-1 14:-1 15:-0.333333 
1 1:-1 2:-1 3:-0.893787 4:-0.0784055 5:-0.884892 6:0.4 7:-0.953488 8:-0.818182 9:-0.75 10:-0.636364 11:-0.0486067 12:-0.333333 13:-1 14:-1 15:-1 
1 1:-1 2:-1 3:-0.893787 4:-0.0784055 5:-0.884892 6:0.4 7:-0.953488 8:-0.818182 9:-0.75 10:-0.636364 11:-0.0486067 12:-1 13:-1 14:-1 15:-1 
1 1:-0.921643 2:-1 3:-0.893787 4:-0.0597217 5:-0.870504 6:0.45 7:-0.953488 8:-0.833333 9:-0.75 10:-0.666667 11:-0.0239667 12:-0.333333 13:-1 14:-1 15:-0.333333 
1 1:-1 2:-1 3:-0.840229 4:-0.132051 5:-0.870504 6:0.323077 7:-0.953488 8:-0.846154 9:-0.625 10:-0.538462 11:-0.618067 12:-0.333333 13:-1 14:-1 15:-0.333333 
1 1:-1 2:-1 3:-0.982248 4:-0.62875 5:-0.985612 6:-0.1 7:-1 8:-1 9:-0.875 11:-0.62875 12:-0.333333 13:-1 14:-1 15:0.333333 
1 1:-0.901012 2:1 3:-0.948097 4:-0.4895 5:-0.971223 6:-0.1 7:-0.953488 8:-0.5 9:-0.875 10:-0.5 11:-0.566833 12:-0.333333 13:-0.333333 14:-0.333333 15:1 
1 1:-1 2:-1 3:-0.916203 4:-0.4895 5:-0.971223 6:-0.1 7:-0.953488 8:-0.5 9:-0.875 10:-0.5 11:-0.566833 12:-0.333333 13:-0.333333 14:-0.333333 15:0.333333 
0.1739991076304478 1:-1 2:-1 3:-0.975478 4:-1 5:-1 6:1 7:-0.906977 8:1 9:-1 10:-1 11:-1 12:-1 13:0.333333 14:-0.333333 15:0.333333 
1 1:-0.914275 2:-1 3:-0.9493 4:-0.123798 5:-0.913669 6:0.45 7:-0.906977 8:-0.5 9:-1 10:-1 11:0.544847 12:0.333333 13:-1 14:-1 15:-0.333333 
1 1:-1 2:-1 3:-0.941778 4:-0.123798 5:-0.913669 6:0.45 7:-0.906977 8:-0.5 9:-1 10:-1 11:0.544847 12:0.333333 13:-1 14:-1 15:-0.333333 
1 1:-0.737437 2:-1 3:-0.941778 4:-0.0542711 5:-0.899281 6:0.511111 7:-0.906977 8:-0.555556 9:-1 10:-1 11:0.46696 12:0.333333 13:-1 14:-1 15:-0.333333 
1 1:-0.937853 2:-1 3:-0.929442 4:0.031912 5:-0.884892 6:0.56 7:-0.906977 8:-0.6 9:-1 10:-1 11:0.692487 12:0.333333 13:-1 14:-1 15:-0.333333 
1 1:-1 2:-1 3:-0.921468 4:0.031912 5:-0.884892 6:0.56 7:-0.906977 8:-0.6 9:-1 10:-1 11:0.692487 12:0.333333 13:-1 14:-1 15:-0.333333 
1 1:-1 2:-1 3:-0.921468 4:-0.0618982 5:-0.884892 6:0.4 7:-0.906977 8:-0.636364 9:-0.875 10:-0.818182 11:0.103167 12:-0.333333 13:-1 14:-1 15:-1 
1 1:-1 2:-1 3:-0.921468 4:-0.0618982 5:-0.884892 6:0.4 7:-0.906977 8:-0.636364 9:-0.875 10:-0.818182 11:0.103167 12:-1 13:-1 14:-1 15:-1 
1 1:-0.946695 2:-1 3:-0.921468 4:-0.0687867 5:-0.870504 6:0.45 7:-0.906977 8:-0.666667 9:-0.875 10:-0.833333 11:-0.112333 12:-0.333333 13:-1 14:-1 15:-0.333333 
1 1:-1 2:-1 3:-0.896645 4:-0.0687867 5:-0.870504 6:0.45 7:-0.906977 8:-0.666667 9:-0.875 10:-0.833333 11:-0.112333 12:-0.333333 13:-1 14:-1 15:-0.333333 
1 1:-1 2:-1 3:-0.896645 4:-0.140418 5:-0.870504 6:0.323077 7:-0.906977 8:-0.692308 9:-0.75 10:-0.692308 11:-0.714853 12:-0.333333 13:-1 14:-1 15:0.333333 
1 1:-0.800804 2:-1 3:-0.896645 4:-0.0863014 5:-0.856115 6:0.371429 7:-0.906977 8:-0.714286 9:-0.75 10:-0.714286 11:-0.17578 12:-0.333333 13:-1 14:-1 15:0.333333 
1 1:-1 2:-1 3:-0.866707 4:-0.0863014 5:-0.856115 6:0.371429 7:-0.906977 8:-0.714286 9:-0.75 10:-0.714286 11:-0.17578 12:-0.333333 13:-1 14:-1 15:0.333333 
1 1:-0.656386 2:-1 3:-0.866707 4:-0.128607 5:-0.841727 6:0.413333 7:-0.906977 8:-0.733333 9:-0.75 10:-0.733333 11:-0.367887 12:0.333333 13:-1 14:-1 15:0.333333 
1 1:-0.864171 2:-1 3:-0.851061 4:-0.170737 5:-0.827338 6:0.45 7:-0.906977 8:-0.75 9:-0.75 10:-0.75 11:-0.30212 12:0.333333 13:-1 14:-1 15:-0.333333 
1 1:-0.942274 2:-1 3:-0.84068 4:-0.0706147 5:-0.784173 6:0.536842 7:-0.906977 8:-0.789474 9:-0.75 10:-0.789474 11:0.463373 12:0.333333 13:-1 14:-0.333333 15:-1 
1 1:-1 2:-1 3:-0.833158 4:-0.0706147 5:-0.784173 6:0.536842 7:-0.906977 8:-0.789474 9:-0.75 10:-0.789474 11:0.463373 12:-0.333333 13:-1 14:-1 15:-1 
1 1:-0.939327 2:-1 3:-0.833158 4:-0.024561 5:-0.769784 6:0.56 7:-0.906977 8:-0.8 9:-0.75 10:-0.8 11:0.847513 12:0.333333 13:-1 14:-1 15:-1 
1 1:-1 2:-1 3:-0.825636 4:-0.024561 5:-0.769784 6:0.56 7:-0.906977 8:-0.8 9:-0.75 10:-0.8 11:0.847513 12:-0.333333 13:-1 14:-1 15:-1 
1 1:-0.902486 2:-1 3:-0.825636 4:0.0165524 5:-0.755396 6:0.580952 7:-0.906977 8:-0.809524 9:-0.75 10:-0.809524 11:0.846073 12:0.333333 13:-1 14:-1 15:-0.333333 
1 1:-0.937853 2:-1 3:-0.817512 4:0.0546636 5:-0.741007 6:0.6 7:-0.906977 8:-0.818182 9:-0.75 10:-0.818182 11:0.848093 12:0.333333 13:-1 14:-1 15:-0.333333 
1 1:-1 2:-1 3:-0.809839 4:0.0546636 5:-0.741007 6:0.6 7:-0.906977 8:-0.818182 9:-0.75 10:-0.818182 11:0.848093 12:0.333333 13:-1 14:-1 15:-0.333333 
1 1:-1 2:-1 3:-0.809839 4:0.0088087 5:-0.741007 6:0.521739 7:-0.906977 8:-0.826087 9:-0.625 10:-0.73913 11:0.231273 12:-0.333333 13:-1 14:-1 15:-1 
1 1:-0.92017 2:-1 3:-0.976531 4:-0.40538 5:-0.971223 6:1 7:-1 8:-1 9:-1 10:-1 11:-0.40538 12:0.333333 13:-1 14:-1 15:-0.333333 
1 1:-0.943748 2:1 3:-0.973973 4:0.0251533 5:-0.956835 6:1 7:-1 8:-1 9:-1 10:-1 11:0.0251533 12:1 13:-1 14:-0.333333 15:-0.333333 
1 1:-1 2:-1 3:-0.967203 4:0.0251533 5:-0.956835 6:1 7:-1 8:-1 9:-1 10:-1 11:0.0251533 12:0.333333 13:-1 14:-0.333333 15:-1 
1 1:-0.93638 2:-1 3:-0.967203 4:0.240395 5:-0.942446 6:1 7:-1 8:-1 9:-1 10:-1 11:0.56088 12:0.333333 13:-1 14:-0.333333 15:-1 
1 1:-0.849434 2:1 3:-0.977885 4:-0.43443 5:-0.971223 6:1 7:-1 8:-1 9:-1 10:-1 11:-0.43443 12:0.333333 13:-1 14:-0.333333 15:0.333333 
1 1:-0.898065 2:-1 3:-0.953964 4:-0.412087 5:-0.956835 6:1 7:-1 8:-1 9:-1 10:-1 11:-0.412087 12:1 13:-1 14:-0.333333 15:0.333333 
1 1:-0.933432 2:1 3:-0.952008 4:-0.102625 5:-0.942446 6:1 7:-1 8:-1 9:-1 10:-1 11:-0.07424 12:1 13:-1 14:0.333333 15:-0.333333 
1 1:-1 2:-1 3:-0.945539 4:-0.102625 5:-0.942446 6:1 7:-1 8:-1 9:-1 10:-1 11:-0.07424 12:0.333333 13:-1 14:-0.333333 15:-1 
1 1:-0.937853 2:-1 3:-0.945539 4:0.086116 5:-0.928058 6:1 7:-1 8:-1 9:-1 10:-1 11:0.433147 12:0.333333 13:-1 14:-0.333333 15:-1 
1 1:-0.899539 2:-1 3:-0.937566 4:0.140407 5:-0.913669 6:1 7:-1 8:-1 9:-1 10:-1 11:0.6929 12:0.333333 13:-1 14:-1 15:-0.333333 
1 1:-0.911328 2:-1 3:-0.926734 4:0.241269 5:-0.899281 6:1 7:-1 8:-1 9:-1 10:-1 11:0.699793 12:0.333333 13:-1 14:-1 15:0.333333 
1 1:-0.93638 2:-1 3:-0.919061 4:0.31868 5:-0.884892 6:1 7:-1 8:-1 9:-1 10:-1 11:0.706287 12:1 13:-1 14:-1 15:0.333333 
1 1:-0.678491 2:-1 3:-0.861893 4:0.168235 5:-0.856115 6:0.8 7:-1 8:-1 9:-0.875 10:-0.818182 11:-0.232953 12:0.333333 13:-1 14:-1 15:0.333333 
1 1:-0.940801 2:-1 3:-0.847149 4:0.226822 5:-0.841727 6:0.816667 7:-1 8:-1 9:-0.875 10:-0.833333 11:0.390807 12:0.333333 13:-1 14:-1 15:-0.333333 
1 1:-1 2:-1 3:-0.84068 4:0.226822 5:-0.841727 6:0.816667 7:-1 8:-1 9:-0.875 10:-0.833333 11:0.390807 12:0.333333 13:-1 14:-1 15:-0.333333 
1 1:-0.943748 2:-1 3:-0.84068 4:0.276618 5:-0.827338 6:0.830769 7:-1 8:-1 9:-0.875 10:-0.846154 11:0.502827 12:0.333333 13:-1 14:-1 15:-1 
1 1:-0.931959 2:-1 3:-0.832706 4:0.319149 5:-0.81295 6:0.842857 7:-1 8:-1 9:-0.875 10:-0.857143 11:0.8725 12:0.333333 13:-1 14:-1 15:-1 
1 1:-0.933432 2:-1 3:-0.824282 4:0.356147 5:-0.798561 6:0.853333 7:-1 8:-1 9:-0.875 10:-0.866667 11:0.873447 12:0.333333 13:-1 14:-1 15:-1 
1 1:-1 2:-1 3:-0.815706 4:0.271387 5:-0.798561 6:0.725 7:-1 8:-1 9:-0.75 10:-0.75 11:0.24872 12:-0.333333 13:-1 14:-1 15:-1 
1 1:-1 2:-1 3:-0.815706 4:0.271387 5:-0.798561 6:0.725 7:-1 8:-1 9:-0.75 10:-0.75 11:0.24872 12:-1 13:-1 14:-1 15:-1 
1 1:-0.870066 2:-1 3:-0.815706 4:0.290481 5:-0.784173 6:0.741176 7:-1 8:-1 9:-0.75 10:-0.764706 11:0.1567 12:-0.333333 13:-1 14:-1 15:-0.333333 
1 1:-1 2:-1 3:-0.775237 4:0.290481 5:-0.784173 6:0.741176 7:-1 8:-1 9:-0.75 10:-0.764706 11:0.1567 12:-0.333333 13:-1 14:-1 15:-0.333333 
1 1:-1 2:-1 3:-0.775237 4:0.290481 5:-0.784173 6:0.741176 7:-1 8:-1 9:-0.75 10:-0.764706 11:0.1567 12:-0.333333 13:-1 14:-1 15:-0.333333 
1 1:-0.937853 2:-1 3:-0.775237 4:0.277574 5:-0.769784 6:0.755556 7:-1 8:-1 9:-0.75 10:-0.777778 11:-0.115287 12:-0.333333 13:-1 14:-1 15:-0.333333 
1 1:-1 2:-1 3:-0.730104 4:0.210334 5:-0.769784 6:0.652632 7:-1 8:-1 9:-0.625 10:-0.684211 11:-0.115287 12:-0.333333 13:-1 14:-1 15:-0.333333 
1 1:-0.817014 2:-1 3:-0.977885 4:-0.38493 5:-0.971223 6:1 7:-1 8:-1 9:-1 10:-1 11:-0.38493 12:0.333333 13:-1 14:-1 15:-0.333333 
1 1:-0.934906 2:-1 3:-0.96946 4:0.0379733 5:-0.956835 6:1 7:-1 8:-1 9:-1 10:-1 11:0.0379733 12:1 13:-1 14:-1 15:-0.333333 
1 1:-0.943748 2:1 3:-0.856025 4:0.323298 5:-0.841727 6:0.661538 7:-1 8:-1 9:-0.75 10:-0.692308 11:-0.29602 12:0.333333 13:-1 14:-0.333333 15:0.333333 
1 1:-0.873013 2:1 3:-0.97623 5:-0.985612 6:-0.1 7:-0.953488 9:-1 10:-1 12:-0.333333 13:-0.333333 14:-0.333333 15:0.333333 
1 1:-0.311552 2:-1 3:-0.974425 4:-0.59924 5:-0.971223 6:1 7:-1 8:-1 9:-1 10:-1 11:-0.59924 12:0.333333 13:-1 14:-1 15:-0.333333 
1 1:-0.906907 2:1 3:-0.956973 4:-0.136013 5:-0.956835 6:1 7:-1 8:-1 9:-1 10:-1 11:-0.136013 12:1 13:-1 14:-0.333333 15:-0.333333 
1 1:-1 2:-1 3:-0.943283 4:-0.136013 5:-0.956835 6:1 7:-1 8:-1 9:-1 10:-1 11:-0.136013 12:0.333333 13:-1 14:-0.333333 15:-1 
1 1:-0.865645 2:-1 3:-0.943283 4:0.09649 5:-0.942446 6:1 7:-1 8:-1 9:-1 10:-1 11:0.416413 12:0.333333 13:-1 14:-0.333333 15:-1 
1 1:-0.840593 2:1 3:-0.981495 4:0.03021 5:-0.971223 6:1 7:-1 8:-1 9:-1 10:-1 11:0.03021 12:0.333333 13:-1 14:-0.333333 15:0.333333 
1 1:-1 2:-1 3:-0.957424 4:0.03021 5:-0.971223 6:1 7:-1 8:-1 9:-1 10:-1 11:0.03021 12:0.333333 13:-1 14:-0.333333 15:0.333333 
1 1:-0.774278 2:-1 3:-0.95246 4:0.185672 5:-0.942446 6:0.56 7:-0.953488 8:-0.6 9:-1 10:-1 11:-0.0866267 12:-0.333333 13:-0.333333 14:-1 15:-0.333333 
1 1:-0.911328 2:1 3:-0.942831 4:0.264957 5:-0.928058 6:0.633333 7:-0.953488 8:-0.666667 9:-1 10:-1 11:0.180293 12:-0.333333 13:-0.333333 14:-0.333333 15:0.333333 
1 1:-0.248186 2:-1 3:-0.99985 4:-0.92514 5:-0.985612 6:1 7:-1 8:-1 9:-1 10:-1 11:-0.92514 12:-0.333333 13:-1 14:-1 15:-0.333333 
1 1:-0.915749 2:-1 3:-0.951557 4:-0.081125 5:-0.956835 6:0.45 7:-0.953488 8:-0.5 9:-1 10:-1 11:0.200213 12:-0.333333 13:-0.333333 14:-1 15:-0.333333 
1 1:-0.845014 2:1 3:-0.945991 4:-0.2649 5:-0.956835 6:0.12 7:-0.906977 8:-0.2 9:-1 10:-1 11:-0.42422 12:-0.333333 13:0.333333 14:-0.333333 15:-0.333333 
1 1:-0.884802 2:1 3:-0.942681 4:-0.11967 5:-0.942446 6:0.266667 7:-0.906977 8:-0.333333 9:-1 10:-1 11:-0.464507 12:-0.333333 13:0.333333 14:0.333333 15:-1 
1 1:-1 2:-1 3:-0.933053 4:-0.11967 5:-0.942446 6:0.266667 7:-0.906977 8:-0.333333 9:-1 10:-1 11:-0.464507 12:-0.333333 13:-0.333333 14:0.333333 15:-1 
1 1:-0.883328 2:1 3:-0.929442 4:0.071965 5:-0.913669 6:0.45 7:-0.906977 8:-0.5 9:-1 10:-1 11:0.633407 12:0.333333 13:-1 14:-0.333333 15:0.333333 
1 1:-0.933432 2:-1 3:-0.921017 4:0.152153 5:-0.899281 6:0.511111 7:-0.906977 8:-0.555556 9:-1 10:-1 11:0.6958 12:1 13:-1 14:-0.333333 15:0.333333 
1 1:-1 2:-1 3:-0.913645 4:0.152153 5:-0.899281 6:0.511111 7:-0.906977 8:-0.555556 9:-1 10:-1 11:0.6958 12:0.333333 13:-1 14:-0.333333 15:-0.333333 
1 1:-1 2:-1 3:-0.913645 4:0.036938 5:-0.899281 6:0.34 7:-0.906977 8:-0.6 9:-0.875 10:-0.8 11:0.181387 12:-0.333333 13:-1 14:-1 15:-1 
1 1:-1 2:-1 3:-0.913645 4:0.036938 5:-0.899281 6:0.34 7:-0.906977 8:-0.6 9:-0.875 10:-0.8 11:0.181387 12:-1 13:-1 14:-1 15:-1 
1 1:-0.64165 2:-1 3:-0.926734 4:0.558638 5:-0.870504 6:1 7:-1 8:-1 9:-1 10:-1 11:0.392547 12:1 13:-1 14:-1 15:0.333333 
1 1:-1 2:-1 3:-0.776892 4:0.374445 5:-0.798561 6:0.725 7:-1 8:-1 9:-0.75 10:-0.75 11:-0.130773 12:-1 13:-1 14:-1 15:-0.333333 
1 1:-0.864171 2:1 3:-0.936212 4:0.656108 5:-0.884892 6:1 7:-1 8:-1 9:-1 10:-1 11:0.710627 12:0.333333 13:-1 14:-0.333333 15:0.333333 
1 1:-0.668176 2:-1 3:-0.99985 4:-1 5:-1 6:1 7:-0.953488 8:1 9:-1 10:-1 11:-1 12:-1 13:-0.333333 14:-1 15:-0.333333 
1 1:-0.893644 2:-1 3:-0.942982 4:-0.566767 5:-0.956835 6:-0.1 7:-0.906977 8:-0.333333 9:-0.875 10:-0.666667 11:-0.286407 12:0.333333 13:-1 14:-1 15:0.333333 
1 1:-1 2:-1 3:-0.93561 4:-0.566767 5:-0.956835 6:-0.1 7:-0.906977 8:-0.333333 9:-0.875 10:-0.666667 11:-0.286407 12:0.333333 13:-1 14:-1 15:-0.333333 
0.5181344392840967 1:-0.853855 2:-1 3:-0.915902 4:0.416176 5:-0.884892 6:0.56 7:-0.953488 8:-0.8 9:-0.875 10:-0.8 11:-0.373727 12:-1 13:-0.333333 14:-1 15:-0.333333 
1 1:-0.771331 2:1 3:-0.865503 4:0.418707 5:-0.870504 6:0.6 7:-0.953488 8:-0.818182 9:-0.875 10:-0.818182 11:-0.51866 12:-0.333333 13:-0.333333 14:-0.333333 15:0.333333 
1 1:-1 2:-1 3:-0.853618 4:0.418707 5:-0.870504 6:0.6 7:-0.953488 8:-0.818182 9:-0.875 10:-0.818182 11:-0.51866 12:-0.333333 13:-0.333333 14:-0.333333 15:0.333333 
1 1:-1 2:-1 3:-0.853618 4:0.418707 5:-0.870504 6:0.6 7:-0.953488 8:-0.818182 9:-0.875 10:-0.818182 11:-0.51866 12:-0.333333 13:-1 14:-0.333333 15:-0.333333 
1 1:-0.911328 2:-1 3:-0.962389 4:0.278913 5:-0.956835 6:1 7:-1 8:-1 9:-1 10:-1 11:0.278913 12:1 13:-1 14:-1 15:-0.333333 
1 1:-0.895118 2:-1 3:-0.975177 4:0.320253 5:-0.956835 6:1 7:-1 8:-1 9:-1 10:-1 11:0.320253 12:1 13:-1 14:-1 15:0.333333 
1 1:-0.943748 2:-1 3:-0.970062 4:0.462255 5:-0.942446 6:1 7:-1 8:-1 9:-1 10:-1 11:0.7133 12:1 13:-1 14:-1 15:-0.333333 
1 1:-1 2:-1 3:-0.95592 4:-1 5:-1 6:1 7:-0.906977 8:1 9:-1 10:-1 11:-1 12:-1 13:0.333333 14:-0.333333 15:0.333333 
1 1:-0.849434 2:-1 3:-0.95592 4:-0.68966 5:-0.985612 6:-0.466667 7:-0.906977 8:0.333333 9:-1 10:-1 11:-0.68966 12:-0.333333 13:-0.333333 14:-0.333333 15:0.333333 
1 1:-0.945222 2:-1 3:-0.946141 4:-0.33053 5:-0.971223 6:-0.1 7:-0.906977 9:-1 10:-1 11:-0.107373 12:0.333333 13:-1 14:-1 15:-0.333333 
1 1:-0.929012 2:-1 3:-0.920114 4:0.0445343 5:-0.928058 6:0.371429 7:-0.906977 8:-0.428571 9:-1 10:-1 11:0.54462 12:0.333333 13:-1 14:-1 15:-0.333333 
1 1:-0.943748 2:-1 3:-0.912291 4:0.142415 5:-0.913669 6:0.45 7:-0.906977 8:-0.5 9:-1 10:-1 11:0.74532 12:0.333333 13:-1 14:-1 15:-0.333333 
1 1:-1 2:-1 3:-0.904619 4:0.142415 5:-0.913669 6:0.45 7:-0.906977 8:-0.5 9:-1 10:-1 11:0.74532 12:0.333333 13:-1 14:-1 15:-0.333333 
1 1:-0.899539 2:-1 3:-0.904619 4:0.217362 5:-0.899281 6:0.511111 7:-0.906977 8:-0.555556 9:-1 10:-1 11:0.750013 12:0.333333 13:-1 14:-1 15:-0.333333 
1 1:-0.946695 2:-1 3:-0.895442 4:0.279986 5:-0.884892 6:0.56 7:-0.906977 8:-0.6 9:-1 10:-1 11:0.829373 12:0.333333 13:-1 14:-1 15:-0.333333 
1 1:-1 2:-1 3:-0.887318 4:0.279986 5:-0.884892 6:0.56 7:-0.906977 8:-0.6 9:-1 10:-1 11:0.829373 12:0.333333 13:-1 14:-1 15:-0.333333 
1 1:-1 2:-1 3:-0.887318 4:0.163624 5:-0.884892 6:0.4 7:-0.906977 8:-0.636364 9:-0.875 10:-0.818182 11:0.22018 12:-0.333333 13:-1 14:-1 15:-1 
1 1:-1 2:-1 3:-0.887318 4:0.163624 5:-0.884892 6:0.4 7:-0.906977 8:-0.636364 9:-0.875 10:-0.818182 11:0.22018 12:-1 13:-1 14:-1 15:-1 
1 1:-0.588599 2:-1 3:-0.979389 4:-0.83015 5:-0.971223 6:1 7:-1 8:-1 9:-1 10:-1 11:-0.83015 12:0.333333 13:-1 14:-1 15:-0.333333 
1 1:-1 2:-1 3:-0.979841 4:-0.63688 5:-0.985612 6:-0.1 7:-1 8:-1 9:-0.875 11:-0.63688 12:-0.333333 13:-1 14:-1 15:0.333333 
1 1:-0.878907 2:-1 3:-0.951106 4:-0.168692 5:-0.942446 6:0.56 7:-1 8:-1 9:-0.875 10:-0.6 11:0.143433 12:0.333333 13:-1 14:-1 15:-0.333333 
1 1:-1 2:1 3:-0.941778 4:-0.307243 5:-0.942446 6:0.266667 7:-1 8:-1 9:-0.75 10:-0.333333 11:-0.19712 12:-0.333333 13:-1 14:-0.333333 15:0.333333 
1 1:-0.886276 2:-1 3:-0.941778 4:-0.1463 5:-0.928058 6:0.371429 7:-1 8:-1 9:-0.75 10:-0.428571 11:-0.21748 12:0.333333 13:-1 14:-0.333333 15:1 
1 1:-0.896591 2:-1 3:-0.952761 4:0.415864 5:-0.928058 6:1 7:-1 8:-1 9:-1 10:-1 11:0.354587 12:1 13:-1 14:-1 15:0.333333 
1 1:-0.901012 2:1 3:-0.950053 4:0.4185 5:-0.913669 6:1 7:-1 8:-1 9:-1 10:-1 11:0.633113 12:1 13:-1 14:-0.333333 15:0.333333 
1 1:-0.917222 2:-1 3:-0.946893 4:0.479937 5:-0.899281 6:1 7:-1 8:-1 9:-1 10:-1 11:0.656933 12:1 13:-1 14:-0.333333 15:0.333333 
1 1:-1 2:-1 3:-0.930495 4:0.479937 5:-0.899281 6:1 7:-1 8:-1 9:-1 10:-1 11:0.656933 12:0.333333 13:-1 14:-0.333333 15:-0.333333 
1 1:-1 2:-1 3:-0.981796 4:-0.78125 5:-0.985612 6:-0.1 7:-1 8:-1 9:-0.875 11:-0.78125 12:-0.333333 13:-1 14:-1 15:0.333333 
1 1:-1 2:-1 3:-0.976531 4:-0.5125 5:-0.971223 6:-0.32 7:-1 8:-1 9:-0.625 10:0.2 11:-0.333333 12:-1 13:-1 14:-1 15:0.333333 
1 1:-0.887749 2:-1 3:-0.976531 4:-0.417493 5:-0.956835 6:-0.1 7:-1 8:-1 9:-0.625 11:-0.647487 12:-0.333333 13:-1 14:-1 15:1 
1 1:-1 2:-1 3:-0.985708 4:-0.78125 5:-0.985612 6:-0.1 7:-1 8:-1 9:-0.875 11:-0.78125 12:-0.333333 13:-1 14:-1 15:0.333333 
1 1:-0.93638 2:-1 3:-0.913946 4:-0.223565 5:-0.956835 6:0.45 7:-1 8:-1 9:-0.875 10:-0.5 11:-0.110587 12:0.333333 13:-1 14:-1 15:0.333333 
1 1:-0.926064 2:1 3:-0.906875 4:-0.041148 5:-0.942446 6:0.56 7:-1 8:-1 9:-0.875 10:-0.6 11:0.452253 12:1 13:-1 14:-0.333333 15:-0.333333 
1 1:-1 2:-1 3:-0.899052 4:-0.041148 5:-0.942446 6:0.56 7:-1 8:-1 9:-0.875 10:-0.6 11:0.452253 12:0.333333 13:-1 14:-0.333333 15:-1 
1 1:-0.864171 2:-1 3:-0.899052 4:-0.200957 5:-0.942446 6:0.266667 7:-0.953488 8:-0.666667 9:-0.875 10:-0.666667 11:0.108787 12:-0.333333 13:-0.333333 14:-0.333333 15:-0.333333 
1 1:-0.905433 2:1 3:-0.894088 4:-0.17948 5:-0.928058 6:0.371429 7:-0.953488 8:-0.714286 9:-0.875 10:-0.714286 11:-0.1207 12:-0.333333 13:-0.333333 14:-0.333333 15:0.333333 
1 1:-0.911328 2:-1 3:-0.89138 4:-0.245263 5:-0.913669 6:0.45 7:-0.953488 8:-0.75 9:-0.875 10:-0.75 11:-0.585453 12:0.333333 13:-0.333333 14:-0.333333 15:0.333333 
1 1:-0.929012 2:1 3:-0.888822 4:-0.126769 5:-0.899281 6:0.511111 7:-0.953488 8:-0.777778 9:-0.875 10:-0.777778 11:0.0216067 12:1 13:-1 14:0.333333 15:-0.333333 
1 1:-1 2:-1 3:-0.882503 4:-0.126769 5:-0.899281 6:0.511111 7:-0.953488 8:-0.777778 9:-0.875 10:-0.777778 11:0.0216067 12:0.333333 13:-1 14:-0.333333 15:-1 
1 1:-0.926064 2:-1 3:-0.968106 4:0.426175 5:-0.942446 6:1 7:-1 8:-1 9:-1 10:-1 11:0.657127 12:1 13:-1 14:-0.333333 15:-1 
1 1:-1 2:-1 3:-0.961637 4:0.426175 5:-0.942446 6:1 7:-1 8:-1 9:-1 10:-1 11:0.657127 12:0.333333 13:-1 14:-0.333333 15:-1 
1 1:-0.769857 2:1 3:-0.977133 4:-0.69887 5:-0.985612 6:-0.1 7:-0.953488 9:-1 10:-1 11:-0.69887 12:-0.333333 13:-0.333333 14:-0.333333 15:0.333333 
1 1:-1 2:-1 3:-0.973371 4:-0.69887 5:-0.985612 6:-0.1 7:-0.953488 9:-1 10:-1 11:-0.69887 12:-0.333333 13:-0.333333 14:-0.333333 15:0.333333 
1 1:-0.890697 2:-1 3:-0.973371 4:-0.670587 5:-0.971223 6:0.266667 7:-0.953488 8:-0.333333 9:-1 10:-1 11:-0.670587 12:0.333333 13:-1 14:-0.333333 15:0.333333 
1 1:-0.842066 2:-1 3:-0.964947 4:-0.333385 5:-0.956835 6:0.45 7:-0.953488 8:-0.5 9:-1 10:-1 11:-0.11118 12:0.333333 13:-1 14:-1 15:-0.333333 
1 1:-1 2:-1 3:-0.958778 4:-0.333385 5:-0.956835 6:0.45 7:-0.953488 8:-0.5 9:-1 10:-1 11:-0.11118 12:0.333333 13:-1 14:-1 15:-0.333333 
1 1:-1 2:-1 3:-0.958778 4:-0.333385 5:-0.956835 6:0.45 7:-0.953488 8:-0.5 9:-1 10:-1 11:-0.11118 12:-0.333333 13:-1 14:-1 15:-1 
1 1:-0.90396 2:-1 3:-0.958778 4:-0.261384 5:-0.942446 6:0.56 7:-0.953488 8:-0.6 9:-1 10:-1 11:0.0302733 12:-0.333333 13:-1 14:-1 15:-0.333333 
1 1:-0.840593 2:1 3:-0.978637 4:-0.91104 5:-0.985612 6:-0.1 7:-0.953488 9:-1 10:-1 11:-0.91104 12:-0.333333 13:-0.333333 14:-0.333333 15:0.333333 
1 1:-0.946695 2:-1 3:-0.97623 4:-0.33744 5:-0.971223 6:0.266667 7:-0.953488 8:-0.333333 9:-1 10:-1 11:-0.33744 12:0.333333 13:-0.333333 14:-0.333333 15:0.333333 
1 1:-1 2:-1 3:-0.96961 4:-0.33744 5:-0.971223 6:0.266667 7:-0.953488 8:-0.333333 9:-1 10:-1 11:-0.33744 12:0.333333 13:-1 14:-0.333333 15:-0.333333 
1 1:-0.881855 2:-1 3:-0.96961 4:-0.1052 5:-0.956835 6:0.45 7:-0.953488 8:-0.5 9:-1 10:-1 11:0.193067 12:0.333333 13:-1 14:-1 15:-0.333333 
1 1:-0.946695 2:-1 3:-0.960132 4:0.084708 5:-0.942446 6:0.56 7:-0.953488 8:-0.6 9:-1 10:-1 11:0.74854 12:0.333333 13:-1 14:-1 15:-0.333333 
1 1:-1 2:-1 3:-0.953062 4:0.084708 5:-0.942446 6:0.56 7:-0.953488 8:-0.6 9:-1 10:-1 11:0.74854 12:0.333333 13:-1 14:-1 15:-0.333333 
1 1:-0.895118 2:-1 3:-0.938468 4:0.11487 5:-0.913669 6:0.45 7:-0.906977 8:-0.5 9:-1 10:-1 11:0.16514 12:-0.333333 13:-0.333333 14:-1 15:-0.333333 
1 1:-0.878907 2:1 3:-0.924026 4:0.163136 5:-0.899281 6:0.511111 7:-0.906977 8:-0.555556 9:-1 10:-1 11:0.136213 12:-0.333333 13:-0.333333 14:-0.333333 15:0.333333 
1 1:-0.945222 2:-1 3:-0.913495 4:0.231146 5:-0.884892 6:0.56 7:-0.906977 8:-0.6 9:-1 10:-1 11:0.130833 12:0.333333 13:-0.333333 14:-0.333333 15:0.333333 
1 1:-1 2:-1 3:-0.906424 4:0.231146 5:-0.884892 6:0.56 7:-0.906977 8:-0.6 9:-1 10:-1 11:0.130833 12:0.333333 13:-1 14:-0.333333 15:-0.333333 
1 1:-1 2:-1 3:-0.906424 4:0.119224 5:-0.884892 6:0.4 7:-0.906977 8:-0.636364 9:-0.875 10:-0.818182 11:0.130833 12:-0.333333 13:-1 14:-1 15:-1 
1 1:-1 2:-1 3:-0.906424 4:0.119224 5:-0.884892 6:0.4 7:-0.906977 8:-0.636364 9:-0.875 10:-0.818182 11:0.130833 12:-1 13:-1 14:-1 15:-1 
1 1:-0.899539 2:-1 3:-0.876787 4:0.175488 5:-0.856115 6:0.492308 7:-0.906977 8:-0.692308 9:-0.875 10:-0.846154 11:-0.01004 12:0.333333 13:-1 14:-1 15:0.333333 
1 1:-0.861224 2:-1 3:-0.864751 4:0.143417 5:-0.841727 6:0.528571 7:-0.906977 8:-0.714286 9:-0.875 10:-0.857143 11:0.232127 12:0.333333 13:-1 14:-1 15:-0.333333 
1 1:-0.937853 2:1 3:-0.862795 4:0.190981 5:-0.827338 6:0.56 7:-0.906977 8:-0.733333 9:-0.875 10:-0.866667 11:0.277147 12:1 13:-1 14:-0.333333 15:-0.333333 
1 1:-0.934906 2:-1 3:-0.857229 4:0.232706 5:-0.81295 6:0.5875 7:-0.906977 8:-0.75 9:-0.875 10:-0.875 11:0.480653 12:1 13:-1 14:-0.333333 15:-1 
1 1:-0.893644 2:-1 3:-0.822777 4:0.243434 5:-0.755396 6:0.67 7:-0.906977 8:-0.8 9:-0.875 10:-0.9 11:0.59466 12:0.333333 13:-1 14:-0.333333 15:-1 
1 1:-1 2:-1 3:-0.814503 4:0.243434 5:-0.755396 6:0.67 7:-0.906977 8:-0.8 9:-0.875 10:-0.9 11:0.59466 12:-0.333333 13:-1 14:-1 15:-1 
1 1:-1 2:-1 3:-0.814503 4:0.243434 5:-0.755396 6:0.67 7:-0.906977 8:-0.8 9:-0.875 10:-0.9 11:0.59466 12:-0.333333 13:-1 14:-1 15:-1 
1 1:-1 2:-1 3:-0.950654 4:-0.07934 5:-0.956835 6:0.45 7:-0.953488 8:-0.5 9:-1 10:-1 11:0.0660667 12:-0.333333 13:-1 14:-0.333333 15:-1 
1 1:-1 2:-1 3:-0.950654 4:-0.263472 5:-0.956835 6:0.12 7:-0.953488 8:-0.6 9:-0.875 10:-0.6 11:-0.333333 12:-1 13:-1 14:-1 15:-0.333333 
1 1:-0.901012 2:1 3:-0.961336 4:0.573965 5:-0.942446 6:1 7:-1 8:-1 9:-1 10:-1 11:0.72242 12:0.333333 13:-1 14:-0.333333 15:0.333333 
1 1:-0.930485 2:-1 3:-0.948849 4:0.626796 5:-0.928058 6:1 7:-1 8:-1 9:-1 10:-1 11:0.70876 12:1 13:-1 14:-0.333333 15:0.333333 
1 1:-0.805225 2:1 3:-0.915751 4:0.476711 5:-0.884892 6:0.755556 7:-0.953488 8:-0.777778 9:-1 10:-1 11:0.165013 12:-0.333333 13:-0.333333 14:-0.333333 15:0.333333 
1 1:-0.930485 2:-1 3:-0.908229 4:0.512776 5:-0.870504 6:0.78 7:-0.953488 8:-0.8 9:-1 10:-1 11:0.158887 12:0.333333 13:-0.333333 14:-0.333333 15:0.333333 
1 1:-1 2:-1 3:-0.900557 4:0.512776 5:-0.870504 6:0.78 7:-0.953488 8:-0.8 9:-1 10:-1 11:0.158887 12:0.333333 13:-1 14:-0.333333 15:-0.333333 
1 1:-0.889223 2:-1 3:-0.853016 4:0.239205 5:-0.856115 6:0.492308 7:-0.906977 8:-0.692308 9:-0.875 10:-0.846154 11:-0.6727 12:-1 13:-0.333333 14:-1 15:-0.333333 
1 1:-0.812593 2:1 3:-0.849406 4:0.25381 5:-0.841727 6:0.528571 7:-0.906977 8:-0.714286 9:-0.875 10:-0.857143 11:-0.191473 12:-0.333333 13:-0.333333 14:-0.333333 15:0.333333 
1 1:-1 2:-1 3:-0.812998 4:0.25381 5:-0.841727 6:0.528571 7:-0.906977 8:-0.714286 9:-0.875 10:-0.857143 11:-0.191473 12:-0.333333 13:-0.333333 14:-0.333333 15:0.333333 
1 1:-1 2:-1 3:-0.812998 4:0.25381 5:-0.841727 6:0.528571 7:-0.906977 8:-0.714286 9:-0.875 10:-0.857143 11:-0.191473 12:-0.333333 13:-1 14:-0.333333 15:-0.333333 
1 1:-1 2:-1 3:-0.812998 4:0.170223 5:-0.841727 6:0.413333 7:-0.906977 8:-0.733333 9:-0.75 10:-0.733333 11:-0.518773 12:-1 13:-1 14:-1 15:-0.333333 
1 1:-1 2:-1 3:-0.812998 4:0.0970837 5:-0.841727 6:0.3125 7:-0.906977 8:-0.75 9:-0.625 10:-0.625 11:-0.518773 12:-1 13:-1 14:-1 15:0.333333 
1 1:-1 2:-1 3:-0.812998 4:0.0970837 5:-0.841727 6:0.3125 7:-0.906977 8:-0.75 9:-0.625 10:-0.625 11:-0.518773 12:-1 13:-1 14:-1 15:0.333333 
1 1:-0.842066 2:-1 3:-0.812998 4:0.0325494 5:-0.841727 6:0.223529 7:-0.860465 8:-0.647059 9:-0.625 10:-0.647059 11:-1 12:-1 13:-0.333333 14:-1 15:0.333333 
1 1:-1 2:1 3:-0.681811 4:-0.0248144 5:-0.841727 6:0.144444 7:-0.860465 8:-0.666667 9:-0.5 10:-0.555556 11:-1 12:-1 13:-0.333333 14:-0.333333 15:0.333333 
1 1:-1 2:-1 3:-0.681811 4:-0.07614 5:-0.841727 6:0.0736842 7:-0.860465 8:-0.684211 9:-0.375 10:-0.473684 11:-1 12:-1 13:-0.333333 14:-0.333333 15:1 
1 1:-1 2:-1 3:-0.681811 4:-0.07614 5:-0.841727 6:0.0736842 7:-0.860465 8:-0.684211 9:-0.375 10:-0.473684 11:-1 12:-1 13:-1 14:-0.333333 15:0.333333 
1 1:-0.943748 2:-1 3:-0.681811 4:-0.122333 5:-0.841727 6:0.01 7:-0.813953 8:-0.6 9:-0.375 10:-0.5 11:-1 12:-1 13:-0.333333 14:-1 15:0.333333 
1 1:-1 2:1 3:-0.582368 4:-0.164127 5:-0.841727 6:-0.047619 7:-0.813953 8:-0.619048 9:-0.25 10:-0.428571 11:-1 12:-1 13:-0.333333 14:-0.333333 15:0.333333 
1 1:-1 2:-1 3:-0.582368 4:-0.202121 5:-0.841727 6:-0.1 7:-0.813953 8:-0.636364 9:-0.125 10:-0.363636 11:-1 12:-1 13:-0.333333 14:-0.333333 15:1 
1 1:-1 2:-1 3:-0.582368 4:-0.202121 5:-0.841727 6:-0.1 7:-0.813953 8:-0.636364 9:-0.125 10:-0.363636 11:-1 12:-1 13:-1 14:-0.333333 15:0.333333 
1 1:-1 2:-1 3:-0.582368 4:-0.236811 5:-0.841727 6:-0.147826 7:-0.813953 8:-0.652174 10:-0.304348 11:-1 12:-1 13:-1 14:-1 15:0.333333 
1 1:-1 2:-1 3:-0.582368 4:-0.236811 5:-0.841727 6:-0.147826 7:-0.813953 8:-0.652174 10:-0.304348 11:-1 12:-1 13:-1 14:-1 15:-0.333333 
1 1:-1 2:-1 3:-0.582368 4:-0.268611 5:-0.841727 6:-0.191667 7:-0.813953 8:-0.666667 9:0.125 10:-0.25 11:-1 12:-1 13:-1 14:-1 15:-0.333333 
1 1:-0.896591 2:1 3:-0.951708 4:0.247624 5:-0.928058 6:1 7:-1 8:-1 9:-1 10:-1 11:0.138527 12:1 13:-1 14:-0.333333 15:-0.333333 
1 1:-1 2:-1 3:-0.943734 4:0.247624 5:-0.928058 6:1 7:-1 8:-1 9:-1 10:-1 11:0.138527 12:0.333333 13:-1 14:-0.333333 15:-1 
1 1:-0.868592 2:-1 3:-0.943734 4:0.32562 5:-0.913669 6:1 7:-1 8:-1 9:-1 10:-1 11:0.41358 12:0.333333 13:-1 14:-0.333333 15:-0.333333 
1 1:-0.87596 2:1 3:-0.907928 4:0.424092 5:-0.841727 6:0.816667 7:-1 8:-1 9:-0.875 10:-0.833333 11:0.17162 12:0.333333 13:-1 14:-0.333333 15:0.333333 
1 1:-1 2:-1 3:-0.893335 4:0.424092 5:-0.841727 6:0.816667 7:-1 8:-1 9:-0.875 10:-0.833333 11:0.17162 12:0.333333 13:-1 14:-0.333333 15:0.333333 
1 1:-1 2:-1 3:-0.893335 4:0.424092 5:-0.841727 6:0.816667 7:-1 8:-1 9:-0.875 10:-0.833333 11:0.17162 12:-0.333333 13:-1 14:-0.333333 15:-0.333333 
1 1:-0.898065 2:1 3:-0.977133 4:-0.65411 5:-0.985612 6:-0.1 7:-0.953488 9:-1 10:-1 11:-0.65411 12:-0.333333 13:-0.333333 14:-0.333333 15:0.333333 
1 1:-0.923117 2:-1 3:-0.934557 4:0.61782 5:-0.899281 6:1 7:-1 8:-1 9:-1 10:-1 11:0.783827 12:1 13:-1 14:-1 15:0.333333 
1 1:-0.741858 2:-1 3:-0.831804 4:0.355616 5:-0.81295 6:0.706667 7:-1 8:-1 9:-0.75 10:-0.733333 11:-0.22578 12:0.333333 13:-1 14:-1 15:-0.333333 
1 1:-0.830277 2:-1 3:-0.803671 4:0.247078 5:-0.769784 6:0.56 7:-0.953488 8:-0.9 9:-0.625 10:-0.7 11:0.16464 12:-0.333333 13:-1 14:-1 15:-0.333333 
1 1:-1 2:-1 3:-0.756582 4:0.247078 5:-0.769784 6:0.56 7:-0.953488 8:-0.9 9:-0.625 10:-0.7 11:0.16464 12:-0.333333 13:-1 14:-1 15:-0.333333 
1 1:-1 2:-1 3:-0.756582 4:0.247078 5:-0.769784 6:0.56 7:-0.953488 8:-0.9 9:-0.625 10:-0.7 11:0.16464 12:-0.333333 13:-1 14:-1 15:-0.333333 
1 1:-0.824382 2:-1 3:-0.756582 4:0.245683 5:-0.755396 6:0.580952 7:-0.953488 8:-0.904762 9:-0.625 10:-0.714286 11:-0.0961 12:-0.333333 13:-1 14:-1 15:-0.333333 
1 1:-1 2:-1 3:-0.72198 4:0.245683 5:-0.755396 6:0.580952 7:-0.953488 8:-0.904762 9:-0.625 10:-0.714286 11:-0.0961 12:-0.333333 13:-1 14:-1 15:-0.333333 
1 1:-1 2:-1 3:-0.72198 4:0.245683 5:-0.755396 6:0.580952 7:-0.953488 8:-0.904762 9:-0.625 10:-0.714286 11:-0.0961 12:-0.333333 13:-1 14:-1 15:-0.333333 
1 1:-0.850908 2:-1 3:-0.72198 4:0.246192 5:-0.741007 6:0.6 7:-0.953488 8:-0.909091 9:-0.625 10:-0.727273 11:0.32286 12:-0.333333 13:-1 14:-1 15:-0.333333 
1 1:-1 2:-1 3:-0.699112 4:0.246192 5:-0.741007 6:0.6 7:-0.953488 8:-0.909091 9:-0.625 10:-0.727273 11:0.32286 12:-0.333333 13:-1 14:-1 15:-0.333333 
1 1:-1 2:-1 3:-0.699112 4:0.246192 5:-0.741007 6:0.6 7:-0.953488 8:-0.909091 9:-0.625 10:-0.727273 11:0.32286 12:-0.333333 13:-1 14:-1 15:-0.333333 
1 1:-1 2:-1 3:-0.699112 4:0.19201 5:-0.741007 6:0.521739 7:-0.953488 8:-0.913043 9:-0.5 10:-0.652174 11:-0.175113 12:-1 13:-1 14:-1 15:-0.333333 
1 1:-0.855329 2:-1 3:-0.975177 4:0.39486 5:-0.956835 6:1 7:-1 8:-1 9:-1 10:-1 11:0.39486 12:1 13:-1 14:-1 15:0.333333 
1 1:-0.846487 2:-1 3:-0.96961 4:0.4471 5:-0.942446 6:1 7:-1 8:-1 9:-1 10:-1 11:0.59996 12:1 13:-1 14:-1 15:-0.333333 
1 1:-0.902486 2:1 3:-0.924929 4:0.496572 5:-0.928058 6:1 7:-1 8:-1 9:-1 10:-1 11:0.539953 12:1 13:-1 14:-0.333333 15:-0.333333 
1 1:-1 2:-1 3:-0.916203 4:0.496572 5:-0.928058 6:1 7:-1 8:-1 9:-1 10:-1 11:0.539953 12:0.333333 13:-1 14:-0.333333 15:-1 
1 1:-0.871539 2:-1 3:-0.916203 4:0.51882 5:-0.913669 6:1 7:-1 8:-1 9:-1 10:-1 11:0.64278 12:0.333333 13:-1 14:-0.333333 15:-0.333333 
1 1:-0.833224 2:-1 3:-0.980292 4:-0.24554 5:-0.971223 6:1 7:-1 8:-1 9:-1 10:-1 11:-0.24554 12:0.333333 13:-1 14:-1 15:-0.333333 
1 1:-0.853855 2:1 3:-0.976982 4:-0.112253 5:-0.956835 6:1 7:-1 8:-1 9:-1 10:-1 11:-0.112253 12:1 13:-1 14:-0.333333 15:-0.333333 
1 1:-0.930485 2:-1 3:-0.968106 4:0.136935 5:-0.942446 6:1 7:-1 8:-1 9:-1 10:-1 11:0.199727 12:1 13:-1 14:-0.333333 15:-1 
1 1:-0.930485 2:-1 3:-0.960132 4:0.265472 5:-0.928058 6:1 7:-1 8:-1 9:-1 10:-1 11:0.606147 12:1 13:-1 14:-0.333333 15:-1 
1 1:-1 2:-1 3:-0.982699 4:-0.49887 5:-0.985612 6:-0.1 7:-1 8:-1 9:-0.875 11:-0.49887 12:-0.333333 13:-1 14:-1 15:-0.333333 
1 1:-1 2:-1 3:-0.977584 4:-0.62875 5:-0.985612 6:-0.1 7:-1 8:-1 9:-0.875 11:-0.62875 12:-0.333333 13:-1 14:-1 15:0.333333 
1 1:-0.924591 2:1 3:-0.935159 4:0.17624 5:-0.913669 6:0.685714 7:-1 8:-1 9:-0.875 10:-0.714286 11:0.518053 12:1 13:-1 14:-0.333333 15:-0.333333 
1 1:-1 2:-1 3:-0.928238 4:0.17624 5:-0.913669 6:0.685714 7:-1 8:-1 9:-0.875 10:-0.714286 11:0.518053 12:0.333333 13:-1 14:-0.333333 15:-1 
1 1:-0.84354 2:-1 3:-0.928238 4:0.02921 5:-0.913669 6:0.45 7:-0.953488 8:-0.75 9:-0.875 10:-0.75 11:-0.0615133 12:-0.333333 13:-0.333333 14:-0.333333 15:-0.333333 
1 1:-0.877434 2:1 3:-0.922973 4:0.0747667 5:-0.899281 6:0.511111 7:-0.953488 8:-0.777778 9:-0.875 10:-0.777778 11:0.108067 12:-0.333333 13:-0.333333 14:-0.333333 15:0.333333 
1 1:-0.890697 2:-1 3:-0.916955 4:-0.03271 5:-0.899281 6:0.34 7:-0.906977 8:-0.6 9:-0.875 10:-0.8 11:-0.52026 12:-0.333333 13:0.333333 14:-0.333333 15:0.333333 
1 1:-0.833224 2:1 3:-0.911238 4:-0.120645 5:-0.899281 6:0.2 7:-0.860465 8:-0.454545 9:-0.875 10:-0.818182 11:-0.52026 12:-0.333333 13:0.333333 14:0.333333 15:-0.333333 
1 1:-0.834698 2:1 3:-0.900406 4:-0.084095 5:-0.884892 6:0.266667 7:-0.860465 8:-0.5 9:-0.875 10:-0.833333 11:-0.56068 12:-0.333333 13:0.333333 14:0.333333 15:-1 
1 1:-0.945222 2:-1 3:-0.889875 4:-0.0162369 5:-0.870504 6:0.323077 7:-0.860465 8:-0.538462 9:-0.875 10:-0.846154 11:0.0386733 12:0.333333 13:-0.333333 14:0.333333 15:-0.333333 
1 1:-0.774278 2:1 3:-0.886716 4:-0.03704 5:-0.856115 6:0.371429 7:-0.860465 8:-0.571429 9:-0.875 10:-0.857143 11:0.269513 12:1 13:-1 14:0.333333 15:0.333333 
1 1:-0.814067 2:1 3:-0.867008 4:-0.00574133 5:-0.841727 6:0.413333 7:-0.860465 8:-0.6 9:-0.875 10:-0.866667 11:0.307673 12:1 13:-1 14:0.333333 15:1 
1 1:-0.942274 2:-1 3:-0.857831 4:0.04435 5:-0.827338 6:0.45 7:-0.860465 8:-0.625 9:-0.875 10:-0.875 11:0.306893 12:1 13:-1 14:0.333333 15:0.333333 
1 1:-1 2:-1 3:-0.851061 4:0.04435 5:-0.827338 6:0.45 7:-0.860465 8:-0.625 9:-0.875 10:-0.875 11:0.306893 12:0.333333 13:-1 14:-0.333333 15:-0.333333 
1 1:-0.929012 2:-1 3:-0.851061 4:0.0886059 5:-0.81295 6:0.482353 7:-0.860465 8:-0.647059 9:-0.875 10:-0.882353 11:0.674953 12:0.333333 13:-1 14:-1 15:-0.333333 
1 1:-0.821435 2:-1 3:-0.820069 4:0.107556 5:-0.798561 6:0.511111 7:-0.860465 8:-0.666667 9:-0.875 10:-0.888889 11:0.67404 12:0.333333 13:-1 14:-1 15:0.333333 
1 1:-0.943748 2:-1 3:-0.807281 4:0.144856 5:-0.784173 6:0.536842 7:-0.860465 8:-0.684211 9:-0.875 10:-0.894737 11:0.680887 12:1 13:-1 14:-1 15:0.333333 
1 1:-1 2:-1 3:-0.799458 4:0.144856 5:-0.784173 6:0.536842 7:-0.860465 8:-0.684211 9:-0.875 10:-0.894737 11:0.680887 12:0.333333 13:-1 14:-1 15:-0.333333 
1 1:-1 2:-1 3:-0.799458 4:0.087613 5:-0.784173 6:0.45 7:-0.860465 8:-0.7 9:-0.75 10:-0.8 11:0.0819867 12:-0.333333 13:-1 14:-1 15:-1 
1 1:-1 2:-1 3:-0.799458 4:0.087613 5:-0.784173 6:0.45 7:-0.860465 8:-0.7 9:-0.75 10:-0.8 11:0.0819867 12:-1 13:-1 14:-1 15:-1 
1 1:-0.871539 2:-1 3:-0.799458 4:0.11351 5:-0.769784 6:0.47619 7:-0.860465 8:-0.714286 9:-0.75 10:-0.809524 11:0.149233 12:-0.333333 13:-1 14:-1 15:-0.333333 
1 1:-1 2:-1 3:-0.764555 4:0.11351 5:-0.769784 6:0.47619 7:-0.860465 8:-0.714286 9:-0.75 10:-0.809524 11:0.149233 12:-0.333333 13:-1 14:-1 15:-0.333333 
1 1:-1 2:-1 3:-0.764555 4:0.11351 5:-0.769784 6:0.47619 7:-0.860465 8:-0.714286 9:-0.75 10:-0.809524 11:0.149233 12:-0.333333 13:-1 14:-1 15:-0.333333 
1 1:-1 2:-1 3:-0.764555 4:0.0628955 5:-0.769784 6:0.4 7:-0.860465 8:-0.727273 9:-0.625 10:-0.727273 11:-0.456187 12:-1 13:-1 14:-1 15:-0.333333 
1 1:-0.722701 2:-1 3:-0.969009 4:-0.0510333 5:-0.956835 6:1 7:-1 8:-1 9:-1 10:-1 11:-0.0510333 12:0.333333 13:-1 14:-1 15:-1 
1 1:-0.89217 2:1 3:-0.95592 4:-0.063975 5:-0.942446 6:1 7:-1 8:-1 9:-1 10:-1 11:0.0376467 12:0.333333 13:-1 14:-0.333333 15:-1 
1 1:-0.921643 2:1 3:-0.953513 4:0.125452 5:-0.928058 6:1 7:-1 8:-1 9:-1 10:-1 11:0.0408333 12:1 13:-1 14:0.333333 15:-1 
1 1:-0.884802 2:-1 3:-0.814503 4:0.309889 5:-0.726619 6:0.790476 7:-1 8:-1 9:-0.75 10:-0.809524 11:0.0735733 12:-0.333333 13:-1 14:-1 15:-0.333333 
1 1:-0.915749 2:1 3:-0.925079 4:0.392991 5:-0.913669 6:0.685714 7:-0.953488 8:-0.714286 9:-1 10:-1 11:0.150847 12:0.333333 13:-0.333333 14:-0.333333 15:-0.333333 
1 1:-1 2:-1 3:-0.916955 4:0.392991 5:-0.913669 6:0.685714 7:-0.953488 8:-0.714286 9:-1 10:-1 11:0.150847 12:-0.333333 13:-0.333333 14:-0.333333 15:-1 
1 1:-0.868592 2:-1 3:-0.916955 4:0.435838 5:-0.899281 6:0.725 7:-0.953488 8:-0.75 9:-1 10:-1 11:0.15548 12:0.333333 13:-1 14:-0.333333 15:-0.333333 
1 1:-0.865645 2:-1 3:-0.901309 4:0.21308 5:-0.884892 6:0.4 7:-0.906977 8:-0.636364 9:-0.875 10:-0.818182 11:-0.38094 12:-1 13:-0.333333 14:-1 15:-0.333333 
1 1:-0.794909 2:1 3:-0.873025 4:0.231462 5:-0.870504 6:0.45 7:-0.906977 8:-0.666667 9:-0.875 10:-0.833333 11:-0.522113 12:-0.333333 13:-0.333333 14:-0.333333 15:0.333333 
1 1:-1 2:-1 3:-0.86776 4:0.231462 5:-0.870504 6:0.45 7:-0.906977 8:-0.666667 9:-0.875 10:-0.833333 11:-0.522113 12:-0.333333 13:-0.333333 14:-0.333333 15:0.333333 
1 1:-1 2:-1 3:-0.86776 4:0.231462 5:-0.870504 6:0.45 7:-0.906977 8:-0.666667 9:-0.875 10:-0.833333 11:-0.522113 12:-0.333333 13:-1 14:-0.333333 15:-0.333333 
1 1:-1 2:-1 3:-0.86776 4:0.136734 5:-0.870504 6:0.323077 7:-0.906977 8:-0.692308 9:-0.75 10:-0.692308 11:-0.522113 12:-1 13:-1 14:-1 15:-0.333333 
0.7006512272321952 1:-0.675544 2:-1 3:-0.99985 4:-1 5:-1 6:1 7:-0.953488 8:1 9:-1 10:-1 11:-1 12:-1 13:-0.333333 14:-1 15:-0.333333 
1 1:-0.786068 2:1 3:-0.976531 4:-0.57519 5:-0.985612 6:-0.1 7:-0.953488 9:-1 10:-1 11:-0.57519 12:-0.333333 13:-0.333333 14:-0.333333 15:0.333333 
1 1:-0.815541 2:-1 3:-0.952159 4:-0.597353 5:-0.971223 6:0.266667 7:-0.953488 8:-0.333333 9:-1 10:-1 11:-0.597353 12:0.333333 13:-0.333333 14:-0.333333 15:0.333333 
1 1:-0.942274 2:1 3:-0.948247 4:-0.24059 5:-0.956835 6:0.45 7:-0.953488 8:-0.5 9:-1 10:-1 11:0.0125467 12:1 13:-1 14:0.333333 15:-0.333333 
1 1:-1 2:-1 3:-0.940424 4:-0.24059 5:-0.956835 6:0.45 7:-0.953488 8:-0.5 9:-1 10:-1 11:0.0125467 12:0.333333 13:-1 14:-0.333333 15:-1 
1 1:-0.945222 2:-1 3:-0.940424 4:-0.023676 5:-0.942446 6:0.56 7:-0.953488 8:-0.6 9:-1 10:-1 11:0.344 12:0.333333 13:-1 14:-0.333333 15:-1 
1 1:-1 2:-1 3:-0.919362 4:-0.023676 5:-0.942446 6:0.56 7:-0.953488 8:-0.6 9:-1 10:-1 11:0.344 12:-0.333333 13:-1 14:-1 15:-1 
1 1:-0.90396 2:-1 3:-0.919362 4:0.0474333 5:-0.928058 6:0.633333 7:-0.953488 8:-0.666667 9:-1 10:-1 11:0.69222 12:0.333333 13:-1 14:-1 15:-0.333333 
1 1:-0.939327 2:-1 3:-0.911689 4:0.144554 5:-0.913669 6:0.685714 7:-0.953488 8:-0.714286 9:-1 10:-1 11:0.65808 12:0.333333 13:-1 14:-1 15:-0.333333 
1 1:-1 2:-1 3:-0.903866 4:0.144554 5:-0.913669 6:0.685714 7:-0.953488 8:-0.714286 9:-1 10:-1 11:0.65808 12:0.333333 13:-1 14:-1 15:-0.333333 
1 1:-0.901012 2:-1 3:-0.903866 4:0.220883 5:-0.899281 6:0.725 7:-0.953488 8:-0.75 9:-1 10:-1 11:0.62848 12:0.333333 13:-1 14:-1 15:-0.333333 
1 1:-1 2:-1 3:-0.885964 4:0.163232 5:-0.884892 6:0.56 7:-0.953488 8:-0.8 9:-0.875 10:-0.8 11:0.206813 12:-1 13:-1 14:-1 15:-1 
1 1:-0.923117 2:-1 3:-0.885964 4:0.0574836 5:-0.884892 6:0.4 7:-0.906977 8:-0.636364 9:-0.875 10:-0.818182 11:-0.378247 12:-1 13:-0.333333 14:-1 15:-0.333333 
1 1:-0.878907 2:1 3:-0.84414 4:0.112292 5:-0.870504 6:0.45 7:-0.906977 8:-0.666667 9:-0.875 10:-0.833333 11:-0.428273 12:-0.333333 13:-0.333333 14:-0.333333 15:0.333333 
1 1:-1 2:-1 3:-0.828945 4:0.112292 5:-0.870504 6:0.45 7:-0.906977 8:-0.666667 9:-0.875 10:-0.833333 11:-0.428273 12:-0.333333 13:-0.333333 14:-0.333333 15:0.333333 
1 1:-1 2:-1 3:-0.828945 4:0.112292 5:-0.870504 6:0.45 7:-0.906977 8:-0.666667 9:-0.875 10:-0.833333 11:-0.428273 12:-0.333333 13:-1 14:-0.333333 15:-0.333333 
1 1:-1 2:-1 3:-0.828945 4:0.0267308 5:-0.870504 6:0.323077 7:-0.906977 8:-0.692308 9:-0.75 10:-0.692308 11:-0.428273 12:-1 13:-1 14:-1 15:-0.333333 
1 1:-0.896591 2:1 3:-0.959531 4:0.432956 5:-0.928058 6:1 7:-1 8:-1 9:-1 10:-1 11:0.723627 12:0.333333 13:-1 14:-0.333333 15:0.333333 
1 1:-0.934906 2:-1 3:-0.950955 4:0.50229 5:-0.913669 6:1 7:-1 8:-1 9:-1 10:-1 11:0.71446 12:1 13:-1 14:-0.333333 15:0.333333 
1 1:-1 2:-1 3:-0.942982 4:0.50229 5:-0.913669 6:1 7:-1 8:-1 9:-1 10:-1 11:0.71446 12:0.333333 13:-1 14:-0.333333 15:-0.333333 
1 1:-0.873013 2:1 3:-0.936964 4:0.347718 5:-0.884892 6:0.755556 7:-1 8:-1 9:-0.875 10:-0.777778 11:0.0385733 12:0.333333 13:-1 14:-0.333333 15:0.333333 
1 1:-1 2:-1 3:-0.904468 4:0.347718 5:-0.884892 6:0.755556 7:-1 8:-1 9:-0.875 10:-0.777778 11:0.0385733 12:0.333333 13:-1 14:-0.333333 15:0.333333 
1 1:-1 2:-1 3:-0.904468 4:0.347718 5:-0.884892 6:0.755556 7:-1 8:-1 9:-0.875 10:-0.777778 11:0.0385733 12:-0.333333 13:-1 14:-0.333333 15:-0.333333 
1 1:-0.856803 2:-1 3:-0.926734 4:0.703513 5:-0.870504 6:1 7:-1 8:-1 9:-1 10:-1 11:0.79602 12:1 13:-1 14:-1 15:0.333333 
1 1:-0.926064 2:1 3:-0.922973 4:0.708848 5:-0.856115 6:1 7:-1 8:-1 9:-1 10:-1 11:0.751747 12:1 13:-1 14:-0.333333 15:0.333333 
1 1:-0.917222 2:-1 3:-0.919663 4:0.722882 5:-0.841727 6:1 7:-1 8:-1 9:-1 10:-1 11:0.776013 12:1 13:-1 14:-0.333333 15:0.333333 
1 1:-1 2:-1 3:-0.911238 4:0.722882 5:-0.841727 6:1 7:-1 8:-1 9:-1 10:-1 11:0.776013 12:0.333333 13:-1 14:-0.333333 15:-0.333333 
1 1:-0.939327 2:1 3:-0.978336 4:0.176647 5:-0.956835 6:1 7:-1 8:-1 9:-1 10:-1 11:0.176647 12:1 13:-1 14:-0.333333 15:-0.333333 
1 1:-1 2:-1 3:-0.971416 4:0.176647 5:-0.956835 6:1 7:-1 8:-1 9:-1 10:-1 11:0.176647 12:0.333333 13:-1 14:-0.333333 15:-1 
1 1:-0.934906 2:-1 3:-0.971416 4:0.35395 5:-0.942446 6:1 7:-1 8:-1 9:-1 10:-1 11:0.467013 12:0.333333 13:-1 14:-0.333333 15:-1 
1 1:-0.917222 2:-1 3:-0.962991 4:0.08316 5:-0.942446 6:0.56 7:-0.953488 8:-0.6 9:-1 10:-1 11:0.256907 12:-0.333333 13:-0.333333 14:-1 15:-0.333333 
1 1:-0.886276 2:1 3:-0.95592 4:0.13851 5:-0.928058 6:0.633333 7:-0.953488 8:-0.666667 9:-1 10:-1 11:0.100373 12:-0.333333 13:-0.333333 14:-0.333333 15:0.333333 
1 1:-0.896591 2:-1 3:-0.948849 4:0.23882 5:-0.913669 6:0.685714 7:-0.953488 8:-0.714286 9:-1 10:-1 11:0.0853133 12:0.333333 13:-0.333333 14:-0.333333 15:0.333333 
1 1:-1 2:-1 3:-0.941929 4:0.23882 5:-0.913669 6:0.685714 7:-0.953488 8:-0.714286 9:-1 10:-1 11:0.0853133 12:0.333333 13:-1 14:-0.333333 15:-0.333333 
1 1:-1 2:-1 3:-0.878742 4:0.143117 5:-0.870504 6:0.45 7:-0.953488 8:-0.833333 9:-0.75 10:-0.666667 11:-0.554093 12:-0.333333 13:-1 14:-1 15:-0.333333 
1 1:-0.933432 2:-1 3:-0.97623 4:-0.79642 5:-0.985612 6:-0.1 7:-0.953488 9:-1 10:-1 11:-0.79642 12:-0.333333 13:-0.333333 14:-1 15:-0.333333 
1 1:-0.943748 2:1 3:-0.96946 4:-0.197613 5:-0.971223 6:0.266667 7:-0.953488 8:-0.333333 9:-1 10:-1 11:-0.197613 12:0.333333 13:-0.333333 14:-0.333333 15:-0.333333 
1 1:-0.89217 2:-1 3:-0.973823 4:-0.64798 5:-0.985612 6:-0.466667 7:-0.953488 8:-0.333333 9:-0.875 10:-0.333333 11:-0.64798 12:-1 13:-0.333333 14:-1 15:0.333333 
1 1:-0.92017 2:1 3:-0.898601 4:-0.735985 5:-0.985612 6:-0.65 7:-0.906977 9:-0.875 10:-0.5 11:-1 12:-1 13:0.333333 14:-0.333333 15:1 
1 1:-1 2:-1 3:-0.885964 4:-0.735985 5:-0.985612 6:-0.65 7:-0.906977 9:-0.875 10:-0.5 11:-1 12:-1 13:0.333333 14:-0.333333 15:0.333333 
1 1:-1 2:-1 3:-0.885964 4:-0.788788 5:-0.985612 6:-0.76 7:-0.906977 8:-0.2 9:-0.75 10:-0.2 11:-1 12:-1 13:-0.333333 14:-0.333333 15:0.333333 
1 1:-1 2:-1 3:-0.885964 4:-0.788788 5:-0.985612 6:-0.76 7:-0.906977 8:-0.2 9:-0.75 10:-0.2 11:-1 12:-1 13:-1 14:-1 15:-0.333333 
1 1:-1 2:-1 3:-0.885964 4:-0.788788 5:-0.985612 6:-0.76 7:-0.906977 8:-0.2 9:-0.75 10:-0.2 11:-1 12:-1 13:-1 14:-1 15:-0.333333 
1 1:-0.930485 2:-1 3:-0.885964 4:-0.641477 5:-0.971223 6:-0.466667 7:-0.906977 8:-0.333333 9:-0.75 10:-0.333333 11:-0.634973 12:-0.333333 13:-1 14:-1 15:-0.333333 
1 1:-0.934906 2:-1 3:-0.879194 4:-0.445411 5:-0.956835 6:-0.257143 7:-0.906977 8:-0.428571 9:-0.75 10:-0.428571 11:-0.05798 12:0.333333 13:-1 14:-1 15:-0.333333 
1 1:-1 2:-1 3:-0.872273 4:-0.445411 5:-0.956835 6:-0.257143 7:-0.906977 8:-0.428571 9:-0.75 10:-0.428571 11:-0.05798 12:0.333333 13:-1 14:-1 15:-0.333333 
1 1:-0.868592 2:-1 3:-0.872273 4:-0.372663 5:-0.942446 6:-0.1 7:-0.906977 8:-0.5 9:-0.75 10:-0.5 11:0.32088 12:0.333333 13:-1 14:-1 15:-0.333333 
1 1:-0.923117 2:-1 3:-0.86099 4:-0.245362 5:-0.928058 6:0.0222222 7:-0.906977 8:-0.555556 9:-0.75 10:-0.555556 11:0.546867 12:0.333333 13:-1 14:-1 15:-0.333333 
1 1:-1 2:-1 3:-0.853468 4:-0.245362 5:-0.928058 6:0.0222222 7:-0.906977 8:-0.555556 9:-0.75 10:-0.555556 11:0.546867 12:0.333333 13:-1 14:-1 15:-0.333333 
1 1:-0.90396 2:-1 3:-0.853468 4:-0.2294 5:-0.913669 6:0.12 7:-0.906977 8:-0.6 9:-0.75 10:-0.6 11:0.274627 12:0.333333 13:-1 14:-1 15:-0.333333 
1 1:-0.93638 2:-1 3:-0.842636 4:-0.135211 5:-0.899281 6:0.2 7:-0.906977 8:-0.636364 9:-0.75 10:-0.636364 11:0.497993 12:0.333333 13:-1 14:-1 15:-0.333333 
1 1:-1 2:-1 3:-0.83722 4:-0.135211 5:-0.899281 6:0.2 7:-0.906977 8:-0.636364 9:-0.75 10:-0.636364 11:0.497993 12:0.333333 13:-1 14:-1 15:-0.333333 
1 1:-1 2:-1 3:-0.83722 4:-0.135211 5:-0.899281 6:0.2 7:-0.906977 8:-0.636364 9:-0.75 10:-0.636364 11:0.497993 12:-0.333333 13:-1 14:-1 15:-1 
1 1:-1 2:-1 3:-0.83722 4:-0.207277 5:-0.899281 6:0.0833333 7:-0.906977 8:-0.666667 9:-0.625 10:-0.5 11:-0.09302 12:-1 13:-1 14:-1 15:-0.333333 
1 1:-0.873013 2:-1 3:-0.957876 4:0.669824 5:-0.928058 6:1 7:-1 8:-1 9:-1 10:-1 11:0.726753 12:1 13:-1 14:-1 15:0.333333 
1 1:-0.877434 2:1 3:-0.951106 4:0.663947 5:-0.913669 6:1 7:-1 8:-1 9:-1 10:-1 11:0.777113 12:1 13:-1 14:-0.333333 15:0.333333 
1 1:-0.914275 2:-1 3:-0.93561 4:0.690169 5:-0.899281 6:1 7:-1 8:-1 9:-1 10:-1 11:0.765053 12:1 13:-1 14:-0.333333 15:0.333333 
1 1:-1 2:-1 3:-0.893636 4:0.345256 5:-0.841727 6:0.528571 7:-1 8:-1 9:-0.625 10:-0.571429 11:-1 12:-1 13:-1 14:-1 15:0.333333 
1 1:-1 2:-1 3:-0.893636 4:0.345256 5:-0.841727 6:0.528571 7:-1 8:-1 9:-0.625 10:-0.571429 11:-1 12:-1 13:-1 14:-1 15:0.333333 
1 1:-1 2:-1 3:-0.893636 4:0.255572 5:-0.841727 6:0.413333 7:-1 8:-1 9:-0.5 10:-0.466667 11:-1 12:-1 13:-1 14:-1 15:0.333333 
1 1:-1 2:-1 3:-0.985557 4:-0.63573 5:-0.985612 6:-0.1 7:-1 8:-1 9:-0.875 11:-0.63573 12:-0.333333 13:-1 14:-1 15:0.333333 
1 1:-0.828803 2:-1 3:-0.985557 4:-0.588427 5:-0.971223 6:0.266667 7:-1 8:-1 9:-0.875 10:-0.333333 11:-0.588427 12:-0.333333 13:-1 14:-1 15:0.333333 
1 1:-0.93638 2:-1 3:-0.960132 4:-0.243535 5:-0.956835 6:0.45 7:-1 8:-1 9:-0.875 10:-0.5 11:-0.234227 12:0.333333 13:-1 14:-1 15:0.333333 
1 1:-1 2:-1 3:-0.953062 4:-0.243535 5:-0.956835 6:0.45 7:-1 8:-1 9:-0.875 10:-0.5 11:-0.234227 12:0.333333 13:-1 14:-1 15:-0.333333 
1 1:-1 2:-1 3:-0.953062 4:-0.243535 5:-0.956835 6:0.45 7:-1 8:-1 9:-0.875 10:-0.5 11:-0.234227 12:-0.333333 13:-1 14:-1 15:-1 
1 1:-0.930485 2:-1 3:-0.905973 4:-0.0089 5:-0.928058 6:0.633333 7:-1 8:-1 9:-0.875 10:-0.666667 11:0.570627 12:0.333333 13:-1 14:-1 15:-0.333333 
1 1:-1 2:-1 3:-0.896796 4:-0.0089 5:-0.928058 6:0.633333 7:-1 8:-1 9:-0.875 10:-0.666667 11:0.570627 12:0.333333 13:-1 14:-1 15:-0.333333 
1 1:-0.902486 2:-1 3:-0.871671 4:0.307156 5:-0.856115 6:0.8 7:-1 8:-1 9:-0.875 10:-0.818182 11:0.599267 12:1 13:-1 14:-1 15:0.333333 
1 1:-0.939327 2:-1 3:-0.865654 4:0.35586 5:-0.841727 6:0.816667 7:-1 8:-1 9:-0.875 10:-0.833333 11:0.602773 12:1 13:-1 14:-1 15:-0.333333 
1 1:-1 2:-1 3:-0.83391 4:0.162184 5:-0.827338 6:0.56 7:-1 8:-1 9:-0.625 10:-0.6 11:-0.61252 12:-0.333333 13:-1 14:-1 15:0.333333 
1 1:-0.93638 2:1 3:-0.969009 4:0.475953 5:-0.956835 6:1 7:-1 8:-1 9:-1 10:-1 11:0.475953 12:1 13:-1 14:-0.333333 15:-0.333333 
1 1:-0.930485 2:-1 3:-0.978938 4:-0.1011 5:-0.971223 6:1 7:-1 8:-1 9:-1 10:-1 11:-0.1011 12:0.333333 13:-1 14:-1 15:0.333333 
1 1:-0.709438 2:1 3:-0.981796 4:-0.93592 5:-0.985612 6:-0.1 7:-0.953488 9:-1 10:-1 11:-0.93592 12:-0.333333 13:-0.333333 14:-0.333333 15:0.333333 
1 1:-0.883328 2:-1 3:-0.977433 4:-0.364473 5:-0.971223 6:0.266667 7:-0.953488 8:-0.333333 9:-1 10:-1 11:-0.364473 12:0.333333 13:-0.333333 14:-0.333333 15:0.333333 
1 1:-1 2:-1 3:-0.968708 4:-0.364473 5:-0.971223 6:0.266667 7:-0.953488 8:-0.333333 9:-1 10:-1 11:-0.364473 12:0.333333 13:-1 14:-0.333333 15:-0.333333 
1 1:-0.73449 2:-1 3:-0.968708 4:-0.161795 5:-0.956835 6:0.45 7:-0.953488 8:-0.5 9:-1 10:-1 11:0.117607 12:0.333333 13:-1 14:-1 15:-0.333333 
1 1:-0.802278 2:-1 3:-0.957424 4:0.026228 5:-0.942446 6:0.56 7:-0.953488 8:-0.6 9:-1 10:-1 11:0.66766 12:0.333333 13:-1 14:-1 15:-0.333333 
1 1:-1 2:-1 3:-0.947946 4:0.026228 5:-0.942446 6:0.56 7:-0.953488 8:-0.6 9:-1 10:-1 11:0.66766 12:0.333333 13:-1 14:-1 15:-0.333333 
1 1:-0.909854 2:-1 3:-0.947946 4:0.0900633 5:-0.928058 6:0.633333 7:-0.953488 8:-0.666667 9:-1 10:-1 11:0.5446 12:0.333333 13:-1 14:-1 15:-0.333333 
1 1:-0.850908 2:-1 3:-0.941628 4:0.06166 5:-0.913669 6:0.685714 7:-0.953488 8:-0.714286 9:-1 10:-1 11:0.3596 12:0.333333 13:-1 14:-1 15:-0.333333 
1 1:-0.133241 2:1 3:-0.937566 4:-0.03669 5:-0.899281 6:0.725 7:-0.953488 8:-0.75 9:-1 10:-1 11:-0.141553 12:1 13:-1 14:-0.333333 15:-0.333333 
1 1:-0.845014 2:1 3:-0.916805 4:0.0595489 5:-0.884892 6:0.755556 7:-0.953488 8:-0.777778 9:-1 10:-1 11:-0.00148 12:1 13:-1 14:0.333333 15:-1 
1 1:-1 2:-1 3:-0.908981 4:0.0595489 5:-0.884892 6:0.755556 7:-0.953488 8:-0.777778 9:-1 10:-1 11:-0.00148 12:0.333333 13:-1 14:0.333333 15:-1 
1 1:-0.870066 2:-1 3:-0.908981 4:0.058642 5:-0.870504 6:0.78 7:-0.953488 8:-0.8 9:-1 10:-1 11:0.0516 12:0.333333 13:-1 14:-0.333333 15:-0.333333 
1 1:-0.874487 2:1 3:-0.977885 4:-0.0801 5:-0.971223 6:1 7:-1 8:-1 9:-1 10:-1 11:-0.0801 12:0.333333 13:-1 14:-0.333333 15:0.333333 
1 1:-0.873013 2:-1 3:-0.96269 4:0.20408 5:-0.956835 6:1 7:-1 8:-1 9:-1 10:-1 11:0.20408 12:1 13:-1 14:-0.333333 15:0.333333 
1 1:-1 2:-1 3:-0.954416 4:0.20408 5:-0.956835 6:1 7:-1 8:-1 9:-1 10:-1 11:0.20408 12:0.333333 13:-1 14:-0.333333 15:-0.333333 
1 1:-0.886276 2:-1 3:-0.779148 4:0.238377 5:-0.798561 6:0.725 7:-0.906977 8:-0.75 9:-1 10:-1 11:0.6523 12:0.333333 13:-1 14:-1 15:-0.333333 
1 1:-0.905433 2:-1 3:-0.771175 4:0.270954 5:-0.784173 6:0.741176 7:-0.906977 8:-0.764706 9:-1 10:-1 11:0.78184 12:0.333333 13:-1 14:-1 15:-0.333333 
1 1:-1 2:-1 3:-0.763201 4:0.270954 5:-0.784173 6:0.741176 7:-0.906977 8:-0.764706 9:-1 10:-1 11:0.78184 12:0.333333 13:-1 14:-1 15:-0.333333 
1 1:-1 2:-1 3:-0.763201 4:0.200346 5:-0.784173 6:0.633333 7:-0.906977 8:-0.777778 9:-0.875 10:-0.888889 11:0.188967 12:-0.333333 13:-1 14:-1 15:-1 
1 1:-1 2:-1 3:-0.763201 4:0.200346 5:-0.784173 6:0.633333 7:-0.906977 8:-0.777778 9:-0.875 10:-0.888889 11:0.188967 12:-1 13:-1 14:-1 15:-1 
1 1:-0.825856 2:-1 3:-0.696254 4:0.13583 5:-0.726619 6:0.541667 7:-0.813953 8:-0.666667 9:-0.875 10:-0.916667 11:0.366507 12:1 13:-1 14:-1 15:-0.333333 
1 1:-1 2:-1 3:-0.688431 4:0.13583 5:-0.726619 6:0.541667 7:-0.813953 8:-0.666667 9:-0.875 10:-0.916667 11:0.366507 12:0.333333 13:-1 14:-1 15:-1 
1 1:-0.889223 2:-1 3:-0.658192 4:0.196914 5:-0.669065 6:0.607143 7:-0.813953 8:-0.714286 9:-0.875 10:-0.928571 11:0.69936 12:0.333333 13:-1 14:-1 15:-0.333333 
1 1:-0.899539 2:-1 3:-0.649767 4:0.217408 5:-0.654676 6:0.62069 7:-0.813953 8:-0.724138 9:-0.875 10:-0.931034 11:0.787453 12:0.333333 13:-1 14:-1 15:-0.333333 
1 1:-1 2:-1 3:-0.643448 4:0.217408 5:-0.654676 6:0.62069 7:-0.813953 8:-0.724138 9:-0.875 10:-0.931034 11:0.787453 12:0.333333 13:-1 14:-1 15:-0.333333 
1 1:-1 2:-1 3:-0.643448 4:0.176828 5:-0.654676 6:0.56 7:-0.813953 8:-0.733333 9:-0.75 10:-0.866667 11:0.190967 12:-0.333333 13:-1 14:-1 15:-1 
1 1:-1 2:-1 3:-0.643448 4:0.176828 5:-0.654676 6:0.56 7:-0.813953 8:-0.733333 9:-0.75 10:-0.866667 11:0.190967 12:-1 13:-1 14:-1 15:-1 
1 1:-0.923117 2:-1 3:-0.643448 4:0.191817 5:-0.640288 6:0.574194 7:-0.813953 8:-0.741935 9:-0.75 10:-0.870968 11:0.144247 12:-0.333333 13:-1 14:-1 15:-0.333333 
1 1:-1 2:1 3:-0.64059 4:0.154573 5:-0.640288 6:0.51875 7:-0.813953 8:-0.75 9:-0.625 10:-0.8125 11:-0.452833 12:-0.333333 13:-1 14:-0.333333 15:0.333333 
1 1:-1 2:-1 3:-0.985106 4:-0.63399 5:-0.985612 6:-0.1 7:-1 8:-1 9:-0.875 11:-0.63399 12:-0.333333 13:-1 14:-1 15:0.333333 
1 1:-0.862697 2:-1 3:-0.941778 4:0.20408 5:-0.899281 6:0.511111 7:-0.953488 8:-0.777778 9:-0.875 10:-0.777778 11:0.20682 12:-0.333333 13:-0.333333 14:-1 15:-0.333333 
1 1:-0.915749 2:1 3:-0.932752 4:0.26939 5:-0.884892 6:0.56 7:-0.953488 8:-0.8 9:-0.875 10:-0.8 11:0.245607 12:-0.333333 13:-0.333333 14:-0.333333 15:0.333333 
1 1:-0.890697 2:-1 3:-0.927185 4:0.322291 5:-0.870504 6:0.6 7:-0.953488 8:-0.818182 9:-0.875 10:-0.818182 11:0.23616 12:0.333333 13:-0.333333 14:-0.333333 15:0.333333 
1 1:-1 2:-1 3:-0.921017 4:0.322291 5:-0.870504 6:0.6 7:-0.953488 8:-0.818182 9:-0.875 10:-0.818182 11:0.23616 12:0.333333 13:-1 14:-0.333333 15:-0.333333 
1 1:-0.828803 2:1 3:-0.917557 4:0.242127 5:-0.841727 6:0.528571 7:-0.953488 8:-0.857143 9:-0.75 10:-0.714286 11:-0.0518067 12:0.333333 13:-1 14:-0.333333 15:0.333333 
1 1:-1 2:-1 3:-0.88461 4:0.242127 5:-0.841727 6:0.528571 7:-0.953488 8:-0.857143 9:-0.75 10:-0.714286 11:-0.0518067 12:0.333333 13:-1 14:-0.333333 15:0.333333 
1 1:-1 2:-1 3:-0.88461 4:0.242127 5:-0.841727 6:0.528571 7:-0.953488 8:-0.857143 9:-0.75 10:-0.714286 11:-0.0518067 12:-0.333333 13:-1 14:-0.333333 15:-0.333333 
1 1:-1 2:-1 3:-0.88461 4:0.159319 5:-0.841727 6:0.413333 7:-0.953488 8:-0.866667 9:-0.625 10:-0.6 11:-0.0518067 12:-1 13:-1 14:-1 15:-0.333333 
1 1:-0.814067 2:1 3:-0.959531 4:-0.64771 5:-0.985612 6:-0.1 7:-0.953488 9:-1 10:-1 11:-0.64771 12:-0.333333 13:-0.333333 14:-0.333333 15:0.333333 
1 1:-1 2:-1 3:-0.934707 4:-0.64771 5:-0.985612 6:-0.1 7:-0.953488 9:-1 10:-1 11:-0.64771 12:-0.333333 13:-0.333333 14:-0.333333 15:0.333333 
1 1:-0.883328 2:-1 3:-0.934707 4:-0.324073 5:-0.971223 6:0.266667 7:-0.953488 8:-0.333333 9:-1 10:-1 11:-0.324073 12:0.333333 13:-1 14:-0.333333 15:0.333333 
1 1:-0.939327 2:-1 3:-0.925079 4:-0.10897 5:-0.956835 6:0.45 7:-0.953488 8:-0.5 9:-1 10:-1 11:0.18804 12:0.333333 13:-1 14:-1 15:-0.333333 
1 1:-1 2:-1 3:-0.918008 4:-0.10897 5:-0.956835 6:0.45 7:-0.953488 8:-0.5 9:-1 10:-1 11:0.18804 12:0.333333 13:-1 14:-1 15:-0.333333 
1 1:-0.945222 2:-1 3:-0.918008 4:0.005492 5:-0.942446 6:0.56 7:-0.953488 8:-0.6 9:-1 10:-1 11:0.44096 12:0.333333 13:-1 14:-1 15:-0.333333 
1 1:-0.864171 2:1 3:-0.913645 4:0.06126 5:-0.928058 6:0.633333 7:-0.953488 8:-0.666667 9:-1 10:-1 11:0.446593 12:0.333333 13:-1 14:-0.333333 15:0.333333 
1 1:-0.905433 2:-1 3:-0.983 4:-0.333333 5:-0.985612 6:-0.466667 7:-0.953488 8:-0.333333 9:-0.875 10:-0.333333 11:-0.333333 12:-1 13:-0.333333 14:-1 15:0.333333 
1 1:-0.367551 2:1 3:-0.923274 4:-0.469965 5:-0.971223 6:-0.1 7:-0.953488 8:-0.5 9:-0.875 10:-0.5 11:-0.959953 12:-0.333333 13:-0.333333 14:-0.333333 15:1 
1 1:-0.927538 2:-1 3:-0.890176 4:-0.2113 5:-0.956835 6:0.12 7:-0.953488 8:-0.6 9:-0.875 10:-0.6 11:-0.352167 12:0.333333 13:-0.333333 14:-0.333333 15:0.333333 
1 1:-1 2:-1 3:-0.882955 4:-0.2113 5:-0.956835 6:0.12 7:-0.953488 8:-0.6 9:-0.875 10:-0.6 11:-0.352167 12:0.333333 13:-1 14:-0.333333 15:-0.333333 
1 1:-0.865645 2:-1 3:-0.882955 4:-0.132877 5:-0.942446 6:0.266667 7:-0.953488 8:-0.666667 9:-0.875 10:-0.666667 11:0.06758 12:0.333333 13:-1 14:-1 15:-1 
1 1:-1 2:-1 3:-0.87122 4:-0.132877 5:-0.942446 6:0.266667 7:-0.953488 8:-0.666667 9:-0.875 10:-0.666667 11:0.06758 12:-0.333333 13:-1 14:-1 15:-1 
1 1:-0.921643 2:-1 3:-0.87122 4:0.00662571 5:-0.928058 6:0.371429 7:-0.953488 8:-0.714286 9:-0.875 10:-0.714286 11:0.64208 12:0.333333 13:-1 14:-1 15:-1 
1 1:-0.89217 2:-1 3:-0.862344 4:0.0882775 5:-0.913669 6:0.45 7:-0.953488 8:-0.75 9:-0.875 10:-0.75 11:0.587573 12:0.333333 13:-1 14:-1 15:-0.333333 
1 1:-0.915749 2:-1 3:-0.85407 4:0.173276 5:-0.899281 6:0.511111 7:-0.953488 8:-0.777778 9:-0.875 10:-0.777778 11:0.78558 12:0.333333 13:-1 14:-1 15:-0.333333 
1 1:-1 2:-1 3:-0.8473 4:0.173276 5:-0.899281 6:0.511111 7:-0.953488 8:-0.777778 9:-0.875 10:-0.777778 11:0.78558 12:0.333333 13:-1 14:-1 15:-0.333333 
1 1:-1 2:-1 3:-0.8473 4:0.055948 5:-0.899281 6:0.34 7:-0.953488 8:-0.8 9:-0.75 10:-0.6 11:0.171033 12:-0.333333 13:-1 14:-1 15:-1 
1 1:-1 2:-1 3:-0.8473 4:0.055948 5:-0.899281 6:0.34 7:-0.953488 8:-0.8 9:-0.75 10:-0.6 11:0.171033 12:-1 13:-1 14:-1 15:-1 
1 1:-0.619545 2:-1 3:-0.79645 4:0.082765 5:-0.870504 6:0.45 7:-0.953488 8:-0.833333 9:-0.75 10:-0.666667 11:-0.188767 12:0.333333 13:-1 14:-1 15:0.333333 
1 1:-0.812593 2:-1 3:-0.781556 4:0.01632 5:-0.856115 6:0.492308 7:-0.953488 8:-0.846154 9:-0.75 10:-0.692308 11:-0.115773 12:0.333333 13:-1 14:-1 15:-0.333333 
1 1:-0.930485 2:1 3:-0.777945 4:0.0772957 5:-0.841727 6:0.528571 7:-0.953488 8:-0.857143 9:-0.75 10:-0.714286 11:-0.0739933 12:1 13:-1 14:-0.333333 15:-0.333333 
1 1:-1 2:-1 3:-0.771025 4:0.0772957 5:-0.841727 6:0.528571 7:-0.953488 8:-0.857143 9:-0.75 10:-0.714286 11:-0.0739933 12:0.333333 13:-1 14:-0.333333 15:-1 
1 1:-0.90396 2:-1 3:-0.771025 4:0.12966 5:-0.827338 6:0.56 7:-0.953488 8:-0.866667 9:-0.75 10:-0.733333 11:0.31724 12:0.333333 13:-1 14:-0.333333 15:-1 
1 1:-1 2:-1 3:-0.762299 4:0.12966 5:-0.827338 6:0.56 7:-0.953488 8:-0.866667 9:-0.75 10:-0.733333 11:0.31724 12:-0.333333 13:-1 14:-1 15:-1 
1 1:-0.914275 2:-1 3:-0.762299 4:0.175793 5:-0.81295 6:0.5875 7:-0.953488 8:-0.875 9:-0.75 10:-0.75 11:0.86684 12:0.333333 13:-1 14:-1 15:-1 
1 1:-0.84354 2:-1 3:-0.75252 4:0.202122 5:-0.798561 6:0.611765 7:-0.953488 8:-0.882353 9:-0.75 10:-0.764706 11:0.784647 12:0.333333 13:-1 14:-1 15:-0.333333 
1 1:-0.861224 2:1 3:-0.743343 4:0.233204 5:-0.784173 6:0.633333 7:-0.953488 8:-0.888889 9:-0.75 10:-0.777778 11:0.750927 12:1 13:-1 14:-0.333333 15:0.333333 
1 1:-0.905433 2:-1 3:-0.73552 4:0.266647 5:-0.769784 6:0.652632 7:-0.953488 8:-0.894737 9:-0.75 10:-0.789474 11:0.751207 12:1 13:-1 14:-0.333333 15:0.333333 
1 1:-1 2:-1 3:-0.727847 4:0.266647 5:-0.769784 6:0.652632 7:-0.953488 8:-0.894737 9:-0.75 10:-0.789474 11:0.751207 12:0.333333 13:-1 14:-0.333333 15:-0.333333 
1 1:-1 2:-1 3:-0.727847 4:0.203315 5:-0.769784 6:0.56 7:-0.953488 8:-0.9 9:-0.625 10:-0.7 11:0.210073 12:-0.333333 13:-1 14:-1 15:-1 
1 1:-1 2:-1 3:-0.727847 4:0.203315 5:-0.769784 6:0.56 7:-0.953488 8:-0.9 9:-0.625 10:-0.7 11:0.210073 12:-1 13:-1 14:-1 15:-1 
1 1:-0.867118 2:-1 3:-0.727847 4:0.219152 5:-0.755396 6:0.580952 7:-0.953488 8:-0.904762 9:-0.625 10:-0.714286 11:0.13484 12:-0.333333 13:-1 14:-1 15:-0.333333 
1 1:-0.867118 2:1 3:-0.676997 4:0.163736 5:-0.755396 6:0.5 7:-0.906977 8:-0.818182 9:-0.625 10:-0.727273 11:-0.488033 12:-0.333333 13:-0.333333 14:-0.333333 15:0.333333 
1 1:-0.845014 2:1 3:-0.646908 4:0.187442 5:-0.741007 6:0.521739 7:-0.906977 8:-0.826087 9:-0.625 10:-0.73913 11:0.08162 12:0.333333 13:-0.333333 14:0.333333 15:1 
1 1:-1 2:-1 3:-0.617873 4:0.187442 5:-0.741007 6:0.521739 7:-0.906977 8:-0.826087 9:-0.625 10:-0.73913 11:0.08162 12:-0.333333 13:-0.333333 14:0.333333 15:0.333333 
1 1:-0.629861 2:-1 3:-0.617873 4:0.165605 5:-0.726619 6:0.541667 7:-0.906977 8:-0.833333 9:-0.625 10:-0.75 11:-0.209227 12:0.333333 13:-1 14:-0.333333 15:0.333333 
1 1:-0.839119 2:-1 3:-0.602377 4:0.118981 5:-0.726619 6:0.472 7:-0.860465 8:-0.76 9:-0.625 10:-0.76 11:-0.209227 12:-0.333333 13:-0.333333 14:-1 15:-0.333333 
1 1:-0.90838 2:1 3:-0.599819 4:0.14657 5:-0.71223 6:0.492308 7:-0.860465 8:-0.769231 9:-0.625 10:-0.769231 11:-0.16678 12:0.333333 13:-0.333333 14:-0.333333 15:-0.333333 
1 1:-1 2:-1 3:-0.592899 4:0.14657 5:-0.71223 6:0.492308 7:-0.860465 8:-0.769231 9:-0.625 10:-0.769231 11:-0.16678 12:-0.333333 13:-0.333333 14:-0.333333 15:-1 
1 1:-0.90838 2:-1 3:-0.592899 4:0.172202 5:-0.697842 6:0.511111 7:-0.860465 8:-0.777778 9:-0.625 10:-0.777778 11:0.22498 12:0.333333 13:-1 14:-0.333333 15:-1 
1 1:-1 2:-1 3:-0.584474 4:0.172202 5:-0.697842 6:0.511111 7:-0.860465 8:-0.777778 9:-0.625 10:-0.777778 11:0.22498 12:-0.333333 13:-1 14:-1 15:-1 
1 1:-0.755121 2:-1 3:-0.584474 4:0.188778 5:-0.683453 6:0.528571 7:-0.860465 8:-0.785714 9:-0.625 10:-0.785714 11:0.77042 12:0.333333 13:-1 14:-1 15:-0.333333 
1 1:-0.89217 2:-1 3:-0.573191 4:0.171432 5:-0.669065 6:0.544828 7:-0.860465 8:-0.793103 9:-0.625 10:-0.793103 11:0.386907 12:0.333333 13:-1 14:-1 15:-0.333333 
1 1:-0.853855 2:-1 3:-0.571686 4:0.189592 5:-0.654676 6:0.56 7:-0.860465 8:-0.8 9:-0.625 10:-0.8 11:0.3461 12:1 13:-1 14:-1 15:0.333333 
1 1:-0.893644 2:-1 3:-0.563262 4:0.151218 5:-0.654676 6:0.503226 7:-0.813953 8:-0.741935 9:-0.625 10:-0.806452 11:-0.19934 12:0.333333 13:-0.333333 14:-1 15:-0.333333 
1 1:-0.895118 2:1 3:-0.557093 4:0.168443 5:-0.640288 6:0.51875 7:-0.813953 8:-0.75 9:-0.625 10:-0.8125 11:0.139547 12:0.333333 13:-0.333333 14:-0.333333 15:-0.333333 
1 1:-1 2:-1 3:-0.554686 4:0.168443 5:-0.640288 6:0.51875 7:-0.813953 8:-0.75 9:-0.625 10:-0.8125 11:0.139547 12:-0.333333 13:-0.333333 14:-0.333333 15:-1 
1 1:-1 2:-1 3:-0.554686 4:0.133036 5:-0.640288 6:0.466667 7:-0.813953 8:-0.757576 9:-0.5 10:-0.757576 11:-0.432527 12:-0.333333 13:-1 14:-0.333333 15:-1 
1 1:-1 2:-1 3:-0.554686 4:0.133036 5:-0.640288 6:0.466667 7:-0.813953 8:-0.757576 9:-0.5 10:-0.757576 11:-0.432527 12:-1 13:-1 14:-1 15:-1 
1 1:-0.862697 2:-1 3:-0.554686 4:0.150061 5:-0.625899 6:0.482353 7:-0.813953 8:-0.764706 9:-0.5 10:-0.764706 11:0.138107 12:-0.333333 13:-1 14:-1 15:-0.333333 
1 1:-1 2:-1 3:-0.502181 4:0.150061 5:-0.625899 6:0.482353 7:-0.813953 8:-0.764706 9:-0.5 10:-0.764706 11:0.138107 12:-0.333333 13:-1 14:-1 15:-0.333333 
1 1:-0.693228 2:-1 3:-0.502181 4:0.137878 5:-0.611511 6:0.497143 7:-0.813953 8:-0.771429 9:-0.5 10:-0.771429 11:-0.188147 12:0.333333 13:-1 14:-1 15:0.333333 
1 1:-0.934906 2:-1 3:-0.488792 4:0.157721 5:-0.597122 6:0.511111 7:-0.813953 8:-0.777778 9:-0.5 10:-0.777778 11:0.42926 12:0.333333 13:-1 14:-1 15:-0.333333 
1 1:-1 2:-1 3:-0.482323 4:0.157721 5:-0.597122 6:0.511111 7:-0.813953 8:-0.777778 9:-0.5 10:-0.777778 11:0.42926 12:0.333333 13:-1 14:-1 15:-0.333333 
1 1:-0.911328 2:-1 3:-0.482323 4:0.172536 5:-0.582734 6:0.524324 7:-0.813953 8:-0.783784 9:-0.5 10:-0.783784 11:0.427247 12:0.333333 13:-1 14:-1 15:-1 
1 1:-1 2:-1 3:-0.473597 4:0.172536 5:-0.582734 6:0.524324 7:-0.813953 8:-0.783784 9:-0.5 10:-0.783784 11:0.427247 12:-0.333333 13:-1 14:-1 15:-1 
1 1:-0.834698 2:-1 3:-0.473597 4:0.186519 5:-0.568345 6:0.536842 7:-0.813953 8:-0.789474 9:-0.5 10:-0.789474 11:0.753993 12:0.333333 13:-1 14:-1 15:-0.333333 
1 1:-0.89217 2:-1 3:-0.46442 4:0.203267 5:-0.553957 6:0.548718 7:-0.813953 8:-0.794872 9:-0.5 10:-0.794872 11:0.74982 12:0.333333 13:-1 14:-1 15:-0.333333 
1 1:-0.777226 2:-1 3:-0.456146 4:0.205525 5:-0.539568 6:0.56 7:-0.813953 8:-0.8 9:-0.5 10:-0.8 11:0.612387 12:1 13:-1 14:-1 15:0.333333 
1 1:-0.895118 2:-1 3:-0.447119 4:0.22108 5:-0.52518 6:0.570732 7:-0.813953 8:-0.804878 9:-0.5 10:-0.804878 11:0.658847 12:1 13:-1 14:-1 15:-0.333333 
1 1:-0.747753 2:-1 3:-0.438544 4:0.231264 5:-0.510791 6:0.580952 7:-0.813953 8:-0.809524 9:-0.5 10:-0.809524 11:0.595227 12:1 13:-1 14:-1 15:0.333333 
1 1:-0.874487 2:-1 3:-0.427712 4:0.245362 5:-0.496403 6:0.590698 7:-0.813953 8:-0.813953 9:-0.5 10:-0.813953 11:0.776527 12:1 13:-1 14:-1 15:-0.333333 
1 1:-1 2:-1 3:-0.419287 4:0.245362 5:-0.496403 6:0.590698 7:-0.813953 8:-0.813953 9:-0.5 10:-0.813953 11:0.776527 12:0.333333 13:-1 14:-1 15:-0.333333 
1 1:-1 2:-1 3:-0.419287 4:0.217058 5:-0.496403 6:0.55 7:-0.813953 8:-0.818182 9:-0.375 10:-0.772727 11:0.1621 12:-0.333333 13:-1 14:-1 15:-1 
1 1:-1 2:-1 3:-0.419287 4:0.217058 5:-0.496403 6:0.55 7:-0.813953 8:-0.818182 9:-0.375 10:-0.772727 11:0.1621 12:-1 13:-1 14:-1 15:-1 
1 1:-0.856803 2:-1 3:-0.419287 4:0.217506 5:-0.482014 6:0.56 7:-0.813953 8:-0.822222 9:-0.375 10:-0.777778 11:0.0248867 12:-0.333333 13:-1 14:-1 15:-0.333333 
1 1:-1 2:-1 3:-0.367083 4:0.191038 5:-0.482014 6:0.521739 7:-0.813953 8:-0.826087 9:-0.25 10:-0.73913 11:-0.5876 12:-0.333333 13:-1 14:-1 15:-0.333333 
1 1:-0.931959 2:-1 3:-0.980894 4:-0.34105 5:-0.985612 6:-0.1 7:-0.953488 9:-1 10:-1 11:-0.34105 12:-0.333333 13:-0.333333 14:-1 15:-0.333333 
1 1:-0.921643 2:1 3:-0.973221 4:-0.01114 5:-0.971223 6:0.266667 7:-0.953488 8:-0.333333 9:-1 10:-1 11:-0.01114 12:0.333333 13:-0.333333 14:-0.333333 15:-0.333333 
1 1:-1 2:-1 3:-0.964796 4:-0.01114 5:-0.971223 6:0.266667 7:-0.953488 8:-0.333333 9:-1 10:-1 11:-0.01114 12:-0.333333 13:-0.333333 14:-0.333333 15:-1 
1 1:-1 2:-1 3:-0.964796 4:-0.01114 5:-0.971223 6:0.266667 7:-0.953488 8:-0.333333 9:-1 10:-1 11:-0.01114 12:-0.333333 13:-1 14:-0.333333 15:-1 
1 1:-1 2:-1 3:-0.964796 4:-0.258355 5:-0.971223 6:-0.1 7:-0.953488 8:-0.5 9:-0.875 10:-0.5 11:-0.45044 12:-1 13:-1 14:-1 15:-0.333333 
1 1:-0.691754 2:-1 3:-0.974575 4:-0.77783 5:-0.971223 6:1 7:-1 8:-1 9:-1 10:-1 11:-0.77783 12:0.333333 13:-1 14:-1 15:-0.333333 
1 1:-0.937853 2:-1 3:-0.961787 4:-0.223687 5:-0.956835 6:1 7:-1 8:-1 9:-1 10:-1 11:-0.223687 12:1 13:-1 14:-1 15:-0.333333 
1 1:-1 2:-1 3:-0.949752 4:-1 5:-1 6:1 7:-0.906977 8:1 9:-1 10:-1 11:-1 12:-1 13:0.333333 14:-0.333333 15:0.333333 
1 1:-0.836172 2:-1 3:-0.978637 4:-0.40704 5:-0.971223 6:1 7:-1 8:-1 9:-1 10:-1 11:-0.40704 12:0.333333 13:-1 14:-1 15:-0.333333 
1 1:-0.927538 2:1 3:-0.975779 4:0.0224933 5:-0.956835 6:1 7:-1 8:-1 9:-1 10:-1 11:0.0224933 12:1 13:-1 14:-0.333333 15:-0.333333 
1 1:-1 2:-1 3:-0.969309 4:0.0224933 5:-0.956835 6:1 7:-1 8:-1 9:-1 10:-1 11:0.0224933 12:0.333333 13:-1 14:-0.333333 15:-1 
1 1:-0.93638 2:-1 3:-0.969309 4:0.2384 5:-0.942446 6:1 7:-1 8:-1 9:-1 10:-1 11:0.443687 12:0.333333 13:-1 14:-0.333333 15:-1 
1 1:-0.921643 2:1 3:-0.956371 4:0.367352 5:-0.928058 6:1 7:-1 8:-1 9:-1 10:-1 11:0.883613 12:0.333333 13:-1 14:-0.333333 15:-1 
1 1:-1 2:-1 3:-0.949902 4:0.367352 5:-0.928058 6:1 7:-1 8:-1 9:-1 10:-1 11:0.883613 12:0.333333 13:-1 14:-0.333333 15:-1 
1 1:-0.942274 2:-1 3:-0.949902 4:0.454507 5:-0.913669 6:1 7:-1 8:-1 9:-1 10:-1 11:0.88652 12:0.333333 13:-1 14:-0.333333 15:-1 
1 1:-0.847961 2:1 3:-0.923725 4:0.430135 5:-0.856115 6:0.8 7:-1 8:-1 9:-0.875 10:-0.818182 11:0.1042 12:0.333333 13:-1 14:-0.333333 15:0.333333 
1 1:-1 2:-1 3:-0.891831 4:0.430135 5:-0.856115 6:0.8 7:-1 8:-1 9:-0.875 10:-0.818182 11:0.1042 12:0.333333 13:-1 14:-0.333333 15:0.333333 
1 1:-1 2:-1 3:-0.891831 4:0.430135 5:-0.856115 6:0.8 7:-1 8:-1 9:-0.875 10:-0.818182 11:0.1042 12:-0.333333 13:-1 14:-0.333333 15:-0.333333 
1 1:-0.149451 2:-1 3:-0.989318 4:-0.9465 5:-0.985612 6:1 7:-1 8:-1 9:-1 10:-1 11:-0.9465 12:-0.333333 13:-1 14:-1 15:-0.333333 
1 1:-0.909854 2:-1 3:-0.915601 4:-0.20171 5:-0.971223 6:1 7:-1 8:-1 9:-1 10:-1 11:-0.20171 12:0.333333 13:-1 14:-1 15:-0.333333 
1 1:-0.567967 2:-1 3:-0.99985 4:-1 5:-1 6:1 7:-0.953488 8:1 9:-1 10:-1 11:-1 12:-1 13:-0.333333 14:-1 15:-0.333333 
1 1:-1 2:-1 3:-0.96284 4:-1 5:-1 6:1 7:-0.906977 8:1 9:-1 10:-1 11:-1 12:-1 13:0.333333 14:-0.333333 15:0.333333 
1 1:-0.802278 2:-1 3:-0.917105 4:0.108793 5:-0.913669 6:1 7:-1 8:-1 9:-1 10:-1 11:0.157027 12:0.333333 13:-1 14:-1 15:-0.333333 
1 1:-0.929012 2:1 3:-0.913796 4:0.219974 5:-0.899281 6:1 7:-1 8:-1 9:-1 10:-1 11:0.15964 12:1 13:-1 14:-0.333333 15:-0.333333 
1 1:-1 2:-1 3:-0.907477 4:0.219974 5:-0.899281 6:1 7:-1 8:-1 9:-1 10:-1 11:0.15964 12:0.333333 13:-1 14:-0.333333 15:-1 
1 1:-0.902486 2:-1 3:-0.907477 4:0.28493 5:-0.884892 6:1 7:-1 8:-1 9:-1 10:-1 11:0.2913 12:0.333333 13:-1 14:-0.333333 15:-0.333333 
1 1:-1 2:1 3:-0.811945 4:0.333252 5:-0.798561 6:0.725 7:-1 8:-1 9:-0.75 10:-0.75 11:-0.389393 12:-0.333333 13:-1 14:-0.333333 15:0.333333 
1 1:-0.598914 2:1 3:-0.988717 4:-0.91232 5:-0.985612 6:-0.1 7:-0.953488 9:-1 10:-1 11:-0.91232 12:-0.333333 13:-0.333333 14:-0.333333 15:0.333333 
1 1:-1 2:-1 3:-0.916805 4:0.042874 5:-0.884892 6:0.56 7:-0.953488 8:-0.8 9:-0.875 10:-0.8 11:0.224653 12:-1 13:-1 14:-1 15:-1 
1 1:-1 2:-1 3:-0.916805 4:-0.0519327 5:-0.884892 6:0.4 7:-0.953488 8:-0.818182 9:-0.75 10:-0.636364 11:-0.383893 12:-1 13:-1 14:-1 15:-0.333333 
1 1:-0.638703 2:-1 3:-0.979389 4:-0.43813 5:-0.971223 6:1 7:-1 8:-1 9:-1 10:-1 11:-0.43813 12:0.333333 13:-1 14:-1 15:-0.333333 
1 1:-0.868592 2:1 3:-0.973221 4:-0.0406 5:-0.956835 6:1 7:-1 8:-1 9:-1 10:-1 11:-0.0406 12:1 13:-1 14:-0.333333 15:-0.333333 
1 1:-1 2:-1 3:-0.970062 4:-0.0406 5:-0.956835 6:1 7:-1 8:-1 9:-1 10:-1 11:-0.0406 12:0.333333 13:-1 14:-0.333333 15:-1 
1 1:-0.931959 2:-1 3:-0.970062 4:0.190745 5:-0.942446 6:1 7:-1 8:-1 9:-1 10:-1 11:0.415233 12:0.333333 13:-1 14:-0.333333 15:-1 
1 1:-0.942274 2:-1 3:-0.944787 4:0.415091 5:-0.899281 6:1 7:-1 8:-1 9:-1 10:-1 11:0.71422 12:1 13:-1 14:-1 15:-0.333333 
1 1:-0.791962 2:-1 3:-0.854822 4:0.266785 5:-0.856115 6:0.8 7:-1 8:-1 9:-0.875 10:-0.818182 11:0.343 12:0.333333 13:-1 14:-1 15:0.333333 
1 1:-0.930485 2:-1 3:-0.843087 4:0.318658 5:-0.841727 6:0.816667 7:-1 8:-1 9:-0.875 10:-0.833333 11:0.567587 12:0.333333 13:-1 14:-1 15:-0.333333 
1 1:-1 2:-1 3:-0.836618 4:0.318658 5:-0.841727 6:0.816667 7:-1 8:-1 9:-0.875 10:-0.833333 11:0.567587 12:0.333333 13:-1 14:-1 15:-0.333333 
1 1:-0.933432 2:-1 3:-0.836618 4:0.362631 5:-0.827338 6:0.830769 7:-1 8:-1 9:-0.875 10:-0.846154 11:0.59802 12:0.333333 13:-1 14:-1 15:-1 
1 1:-0.890697 2:-1 3:-0.827291 4:0.399443 5:-0.81295 6:0.842857 7:-1 8:-1 9:-0.875 10:-0.857143 11:0.885853 12:0.333333 13:-1 14:-1 15:-1 
1 1:-0.870066 2:-1 3:-0.818715 4:0.410983 5:-0.798561 6:0.853333 7:-1 8:-1 9:-0.875 10:-0.866667 11:0.78028 12:0.333333 13:-1 14:-1 15:-0.333333 
1 1:-0.887749 2:-1 3:-0.811043 4:0.409736 5:-0.784173 6:0.8625 7:-1 8:-1 9:-0.875 10:-0.875 11:0.61386 12:0.333333 13:-1 14:-1 15:-0.333333 
1 1:-0.777226 2:1 3:-0.976982 4:-0.70146 5:-0.985612 6:-0.1 7:-0.953488 9:-1 10:-1 11:-0.70146 12:-0.333333 13:-0.333333 14:-0.333333 15:0.333333 
1 1:-0.76691 2:-1 3:-0.954265 4:-0.77894 5:-0.971223 6:0.266667 7:-0.953488 8:-0.333333 9:-1 10:-1 11:-0.77894 12:0.333333 13:-0.333333 14:-0.333333 15:0.333333 
1 1:-0.927538 2:-1 3:-0.950354 4:-0.378365 5:-0.956835 6:0.45 7:-0.953488 8:-0.5 9:-1 10:-1 11:-0.171153 12:1 13:-1 14:-0.333333 15:-0.333333 
1 1:-0.942274 2:-1 3:-0.942831 4:-0.134112 5:-0.942446 6:0.56 7:-0.953488 8:-0.6 9:-1 10:-1 11:0.24412 12:1 13:-1 14:-1 15:-1 
1 1:-0.643124 2:1 3:-0.979239 4:-0.53115 5:-0.971223 6:1 7:-1 8:-1 9:-1 10:-1 11:-0.53115 12:0.333333 13:-1 14:-0.333333 15:0.333333 
1 1:-0.927538 2:-1 3:-0.953964 4:-0.22074 5:-0.956835 6:1 7:-1 8:-1 9:-1 10:-1 11:-0.22074 12:1 13:-1 14:-0.333333 15:0.333333 
1 1:-0.934906 2:-1 3:-0.948849 4:0.008205 5:-0.942446 6:1 7:-1 8:-1 9:-1 10:-1 11:0.0968867 12:1 13:-1 14:-0.333333 15:-0.333333 
1 1:-1 2:-1 3:-0.947044 4:0.008205 5:-0.942446 6:1 7:-1 8:-1 9:-1 10:-1 11:0.0968867 12:0.333333 13:-1 14:-1 15:-1 
1 1:-0.842066 2:-1 3:-0.932902 4:0.335529 5:-0.899281 6:1 7:-1 8:-1 9:-1 10:-1 11:0.77196 12:1 13:-1 14:-1 15:-0.333333 
1 1:-0.886276 2:-1 3:-0.908681 4:0.41668 5:-0.856115 6:1 7:-1 8:-1 9:-1 10:-1 11:0.606033 12:1 13:-1 14:-1 15:0.333333 
1 1:-0.93638 2:-1 3:-0.902212 4:0.457869 5:-0.841727 6:1 7:-1 8:-1 9:-1 10:-1 11:0.676567 12:1 13:-1 14:-1 15:-0.333333 
1 1:-1 2:1 3:-0.869866 4:0.253451 5:-0.827338 6:0.685714 7:-1 8:-1 9:-0.75 10:-0.714286 11:-0.49608 12:-0.333333 13:-1 14:-0.333333 15:0.333333 
1 1:-0.847961 2:1 3:-0.930345 4:0.34963 5:-0.928058 6:0.633333 7:-1 8:-1 9:-0.875 10:-0.666667 11:0.688713 12:0.333333 13:-1 14:-0.333333 15:0.333333 
1 1:-1 2:-1 3:-0.912141 4:0.34963 5:-0.928058 6:0.633333 7:-1 8:-1 9:-0.875 10:-0.666667 11:0.688713 12:0.333333 13:-1 14:-0.333333 15:0.333333 
1 1:-0.89217 2:1 3:-0.978938 4:-0.26026 5:-0.971223 6:1 7:-1 8:-1 9:-1 10:-1 11:-0.26026 12:0.333333 13:-1 14:-0.333333 15:0.333333 
1 1:-1 2:-1 3:-0.959079 4:-0.26026 5:-0.971223 6:1 7:-1 8:-1 9:-1 10:-1 11:-0.26026 12:0.333333 13:-1 14:-0.333333 15:0.333333 
1 1:-0.79933 2:-1 3:-0.959079 4:-0.289293 5:-0.956835 6:1 7:-1 8:-1 9:-1 10:-1 11:-0.289293 12:0.333333 13:-1 14:-0.333333 15:0.333333 
1 1:-0.940801 2:-1 3:-0.955318 4:-0.03095 5:-0.942446 6:1 7:-1 8:-1 9:-1 10:-1 11:0.0368333 12:0.333333 13:-1 14:-1 15:-0.333333 
0.4825570333270983 1:-1 2:-1 3:-0.948849 4:-0.03095 5:-0.942446 6:1 7:-1 8:-1 9:-1 10:-1 11:0.0368333 12:0.333333 13:-1 14:-1 15:-0.333333 
1 1:-0.883328 2:-1 3:-0.948849 4:-0.0412 5:-0.928058 6:1 7:-1 8:-1 9:-1 10:-1 11:0.10484 12:0.333333 13:-1 14:-1 15:-0.333333 
1 1:-0.934906 2:-1 3:-0.938468 4:0.09858 5:-0.913669 6:1 7:-1 8:-1 9:-1 10:-1 11:0.486453 12:0.333333 13:-1 14:-1 15:-0.333333 
1 1:-0.696175 2:1 3:-0.977584 4:-0.27078 5:-0.971223 6:0.266667 7:-0.953488 8:-0.333333 9:-1 10:-1 11:-0.27078 12:0.333333 13:-0.333333 14:-0.333333 15:-0.333333 
1 1:-0.84354 2:1 3:-0.964947 4:-0.296905 5:-0.956835 6:0.45 7:-0.953488 8:-0.5 9:-1 10:-1 11:-0.401213 12:0.333333 13:-0.333333 14:0.333333 15:-1 
1 1:-0.923117 2:-1 3:-0.96269 4:-0.0705 5:-0.942446 6:0.56 7:-0.953488 8:-0.6 9:-1 10:-1 11:-0.180053 12:0.333333 13:-0.333333 14:0.333333 15:-1 
1 1:-1 2:-1 3:-0.955469 4:-0.0705 5:-0.942446 6:0.56 7:-0.953488 8:-0.6 9:-1 10:-1 11:-0.180053 12:0.333333 13:-1 14:-0.333333 15:-1 
1 1:-1 2:-1 3:-0.955469 4:-0.0705 5:-0.942446 6:0.56 7:-0.953488 8:-0.6 9:-1 10:-1 11:-0.180053 12:-0.333333 13:-1 14:-1 15:-1 
1 1:-0.858276 2:-1 3:-0.976531 4:-0.5695 5:-0.985612 6:-0.466667 7:-0.906977 8:0.333333 9:-1 10:-1 11:-0.5695 12:-0.333333 13:-0.333333 14:-0.333333 15:0.333333 
1 1:-0.927538 2:-1 3:-0.969911 4:-0.243085 5:-0.971223 6:-0.1 7:-0.906977 9:-1 10:-1 11:0.00922 12:0.333333 13:-1 14:-1 15:-0.333333 
1 1:-1 2:-1 3:-0.963141 4:-0.243085 5:-0.971223 6:-0.1 7:-0.906977 9:-1 10:-1 11:0.00922 12:0.333333 13:-1 14:-1 15:-0.333333 
1 1:-0.884802 2:-1 3:-0.963141 4:-0.095868 5:-0.956835 6:0.12 7:-0.906977 8:-0.2 9:-1 10:-1 11:0.506887 12:0.333333 13:-1 14:-1 15:-0.333333 
1 1:-0.896591 2:-1 3:-0.954566 4:0.0497 5:-0.942446 6:0.266667 7:-0.906977 8:-0.333333 9:-1 10:-1 11:0.6689 12:0.333333 13:-1 14:-1 15:-0.333333 
1 1:-1 2:-1 3:-0.947044 4:0.0497 5:-0.942446 6:0.266667 7:-0.906977 8:-0.333333 9:-1 10:-1 11:0.6689 12:0.333333 13:-1 14:-1 15:-0.333333 
1 1:-0.89217 2:-1 3:-0.947044 4:0.155729 5:-0.928058 6:0.371429 7:-0.906977 8:-0.428571 9:-1 10:-1 11:0.68748 12:0.333333 13:-1 14:-1 15:-0.333333 
1 1:-0.884802 2:-1 3:-0.93892 4:0.0112625 5:-0.928058 6:0.175 7:-0.860465 8:-0.25 9:-1 10:-1 11:0.189813 12:-0.333333 13:-0.333333 14:-1 15:0.333333 
1 1:-0.93638 2:1 3:-0.93561 4:0.0418533 5:-0.913669 6:0.266667 7:-0.860465 8:-0.333333 9:-1 10:-1 11:0.02616 12:0.333333 13:-0.333333 14:-0.333333 15:1 
1 1:-0.849434 2:1 3:-0.93215 4:0.06463 5:-0.899281 6:0.34 7:-0.860465 8:-0.4 9:-1 10:-1 11:-0.147933 12:0.333333 13:-0.333333 14:0.333333 15:1 
1 1:-0.901012 2:-1 3:-0.912141 4:0.128111 5:-0.884892 6:0.4 7:-0.860465 8:-0.454545 9:-1 10:-1 11:0.439707 12:1 13:-1 14:0.333333 15:0.333333 
1 1:-1 2:-1 3:-0.904318 4:0.128111 5:-0.884892 6:0.4 7:-0.860465 8:-0.454545 9:-1 10:-1 11:0.439707 12:0.333333 13:-1 14:-0.333333 15:-0.333333 
1 1:-1 2:-1 3:-0.904318 4:0.0341017 5:-0.884892 6:0.266667 7:-0.860465 8:-0.5 9:-0.875 10:-0.833333 11:0.0108467 12:-0.333333 13:-1 14:-1 15:-1 
1 1:-1 2:-1 3:-0.904318 4:0.0341017 5:-0.884892 6:0.266667 7:-0.860465 8:-0.5 9:-0.875 10:-0.833333 11:0.0108467 12:-1 13:-1 14:-1 15:-1 
1 1:-1 2:-1 3:-0.904318 4:-0.0454446 5:-0.884892 6:0.153846 7:-0.860465 8:-0.538462 9:-0.75 10:-0.692308 11:-0.41236 12:-1 13:-1 14:-1 15:-0.333333 
1 1:-0.805225 2:-1 3:-0.977885 4:-0.48985 5:-0.971223 6:1 7:-1 8:-1 9:-1 10:-1 11:-0.48985 12:0.333333 13:-1 14:-1 15:-0.333333 
1 1:-0.924591 2:1 3:-0.969159 4:-0.0330867 5:-0.956835 6:1 7:-1 8:-1 9:-1 10:-1 11:-0.0330867 12:1 13:-1 14:-0.333333 15:-0.333333 
1 1:-1 2:-1 3:-0.962088 4:-0.0330867 5:-0.956835 6:1 7:-1 8:-1 9:-1 10:-1 11:-0.0330867 12:0.333333 13:-1 14:-0.333333 15:-1 
1 1:-0.915749 2:-1 3:-0.962088 4:0.160285 5:-0.942446 6:1 7:-1 8:-1 9:-1 10:-1 11:0.47778 12:0.333333 13:-1 14:-0.333333 15:-0.333333 
1 1:-0.737437 2:1 3:-0.893034 4:0.26433 5:-0.870504 6:0.78 7:-1 8:-1 9:-0.875 10:-0.8 11:-0.209053 12:0.333333 13:-1 14:-0.333333 15:0.333333 
1 1:-1 2:-1 3:-0.883406 4:0.26433 5:-0.870504 6:0.78 7:-1 8:-1 9:-0.875 10:-0.8 11:-0.209053 12:0.333333 13:-1 14:-0.333333 15:0.333333 
1 1:-0.933432 2:1 3:-0.97277 4:0.37298 5:-0.956835 6:1 7:-1 8:-1 9:-1 10:-1 11:0.37298 12:1 13:-1 14:-0.333333 15:-0.333333 
1 1:-0.855329 2:-1 3:-0.970513 4:0.36227 5:-0.942446 6:1 7:-1 8:-1 9:-1 10:-1 11:0.397693 12:1 13:-1 14:-0.333333 15:-0.333333 
1 1:-0.930485 2:-1 3:-0.963893 4:0.466992 5:-0.928058 6:1 7:-1 8:-1 9:-1 10:-1 11:0.66858 12:1 13:-1 14:-0.333333 15:-0.333333 
1 1:-0.923117 2:-1 3:-0.973371 4:-0.07228 5:-0.971223 6:0.266667 7:-0.953488 8:-0.333333 9:-1 10:-1 11:-0.07228 12:-0.333333 13:-0.333333 14:-1 15:-0.333333 
1 1:-0.881855 2:1 3:-0.965699 4:-0.098925 5:-0.956835 6:0.45 7:-0.953488 8:-0.5 9:-1 10:-1 11:-0.135153 12:-0.333333 13:-0.333333 14:-0.333333 15:0.333333 
1 1:-0.942274 2:-1 3:-0.955318 4:0.061444 5:-0.942446 6:0.56 7:-0.953488 8:-0.6 9:-1 10:-1 11:-0.158647 12:0.333333 13:-0.333333 14:-0.333333 15:0.333333 
1 1:-0.902486 2:-1 3:-0.947796 4:0.16025 5:-0.928058 6:0.633333 7:-0.953488 8:-0.666667 9:-1 10:-1 11:0.39278 12:1 13:-1 14:-0.333333 15:0.333333 
1 1:-0.939327 2:-1 3:-0.94238 4:0.241254 5:-0.913669 6:0.685714 7:-0.953488 8:-0.714286 9:-1 10:-1 11:0.694827 12:1 13:-1 14:-1 15:-0.333333 
1 1:-0.931959 2:-1 3:-0.911689 4:0.271735 5:-0.870504 6:0.6 7:-0.906977 8:-0.636364 9:-1 10:-1 11:0.200567 12:-0.333333 13:-0.333333 14:-1 15:-0.333333 
1 1:-0.889223 2:1 3:-0.909282 4:0.307565 5:-0.856115 6:0.633333 7:-0.906977 8:-0.666667 9:-1 10:-1 11:0.186247 12:0.333333 13:-0.333333 14:-0.333333 15:-0.333333 
1 1:-1 2:-1 3:-0.898902 4:0.307565 5:-0.856115 6:0.633333 7:-0.906977 8:-0.666667 9:-1 10:-1 11:0.186247 12:-0.333333 13:-0.333333 14:-0.333333 15:-1 
1 1:-1 2:-1 3:-0.898902 4:0.206983 5:-0.856115 6:0.492308 7:-0.906977 8:-0.692308 9:-0.875 10:-0.846154 11:-0.432767 12:-0.333333 13:-1 14:-0.333333 15:-1 
1 1:-1 2:-1 3:-0.898902 4:0.206983 5:-0.856115 6:0.492308 7:-0.906977 8:-0.692308 9:-0.875 10:-0.846154 11:-0.432767 12:-1 13:-1 14:-1 15:-1 
1 1:-0.878907 2:-1 3:-0.898902 4:0.12077 5:-0.856115 6:0.371429 7:-0.860465 8:-0.571429 9:-0.875 10:-0.857143 11:-0.432767 12:-1 13:-0.333333 14:-1 15:-0.333333 
1 1:-1 2:1 3:-0.844892 4:0.046052 5:-0.856115 6:0.266667 7:-0.860465 8:-0.6 9:-0.75 10:-0.733333 11:-1 12:-1 13:-0.333333 14:-0.333333 15:0.333333 
1 1:-0.840593 2:-1 3:-0.978487 4:-0.44924 5:-0.971223 6:1 7:-1 8:-1 9:-1 10:-1 11:-0.44924 12:0.333333 13:-1 14:-1 15:-0.333333 
1 1:-0.921643 2:-1 3:-0.969159 4:-0.00629333 5:-0.956835 6:1 7:-1 8:-1 9:-1 10:-1 11:-0.00629333 12:1 13:-1 14:-1 15:-0.333333 
1 1:-0.890697 2:1 3:-0.988867 4:-0.65862 5:-0.985612 6:-0.1 7:-0.953488 9:-1 10:-1 11:-0.65862 12:-0.333333 13:-0.333333 14:-0.333333 15:0.333333 
1 1:-0.849434 2:-1 3:-0.968708 4:-0.482867 5:-0.971223 6:0.266667 7:-0.953488 8:-0.333333 9:-1 10:-1 11:-0.482867 12:0.333333 13:-0.333333 14:-0.333333 15:0.333333 
1 1:-0.940801 2:-1 3:-0.831804 4:0.382586 5:-0.755396 6:0.768421 7:-0.953488 8:-0.894737 9:-0.875 10:-0.894737 11:0.627227 12:0.333333 13:-1 14:-1 15:-0.333333 
1 1:-1 2:-1 3:-0.824282 4:0.382586 5:-0.755396 6:0.768421 7:-0.953488 8:-0.894737 9:-0.875 10:-0.894737 11:0.627227 12:0.333333 13:-1 14:-1 15:-0.333333 
1 1:-0.902486 2:-1 3:-0.824282 4:0.399394 5:-0.741007 6:0.78 7:-0.953488 8:-0.9 9:-0.875 10:-0.9 11:0.611373 12:0.333333 13:-1 14:-1 15:-0.333333 
1 1:-0.937853 2:-1 3:-0.814503 4:0.422343 5:-0.726619 6:0.790476 7:-0.953488 8:-0.904762 9:-0.875 10:-0.904762 11:0.789907 12:0.333333 13:-1 14:-1 15:-0.333333 
1 1:-1 2:-1 3:-0.807281 4:0.422343 5:-0.726619 6:0.790476 7:-0.953488 8:-0.904762 9:-0.875 10:-0.904762 11:0.789907 12:0.333333 13:-1 14:-1 15:-0.333333 
1 1:-0.942274 2:-1 3:-0.807281 4:0.357691 5:-0.726619 6:0.7 7:-0.906977 8:-0.818182 9:-0.875 10:-0.909091 11:0.20002 12:-0.333333 13:-0.333333 14:-1 15:-0.333333 
1 1:-0.90396 2:1 3:-0.798857 4:0.372571 5:-0.71223 6:0.713043 7:-0.906977 8:-0.826087 9:-0.875 10:-0.913043 11:0.193753 12:-0.333333 13:-0.333333 14:-0.333333 15:0.333333 
1 1:-0.937853 2:-1 3:-0.786069 4:0.393393 5:-0.697842 6:0.725 7:-0.906977 8:-0.833333 9:-0.875 10:-0.916667 11:0.19074 12:0.333333 13:-0.333333 14:-0.333333 15:0.333333 
1 1:-1 2:-1 3:-0.778697 4:0.393393 5:-0.697842 6:0.725 7:-0.906977 8:-0.833333 9:-0.875 10:-0.916667 11:0.19074 12:0.333333 13:-1 14:-0.333333 15:-0.333333 
1 1:-0.809646 2:-1 3:-0.778697 4:0.393095 5:-0.683453 6:0.736 7:-0.906977 8:-0.84 9:-0.875 10:-0.92 11:0.652727 12:0.333333 13:-1 14:-1 15:-0.333333 
1 1:-0.850908 2:-1 3:-0.97969 4:-0.333333 5:-0.985612 6:-0.466667 7:-0.953488 8:-0.333333 9:-0.875 10:-0.333333 11:-0.333333 12:-1 13:-0.333333 14:-1 15:0.333333 
1 1:-0.890697 2:1 3:-0.973823 4:-0.5 5:-0.985612 6:-0.65 7:-0.906977 9:-0.875 10:-0.5 11:-1 12:-1 13:0.333333 14:-0.333333 15:1 
1 1:-1 2:-1 3:-0.966301 4:-0.5 5:-0.985612 6:-0.65 7:-0.906977 9:-0.875 10:-0.5 11:-1 12:-1 13:0.333333 14:-0.333333 15:0.333333 
1 1:-0.931959 2:-1 3:-0.966301 4:-0.276384 5:-0.971223 6:-0.32 7:-0.906977 8:-0.2 9:-0.875 10:-0.6 11:-0.46064 12:-0.333333 13:-0.333333 14:-0.333333 15:0.333333 
1 1:-1 2:-1 3:-0.957575 4:-0.276384 5:-0.971223 6:-0.32 7:-0.906977 8:-0.2 9:-0.875 10:-0.6 11:-0.46064 12:-0.333333 13:-1 14:-1 15:-0.333333 
1 1:-1 2:-1 3:-0.957575 4:-0.276384 5:-0.971223 6:-0.32 7:-0.906977 8:-0.2 9:-0.875 10:-0.6 11:-0.46064 12:-0.333333 13:-1 14:-1 15:-0.333333 
1 1:-0.905433 2:-1 3:-0.957575 4:-0.1697 5:-0.956835 6:-0.1 7:-0.906977 8:-0.333333 9:-0.875 10:-0.666667 11:-0.00606667 12:-0.333333 13:-1 14:-1 15:-0.333333 
1 1:-0.946695 2:-1 3:-0.923424 4:-0.037834 5:-0.913669 6:0.12 7:-0.860465 8:-0.4 9:-0.875 10:-0.8 11:0.0644667 12:0.333333 13:-0.333333 14:-0.333333 15:0.333333 
1 1:-1 2:-1 3:-0.917406 4:-0.037834 5:-0.913669 6:0.12 7:-0.860465 8:-0.4 9:-0.875 10:-0.8 11:0.0644667 12:0.333333 13:-1 14:-0.333333 15:-0.333333 
1 1:-0.878907 2:-1 3:-0.917406 4:0.0323436 5:-0.899281 6:0.2 7:-0.860465 8:-0.454545 9:-0.875 10:-0.818182 11:0.642507 12:0.333333 13:-1 14:-1 15:-0.333333 
1 1:-1 2:-1 3:-0.902663 4:-0.053685 5:-0.899281 6:0.0833333 7:-0.860465 8:-0.5 9:-0.75 10:-0.666667 11:0.163287 12:-0.333333 13:-1 14:-1 15:-0.333333 
1 1:-0.861224 2:1 3:-0.920566 4:0.521 5:-0.884892 6:0.755556 7:-0.953488 8:-0.777778 9:-1 10:-1 11:0.2341 12:0.333333 13:-0.333333 14:-0.333333 15:-0.333333 
1 1:-1 2:-1 3:-0.904769 4:0.521 5:-0.884892 6:0.755556 7:-0.953488 8:-0.777778 9:-1 10:-1 11:0.2341 12:-0.333333 13:-0.333333 14:-0.333333 15:-1 
1 1:-1 2:-1 3:-0.904769 4:0.3689 5:-0.884892 6:0.56 7:-0.953488 8:-0.8 9:-0.875 10:-0.8 11:-0.387887 12:-0.333333 13:-1 14:-0.333333 15:-1 
1 1:-0.911328 2:-1 3:-0.950805 4:0.05876 5:-0.942446 6:0.56 7:-0.953488 8:-0.6 9:-1 10:-1 11:0.122053 12:-0.333333 13:-0.333333 14:-1 15:-0.333333 
1 1:-0.727122 2:1 3:-0.948247 4:0.0561767 5:-0.928058 6:0.633333 7:-0.953488 8:-0.666667 9:-1 10:-1 11:-0.0281733 12:-0.333333 13:-0.333333 14:-0.333333 15:0.333333 
1 1:-0.898065 2:-1 3:-0.968557 4:0.1877 5:-0.956835 6:1 7:-1 8:-1 9:-1 10:-1 11:0.1877 12:1 13:-1 14:-1 15:0.333333 
1 1:-0.940801 2:-1 3:-0.962389 4:0.3364 5:-0.942446 6:1 7:-1 8:-1 9:-1 10:-1 11:0.554193 12:1 13:-1 14:-1 15:-0.333333 
1 1:-0.613651 2:1 3:-0.978186 4:-0.78529 5:-0.985612 6:-0.1 7:-0.953488 9:-1 10:-1 11:-0.78529 12:-0.333333 13:-0.333333 14:-0.333333 15:0.333333 
1 1:-0.940801 2:-1 3:-0.952008 4:-0.254473 5:-0.971223 6:0.266667 7:-0.953488 8:-0.333333 9:-1 10:-1 11:-0.254473 12:0.333333 13:-0.333333 14:-0.333333 15:0.333333 
1 1:-1 2:-1 3:-0.945238 4:-0.254473 5:-0.971223 6:0.266667 7:-0.953488 8:-0.333333 9:-1 10:-1 11:-0.254473 12:0.333333 13:-1 14:-0.333333 15:-0.333333 
1 1:-0.943748 2:-1 3:-0.945238 4:0.01667 5:-0.956835 6:0.45 7:-0.953488 8:-0.5 9:-1 10:-1 11:0.35556 12:0.333333 13:-1 14:-1 15:-1 
1 1:-0.87596 2:-1 3:-0.911238 4:0.185345 5:-0.899281 6:0.725 7:-0.953488 8:-0.75 9:-1 10:-1 11:0.191307 12:0.333333 13:-1 14:-1 15:-0.333333 
1 1:-0.946695 2:1 3:-0.908831 4:0.261167 5:-0.884892 6:0.755556 7:-0.953488 8:-0.777778 9:-1 10:-1 11:0.201047 12:1 13:-1 14:-0.333333 15:-0.333333 
1 1:-1 2:-1 3:-0.902663 4:0.261167 5:-0.884892 6:0.755556 7:-0.953488 8:-0.777778 9:-1 10:-1 11:0.201047 12:0.333333 13:-1 14:-0.333333 15:-1 
1 1:-1 2:-1 3:-0.902663 4:0.13505 5:-0.884892 6:0.56 7:-0.953488 8:-0.8 9:-0.875 10:-0.8 11:-0.285527 12:-0.333333 13:-1 14:-0.333333 15:-1 
1 1:-1 2:-1 3:-0.902663 4:0.13505 5:-0.884892 6:0.56 7:-0.953488 8:-0.8 9:-0.875 10:-0.8 11:-0.285527 12:-1 13:-1 14:-1 15:-1 
1 1:-0.587125 2:-1 3:-0.872725 4:0.113378 5:-0.856115 6:0.633333 7:-0.953488 8:-0.833333 9:-0.875 10:-0.833333 11:-0.329987 12:0.333333 13:-1 14:-1 15:0.333333 
1 1:-0.946695 2:-1 3:-0.856025 4:0.171969 5:-0.841727 6:0.661538 7:-0.953488 8:-0.846154 9:-0.875 10:-0.846154 11:0.295033 12:0.333333 13:-1 14:-1 15:-0.333333 
1 1:-1 2:-1 3:-0.848353 4:0.171969 5:-0.841727 6:0.661538 7:-0.953488 8:-0.846154 9:-0.875 10:-0.846154 11:0.295033 12:0.333333 13:-1 14:-1 15:-0.333333 
1 1:-0.943748 2:-1 3:-0.848353 4:0.222249 5:-0.827338 6:0.685714 7:-0.953488 8:-0.857143 9:-0.875 10:-0.857143 11:0.351887 12:0.333333 13:-1 14:-1 15:-1 
1 1:-1 2:-1 3:-0.839928 4:0.222249 5:-0.827338 6:0.685714 7:-0.953488 8:-0.857143 9:-0.875 10:-0.857143 11:0.351887 12:-0.333333 13:-1 14:-1 15:-1 
1 1:-0.937853 2:-1 3:-0.839928 4:0.265804 5:-0.81295 6:0.706667 7:-0.953488 8:-0.866667 9:-0.875 10:-0.866667 11:0.875507 12:0.333333 13:-1 14:-1 15:-1 
1 1:-0.905433 2:-1 3:-0.831352 4:0.293764 5:-0.798561 6:0.725 7:-0.953488 8:-0.875 9:-0.875 10:-0.875 11:0.82154 12:0.333333 13:-1 14:-1 15:-0.333333 
1 1:-0.945222 2:-1 3:-0.825184 4:0.328264 5:-0.784173 6:0.741176 7:-0.953488 8:-0.882353 9:-0.875 10:-0.882353 11:0.823 12:1 13:-1 14:-1 15:-0.333333 
1 1:-1 2:-1 3:-0.818264 4:0.328264 5:-0.784173 6:0.741176 7:-0.953488 8:-0.882353 9:-0.875 10:-0.882353 11:0.823 12:0.333333 13:-1 14:-1 15:-0.333333 
1 1:-0.896591 2:-1 3:-0.818264 4:0.349554 5:-0.769784 6:0.755556 7:-0.953488 8:-0.888889 9:-0.875 10:-0.888889 11:0.768307 12:0.333333 13:-1 14:-1 15:-0.333333 
1 1:-0.943748 2:-1 3:-0.810591 4:0.377553 5:-0.755396 6:0.768421 7:-0.953488 8:-0.894737 9:-0.875 10:-0.894737 11:0.824427 12:0.333333 13:-1 14:-1 15:-0.333333 
1 1:-1 2:-1 3:-0.803972 4:0.377553 5:-0.755396 6:0.768421 7:-0.953488 8:-0.894737 9:-0.875 10:-0.894737 11:0.824427 12:0.333333 13:-1 14:-1 15:-0.333333 
1 1:-1 2:-1 3:-0.803972 4:0.308675 5:-0.755396 6:0.67 7:-0.953488 8:-0.9 9:-0.75 10:-0.8 11:0.197673 12:-0.333333 13:-1 14:-1 15:-1 
1 1:-1 2:-1 3:-0.803972 4:0.308675 5:-0.755396 6:0.67 7:-0.953488 8:-0.9 9:-0.75 10:-0.8 11:0.197673 12:-1 13:-1 14:-1 15:-1 
1 1:-1 2:-1 3:-0.803972 4:0.246357 5:-0.755396 6:0.580952 7:-0.953488 8:-0.904762 9:-0.625 10:-0.714286 11:-0.372827 12:-1 13:-1 14:-1 15:-0.333333 
1 1:-0.858276 2:-1 3:-0.942831 4:0.684503 5:-0.899281 6:1 7:-1 8:-1 9:-1 10:-1 11:0.770507 12:1 13:-1 14:-1 15:0.333333 
1 1:-0.839119 2:-1 3:-0.811644 4:0.646972 5:-0.741007 6:0.884211 7:-1 8:-1 9:-0.875 10:-0.894737 11:0.789173 12:0.333333 13:-1 14:-1 15:-0.333333 
0.02860973133821476 1:-0.911328 2:-1 3:-0.80352 4:0.658875 5:-0.726619 6:0.89 7:-1 8:-1 9:-0.875 10:-0.9 11:0.848353 12:0.333333 13:-1 14:-1 15:-0.333333 
1 1:-1 2:-1 3:-0.795096 4:0.579881 5:-0.726619 6:0.790476 7:-1 8:-1 9:-0.75 10:-0.809524 11:0.220633 12:-1 13:-1 14:-1 15:-1 
1 1:-1 2:-1 3:-0.795096 4:0.508068 5:-0.726619 6:0.7 7:-1 8:-1 9:-0.625 10:-0.727273 11:-0.371653 12:-1 13:-1 14:-1 15:-0.333333 
1 1:-0.665228 2:-1 3:-0.97623 4:-0.86026 5:-0.971223 6:1 7:-1 8:-1 9:-1 10:-1 11:-0.86026 12:0.333333 13:-1 14:-1 15:-0.333333 
1 1:-0.90396 2:1 3:-0.971717 4:-0.282133 5:-0.956835 6:1 7:-1 8:-1 9:-1 10:-1 11:-0.282133 12:1 13:-1 14:-0.333333 15:-0.333333 
1 1:-1 2:-1 3:-0.966301 4:-0.282133 5:-0.956835 6:1 7:-1 8:-1 9:-1 10:-1 11:-0.282133 12:0.333333 13:-1 14:-0.333333 15:-1 
1 1:-0.937853 2:-1 3:-0.966301 4:-0.0127 5:-0.942446 6:1 7:-1 8:-1 9:-1 10:-1 11:0.27848 12:0.333333 13:-1 14:-0.333333 15:-1 
0.2694481266044881 1:-1 2:-1 3:-0.950805 4:-0.048765 5:-0.913669 6:0.45 7:-1 8:-1 9:-0.75 10:-0.5 11:-0.405713 12:-1 13:-1 14:-1 15:-0.333333 
1 1:-0.526705 2:1 3:-0.979841 4:-0.82263 5:-0.985612 6:-0.1 7:-0.953488 9:-1 10:-1 11:-0.82263 12:-0.333333 13:-0.333333 14:-0.333333 15:0.333333 
1 1:-0.899539 2:-1 3:-0.951407 4:-0.346007 5:-0.971223 6:0.266667 7:-0.953488 8:-0.333333 9:-1 10:-1 11:-0.346007 12:0.333333 13:-0.333333 14:-0.333333 15:0.333333 
1 1:-1 2:-1 3:-0.943132 4:-0.346007 5:-0.971223 6:0.266667 7:-0.953488 8:-0.333333 9:-1 10:-1 11:-0.346007 12:0.333333 13:-1 14:-0.333333 15:-0.333333 
1 1:-0.909854 2:-1 3:-0.943132 4:-0.05572 5:-0.956835 6:0.45 7:-0.953488 8:-0.5 9:-1 10:-1 11:0.25904 12:0.333333 13:-1 14:-1 15:-1 
1 1:-1 2:-1 3:-0.934256 4:-0.05572 5:-0.956835 6:0.45 7:-0.953488 8:-0.5 9:-1 10:-1 11:0.25904 12:-0.333333 13:-1 14:-1 15:-1 
1 1:-0.90838 2:-1 3:-0.934256 4:0.12122 5:-0.942446 6:0.56 7:-0.953488 8:-0.6 9:-1 10:-1 11:0.750453 12:0.333333 13:-1 14:-1 15:-1 
1 1:-0.833224 2:1 3:-0.909583 4:0.179484 5:-0.884892 6:0.56 7:-0.953488 8:-0.8 9:-0.875 10:-0.8 11:-0.0539067 12:0.333333 13:-1 14:-0.333333 15:0.333333 
1 1:-0.902486 2:1 3:-0.878742 4:0.174078 5:-0.870504 6:0.6 7:-0.953488 8:-0.818182 9:-0.875 10:-0.818182 11:0.319433 12:1 13:-1 14:0.333333 15:1 
1 1:-1 2:-1 3:-0.851512 4:0.0762383 5:-0.870504 6:0.45 7:-0.953488 8:-0.833333 9:-0.75 10:-0.666667 11:-0.23424 12:0.333333 13:-1 14:0.333333 15:0.333333 
1 1:-0.809646 2:-1 3:-0.973823 4:0.239833 5:-0.956835 6:1 7:-1 8:-1 9:-1 10:-1 11:0.239833 12:1 13:-1 14:-1 15:0.333333 
1 1:-0.906907 2:-1 3:-0.961336 4:0.197096 5:-0.942446 6:0.56 7:-1 8:-1 9:-0.875 10:-0.6 11:0.0460133 12:0.333333 13:-1 14:-1 15:1 
1 1:-0.92017 2:-1 3:-0.914548 4:0.4741 5:-0.870504 6:0.78 7:-1 8:-1 9:-0.875 10:-0.8 11:0.766367 12:1 13:-1 14:-1 15:-0.333333 
1 1:-0.834698 2:-1 3:-0.828043 4:0.386938 5:-0.784173 6:0.741176 7:-1 8:-1 9:-0.75 10:-0.764706 11:-0.108133 12:0.333333 13:-1 14:-1 15:0.333333 
1 1:-0.926064 2:-1 3:-0.820671 4:0.414008 5:-0.769784 6:0.755556 7:-1 8:-1 9:-0.75 10:-0.777778 11:0.5166 12:0.333333 13:-1 14:-1 15:-0.333333 
1 1:-0.805225 2:-1 3:-0.812998 4:0.390967 5:-0.755396 6:0.768421 7:-1 8:-1 9:-0.75 10:-0.789474 11:0.25468 12:1 13:-1 14:-1 15:0.333333 
1 1:-0.852382 2:-1 3:-0.806078 4:0.34337 5:-0.741007 6:0.78 7:-1 8:-1 9:-0.75 10:-0.8 11:0.0964867 12:1 13:-1 14:-1 15:-0.333333 
1 1:-0.924591 2:1 3:-0.797051 4:0.36875 5:-0.726619 6:0.790476 7:-1 8:-1 9:-0.75 10:-0.809524 11:0.0972 12:1 13:-1 14:-0.333333 15:-0.333333 
1 1:-1 2:-1 3:-0.790432 4:0.36875 5:-0.726619 6:0.790476 7:-1 8:-1 9:-0.75 10:-0.809524 11:0.0972 12:0.333333 13:-1 14:-0.333333 15:-1 
1 1:-1 2:-1 3:-0.790432 4:0.36875 5:-0.726619 6:0.790476 7:-1 8:-1 9:-0.75 10:-0.809524 11:0.0972 12:-0.333333 13:-1 14:-0.333333 15:-1 
