svm_type c_svc
kernel_type rbf
gamma 0.0666667
nr_class 5
total_sv 5029
rho 1.27211 0.891371 0.0271647 1.22972 0.492277 0.0732755 1.10282 -0.222519 1.31416 0.900134
label 5 4 3 2 1
probA -1.4686 -1.94604 -2.40376 -2.73187 -1.04171 -2.12589 -2.27411 -1.59824 -1.71852 -1.19983
probB 0.0353932 0.0396355 0.156511 0.104884 0.193335 0.645783 0.436763 0.638467 0.272855 -0.0234328
nr_sv 1094 1464 1073 760 638
SV
1 1 1 1 1:-0.0359755 2:-1 3:-0.99985 4:-0.95718 5:-0.985612 6:1 7:-1 8:-1 9:-1 10:-1 11:-0.95718 12:-0.333333 13:-1 14:-1 15:-0.333333 
1 1 0 0 1:-0.883328 2:-1 3:-0.941026 4:0.113552 5:-0.928058 6:1 7:-1 8:-1 9:-1 10:-1 11:0.566767 12:0.333333 13:-1 14:-1 15:-0.333333 
1 1 0 0 1:-1 2:-1 3:-0.933805 4:0.113552 5:-0.928058 6:1 7:-1 8:-1 9:-1 10:-1 11:0.566767 12:0.333333 13:-1 14:-1 15:-0.333333 
1 1 1 1 1:-0.905433 2:-1 3:-0.918159 4:0.31791 5:-0.884892 6:1 7:-1 8:-1 9:-1 10:-1 11:0.658507 12:1 13:-1 14:-1 15:0.333333 
1 1 0 0 1:-1 2:-1 3:-0.909583 4:0.31791 5:-0.884892 6:1 7:-1 8:-1 9:-1 10:-1 11:0.658507 12:0.333333 13:-1 14:-1 15:-0.333333 
1 0 0 0 1:-1 2:-1 3:-0.909583 4:0.171476 5:-0.884892 6:0.755556 7:-1 8:-1 9:-0.875 10:-0.777778 11:0.0358733 12:-0.333333 13:-1 14:-1 15:-1 
1 1 1 1 1:-0.842066 2:-1 3:-0.978487 4:-0.51886 5:-0.985612 6:-0.1 7:-0.953488 9:-1 10:-1 11:-0.51886 12:-0.333333 13:-0.333333 14:-1 15:-0.333333 
1 1 1 1 1:-1 2:-1 3:-0.962991 4:-0.0125733 5:-0.971223 6:0.266667 7:-0.953488 8:-0.333333 9:-1 10:-1 11:-0.0125733 12:-0.333333 13:-0.333333 14:-0.333333 15:-1 
1 1 1 1 1:-0.821435 2:-1 3:-0.962991 4:0.071185 5:-0.956835 6:0.45 7:-0.953488 8:-0.5 9:-1 10:-1 11:0.107487 12:0.333333 13:-1 14:-0.333333 15:-0.333333 
1 1 0.2871668257532418 0 1:-0.946695 2:-1 3:-0.951557 4:0.225816 5:-0.942446 6:0.56 7:-0.953488 8:-0.6 9:-1 10:-1 11:0.722267 12:0.333333 13:-1 14:-1 15:-0.333333 
1 1 0 0 1:-1 2:-1 3:-0.944637 4:0.225816 5:-0.942446 6:0.56 7:-0.953488 8:-0.6 9:-1 10:-1 11:0.722267 12:0.333333 13:-1 14:-1 15:-0.333333 
1 1 1 0 1:-0.845014 2:-1 3:-0.879645 4:0.0987133 5:-0.884892 6:0.755556 7:-0.953488 8:-0.777778 9:-1 10:-1 11:0.433993 12:0.333333 13:-1 14:-1 15:-0.333333 
1 1 1 0 1:-0.842066 2:-1 3:-0.871521 4:0.172042 5:-0.870504 6:0.78 7:-0.953488 8:-0.8 9:-1 10:-1 11:0.68864 12:0.333333 13:-1 14:-1 15:-0.333333 
1 0 0 0 1:-1 2:-1 3:-0.980292 5:-0.985612 6:-0.1 7:-1 8:-1 9:-0.875 12:-0.333333 13:-1 14:-1 15:0.333333 
1 0 0 0 1:-0.878907 2:-1 3:-0.980292 4:0.0101333 5:-0.971223 6:0.266667 7:-1 8:-1 9:-0.875 10:-0.333333 11:0.0101333 12:-0.333333 13:-1 14:-1 15:0.333333 
1 0 0 0 1:-0.90838 2:-1 3:-0.971867 4:0.470067 5:-0.956835 6:1 7:-1 8:-1 9:-1 10:-1 11:0.470067 12:0.333333 13:-1 14:-1 15:-0.333333 
1 1 1 1 1:-0.933432 2:-1 3:-0.96946 4:-0.313985 5:-0.956835 6:0.45 7:-1 8:-1 9:-0.875 10:-0.5 11:-0.332813 12:0.333333 13:-1 14:-1 15:0.333333 
1 1 0 0 1:-0.937853 2:-1 3:-0.944938 4:0.180789 5:-0.913669 6:0.685714 7:-1 8:-1 9:-0.875 10:-0.714286 11:0.840487 12:0.333333 13:-1 14:-1 15:-0.333333 
1 1 0 0 1:-1 2:-1 3:-0.938017 4:0.180789 5:-0.913669 6:0.685714 7:-1 8:-1 9:-0.875 10:-0.714286 11:0.840487 12:0.333333 13:-1 14:-1 15:-0.333333 
1 1 0 0 1:-0.867118 2:-1 3:-0.938017 4:0.25645 5:-0.899281 6:0.725 7:-1 8:-1 9:-0.875 10:-0.75 11:0.807227 12:0.333333 13:-1 14:-1 15:-0.333333 
1 1 0 0 1:-0.927538 2:-1 3:-0.927637 4:0.326551 5:-0.884892 6:0.755556 7:-1 8:-1 9:-0.875 10:-0.777778 11:0.85414 12:0.333333 13:-1 14:-1 15:-0.333333 
1 1 0 0 1:-1 2:-1 3:-0.919813 4:0.326551 5:-0.884892 6:0.755556 7:-1 8:-1 9:-0.875 10:-0.777778 11:0.85414 12:0.333333 13:-1 14:-1 15:-0.333333 
1 0 0 0 1:-1 2:-1 3:-0.919813 4:0.193896 5:-0.884892 6:0.56 7:-1 8:-1 9:-0.75 10:-0.6 11:0.22448 12:-0.333333 13:-1 14:-1 15:-1 
1 1 0 0 1:-1 2:-1 3:-0.919813 4:0.193896 5:-0.884892 6:0.56 7:-1 8:-1 9:-0.75 10:-0.6 11:0.22448 12:-1 13:-1 14:-1 15:-1 
1 1 1 1 1:-1 2:-1 3:-0.878291 4:0.126897 5:-0.870504 6:0.45 7:-0.953488 8:-0.833333 9:-0.75 10:-0.666667 11:-0.472067 12:-0.333333 13:-0.333333 14:-0.333333 15:0.333333 
1 1 1 1 1:-1 2:-1 3:-0.878291 4:0.126897 5:-0.870504 6:0.45 7:-0.953488 8:-0.833333 9:-0.75 10:-0.666667 11:-0.472067 12:-0.333333 13:-1 14:-0.333333 15:-0.333333 
1 1 0.9575334955746985 1 1:-1 2:-1 3:-0.878291 4:0.0402123 5:-0.870504 6:0.323077 7:-0.953488 8:-0.846154 9:-0.625 10:-0.538462 11:-0.472067 12:-1 13:-1 14:-1 15:-0.333333 
1 0 0 0 1:-0.911328 2:-1 3:-0.975929 4:0.42124 5:-0.971223 6:1 7:-1 8:-1 9:-1 10:-1 11:0.42124 12:0.333333 13:-1 14:-1 15:-0.333333 
1 0 0 0 1:-1 2:-1 3:-0.967655 4:0.42124 5:-0.971223 6:1 7:-1 8:-1 9:-1 10:-1 11:0.42124 12:0.333333 13:-1 14:-1 15:-0.333333 
1 1 1 1 1:-0.78312 2:-1 3:-0.916955 4:-0.07164 5:-0.899281 6:0.511111 7:-0.953488 8:-0.777778 9:-0.875 10:-0.777778 11:0.146227 12:0.333333 13:-1 14:-1 15:-0.333333 
1 1 1 0 1:-0.911328 2:-1 3:-0.90176 4:0.013754 5:-0.884892 6:0.56 7:-0.953488 8:-0.8 9:-0.875 10:-0.8 11:0.537113 12:0.333333 13:-1 14:-1 15:-0.333333 
1 1 1 0 1:-1 2:-1 3:-0.893787 4:0.013754 5:-0.884892 6:0.56 7:-0.953488 8:-0.8 9:-0.875 10:-0.8 11:0.537113 12:0.333333 13:-1 14:-1 15:-0.333333 
1 1 1 0 1:-1 2:-1 3:-0.893787 4:-0.0784055 5:-0.884892 6:0.4 7:-0.953488 8:-0.818182 9:-0.75 10:-0.636364 11:-0.0486067 12:-0.333333 13:-1 14:-1 15:-1 
1 1 1 0 1:-1 2:-1 3:-0.893787 4:-0.0784055 5:-0.884892 6:0.4 7:-0.953488 8:-0.818182 9:-0.75 10:-0.636364 11:-0.0486067 12:-1 13:-1 14:-1 15:-1 
1 1 1 0 1:-0.921643 2:-1 3:-0.893787 4:-0.0597217 5:-0.870504 6:0.45 7:-0.953488 8:-0.833333 9:-0.75 10:-0.666667 11:-0.0239667 12:-0.333333 13:-1 14:-1 15:-0.333333 
1 1 1 1 1:-1 2:-1 3:-0.840229 4:-0.132051 5:-0.870504 6:0.323077 7:-0.953488 8:-0.846154 9:-0.625 10:-0.538462 11:-0.618067 12:-0.333333 13:-1 14:-1 15:-0.333333 
1 1 0 1 1:-1 2:-1 3:-0.982248 4:-0.62875 5:-0.985612 6:-0.1 7:-1 8:-1 9:-0.875 11:-0.62875 12:-0.333333 13:-1 14:-1 15:0.333333 
1 0 0 0 1:-0.90838 2:-1 3:-0.978336 4:0.23921 5:-0.971223 6:1 7:-1 8:-1 9:-1 10:-1 11:0.23921 12:0.333333 13:-1 14:-1 15:-0.333333 
1 0 0 0 1:-1 2:-1 3:-0.970513 4:0.23921 5:-0.971223 6:1 7:-1 8:-1 9:-1 10:-1 11:0.23921 12:0.333333 13:-1 14:-1 15:-0.333333 
1 1 0.8916295609260914 0 1:-0.600388 2:-1 3:-0.970513 4:0.07696 5:-0.956835 6:1 7:-1 8:-1 9:-1 10:-1 11:0.07696 12:0.333333 13:-1 14:-1 15:-0.333333 
1 0 0 0 1:-0.774278 2:-1 3:-0.99985 4:-0.72106 5:-0.985612 6:1 7:-1 8:-1 9:-1 10:-1 11:-0.72106 12:-0.333333 13:-1 14:-1 15:-0.333333 
1 1 1 0 1:-0.940801 2:-1 3:-0.847149 4:0.226822 5:-0.841727 6:0.816667 7:-1 8:-1 9:-0.875 10:-0.833333 11:0.390807 12:0.333333 13:-1 14:-1 15:-0.333333 
1 1 1 0 1:-1 2:-1 3:-0.84068 4:0.226822 5:-0.841727 6:0.816667 7:-1 8:-1 9:-0.875 10:-0.833333 11:0.390807 12:0.333333 13:-1 14:-1 15:-0.333333 
1 1 1 0 1:-0.943748 2:-1 3:-0.84068 4:0.276618 5:-0.827338 6:0.830769 7:-1 8:-1 9:-0.875 10:-0.846154 11:0.502827 12:0.333333 13:-1 14:-1 15:-1 
1 0 0 0 1:-1 2:-1 3:-0.832706 4:0.276618 5:-0.827338 6:0.830769 7:-1 8:-1 9:-0.875 10:-0.846154 11:0.502827 12:-0.333333 13:-1 14:-1 15:-1 
1 1 0 0 1:-0.931959 2:-1 3:-0.832706 4:0.319149 5:-0.81295 6:0.842857 7:-1 8:-1 9:-0.875 10:-0.857143 11:0.8725 12:0.333333 13:-1 14:-1 15:-1 
1 0 0 0 1:-1 2:-1 3:-0.824282 4:0.319149 5:-0.81295 6:0.842857 7:-1 8:-1 9:-0.875 10:-0.857143 11:0.8725 12:-0.333333 13:-1 14:-1 15:-1 
1 1 0 0 1:-0.933432 2:-1 3:-0.824282 4:0.356147 5:-0.798561 6:0.853333 7:-1 8:-1 9:-0.875 10:-0.866667 11:0.873447 12:0.333333 13:-1 14:-1 15:-1 
1 -0 0 0 1:-1 2:-1 3:-0.815706 4:0.356147 5:-0.798561 6:0.853333 7:-1 8:-1 9:-0.875 10:-0.866667 11:0.873447 12:-0.333333 13:-1 14:-1 15:-1 
1 1 0 0 1:-1 2:-1 3:-0.815706 4:0.271387 5:-0.798561 6:0.725 7:-1 8:-1 9:-0.75 10:-0.75 11:0.24872 12:-0.333333 13:-1 14:-1 15:-1 
1 1 0 0 1:-1 2:-1 3:-0.815706 4:0.271387 5:-0.798561 6:0.725 7:-1 8:-1 9:-0.75 10:-0.75 11:0.24872 12:-1 13:-1 14:-1 15:-1 
1 1 0 0 1:-0.870066 2:-1 3:-0.815706 4:0.290481 5:-0.784173 6:0.741176 7:-1 8:-1 9:-0.75 10:-0.764706 11:0.1567 12:-0.333333 13:-1 14:-1 15:-0.333333 
1 1 0 0 1:-1 2:-1 3:-0.775237 4:0.290481 5:-0.784173 6:0.741176 7:-1 8:-1 9:-0.75 10:-0.764706 11:0.1567 12:-0.333333 13:-1 14:-1 15:-0.333333 
1 1 0 0 1:-1 2:-1 3:-0.775237 4:0.290481 5:-0.784173 6:0.741176 7:-1 8:-1 9:-0.75 10:-0.764706 11:0.1567 12:-0.333333 13:-1 14:-1 15:-0.333333 
1 1 1 0 1:-0.937853 2:-1 3:-0.775237 4:0.277574 5:-0.769784 6:0.755556 7:-1 8:-1 9:-0.75 10:-0.777778 11:-0.115287 12:-0.333333 13:-1 14:-1 15:-0.333333 
1 1 1 1 1:-1 2:-1 3:-0.730104 4:0.210334 5:-0.769784 6:0.652632 7:-1 8:-1 9:-0.625 10:-0.684211 11:-0.115287 12:-0.333333 13:-1 14:-1 15:-0.333333 
1 0 0 0 1:-1 2:-1 3:-0.97969 5:-0.985612 6:-0.1 7:-1 8:-1 9:-0.875 12:-0.333333 13:-1 14:-1 15:0.333333 
1 1 0 0 1:-0.937853 2:-1 3:-0.900557 4:0.226544 5:-0.942446 6:0.56 7:-1 8:-1 9:-0.875 10:-0.6 11:0.377573 12:0.333333 13:-1 14:-1 15:-1 
1 0 0 0 1:-0.682912 2:-1 3:-0.971566 4:0.34962 5:-0.956835 6:1 7:-1 8:-1 9:-1 10:-1 11:0.34962 12:0.333333 13:-1 14:-1 15:-0.333333 
1 0 0 0 1:-0.914275 2:-1 3:-0.960132 4:0.48209 5:-0.942446 6:1 7:-1 8:-1 9:-1 10:-1 11:0.540953 12:0.333333 13:-1 14:-1 15:-0.333333 
1 0 0 0 1:-1 2:-1 3:-0.95246 4:0.48209 5:-0.942446 6:1 7:-1 8:-1 9:-1 10:-1 11:0.540953 12:0.333333 13:-1 14:-1 15:-0.333333 
0 0.8303958016560025 1 1 1:-0.248186 2:-1 3:-0.99985 4:-0.92514 5:-0.985612 6:1 7:-1 8:-1 9:-1 10:-1 11:-0.92514 12:-0.333333 13:-1 14:-1 15:-0.333333 
1 1 0 0 1:-0.912801 2:-1 3:-0.969159 4:-0.02592 5:-0.971223 6:1 7:-1 8:-1 9:-1 10:-1 11:-0.02592 12:0.333333 13:-1 14:-1 15:-0.333333 
1 1 0 0 1:-1 2:-1 3:-0.958778 4:-0.02592 5:-0.971223 6:1 7:-1 8:-1 9:-1 10:-1 11:-0.02592 12:0.333333 13:-1 14:-1 15:-0.333333 
1 0 0 0 1:-0.902486 2:-1 3:-0.958778 4:0.225167 5:-0.956835 6:1 7:-1 8:-1 9:-1 10:-1 11:0.225167 12:0.333333 13:-1 14:-1 15:-0.333333 
1 0 0 0 1:-0.929012 2:-1 3:-0.980894 4:0.42713 5:-0.971223 6:1 7:-1 8:-1 9:-1 10:-1 11:0.42713 12:0.333333 13:-1 14:-1 15:-0.333333 
1 0 0 0 1:-0.78312 2:-1 3:-0.973823 4:0.4988 5:-0.956835 6:1 7:-1 8:-1 9:-1 10:-1 11:0.4988 12:0.333333 13:-1 14:-1 15:-0.333333 
1 0 0 0 1:-0.821435 2:-1 3:-0.980743 4:0.40935 5:-0.971223 6:1 7:-1 8:-1 9:-1 10:-1 11:0.40935 12:0.333333 13:-1 14:-1 15:-0.333333 
1 0 0 0 1:-1 2:-1 3:-0.971416 4:0.40935 5:-0.971223 6:1 7:-1 8:-1 9:-1 10:-1 11:0.40935 12:0.333333 13:-1 14:-1 15:-0.333333 
1 0 1 0 1:-0.668176 2:-1 3:-0.99985 4:-1 5:-1 6:1 7:-0.953488 8:1 9:-1 10:-1 11:-1 12:-1 13:-0.333333 14:-1 15:-0.333333 
0 0 1 0 1:-0.383761 2:-1 3:-0.99985 4:-0.89366 5:-0.985612 6:1 7:-1 8:-1 9:-1 10:-1 11:-0.89366 12:-0.333333 13:-1 14:-1 15:-0.333333 
1 0 0 0 1:-0.738911 2:-1 3:-0.99985 4:-0.74308 5:-0.985612 6:1 7:-1 8:-1 9:-1 10:-1 11:-0.74308 12:-0.333333 13:-1 14:-1 15:-0.333333 
1 0 0 0 1:-0.917222 2:-1 3:-0.976531 4:0.0657 5:-0.971223 6:1 7:-1 8:-1 9:-1 10:-1 11:0.0657 12:0.333333 13:-1 14:-1 15:-0.333333 
1 0 0 0 1:-1 2:-1 3:-0.968557 4:0.0657 5:-0.971223 6:1 7:-1 8:-1 9:-1 10:-1 11:0.0657 12:0.333333 13:-1 14:-1 15:-0.333333 
1 0 0 0 1:-0.803751 2:-1 3:-0.968557 4:0.204627 5:-0.956835 6:1 7:-1 8:-1 9:-1 10:-1 11:0.204627 12:0.333333 13:-1 14:-1 15:-0.333333 
1 0 0 0 1:-0.906907 2:-1 3:-0.957725 4:0.344445 5:-0.942446 6:1 7:-1 8:-1 9:-1 10:-1 11:0.706953 12:0.333333 13:-1 14:-1 15:-0.333333 
1 0 0 0 1:-1 2:-1 3:-0.9493 4:0.344445 5:-0.942446 6:1 7:-1 8:-1 9:-1 10:-1 11:0.706953 12:0.333333 13:-1 14:-1 15:-0.333333 
1 0 0 0 1:-0.890697 2:-1 3:-0.9493 4:0.421112 5:-0.928058 6:1 7:-1 8:-1 9:-1 10:-1 11:0.658053 12:0.333333 13:-1 14:-1 15:-0.333333 
1 0 0 0 1:-0.917222 2:-1 3:-0.941327 4:0.498057 5:-0.913669 6:1 7:-1 8:-1 9:-1 10:-1 11:0.791487 12:0.333333 13:-1 14:-1 15:-0.333333 
1 0 0 0 1:-0.931959 2:-1 3:-0.921619 4:0.592877 5:-0.884892 6:1 7:-1 8:-1 9:-1 10:-1 11:0.879153 12:0.333333 13:-1 14:-1 15:-0.333333 
1 0 0 0 1:-1 2:-1 3:-0.912743 4:0.592877 5:-0.884892 6:1 7:-1 8:-1 9:-1 10:-1 11:0.879153 12:0.333333 13:-1 14:-1 15:-0.333333 
1 0 0 0 1:-1 2:-1 3:-0.912743 4:0.274302 5:-0.884892 6:0.56 7:-1 8:-1 9:-0.75 10:-0.6 11:-0.370527 12:-1 13:-1 14:-1 15:-0.333333 
1 0.241470599352918 0 0 1:-0.847961 2:-1 3:-0.99985 4:-1 5:-1 6:1 7:-0.953488 8:1 9:-1 10:-1 11:-1 12:-1 13:-0.333333 14:-1 15:-0.333333 
1 1 0 1 1:-1 2:-1 3:-0.979841 4:-0.63688 5:-0.985612 6:-0.1 7:-1 8:-1 9:-0.875 11:-0.63688 12:-0.333333 13:-1 14:-1 15:0.333333 
1 0 0 0 1:-0.873013 2:-1 3:-0.979841 4:-0.417367 5:-0.971223 6:0.266667 7:-1 8:-1 9:-0.875 10:-0.333333 11:-0.417367 12:-0.333333 13:-1 14:-1 15:0.333333 
1 1 1 0 1:-0.924591 2:-1 3:-0.958778 4:-0.092915 5:-0.956835 6:0.45 7:-1 8:-1 9:-0.875 10:-0.5 11:-0.0326333 12:0.333333 13:-1 14:-1 15:0.333333 
1 1 0 0 1:-1 2:-1 3:-0.951106 4:-0.092915 5:-0.956835 6:0.45 7:-1 8:-1 9:-0.875 10:-0.5 11:-0.0326333 12:0.333333 13:-1 14:-1 15:-0.333333 
1 1 1 0 1:-0.878907 2:-1 3:-0.951106 4:-0.168692 5:-0.942446 6:0.56 7:-1 8:-1 9:-0.875 10:-0.6 11:0.143433 12:0.333333 13:-1 14:-1 15:-0.333333 
1 0 0 0 1:-0.923117 2:-1 3:-0.960433 4:0.203887 5:-0.956835 6:1 7:-1 8:-1 9:-1 10:-1 11:0.203887 12:0.333333 13:-1 14:-1 15:-0.333333 
1 0 0 0 1:-0.793436 2:-1 3:-0.99985 4:-1 5:-1 6:1 7:-0.953488 8:1 9:-1 10:-1 11:-1 12:-1 13:-0.333333 14:-1 15:-0.333333 
1 1 0 0 1:-0.902486 2:-1 3:-0.99985 4:-1 5:-1 6:1 7:-0.953488 8:1 9:-1 10:-1 11:-1 12:-1 13:-0.333333 14:-1 15:-0.333333 
1 1 1 1 1:-0.946695 2:-1 3:-0.97623 4:-0.33744 5:-0.971223 6:0.266667 7:-0.953488 8:-0.333333 9:-1 10:-1 11:-0.33744 12:0.333333 13:-0.333333 14:-0.333333 15:0.333333 
1 1 1 1 1:-1 2:-1 3:-0.96961 4:-0.33744 5:-0.971223 6:0.266667 7:-0.953488 8:-0.333333 9:-1 10:-1 11:-0.33744 12:0.333333 13:-1 14:-0.333333 15:-0.333333 
1 1 1 1 1:-0.881855 2:-1 3:-0.96961 4:-0.1052 5:-0.956835 6:0.45 7:-0.953488 8:-0.5 9:-1 10:-1 11:0.193067 12:0.333333 13:-1 14:-1 15:-0.333333 
1 1 1 0 1:-0.946695 2:-1 3:-0.960132 4:0.084708 5:-0.942446 6:0.56 7:-0.953488 8:-0.6 9:-1 10:-1 11:0.74854 12:0.333333 13:-1 14:-1 15:-0.333333 
1 1 1 0 1:-1 2:-1 3:-0.953062 4:0.084708 5:-0.942446 6:0.56 7:-0.953488 8:-0.6 9:-1 10:-1 11:0.74854 12:0.333333 13:-1 14:-1 15:-0.333333 
1 1 1 0 1:-0.878907 2:-1 3:-0.953062 4:0.176597 5:-0.928058 6:0.633333 7:-0.953488 8:-0.666667 9:-1 10:-1 11:0.690633 12:0.333333 13:-1 14:-1 15:-0.333333 
1 1 0 0 1:-0.946695 2:-1 3:-0.94584 4:0.274137 5:-0.913669 6:0.685714 7:-0.953488 8:-0.714286 9:-1 10:-1 11:0.77992 12:0.333333 13:-1 14:-1 15:-0.333333 
1 1 0 0 1:-1 2:-1 3:-0.938468 4:0.274137 5:-0.913669 6:0.685714 7:-0.953488 8:-0.714286 9:-1 10:-1 11:0.77992 12:0.333333 13:-1 14:-1 15:-0.333333 
1 1 1 0 1:-0.895118 2:-1 3:-0.938468 4:0.11487 5:-0.913669 6:0.45 7:-0.906977 8:-0.5 9:-1 10:-1 11:0.16514 12:-0.333333 13:-0.333333 14:-1 15:-0.333333 
1 1 0 0 1:-0.889223 2:-1 3:-0.906424 4:0.16944 5:-0.870504 6:0.45 7:-0.906977 8:-0.666667 9:-0.875 10:-0.833333 11:0.188353 12:-0.333333 13:-1 14:-1 15:-0.333333 
1 1 1 0 1:-1 2:-1 3:-0.876787 4:0.16944 5:-0.870504 6:0.45 7:-0.906977 8:-0.666667 9:-0.875 10:-0.833333 11:0.188353 12:-0.333333 13:-1 14:-1 15:-0.333333 
1 1 1 1 1:-0.899539 2:-1 3:-0.876787 4:0.175488 5:-0.856115 6:0.492308 7:-0.906977 8:-0.692308 9:-0.875 10:-0.846154 11:-0.01004 12:0.333333 13:-1 14:-1 15:0.333333 
1 1 0 0 1:-0.862697 2:-1 3:-0.927336 4:0.456387 5:-0.899281 6:0.725 7:-0.953488 8:-0.75 9:-1 10:-1 11:0.172373 12:-0.333333 13:-0.333333 14:-1 15:-0.333333 
1 1 1 1 1:-0.930485 2:-1 3:-0.908229 4:0.512776 5:-0.870504 6:0.78 7:-0.953488 8:-0.8 9:-1 10:-1 11:0.158887 12:0.333333 13:-0.333333 14:-0.333333 15:0.333333 
1 1 1 1 1:-1 2:-1 3:-0.900557 4:0.512776 5:-0.870504 6:0.78 7:-0.953488 8:-0.8 9:-1 10:-1 11:0.158887 12:0.333333 13:-1 14:-0.333333 15:-0.333333 
1 1 0 0 1:-1 2:-1 3:-0.900557 4:0.375251 5:-0.870504 6:0.6 7:-0.953488 8:-0.818182 9:-0.875 10:-0.818182 11:0.158887 12:-0.333333 13:-1 14:-1 15:-1 
1 0.5814087167317619 0 0 1:-1 2:-1 3:-0.900557 4:0.375251 5:-0.870504 6:0.6 7:-0.953488 8:-0.818182 9:-0.875 10:-0.818182 11:0.158887 12:-1 13:-1 14:-1 15:-1 
1 0 0 0 1:-0.874487 2:-1 3:-0.979991 4:0.41127 5:-0.971223 6:1 7:-1 8:-1 9:-1 10:-1 11:0.41127 12:0.333333 13:-1 14:-1 15:-0.333333 
1 0 0 0 1:-1 2:-1 3:-0.971416 4:0.41127 5:-0.971223 6:1 7:-1 8:-1 9:-1 10:-1 11:0.41127 12:0.333333 13:-1 14:-1 15:-0.333333 
1 1 0 0 1:-0.404392 2:-1 3:-0.971416 4:0.23766 5:-0.956835 6:1 7:-1 8:-1 9:-1 10:-1 11:0.23766 12:0.333333 13:-1 14:-1 15:-0.333333 
1 1 0 0 1:-0.831751 2:-1 3:-0.954416 4:0.09065 5:-0.942446 6:1 7:-1 8:-1 9:-1 10:-1 11:0.13344 12:0.333333 13:-1 14:-1 15:-0.333333 
1 1 1 1 1:-0.896591 2:1 3:-0.951708 4:0.247624 5:-0.928058 6:1 7:-1 8:-1 9:-1 10:-1 11:0.138527 12:1 13:-1 14:-0.333333 15:-0.333333 
1 1 1 1 1:-1 2:-1 3:-0.943734 4:0.247624 5:-0.928058 6:1 7:-1 8:-1 9:-1 10:-1 11:0.138527 12:0.333333 13:-1 14:-0.333333 15:-1 
1 1 1 0 1:-0.868592 2:-1 3:-0.943734 4:0.32562 5:-0.913669 6:1 7:-1 8:-1 9:-1 10:-1 11:0.41358 12:0.333333 13:-1 14:-0.333333 15:-0.333333 
1 0 0 0 1:-0.858276 2:-1 3:-0.935008 4:0.402631 5:-0.899281 6:1 7:-1 8:-1 9:-1 10:-1 11:0.818607 12:0.333333 13:-1 14:-1 15:-0.333333 
1 0 0 0 1:-1 2:-1 3:-0.926583 4:0.402631 5:-0.899281 6:1 7:-1 8:-1 9:-1 10:-1 11:0.818607 12:0.333333 13:-1 14:-1 15:-0.333333 
1 0 0 0 1:-0.89217 2:-1 3:-0.926583 4:0.461868 5:-0.884892 6:1 7:-1 8:-1 9:-1 10:-1 11:0.81894 12:0.333333 13:-1 14:-1 15:-0.333333 
1 0 0 0 1:-0.899539 2:-1 3:-0.916805 4:0.508249 5:-0.870504 6:1 7:-1 8:-1 9:-1 10:-1 11:0.873507 12:0.333333 13:-1 14:-1 15:-0.333333 
1 0 0 0 1:-1 2:-1 3:-0.910787 4:0.508249 5:-0.870504 6:1 7:-1 8:-1 9:-1 10:-1 11:0.873507 12:0.333333 13:-1 14:-1 15:-0.333333 
1 0 0 0 1:-1 2:-1 3:-0.910787 4:0.357424 5:-0.870504 6:0.78 7:-1 8:-1 9:-0.875 10:-0.8 11:0.25194 12:-1 13:-1 14:-1 15:-1 
1 1 0.2704973069224166 0 1:-1 2:-1 3:-0.893335 4:0.424092 5:-0.841727 6:0.816667 7:-1 8:-1 9:-0.875 10:-0.833333 11:0.17162 12:-0.333333 13:-1 14:-0.333333 15:-0.333333 
1 0 0 0 1:-1 2:-1 3:-0.893335 4:0.314546 5:-0.841727 6:0.661538 7:-1 8:-1 9:-0.75 10:-0.692308 11:0.17162 12:-1 13:-1 14:-1 15:-0.333333 
1 0 0 0 1:-0.818488 2:-1 3:-0.99985 4:-1 5:-1 6:1 7:-0.953488 8:1 9:-1 10:-1 11:-1 12:-1 13:-0.333333 14:-1 15:-0.333333 
1 0 0 0 1:-0.940801 2:-1 3:-0.978336 4:0.17591 5:-0.971223 6:1 7:-1 8:-1 9:-1 10:-1 11:0.17591 12:0.333333 13:-1 14:-1 15:-0.333333 
1 0 0 0 1:-1 2:-1 3:-0.970663 4:0.17591 5:-0.971223 6:1 7:-1 8:-1 9:-1 10:-1 11:0.17591 12:0.333333 13:-1 14:-1 15:-0.333333 
1 0 0 0 1:-0.911328 2:-1 3:-0.970663 4:0.361667 5:-0.956835 6:1 7:-1 8:-1 9:-1 10:-1 11:0.361667 12:0.333333 13:-1 14:-1 15:-0.333333 
1 0 0 0 1:-0.943748 2:-1 3:-0.959681 4:0.493315 5:-0.942446 6:1 7:-1 8:-1 9:-1 10:-1 11:0.834453 12:0.333333 13:-1 14:-1 15:-0.333333 
1 0 0 0 1:-1 2:-1 3:-0.95261 4:0.493315 5:-0.942446 6:1 7:-1 8:-1 9:-1 10:-1 11:0.834453 12:0.333333 13:-1 14:-1 15:-0.333333 
1 0 0 0 1:-0.915749 2:-1 3:-0.95261 4:0.548984 5:-0.928058 6:1 7:-1 8:-1 9:-1 10:-1 11:0.7977 12:0.333333 13:-1 14:-1 15:-0.333333 
1 1 1 0 1:-0.850908 2:-1 3:-0.72198 4:0.246192 5:-0.741007 6:0.6 7:-0.953488 8:-0.909091 9:-0.625 10:-0.727273 11:0.32286 12:-0.333333 13:-1 14:-1 15:-0.333333 
1 1 1 0 1:-1 2:-1 3:-0.699112 4:0.246192 5:-0.741007 6:0.6 7:-0.953488 8:-0.909091 9:-0.625 10:-0.727273 11:0.32286 12:-0.333333 13:-1 14:-1 15:-0.333333 
1 1 1 0 1:-1 2:-1 3:-0.699112 4:0.246192 5:-0.741007 6:0.6 7:-0.953488 8:-0.909091 9:-0.625 10:-0.727273 11:0.32286 12:-0.333333 13:-1 14:-1 15:-0.333333 
1 1 1 1 1:-1 2:-1 3:-0.699112 4:0.19201 5:-0.741007 6:0.521739 7:-0.953488 8:-0.913043 9:-0.5 10:-0.652174 11:-0.175113 12:-1 13:-1 14:-1 15:-0.333333 
1 0 0 0 1:-0.924591 2:-1 3:-0.893636 4:0.589369 5:-0.870504 6:1 7:-1 8:-1 9:-1 10:-1 11:0.730467 12:0.333333 13:-1 14:-1 15:-0.333333 
1 0 0 0 1:-1 2:-1 3:-0.886866 4:0.589369 5:-0.870504 6:1 7:-1 8:-1 9:-1 10:-1 11:0.730467 12:0.333333 13:-1 14:-1 15:-0.333333 
1 0 0 0 1:-0.90396 2:-1 3:-0.886866 4:0.616038 5:-0.856115 6:1 7:-1 8:-1 9:-1 10:-1 11:0.734867 12:0.333333 13:-1 14:-1 15:-0.333333 
1 0 0 0 1:-0.940801 2:-1 3:-0.880096 4:0.639242 5:-0.841727 6:1 7:-1 8:-1 9:-1 10:-1 11:0.862493 12:0.333333 13:-1 14:-1 15:-0.333333 
1 0 0 0 1:-1 2:-1 3:-0.873176 4:0.639242 5:-0.841727 6:1 7:-1 8:-1 9:-1 10:-1 11:0.862493 12:0.333333 13:-1 14:-1 15:-0.333333 
0.9037646555719119 0 0 0 1:-1 2:-1 3:-0.873176 4:0.502638 5:-0.841727 6:0.816667 7:-1 8:-1 9:-0.875 10:-0.833333 11:0.242447 12:-1 13:-1 14:-1 15:-1 
1 0 0 0 1:-1 2:-1 3:-0.873176 4:0.387051 5:-0.841727 6:0.661538 7:-1 8:-1 9:-0.75 10:-0.692308 11:-0.37624 12:-1 13:-1 14:-1 15:-0.333333 
1 1 0 0 1:-1 2:-1 3:-0.982699 4:-0.49887 5:-0.985612 6:-0.1 7:-1 8:-1 9:-0.875 11:-0.49887 12:-0.333333 13:-1 14:-1 15:-0.333333 
1 1 0 0 1:-0.924591 2:-1 3:-0.982699 4:-0.0403067 5:-0.971223 6:0.266667 7:-1 8:-1 9:-0.875 10:-0.333333 11:-0.0403067 12:0.333333 13:-1 14:-1 15:-0.333333 
1 0 0 0 1:-1 2:-1 3:-0.940876 4:-0.0403067 5:-0.971223 6:0.266667 7:-1 8:-1 9:-0.875 10:-0.333333 11:-0.0403067 12:-0.333333 13:-1 14:-1 15:-1 
1 1 0 0 1:-0.878907 2:-1 3:-0.940876 4:0.14784 5:-0.956835 6:0.45 7:-1 8:-1 9:-0.875 10:-0.5 11:0.196367 12:0.333333 13:-1 14:-1 15:-0.333333 
1 0 0 0 1:-0.933432 2:-1 3:-0.932601 4:0.295336 5:-0.942446 6:0.56 7:-1 8:-1 9:-0.875 10:-0.6 11:0.824807 12:0.333333 13:-1 14:-1 15:-0.333333 
1 0 0 0 1:-1 2:-1 3:-0.919212 4:0.295336 5:-0.942446 6:0.56 7:-1 8:-1 9:-0.875 10:-0.6 11:0.824807 12:0.333333 13:-1 14:-1 15:-0.333333 
1 0 0 0 1:-0.905433 2:-1 3:-0.919212 4:0.368957 5:-0.928058 6:0.633333 7:-1 8:-1 9:-0.875 10:-0.666667 11:0.77822 12:0.333333 13:-1 14:-1 15:-0.333333 
1 0 0 0 1:-0.934906 2:-1 3:-0.912592 4:0.443131 5:-0.913669 6:0.685714 7:-1 8:-1 9:-0.875 10:-0.714286 11:0.836853 12:0.333333 13:-1 14:-1 15:-0.333333 
1 0 0 0 1:-1 2:-1 3:-0.895893 4:0.443131 5:-0.913669 6:0.685714 7:-1 8:-1 9:-0.875 10:-0.714286 11:0.836853 12:0.333333 13:-1 14:-1 15:-0.333333 
1 0 0 0 1:-0.874487 2:-1 3:-0.895893 4:0.486473 5:-0.899281 6:0.725 7:-1 8:-1 9:-0.875 10:-0.75 11:0.805033 12:0.333333 13:-1 14:-1 15:-0.333333 
1 0 0 0 1:-0.905433 2:-1 3:-0.888521 4:0.530287 5:-0.884892 6:0.755556 7:-1 8:-1 9:-0.875 10:-0.777778 11:0.852947 12:0.333333 13:-1 14:-1 15:-0.333333 
1 0 0 0 1:-1 2:-1 3:-0.880999 4:0.530287 5:-0.884892 6:0.755556 7:-1 8:-1 9:-0.875 10:-0.777778 11:0.852947 12:0.333333 13:-1 14:-1 15:-0.333333 
1 0 0 0 1:-1 2:-1 3:-0.880999 4:0.377258 5:-0.884892 6:0.56 7:-1 8:-1 9:-0.75 10:-0.6 11:0.223553 12:-0.333333 13:-1 14:-1 15:-1 
1 0 0 0 1:-1 2:-1 3:-0.880999 4:0.377258 5:-0.884892 6:0.56 7:-1 8:-1 9:-0.75 10:-0.6 11:0.223553 12:-1 13:-1 14:-1 15:-1 
1 0 0 0 1:-0.871539 2:-1 3:-0.880999 4:0.400842 5:-0.870504 6:0.6 7:-1 8:-1 9:-0.75 10:-0.636364 11:0.172493 12:-0.333333 13:-1 14:-1 15:-0.333333 
1 0 0 0 1:-1 2:-1 3:-0.8473 4:0.400842 5:-0.870504 6:0.6 7:-1 8:-1 9:-0.75 10:-0.636364 11:0.172493 12:-0.333333 13:-1 14:-1 15:-0.333333 
1 0 0 0 1:-1 2:-1 3:-0.8473 4:0.400842 5:-0.870504 6:0.6 7:-1 8:-1 9:-0.75 10:-0.636364 11:0.172493 12:-0.333333 13:-1 14:-1 15:-0.333333 
1 1 0 0 1:-1 2:-1 3:-0.8473 4:0.284105 5:-0.870504 6:0.45 7:-1 8:-1 9:-0.625 10:-0.5 11:-0.45444 12:-1 13:-1 14:-1 15:-0.333333 
1 1 0 1 1:-1 2:-1 3:-0.977584 4:-0.62875 5:-0.985612 6:-0.1 7:-1 8:-1 9:-0.875 11:-0.62875 12:-0.333333 13:-1 14:-1 15:0.333333 
1 0 0 0 1:-0.895118 2:-1 3:-0.977584 4:-0.40196 5:-0.971223 6:0.266667 7:-1 8:-1 9:-0.875 10:-0.333333 11:-0.40196 12:-0.333333 13:-1 14:-1 15:0.333333 
1 1 1 0 1:-0.940801 2:-1 3:-0.957124 4:-0.08012 5:-0.956835 6:0.45 7:-1 8:-1 9:-0.875 10:-0.5 11:-0.0209933 12:0.333333 13:-1 14:-1 15:0.333333 
1 1 0 0 1:-1 2:-1 3:-0.950354 4:-0.08012 5:-0.956835 6:0.45 7:-1 8:-1 9:-0.875 10:-0.5 11:-0.0209933 12:0.333333 13:-1 14:-1 15:-0.333333 
1 1 0 0 1:-0.912801 2:-1 3:-0.950354 4:0.083644 5:-0.942446 6:0.56 7:-1 8:-1 9:-0.875 10:-0.6 11:0.558573 12:0.333333 13:-1 14:-1 15:-0.333333 
1 1 0 0 1:-0.917222 2:-1 3:-0.942681 4:0.0581167 5:-0.928058 6:0.633333 7:-1 8:-1 9:-0.875 10:-0.666667 11:0.518193 12:0.333333 13:-1 14:-1 15:-0.333333 
1 1 1 1 1:-0.924591 2:1 3:-0.935159 4:0.17624 5:-0.913669 6:0.685714 7:-1 8:-1 9:-0.875 10:-0.714286 11:0.518053 12:1 13:-1 14:-0.333333 15:-0.333333 
1 1 1 1 1:-1 2:-1 3:-0.928238 4:0.17624 5:-0.913669 6:0.685714 7:-1 8:-1 9:-0.875 10:-0.714286 11:0.518053 12:0.333333 13:-1 14:-0.333333 15:-1 
1 1 1 1 1:-0.84354 2:-1 3:-0.928238 4:0.02921 5:-0.913669 6:0.45 7:-0.953488 8:-0.75 9:-0.875 10:-0.75 11:-0.0615133 12:-0.333333 13:-0.333333 14:-0.333333 15:-0.333333 
1 0 0 0 1:-0.914275 2:-1 3:-0.977433 4:0.25238 5:-0.971223 6:1 7:-1 8:-1 9:-1 10:-1 11:0.25238 12:0.333333 13:-1 14:-1 15:-0.333333 
1 0 0 0 1:-1 2:-1 3:-0.969009 4:0.25238 5:-0.971223 6:1 7:-1 8:-1 9:-1 10:-1 11:0.25238 12:0.333333 13:-1 14:-1 15:-0.333333 
1 1 1 0 1:-0.884802 2:-1 3:-0.814503 4:0.309889 5:-0.726619 6:0.790476 7:-1 8:-1 9:-0.75 10:-0.809524 11:0.0735733 12:-0.333333 13:-1 14:-1 15:-0.333333 
1 0 0 0 1:-0.828803 2:-1 3:-0.99985 4:-1 5:-1 6:1 7:-0.953488 8:1 9:-1 10:-1 11:-1 12:-1 13:-0.333333 14:-1 15:-0.333333 
1 0 0 0 1:-0.849434 2:-1 3:-0.975177 4:0.47076 5:-0.956835 6:1 7:-1 8:-1 9:-1 10:-1 11:0.47076 12:0.333333 13:-1 14:-1 15:-0.333333 
1 1 0 0 1:-1 2:-1 3:-0.901309 4:0.334388 5:-0.884892 6:0.56 7:-0.953488 8:-0.8 9:-0.875 10:-0.8 11:0.197647 12:-1 13:-1 14:-1 15:-1 
1 1 1 1 1:-1 2:-1 3:-0.86776 4:0.231462 5:-0.870504 6:0.45 7:-0.906977 8:-0.666667 9:-0.875 10:-0.833333 11:-0.522113 12:-0.333333 13:-1 14:-0.333333 15:-0.333333 
1 1 1 1 1:-1 2:-1 3:-0.86776 4:0.136734 5:-0.870504 6:0.323077 7:-0.906977 8:-0.692308 9:-0.75 10:-0.692308 11:-0.522113 12:-1 13:-1 14:-1 15:-0.333333 
1 1 1 1 1:-0.945222 2:-1 3:-0.940424 4:-0.023676 5:-0.942446 6:0.56 7:-0.953488 8:-0.6 9:-1 10:-1 11:0.344 12:0.333333 13:-1 14:-0.333333 15:-1 
1 1 1 0 1:-1 2:-1 3:-0.919362 4:-0.023676 5:-0.942446 6:0.56 7:-0.953488 8:-0.6 9:-1 10:-1 11:0.344 12:-0.333333 13:-1 14:-1 15:-1 
1 1 1 0 1:-0.90396 2:-1 3:-0.919362 4:0.0474333 5:-0.928058 6:0.633333 7:-0.953488 8:-0.666667 9:-1 10:-1 11:0.69222 12:0.333333 13:-1 14:-1 15:-0.333333 
1 1 1 0 1:-0.939327 2:-1 3:-0.911689 4:0.144554 5:-0.913669 6:0.685714 7:-0.953488 8:-0.714286 9:-1 10:-1 11:0.65808 12:0.333333 13:-1 14:-1 15:-0.333333 
1 1 1 0 1:-1 2:-1 3:-0.903866 4:0.144554 5:-0.913669 6:0.685714 7:-0.953488 8:-0.714286 9:-1 10:-1 11:0.65808 12:0.333333 13:-1 14:-1 15:-0.333333 
1 1 1 0 1:-0.901012 2:-1 3:-0.903866 4:0.220883 5:-0.899281 6:0.725 7:-0.953488 8:-0.75 9:-1 10:-1 11:0.62848 12:0.333333 13:-1 14:-1 15:-0.333333 
1 1 1 0 1:-0.939327 2:-1 3:-0.894088 4:0.29248 5:-0.884892 6:0.755556 7:-0.953488 8:-0.777778 9:-1 10:-1 11:0.782573 12:0.333333 13:-1 14:-1 15:-0.333333 
1 1 1 0 1:-1 2:-1 3:-0.885964 4:0.29248 5:-0.884892 6:0.755556 7:-0.953488 8:-0.777778 9:-1 10:-1 11:0.782573 12:0.333333 13:-1 14:-1 15:-0.333333 
1 1 0 0 1:-1 2:-1 3:-0.885964 4:0.163232 5:-0.884892 6:0.56 7:-0.953488 8:-0.8 9:-0.875 10:-0.8 11:0.206813 12:-0.333333 13:-1 14:-1 15:-1 
1 1 0 0 1:-1 2:-1 3:-0.885964 4:0.163232 5:-0.884892 6:0.56 7:-0.953488 8:-0.8 9:-0.875 10:-0.8 11:0.206813 12:-1 13:-1 14:-1 15:-1 
1 1 1 1 1:-1 2:-1 3:-0.828945 4:0.112292 5:-0.870504 6:0.45 7:-0.906977 8:-0.666667 9:-0.875 10:-0.833333 11:-0.428273 12:-0.333333 13:-1 14:-0.333333 15:-0.333333 
1 1 1 1 1:-1 2:-1 3:-0.828945 4:0.0267308 5:-0.870504 6:0.323077 7:-0.906977 8:-0.692308 9:-0.75 10:-0.692308 11:-0.428273 12:-1 13:-1 14:-1 15:-0.333333 
1 1 0 0 1:-0.929012 2:-1 3:-0.977283 4:-0.00305 5:-0.971223 6:1 7:-1 8:-1 9:-1 10:-1 11:-0.00305 12:0.333333 13:-1 14:-1 15:-0.333333 
1 1 0 0 1:-1 2:-1 3:-0.96946 4:-0.00305 5:-0.971223 6:1 7:-1 8:-1 9:-1 10:-1 11:-0.00305 12:0.333333 13:-1 14:-1 15:-0.333333 
1 0 0 0 1:-0.911328 2:-1 3:-0.96946 4:0.29012 5:-0.956835 6:1 7:-1 8:-1 9:-1 10:-1 11:0.29012 12:0.333333 13:-1 14:-1 15:-1 
1 1 1 1 1:-0.934906 2:-1 3:-0.950955 4:0.50229 5:-0.913669 6:1 7:-1 8:-1 9:-1 10:-1 11:0.71446 12:1 13:-1 14:-0.333333 15:0.333333 
1 1 1 0 1:-1 2:-1 3:-0.942982 4:0.50229 5:-0.913669 6:1 7:-1 8:-1 9:-1 10:-1 11:0.71446 12:0.333333 13:-1 14:-0.333333 15:-0.333333 
1 1 1 1 1:-0.873013 2:1 3:-0.936964 4:0.347718 5:-0.884892 6:0.755556 7:-1 8:-1 9:-0.875 10:-0.777778 11:0.0385733 12:0.333333 13:-1 14:-0.333333 15:0.333333 
1 1 1 1 1:-1 2:-1 3:-0.904468 4:0.347718 5:-0.884892 6:0.755556 7:-1 8:-1 9:-0.875 10:-0.777778 11:0.0385733 12:0.333333 13:-1 14:-0.333333 15:0.333333 
1 1 0 0 1:-1 2:-1 3:-0.904468 4:0.347718 5:-0.884892 6:0.755556 7:-1 8:-1 9:-0.875 10:-0.777778 11:0.0385733 12:-0.333333 13:-1 14:-0.333333 15:-0.333333 
1 0 0 0 1:-0.934906 2:-1 3:-0.977433 4:0.43813 5:-0.971223 6:1 7:-1 8:-1 9:-1 10:-1 11:0.43813 12:0.333333 13:-1 14:-1 15:-0.333333 
1 0 0 0 1:-0.884802 2:-1 3:-0.970513 4:0.479527 5:-0.956835 6:1 7:-1 8:-1 9:-1 10:-1 11:0.479527 12:0.333333 13:-1 14:-1 15:-0.333333 
1 1 1 0 1:-0.895118 2:-1 3:-0.980141 4:-0.17746 5:-0.971223 6:1 7:-1 8:-1 9:-1 10:-1 11:-0.17746 12:0.333333 13:-1 14:-1 15:-0.333333 
1 1 1 1 1:-0.939327 2:1 3:-0.978336 4:0.176647 5:-0.956835 6:1 7:-1 8:-1 9:-1 10:-1 11:0.176647 12:1 13:-1 14:-0.333333 15:-0.333333 
1 1 1 0 1:-1 2:-1 3:-0.971416 4:0.176647 5:-0.956835 6:1 7:-1 8:-1 9:-1 10:-1 11:0.176647 12:0.333333 13:-1 14:-0.333333 15:-1 
1 1 1 0 1:-0.934906 2:-1 3:-0.971416 4:0.35395 5:-0.942446 6:1 7:-1 8:-1 9:-1 10:-1 11:0.467013 12:0.333333 13:-1 14:-0.333333 15:-1 
1 1 1 0 1:-0.917222 2:-1 3:-0.962991 4:0.08316 5:-0.942446 6:0.56 7:-0.953488 8:-0.6 9:-1 10:-1 11:0.256907 12:-0.333333 13:-0.333333 14:-1 15:-0.333333 
1 1 0 0 1:-0.90396 2:-1 3:-0.941929 4:0.315065 5:-0.899281 6:0.725 7:-0.953488 8:-0.75 9:-1 10:-1 11:0.701573 12:0.333333 13:-1 14:-1 15:-0.333333 
1 1 0 0 1:-0.921643 2:-1 3:-0.934256 4:0.37552 5:-0.884892 6:0.755556 7:-0.953488 8:-0.777778 9:-1 10:-1 11:0.84954 12:0.333333 13:-1 14:-1 15:-0.333333 
1 1 0 0 1:-1 2:-1 3:-0.926283 4:0.37552 5:-0.884892 6:0.755556 7:-0.953488 8:-0.777778 9:-1 10:-1 11:0.84954 12:0.333333 13:-1 14:-1 15:-0.333333 
1 1 0 0 1:-1 2:-1 3:-0.926283 4:0.237968 5:-0.884892 6:0.56 7:-0.953488 8:-0.8 9:-0.875 10:-0.8 11:0.23598 12:-0.333333 13:-1 14:-1 15:-1 
1 1 0 0 1:-1 2:-1 3:-0.926283 4:0.237968 5:-0.884892 6:0.56 7:-0.953488 8:-0.8 9:-0.875 10:-0.8 11:0.23598 12:-1 13:-1 14:-1 15:-1 
1 0 0 0 1:-0.921643 2:-1 3:-0.926283 4:0.247036 5:-0.870504 6:0.6 7:-0.953488 8:-0.818182 9:-0.875 10:-0.818182 11:0.0656267 12:-0.333333 13:-1 14:-1 15:-0.333333 
1 1 1 1 1:-1 2:-1 3:-0.878742 4:0.143117 5:-0.870504 6:0.45 7:-0.953488 8:-0.833333 9:-0.75 10:-0.666667 11:-0.554093 12:-0.333333 13:-1 14:-1 15:-0.333333 
1 0 0 0 1:-1 2:-1 3:-0.973823 4:-0.47197 5:-0.985612 6:-0.1 7:-1 8:-1 9:-0.875 11:-0.47197 12:-0.333333 13:-1 14:-1 15:0.333333 
1 0 0 0 1:-1 2:-1 3:-0.893636 4:0.448737 5:-0.841727 6:0.661538 7:-1 8:-1 9:-0.75 10:-0.692308 11:-0.38022 12:-1 13:-1 14:-1 15:-0.333333 
1 1 0 1 1:-1 2:-1 3:-0.985557 4:-0.63573 5:-0.985612 6:-0.1 7:-1 8:-1 9:-0.875 11:-0.63573 12:-0.333333 13:-1 14:-1 15:0.333333 
1 1 0 0.03966747625754952 1:-0.828803 2:-1 3:-0.985557 4:-0.588427 5:-0.971223 6:0.266667 7:-1 8:-1 9:-0.875 10:-0.333333 11:-0.588427 12:-0.333333 13:-1 14:-1 15:0.333333 
1 1 1 1 1:-0.93638 2:-1 3:-0.960132 4:-0.243535 5:-0.956835 6:0.45 7:-1 8:-1 9:-0.875 10:-0.5 11:-0.234227 12:0.333333 13:-1 14:-1 15:0.333333 
1 1 1 0.4813187923586841 1:-1 2:-1 3:-0.953062 4:-0.243535 5:-0.956835 6:0.45 7:-1 8:-1 9:-0.875 10:-0.5 11:-0.234227 12:0.333333 13:-1 14:-1 15:-0.333333 
1 0 0 0 1:-0.909854 2:-1 3:-0.981796 4:0.27191 5:-0.971223 6:1 7:-1 8:-1 9:-1 10:-1 11:0.27191 12:0.333333 13:-1 14:-1 15:-0.333333 
1 1 0 0 1:-0.942274 2:-1 3:-0.962088 4:0.57896 5:-0.942446 6:1 7:-1 8:-1 9:-1 10:-1 11:0.661133 12:0.333333 13:-1 14:-0.333333 15:-1 
1 0 0 0 1:-1 2:-1 3:-0.876185 4:0.375122 5:-0.870504 6:0.6 7:-1 8:-1 9:-0.75 10:-0.636364 11:-0.46388 12:-1 13:-1 14:-1 15:-0.333333 
1 0 0 0 1:-0.759542 2:-1 3:-0.99985 4:-0.73052 5:-0.985612 6:1 7:-1 8:-1 9:-1 10:-1 11:-0.73052 12:-0.333333 13:-1 14:-1 15:-0.333333 
1 1 0 1 1:-0.931959 2:-1 3:-0.99985 4:-1 5:-1 6:1 7:-0.953488 8:1 9:-1 10:-1 11:-1 12:-1 13:-0.333333 14:-1 15:-0.333333 
1 1 1 1 1:-0.883328 2:-1 3:-0.977433 4:-0.364473 5:-0.971223 6:0.266667 7:-0.953488 8:-0.333333 9:-1 10:-1 11:-0.364473 12:0.333333 13:-0.333333 14:-0.333333 15:0.333333 
1 1 1 1 1:-1 2:-1 3:-0.968708 4:-0.364473 5:-0.971223 6:0.266667 7:-0.953488 8:-0.333333 9:-1 10:-1 11:-0.364473 12:0.333333 13:-1 14:-0.333333 15:-0.333333 
1 1 1 1 1:-0.73449 2:-1 3:-0.968708 4:-0.161795 5:-0.956835 6:0.45 7:-0.953488 8:-0.5 9:-1 10:-1 11:0.117607 12:0.333333 13:-1 14:-1 15:-0.333333 
1 1 1 0 1:-0.802278 2:-1 3:-0.957424 4:0.026228 5:-0.942446 6:0.56 7:-0.953488 8:-0.6 9:-1 10:-1 11:0.66766 12:0.333333 13:-1 14:-1 15:-0.333333 
1 1 1 0 1:-1 2:-1 3:-0.947946 4:0.026228 5:-0.942446 6:0.56 7:-0.953488 8:-0.6 9:-1 10:-1 11:0.66766 12:0.333333 13:-1 14:-1 15:-0.333333 
1 1 1 0 1:-0.909854 2:-1 3:-0.947946 4:0.0900633 5:-0.928058 6:0.633333 7:-0.953488 8:-0.666667 9:-1 10:-1 11:0.5446 12:0.333333 13:-1 14:-1 15:-0.333333 
1 1 1 1 1:-0.874487 2:1 3:-0.977885 4:-0.0801 5:-0.971223 6:1 7:-1 8:-1 9:-1 10:-1 11:-0.0801 12:0.333333 13:-1 14:-0.333333 15:0.333333 
1 1 1 1 1:-0.873013 2:-1 3:-0.96269 4:0.20408 5:-0.956835 6:1 7:-1 8:-1 9:-1 10:-1 11:0.20408 12:1 13:-1 14:-0.333333 15:0.333333 
1 1 1 0 1:-1 2:-1 3:-0.954416 4:0.20408 5:-0.956835 6:1 7:-1 8:-1 9:-1 10:-1 11:0.20408 12:0.333333 13:-1 14:-0.333333 15:-0.333333 
1 1 0 1 1:-1 2:-1 3:-0.985106 4:-0.63399 5:-0.985612 6:-0.1 7:-1 8:-1 9:-0.875 11:-0.63399 12:-0.333333 13:-1 14:-1 15:0.333333 
1 0 0 0 1:-0.858276 2:-1 3:-0.985106 4:-0.422107 5:-0.971223 6:0.266667 7:-1 8:-1 9:-0.875 10:-0.333333 11:-0.422107 12:-0.333333 13:-1 14:-1 15:0.333333 
1 1 1 0 1:-0.90838 2:-1 3:-0.980593 4:-0.097685 5:-0.956835 6:0.45 7:-1 8:-1 9:-0.875 10:-0.5 11:-0.04092 12:0.333333 13:-1 14:-1 15:0.333333 
1 1 0 0 1:-1 2:-1 3:-0.97277 4:-0.097685 5:-0.956835 6:0.45 7:-1 8:-1 9:-0.875 10:-0.5 11:-0.04092 12:0.333333 13:-1 14:-1 15:-0.333333 
1 1 0 0 1:-0.896591 2:-1 3:-0.97277 4:0.067516 5:-0.942446 6:0.56 7:-1 8:-1 9:-0.875 10:-0.6 11:0.535187 12:0.333333 13:-1 14:-1 15:-0.333333 
1 1 0 0 1:-0.906907 2:-1 3:-0.964646 4:0.20271 5:-0.928058 6:0.633333 7:-1 8:-1 9:-0.875 10:-0.666667 11:0.827527 12:0.333333 13:-1 14:-1 15:-0.333333 
1 1 0 0 1:-1 2:-1 3:-0.956823 4:0.20271 5:-0.928058 6:0.633333 7:-1 8:-1 9:-0.875 10:-0.666667 11:0.827527 12:0.333333 13:-1 14:-1 15:-0.333333 
1 0 0 0 1:-0.90838 2:-1 3:-0.956823 4:0.279583 5:-0.913669 6:0.685714 7:-1 8:-1 9:-0.875 10:-0.714286 11:0.782607 12:0.333333 13:-1 14:-1 15:-0.333333 
1 0 0 0 1:-0.90396 2:-1 3:-0.94915 4:0.35459 5:-0.899281 6:0.725 7:-1 8:-1 9:-0.875 10:-0.75 11:0.833047 12:0.333333 13:-1 14:-1 15:-0.333333 
1 0 0 0 1:-1 2:-1 3:-0.941778 4:0.35459 5:-0.899281 6:0.725 7:-1 8:-1 9:-0.875 10:-0.75 11:0.833047 12:0.333333 13:-1 14:-1 15:-0.333333 
1 1 1 0 1:-0.862697 2:-1 3:-0.941778 4:0.20408 5:-0.899281 6:0.511111 7:-0.953488 8:-0.777778 9:-0.875 10:-0.777778 11:0.20682 12:-0.333333 13:-0.333333 14:-1 15:-0.333333 
1 1 1 1 1:-0.915749 2:1 3:-0.932752 4:0.26939 5:-0.884892 6:0.56 7:-0.953488 8:-0.8 9:-0.875 10:-0.8 11:0.245607 12:-0.333333 13:-0.333333 14:-0.333333 15:0.333333 
1 1 1 1 1:-0.890697 2:-1 3:-0.927185 4:0.322291 5:-0.870504 6:0.6 7:-0.953488 8:-0.818182 9:-0.875 10:-0.818182 11:0.23616 12:0.333333 13:-0.333333 14:-0.333333 15:0.333333 
1 1 1 1 1:-1 2:-1 3:-0.921017 4:0.322291 5:-0.870504 6:0.6 7:-0.953488 8:-0.818182 9:-0.875 10:-0.818182 11:0.23616 12:0.333333 13:-1 14:-0.333333 15:-0.333333 
1 1 0 0 1:-1 2:-1 3:-0.921017 4:0.2121 5:-0.870504 6:0.45 7:-0.953488 8:-0.833333 9:-0.75 10:-0.666667 11:0.23616 12:-0.333333 13:-1 14:-1 15:-1 
1 1 0 0 1:-1 2:-1 3:-0.921017 4:0.2121 5:-0.870504 6:0.45 7:-0.953488 8:-0.833333 9:-0.75 10:-0.666667 11:0.23616 12:-1 13:-1 14:-1 15:-1 
1 1 0 0 1:-0.868592 2:-1 3:-0.921017 4:0.248025 5:-0.856115 6:0.492308 7:-0.953488 8:-0.846154 9:-0.75 10:-0.692308 11:0.176807 12:-0.333333 13:-1 14:-1 15:-0.333333 
1 1 1 1 1:-0.828803 2:1 3:-0.917557 4:0.242127 5:-0.841727 6:0.528571 7:-0.953488 8:-0.857143 9:-0.75 10:-0.714286 11:-0.0518067 12:0.333333 13:-1 14:-0.333333 15:0.333333 
1 1 1 1 1:-1 2:-1 3:-0.88461 4:0.242127 5:-0.841727 6:0.528571 7:-0.953488 8:-0.857143 9:-0.75 10:-0.714286 11:-0.0518067 12:0.333333 13:-1 14:-0.333333 15:0.333333 
1 1 1 1 1:-1 2:-1 3:-0.88461 4:0.242127 5:-0.841727 6:0.528571 7:-0.953488 8:-0.857143 9:-0.75 10:-0.714286 11:-0.0518067 12:-0.333333 13:-1 14:-0.333333 15:-0.333333 
1 1 0 0 1:-1 2:-1 3:-0.88461 4:0.159319 5:-0.841727 6:0.413333 7:-0.953488 8:-0.866667 9:-0.625 10:-0.6 11:-0.0518067 12:-1 13:-1 14:-1 15:-0.333333 
1 1 0 0 1:-0.898065 2:-1 3:-0.99985 4:-1 5:-1 6:1 7:-0.953488 8:1 9:-1 10:-1 11:-1 12:-1 13:-0.333333 14:-1 15:-0.333333 
1 1 1 1 1:-0.814067 2:1 3:-0.959531 4:-0.64771 5:-0.985612 6:-0.1 7:-0.953488 9:-1 10:-1 11:-0.64771 12:-0.333333 13:-0.333333 14:-0.333333 15:0.333333 
1 1 1 1 1:-0.939327 2:-1 3:-0.925079 4:-0.10897 5:-0.956835 6:0.45 7:-0.953488 8:-0.5 9:-1 10:-1 11:0.18804 12:0.333333 13:-1 14:-1 15:-0.333333 
1 1 1 1 1:-1 2:-1 3:-0.918008 4:-0.10897 5:-0.956835 6:0.45 7:-0.953488 8:-0.5 9:-1 10:-1 11:0.18804 12:0.333333 13:-1 14:-1 15:-0.333333 
1 1 1 0 1:-0.945222 2:-1 3:-0.918008 4:0.005492 5:-0.942446 6:0.56 7:-0.953488 8:-0.6 9:-1 10:-1 11:0.44096 12:0.333333 13:-1 14:-1 15:-0.333333 
1 1 1 1 1:-0.905433 2:-1 3:-0.983 4:-0.333333 5:-0.985612 6:-0.466667 7:-0.953488 8:-0.333333 9:-0.875 10:-0.333333 11:-0.333333 12:-1 13:-0.333333 14:-1 15:0.333333 
1 1 1 1 1:-0.367551 2:1 3:-0.923274 4:-0.469965 5:-0.971223 6:-0.1 7:-0.953488 8:-0.5 9:-0.875 10:-0.5 11:-0.959953 12:-0.333333 13:-0.333333 14:-0.333333 15:1 
1 1 1 1 1:-0.927538 2:-1 3:-0.890176 4:-0.2113 5:-0.956835 6:0.12 7:-0.953488 8:-0.6 9:-0.875 10:-0.6 11:-0.352167 12:0.333333 13:-0.333333 14:-0.333333 15:0.333333 
1 1 1 1 1:-1 2:-1 3:-0.882955 4:-0.2113 5:-0.956835 6:0.12 7:-0.953488 8:-0.6 9:-0.875 10:-0.6 11:-0.352167 12:0.333333 13:-1 14:-0.333333 15:-0.333333 
1 1 1 1 1:-0.865645 2:-1 3:-0.882955 4:-0.132877 5:-0.942446 6:0.266667 7:-0.953488 8:-0.666667 9:-0.875 10:-0.666667 11:0.06758 12:0.333333 13:-1 14:-1 15:-1 
1 1 1 0 1:-1 2:-1 3:-0.87122 4:-0.132877 5:-0.942446 6:0.266667 7:-0.953488 8:-0.666667 9:-0.875 10:-0.666667 11:0.06758 12:-0.333333 13:-1 14:-1 15:-1 
1 1 1 0 1:-0.921643 2:-1 3:-0.87122 4:0.00662571 5:-0.928058 6:0.371429 7:-0.953488 8:-0.714286 9:-0.875 10:-0.714286 11:0.64208 12:0.333333 13:-1 14:-1 15:-1 
1 1 0 0 1:-1 2:-1 3:-0.862344 4:0.00662571 5:-0.928058 6:0.371429 7:-0.953488 8:-0.714286 9:-0.875 10:-0.714286 11:0.64208 12:-0.333333 13:-1 14:-1 15:-1 
1 1 1 0 1:-0.89217 2:-1 3:-0.862344 4:0.0882775 5:-0.913669 6:0.45 7:-0.953488 8:-0.75 9:-0.875 10:-0.75 11:0.587573 12:0.333333 13:-1 14:-1 15:-0.333333 
1 1 1 0 1:-0.915749 2:-1 3:-0.85407 4:0.173276 5:-0.899281 6:0.511111 7:-0.953488 8:-0.777778 9:-0.875 10:-0.777778 11:0.78558 12:0.333333 13:-1 14:-1 15:-0.333333 
1 1 1 0 1:-1 2:-1 3:-0.8473 4:0.173276 5:-0.899281 6:0.511111 7:-0.953488 8:-0.777778 9:-0.875 10:-0.777778 11:0.78558 12:0.333333 13:-1 14:-1 15:-0.333333 
1 1 1 0 1:-1 2:-1 3:-0.8473 4:0.055948 5:-0.899281 6:0.34 7:-0.953488 8:-0.8 9:-0.75 10:-0.6 11:0.171033 12:-0.333333 13:-1 14:-1 15:-1 
1 1 0 0 1:-1 2:-1 3:-0.8473 4:0.055948 5:-0.899281 6:0.34 7:-0.953488 8:-0.8 9:-0.75 10:-0.6 11:0.171033 12:-1 13:-1 14:-1 15:-1 
1 1 0 0 1:-0.873013 2:-1 3:-0.8473 4:0.118556 5:-0.884892 6:0.4 7:-0.953488 8:-0.818182 9:-0.75 10:-0.636364 11:0.1993 12:-0.333333 13:-1 14:-1 15:-0.333333 
1 1 0 0 1:-1 2:-1 3:-0.79645 4:0.118556 5:-0.884892 6:0.4 7:-0.953488 8:-0.818182 9:-0.75 10:-0.636364 11:0.1993 12:-0.333333 13:-1 14:-1 15:-0.333333 
1 1 1 1 1:-0.619545 2:-1 3:-0.79645 4:0.082765 5:-0.870504 6:0.45 7:-0.953488 8:-0.833333 9:-0.75 10:-0.666667 11:-0.188767 12:0.333333 13:-1 14:-1 15:0.333333 
1 1 1 1 1:-0.812593 2:-1 3:-0.781556 4:0.01632 5:-0.856115 6:0.492308 7:-0.953488 8:-0.846154 9:-0.75 10:-0.692308 11:-0.115773 12:0.333333 13:-1 14:-1 15:-0.333333 
1 1 1 1 1:-0.905433 2:-1 3:-0.73552 4:0.266647 5:-0.769784 6:0.652632 7:-0.953488 8:-0.894737 9:-0.75 10:-0.789474 11:0.751207 12:1 13:-1 14:-0.333333 15:0.333333 
1 1 1 1 1:-1 2:-1 3:-0.727847 4:0.266647 5:-0.769784 6:0.652632 7:-0.953488 8:-0.894737 9:-0.75 10:-0.789474 11:0.751207 12:0.333333 13:-1 14:-0.333333 15:-0.333333 
1 1 1 1 1:-1 2:-1 3:-0.727847 4:0.203315 5:-0.769784 6:0.56 7:-0.953488 8:-0.9 9:-0.625 10:-0.7 11:0.210073 12:-0.333333 13:-1 14:-1 15:-1 
1 1 1 0 1:-1 2:-1 3:-0.727847 4:0.203315 5:-0.769784 6:0.56 7:-0.953488 8:-0.9 9:-0.625 10:-0.7 11:0.210073 12:-1 13:-1 14:-1 15:-1 
1 1 1 1 1:-0.867118 2:-1 3:-0.727847 4:0.219152 5:-0.755396 6:0.580952 7:-0.953488 8:-0.904762 9:-0.625 10:-0.714286 11:0.13484 12:-0.333333 13:-1 14:-1 15:-0.333333 
1 1 1 1 1:-0.90838 2:-1 3:-0.592899 4:0.172202 5:-0.697842 6:0.511111 7:-0.860465 8:-0.777778 9:-0.625 10:-0.777778 11:0.22498 12:0.333333 13:-1 14:-0.333333 15:-1 
1 1 1 1 1:-1 2:-1 3:-0.584474 4:0.172202 5:-0.697842 6:0.511111 7:-0.860465 8:-0.777778 9:-0.625 10:-0.777778 11:0.22498 12:-0.333333 13:-1 14:-1 15:-1 
1 1 1 1 1:-0.755121 2:-1 3:-0.584474 4:0.188778 5:-0.683453 6:0.528571 7:-0.860465 8:-0.785714 9:-0.625 10:-0.785714 11:0.77042 12:0.333333 13:-1 14:-1 15:-0.333333 
1 1 1 1 1:-0.89217 2:-1 3:-0.573191 4:0.171432 5:-0.669065 6:0.544828 7:-0.860465 8:-0.793103 9:-0.625 10:-0.793103 11:0.386907 12:0.333333 13:-1 14:-1 15:-0.333333 
1 1 1 1 1:-1 2:-1 3:-0.554686 4:0.133036 5:-0.640288 6:0.466667 7:-0.813953 8:-0.757576 9:-0.5 10:-0.757576 11:-0.432527 12:-1 13:-1 14:-1 15:-1 
1 1 1 1 1:-0.911328 2:-1 3:-0.482323 4:0.172536 5:-0.582734 6:0.524324 7:-0.813953 8:-0.783784 9:-0.5 10:-0.783784 11:0.427247 12:0.333333 13:-1 14:-1 15:-1 
1 1 1 1 1:-1 2:-1 3:-0.473597 4:0.172536 5:-0.582734 6:0.524324 7:-0.813953 8:-0.783784 9:-0.5 10:-0.783784 11:0.427247 12:-0.333333 13:-1 14:-1 15:-1 
1 1 1 1 1:-0.931959 2:-1 3:-0.980894 4:-0.34105 5:-0.985612 6:-0.1 7:-0.953488 9:-1 10:-1 11:-0.34105 12:-0.333333 13:-0.333333 14:-1 15:-0.333333 
1 1 1 1 1:-0.836172 2:-1 3:-0.978637 4:-0.40704 5:-0.971223 6:1 7:-1 8:-1 9:-1 10:-1 11:-0.40704 12:0.333333 13:-1 14:-1 15:-0.333333 
1 1 1 1 1:-0.927538 2:1 3:-0.975779 4:0.0224933 5:-0.956835 6:1 7:-1 8:-1 9:-1 10:-1 11:0.0224933 12:1 13:-1 14:-0.333333 15:-0.333333 
1 1 1 1 1:-1 2:-1 3:-0.969309 4:0.0224933 5:-0.956835 6:1 7:-1 8:-1 9:-1 10:-1 11:0.0224933 12:0.333333 13:-1 14:-0.333333 15:-1 
1 1 1 0 1:-0.942274 2:-1 3:-0.949902 4:0.454507 5:-0.913669 6:1 7:-1 8:-1 9:-1 10:-1 11:0.88652 12:0.333333 13:-1 14:-0.333333 15:-1 
1 0 0 0 1:-0.931959 2:-1 3:-0.94238 4:0.516414 5:-0.899281 6:1 7:-1 8:-1 9:-1 10:-1 11:0.8871 12:0.333333 13:-1 14:-1 15:-0.333333 
1 0 0 0 1:-0.942274 2:-1 3:-0.932752 4:0.55236 5:-0.884892 6:1 7:-1 8:-1 9:-1 10:-1 11:0.860707 12:0.333333 13:-1 14:-1 15:-0.333333 
1 0 0 0 1:-1 2:-1 3:-0.928238 4:0.55236 5:-0.884892 6:1 7:-1 8:-1 9:-1 10:-1 11:0.860707 12:0.333333 13:-1 14:-1 15:-0.333333 
1 1 1 1 1:-0.847961 2:1 3:-0.923725 4:0.430135 5:-0.856115 6:0.8 7:-1 8:-1 9:-0.875 10:-0.818182 11:0.1042 12:0.333333 13:-1 14:-0.333333 15:0.333333 
1 1 1 1 1:-1 2:-1 3:-0.891831 4:0.430135 5:-0.856115 6:0.8 7:-1 8:-1 9:-0.875 10:-0.818182 11:0.1042 12:0.333333 13:-1 14:-0.333333 15:0.333333 
1 1 0 0 1:-1 2:-1 3:-0.891831 4:0.430135 5:-0.856115 6:0.8 7:-1 8:-1 9:-0.875 10:-0.818182 11:0.1042 12:-0.333333 13:-1 14:-0.333333 15:-0.333333 
1 0 0 0 1:-1 2:-1 3:-0.891831 4:0.310957 5:-0.856115 6:0.633333 7:-1 8:-1 9:-0.75 10:-0.666667 11:0.1042 12:-1 13:-1 14:-1 15:-0.333333 
0.3305997112364943 0 0 0 1:-1 2:-1 3:-0.981345 5:-0.985612 6:-0.1 7:-1 8:-1 9:-0.875 12:-0.333333 13:-1 14:-1 15:0.333333 
1 1 0 0 1:-1 2:-1 3:-0.981345 4:-0.333333 5:-0.985612 6:-0.466667 7:-1 8:-1 9:-0.75 10:0.333333 11:-0.333333 12:-1 13:-1 14:-1 15:0.333333 
1 1 1 1 1:-0.149451 2:-1 3:-0.989318 4:-0.9465 5:-0.985612 6:1 7:-1 8:-1 9:-1 10:-1 11:-0.9465 12:-0.333333 13:-1 14:-1 15:-0.333333 
1 0 0 0 1:-0.906907 2:-1 3:-0.978938 4:0.19007 5:-0.971223 6:1 7:-1 8:-1 9:-1 10:-1 11:0.19007 12:0.333333 13:-1 14:-1 15:-0.333333 
1 0 0 0 1:-1 2:-1 3:-0.971867 4:0.19007 5:-0.971223 6:1 7:-1 8:-1 9:-1 10:-1 11:0.19007 12:0.333333 13:-1 14:-1 15:-0.333333 
1 1 0 0 1:-0.931959 2:-1 3:-0.975478 4:-0.0033 5:-0.971223 6:1 7:-1 8:-1 9:-1 10:-1 11:-0.0033 12:0.333333 13:-1 14:-1 15:-0.333333 
1 1 0 0 1:-1 2:-1 3:-0.968557 4:-0.0033 5:-0.971223 6:1 7:-1 8:-1 9:-1 10:-1 11:-0.0033 12:0.333333 13:-1 14:-1 15:-0.333333 
1 1 0 0 1:-0.880381 2:-1 3:-0.968557 4:0.06056 5:-0.956835 6:1 7:-1 8:-1 9:-1 10:-1 11:0.06056 12:0.333333 13:-1 14:-1 15:-0.333333 
1 0 0 0 1:-0.912801 2:-1 3:-0.958177 4:0.265225 5:-0.942446 6:1 7:-1 8:-1 9:-1 10:-1 11:0.648867 12:0.333333 13:-1 14:-1 15:-0.333333 
1 0 0 0 1:-1 2:-1 3:-0.951557 4:0.265225 5:-0.942446 6:1 7:-1 8:-1 9:-1 10:-1 11:0.648867 12:0.333333 13:-1 14:-1 15:-0.333333 
1 1 0 0 1:-0.92017 2:-1 3:-0.900406 4:0.351678 5:-0.870504 6:1 7:-1 8:-1 9:-1 10:-1 11:0.837447 12:0.333333 13:-1 14:-1 15:-0.333333 
1 1 0 0 1:-1 2:-1 3:-0.893486 4:0.351678 5:-0.870504 6:1 7:-1 8:-1 9:-1 10:-1 11:0.837447 12:0.333333 13:-1 14:-1 15:-0.333333 
1 1 0 0 1:-0.915749 2:-1 3:-0.893486 4:0.39148 5:-0.856115 6:1 7:-1 8:-1 9:-1 10:-1 11:0.79166 12:0.333333 13:-1 14:-1 15:-0.333333 
1 1 0 0 1:-0.923117 2:-1 3:-0.886415 4:0.436542 5:-0.841727 6:1 7:-1 8:-1 9:-1 10:-1 11:0.84084 12:0.333333 13:-1 14:-1 15:-0.333333 
1 1 0 0 1:-1 2:-1 3:-0.879795 4:0.436542 5:-0.841727 6:1 7:-1 8:-1 9:-1 10:-1 11:0.84084 12:0.333333 13:-1 14:-1 15:-0.333333 
1 1 0 0 1:-0.90838 2:-1 3:-0.879795 4:0.467648 5:-0.827338 6:1 7:-1 8:-1 9:-1 10:-1 11:0.81556 12:0.333333 13:-1 14:-1 15:-0.333333 
1 1 0 0 1:-0.926064 2:-1 3:-0.869415 4:0.500017 5:-0.81295 6:1 7:-1 8:-1 9:-1 10:-1 11:0.861807 12:0.333333 13:-1 14:-1 15:-0.333333 
1 1 0 0 1:-1 2:-1 3:-0.861893 4:0.500017 5:-0.81295 6:1 7:-1 8:-1 9:-1 10:-1 11:0.861807 12:0.333333 13:-1 14:-1 15:-0.333333 
1 0 0 0 1:-1 2:-1 3:-0.861893 4:0.392873 5:-0.81295 6:0.842857 7:-1 8:-1 9:-0.875 10:-0.857143 11:0.232753 12:-0.333333 13:-1 14:-1 15:-1 
1 0 0 0 1:-1 2:-1 3:-0.861893 4:0.392873 5:-0.81295 6:0.842857 7:-1 8:-1 9:-0.875 10:-0.857143 11:0.232753 12:-1 13:-1 14:-1 15:-1 
1 1 1 1 1:-0.942274 2:-1 3:-0.944787 4:0.415091 5:-0.899281 6:1 7:-1 8:-1 9:-1 10:-1 11:0.71422 12:1 13:-1 14:-1 15:-0.333333 
1 0 0 0 1:-1 2:-1 3:-0.938017 4:0.415091 5:-0.899281 6:1 7:-1 8:-1 9:-1 10:-1 11:0.71422 12:0.333333 13:-1 14:-1 15:-0.333333 
1 0 0 0 1:-1 2:-1 3:-0.938017 4:0.238205 5:-0.899281 6:0.725 7:-1 8:-1 9:-0.875 10:-0.75 11:0.142487 12:-1 13:-1 14:-1 15:-1 
1 0 0 0 1:-1 2:-1 3:-0.899955 4:0.235682 5:-0.884892 6:0.755556 7:-1 8:-1 9:-0.875 10:-0.777778 11:0.0354933 12:-0.333333 13:-1 14:-1 15:-0.333333 
1 0 0 0 1:-1 2:-1 3:-0.899955 4:0.235682 5:-0.884892 6:0.755556 7:-1 8:-1 9:-0.875 10:-0.777778 11:0.0354933 12:-0.333333 13:-1 14:-1 15:-0.333333 
1 0 0 0 1:-0.889223 2:-1 3:-0.899955 4:0.292014 5:-0.870504 6:0.78 7:-1 8:-1 9:-0.875 10:-0.8 11:0.00483333 12:-0.333333 13:-1 14:-1 15:-0.333333 
1 0 0 0 1:-1 2:-1 3:-0.854822 4:0.292014 5:-0.870504 6:0.78 7:-1 8:-1 9:-0.875 10:-0.8 11:0.00483333 12:-0.333333 13:-1 14:-1 15:-0.333333 
1 1 1 1 1:-0.791962 2:-1 3:-0.854822 4:0.266785 5:-0.856115 6:0.8 7:-1 8:-1 9:-0.875 10:-0.818182 11:0.343 12:0.333333 13:-1 14:-1 15:0.333333 
1 1 1 0 1:-0.930485 2:-1 3:-0.843087 4:0.318658 5:-0.841727 6:0.816667 7:-1 8:-1 9:-0.875 10:-0.833333 11:0.567587 12:0.333333 13:-1 14:-1 15:-0.333333 
1 1 0 0 1:-1 2:-1 3:-0.836618 4:0.318658 5:-0.841727 6:0.816667 7:-1 8:-1 9:-0.875 10:-0.833333 11:0.567587 12:0.333333 13:-1 14:-1 15:-0.333333 
1 1 0 0 1:-0.933432 2:-1 3:-0.836618 4:0.362631 5:-0.827338 6:0.830769 7:-1 8:-1 9:-0.875 10:-0.846154 11:0.59802 12:0.333333 13:-1 14:-1 15:-1 
1 0 0 0 1:-1 2:-1 3:-0.827291 4:0.362631 5:-0.827338 6:0.830769 7:-1 8:-1 9:-0.875 10:-0.846154 11:0.59802 12:-0.333333 13:-1 14:-1 15:-1 
1 0 1 0 1:-0.706491 2:-1 3:-0.99985 4:-1 5:-1 6:1 7:-0.953488 8:1 9:-1 10:-1 11:-1 12:-1 13:-0.333333 14:-1 15:-0.333333 
1 0 0 0 1:-1 2:-1 3:-0.980141 5:-0.985612 6:-0.1 7:-1 8:-1 9:-0.875 12:-0.333333 13:-1 14:-1 15:0.333333 
1 0 0 0 1:-0.87596 2:-1 3:-0.921167 4:0.375857 5:-0.884892 6:1 7:-1 8:-1 9:-1 10:-1 11:0.710987 12:0.333333 13:-1 14:-1 15:-0.333333 
1 0 0 0 1:-0.862697 2:-1 3:-0.916353 4:0.387373 5:-0.870504 6:1 7:-1 8:-1 9:-1 10:-1 11:0.651773 12:0.333333 13:-1 14:-1 15:-0.333333 
1 0 0 0 1:-1 2:-1 3:-0.980292 5:-0.985612 6:-0.1 7:-1 8:-1 9:-0.875 12:-0.333333 13:-1 14:-1 15:0.333333 
1 0 0 0 1:-0.880381 2:-1 3:-0.980292 4:0.0105467 5:-0.971223 6:0.266667 7:-1 8:-1 9:-0.875 10:-0.333333 11:0.0105467 12:-0.333333 13:-1 14:-1 15:0.333333 
1 1 0 0 1:-0.923117 2:-1 3:-0.946442 4:0.22795 5:-0.956835 6:0.45 7:-1 8:-1 9:-0.875 10:-0.5 11:-0.0294 12:0.333333 13:-1 14:-1 15:0.333333 
1 0 0 0 1:-1 2:-1 3:-0.939371 4:0.22795 5:-0.956835 6:0.45 7:-1 8:-1 9:-0.875 10:-0.5 11:-0.0294 12:0.333333 13:-1 14:-1 15:-0.333333 
1 0 0 0 1:-0.868592 2:-1 3:-0.939371 4:0.341528 5:-0.942446 6:0.56 7:-1 8:-1 9:-0.875 10:-0.6 11:0.569213 12:0.333333 13:-1 14:-1 15:-0.333333 
1 1 0 0 1:-0.874487 2:-1 3:-0.99985 4:-1 5:-1 6:1 7:-0.953488 8:1 9:-1 10:-1 11:-1 12:-1 13:-0.333333 14:-1 15:-0.333333 
1 1 1 1 1:-0.884802 2:-1 3:-0.963141 4:-0.095868 5:-0.956835 6:0.12 7:-0.906977 8:-0.2 9:-1 10:-1 11:0.506887 12:0.333333 13:-1 14:-1 15:-0.333333 
1 1 1 1 1:-0.896591 2:-1 3:-0.954566 4:0.0497 5:-0.942446 6:0.266667 7:-0.906977 8:-0.333333 9:-1 10:-1 11:0.6689 12:0.333333 13:-1 14:-1 15:-0.333333 
1 1 1 0.5924678936434575 1:-1 2:-1 3:-0.947044 4:0.0497 5:-0.942446 6:0.266667 7:-0.906977 8:-0.333333 9:-1 10:-1 11:0.6689 12:0.333333 13:-1 14:-1 15:-0.333333 
1 0 0 0 1:-0.650492 2:-1 3:-0.99985 4:-0.7922 5:-0.985612 6:1 7:-1 8:-1 9:-1 10:-1 11:-0.7922 12:-0.333333 13:-1 14:-1 15:-0.333333 
1 0 0 0 1:-0.906907 2:-1 3:-0.940876 4:0.467209 5:-0.899281 6:1 7:-1 8:-1 9:-1 10:-1 11:0.87644 12:0.333333 13:-1 14:-1 15:-0.333333 
1 0 0 0 1:-1 2:-1 3:-0.933504 4:0.467209 5:-0.899281 6:1 7:-1 8:-1 9:-1 10:-1 11:0.87644 12:0.333333 13:-1 14:-1 15:-0.333333 
1 0 0 0 1:-1 2:-1 3:-0.933504 4:0.283807 5:-0.899281 6:0.725 7:-1 8:-1 9:-0.875 10:-0.75 11:0.25098 12:-1 13:-1 14:-1 15:-1 
1 0 0 0 1:-0.93638 2:-1 3:-0.934406 4:0.623364 5:-0.870504 6:1 7:-1 8:-1 9:-1 10:-1 11:0.843893 12:0.333333 13:-1 14:-1 15:-0.333333 
1 0 0 0 1:-1 2:-1 3:-0.927336 4:0.623364 5:-0.870504 6:1 7:-1 8:-1 9:-1 10:-1 11:0.843893 12:0.333333 13:-1 14:-1 15:-0.333333 
1 0 0 0 1:-0.887749 2:-1 3:-0.927336 4:0.637194 5:-0.856115 6:1 7:-1 8:-1 9:-1 10:-1 11:0.803633 12:0.333333 13:-1 14:-1 15:-0.333333 
1 0 0 0 1:-0.939327 2:-1 3:-0.917256 4:0.651091 5:-0.841727 6:1 7:-1 8:-1 9:-1 10:-1 11:0.813873 12:0.333333 13:-1 14:-1 15:-0.333333 
1 0 0 0 1:-1 2:-1 3:-0.908981 4:0.651091 5:-0.841727 6:1 7:-1 8:-1 9:-1 10:-1 11:0.813873 12:0.333333 13:-1 14:-1 15:-0.333333 
1 0 0 0 1:-1 2:-1 3:-0.863096 4:0.414273 5:-0.827338 6:0.685714 7:-1 8:-1 9:-0.75 10:-0.714286 11:-0.45406 12:-1 13:-1 14:-1 15:-0.333333 
1 0 0 0 1:-0.942274 2:-1 3:-0.980743 4:0.39158 5:-0.971223 6:1 7:-1 8:-1 9:-1 10:-1 11:0.39158 12:0.333333 13:-1 14:-1 15:-0.333333 
1 0 0 0 1:-1 2:-1 3:-0.973371 4:0.39158 5:-0.971223 6:1 7:-1 8:-1 9:-1 10:-1 11:0.39158 12:0.333333 13:-1 14:-1 15:-0.333333 
1 1 1 1 1:-0.923117 2:-1 3:-0.973371 4:-0.07228 5:-0.971223 6:0.266667 7:-0.953488 8:-0.333333 9:-1 10:-1 11:-0.07228 12:-0.333333 13:-0.333333 14:-1 15:-0.333333 
1 1 0 0 1:-0.906907 2:-1 3:-0.921619 4:0.398908 5:-0.870504 6:0.78 7:-0.953488 8:-0.8 9:-1 10:-1 11:0.766767 12:0.333333 13:-1 14:-1 15:-0.333333 
1 1 1 0 1:-0.931959 2:-1 3:-0.911689 4:0.271735 5:-0.870504 6:0.6 7:-0.906977 8:-0.636364 9:-1 10:-1 11:0.200567 12:-0.333333 13:-0.333333 14:-1 15:-0.333333 
1 1 1 1 1:-0.889223 2:1 3:-0.909282 4:0.307565 5:-0.856115 6:0.633333 7:-0.906977 8:-0.666667 9:-1 10:-1 11:0.186247 12:0.333333 13:-0.333333 14:-0.333333 15:-0.333333 
1 1 1 1 1:-1 2:-1 3:-0.898902 4:0.307565 5:-0.856115 6:0.633333 7:-0.906977 8:-0.666667 9:-1 10:-1 11:0.186247 12:-0.333333 13:-0.333333 14:-0.333333 15:-1 
1 1 1 1 1:-1 2:-1 3:-0.898902 4:0.206983 5:-0.856115 6:0.492308 7:-0.906977 8:-0.692308 9:-0.875 10:-0.846154 11:-0.432767 12:-0.333333 13:-1 14:-0.333333 15:-1 
1 1 1 1 1:-1 2:-1 3:-0.898902 4:0.206983 5:-0.856115 6:0.492308 7:-0.906977 8:-0.692308 9:-0.875 10:-0.846154 11:-0.432767 12:-1 13:-1 14:-1 15:-1 
1 0 0 0 1:-0.743332 2:-1 3:-1 4:-0.75718 5:-0.985612 6:1 7:-1 8:-1 9:-1 10:-1 11:-0.75718 12:-0.333333 13:-1 14:-1 15:-0.333333 
1 1 1 1 1:-0.921643 2:-1 3:-0.969159 4:-0.00629333 5:-0.956835 6:1 7:-1 8:-1 9:-1 10:-1 11:-0.00629333 12:1 13:-1 14:-1 15:-0.333333 
1 1 0 0 1:-1 2:-1 3:-0.960734 4:-0.00629333 5:-0.956835 6:1 7:-1 8:-1 9:-1 10:-1 11:-0.00629333 12:0.333333 13:-1 14:-1 15:-1 
1 1 0 0 1:-0.87596 2:-1 3:-0.99985 4:-1 5:-1 6:1 7:-0.953488 8:1 9:-1 10:-1 11:-1 12:-1 13:-0.333333 14:-1 15:-0.333333 
1 1 1 1 1:-0.890697 2:1 3:-0.988867 4:-0.65862 5:-0.985612 6:-0.1 7:-0.953488 9:-1 10:-1 11:-0.65862 12:-0.333333 13:-0.333333 14:-0.333333 15:0.333333 
1 0 0 0 1:-1 2:-1 3:-0.97969 5:-0.985612 6:-0.1 7:-1 8:-1 9:-0.875 12:-0.333333 13:-1 14:-1 15:0.333333 
1 0 0 0 1:-0.945222 2:-1 3:-0.978487 4:0.38624 5:-0.971223 6:1 7:-1 8:-1 9:-1 10:-1 11:0.38624 12:0.333333 13:-1 14:-1 15:-0.333333 
1 0 0 0 1:-1 2:-1 3:-0.971416 4:0.38624 5:-0.971223 6:1 7:-1 8:-1 9:-1 10:-1 11:0.38624 12:0.333333 13:-1 14:-1 15:-0.333333 
1 1 0 0 1:-0.93638 2:-1 3:-0.928539 4:0.481583 5:-0.899281 6:0.725 7:-0.953488 8:-0.75 9:-1 10:-1 11:0.250493 12:-0.333333 13:-0.333333 14:-1 15:-0.333333 
1 1 0 0 1:-1 2:-1 3:-0.904769 4:0.3689 5:-0.884892 6:0.56 7:-0.953488 8:-0.8 9:-0.875 10:-0.8 11:-0.387887 12:-1 13:-1 14:-1 15:-1 
1 1 0 0 1:-1 2:-1 3:-0.904769 4:0.244455 5:-0.884892 6:0.4 7:-0.953488 8:-0.818182 9:-0.75 10:-0.636364 11:-0.387887 12:-1 13:-1 14:-1 15:-0.333333 
1 1 0 0 1:-0.906907 2:-1 3:-0.974124 4:-0.03618 5:-0.971223 6:1 7:-1 8:-1 9:-1 10:-1 11:-0.03618 12:0.333333 13:-1 14:-1 15:-0.333333 
1 1 0 0 1:-1 2:-1 3:-0.966301 4:-0.03618 5:-0.971223 6:1 7:-1 8:-1 9:-1 10:-1 11:-0.03618 12:0.333333 13:-1 14:-1 15:-0.333333 
1 1 1 1 1:-0.940801 2:-1 3:-0.962389 4:0.3364 5:-0.942446 6:1 7:-1 8:-1 9:-1 10:-1 11:0.554193 12:1 13:-1 14:-1 15:-0.333333 
1 0 0 0 1:-0.933432 2:-1 3:-0.977734 4:0.35138 5:-0.971223 6:1 7:-1 8:-1 9:-1 10:-1 11:0.35138 12:0.333333 13:-1 14:-1 15:-0.333333 
1 0 0 0 1:-1 2:-1 3:-0.96961 4:0.35138 5:-0.971223 6:1 7:-1 8:-1 9:-1 10:-1 11:0.35138 12:0.333333 13:-1 14:-1 15:-0.333333 
1 1 0 0 1:-0.906907 2:-1 3:-1 4:-1 5:-1 6:1 7:-0.953488 8:1 9:-1 10:-1 11:-1 12:-1 13:-0.333333 14:-1 15:-0.333333 
1 1 1 1 1:-0.613651 2:1 3:-0.978186 4:-0.78529 5:-0.985612 6:-0.1 7:-0.953488 9:-1 10:-1 11:-0.78529 12:-0.333333 13:-0.333333 14:-0.333333 15:0.333333 
1 1 1 1 1:-0.940801 2:-1 3:-0.952008 4:-0.254473 5:-0.971223 6:0.266667 7:-0.953488 8:-0.333333 9:-1 10:-1 11:-0.254473 12:0.333333 13:-0.333333 14:-0.333333 15:0.333333 
1 1 1 1 1:-1 2:-1 3:-0.945238 4:-0.254473 5:-0.971223 6:0.266667 7:-0.953488 8:-0.333333 9:-1 10:-1 11:-0.254473 12:0.333333 13:-1 14:-0.333333 15:-0.333333 
1 1 1 0 1:-0.943748 2:-1 3:-0.945238 4:0.01667 5:-0.956835 6:0.45 7:-0.953488 8:-0.5 9:-1 10:-1 11:0.35556 12:0.333333 13:-1 14:-1 15:-1 
1 1 1 0 1:-0.940801 2:-1 3:-0.937114 4:0.181768 5:-0.942446 6:0.56 7:-0.953488 8:-0.6 9:-1 10:-1 11:0.826473 12:0.333333 13:-1 14:-1 15:-1 
1 1 0.2114101071611286 0 1:-1 2:-1 3:-0.929592 4:0.181768 5:-0.942446 6:0.56 7:-0.953488 8:-0.6 9:-1 10:-1 11:0.826473 12:0.333333 13:-1 14:-1 15:-1 
1 1 1 0 1:-0.905433 2:-1 3:-0.831352 4:0.293764 5:-0.798561 6:0.725 7:-0.953488 8:-0.875 9:-0.875 10:-0.875 11:0.82154 12:0.333333 13:-1 14:-1 15:-0.333333 
1 1 1 1 1:-0.945222 2:-1 3:-0.825184 4:0.328264 5:-0.784173 6:0.741176 7:-0.953488 8:-0.882353 9:-0.875 10:-0.882353 11:0.823 12:1 13:-1 14:-1 15:-0.333333 
1 1 1 0 1:-1 2:-1 3:-0.818264 4:0.328264 5:-0.784173 6:0.741176 7:-0.953488 8:-0.882353 9:-0.875 10:-0.882353 11:0.823 12:0.333333 13:-1 14:-1 15:-0.333333 
1 1 1 0 1:-0.896591 2:-1 3:-0.818264 4:0.349554 5:-0.769784 6:0.755556 7:-0.953488 8:-0.888889 9:-0.875 10:-0.888889 11:0.768307 12:0.333333 13:-1 14:-1 15:-0.333333 
1 1 1 0 1:-0.943748 2:-1 3:-0.810591 4:0.377553 5:-0.755396 6:0.768421 7:-0.953488 8:-0.894737 9:-0.875 10:-0.894737 11:0.824427 12:0.333333 13:-1 14:-1 15:-0.333333 
1 1 1 0 1:-1 2:-1 3:-0.803972 4:0.377553 5:-0.755396 6:0.768421 7:-0.953488 8:-0.894737 9:-0.875 10:-0.894737 11:0.824427 12:0.333333 13:-1 14:-1 15:-0.333333 
1 1 1 0 1:-1 2:-1 3:-0.803972 4:0.308675 5:-0.755396 6:0.67 7:-0.953488 8:-0.9 9:-0.75 10:-0.8 11:0.197673 12:-0.333333 13:-1 14:-1 15:-1 
1 1 0.3283602823176792 0 1:-1 2:-1 3:-0.803972 4:0.308675 5:-0.755396 6:0.67 7:-0.953488 8:-0.9 9:-0.75 10:-0.8 11:0.197673 12:-1 13:-1 14:-1 15:-1 
1 1 1 1 1:-1 2:-1 3:-0.803972 4:0.246357 5:-0.755396 6:0.580952 7:-0.953488 8:-0.904762 9:-0.625 10:-0.714286 11:-0.372827 12:-1 13:-1 14:-1 15:-0.333333 
1 0 0 0 1:-0.918696 2:-1 3:-0.981345 4:0.43179 5:-0.971223 6:1 7:-1 8:-1 9:-1 10:-1 11:0.43179 12:0.333333 13:-1 14:-1 15:-0.333333 
1 1 0 1 1:-0.880381 2:-1 3:-0.860539 4:0.584211 5:-0.827338 6:0.830769 7:-1 8:-1 9:-0.875 10:-0.846154 11:0.0561133 12:0.333333 13:-1 14:-1 15:0.333333 
1 0.9565999369883008 0 0 1:-0.911328 2:-1 3:-0.850158 4:0.593354 5:-0.81295 6:0.842857 7:-1 8:-1 9:-0.875 10:-0.857143 11:0.626853 12:0.333333 13:-1 14:-1 15:-0.333333 
1 0 0 0 1:-1 2:-1 3:-0.842636 4:0.593354 5:-0.81295 6:0.842857 7:-1 8:-1 9:-0.875 10:-0.857143 11:0.626853 12:0.333333 13:-1 14:-1 15:-0.333333 
1 1 0 0 1:-0.880381 2:-1 3:-0.842636 4:0.602445 5:-0.798561 6:0.853333 7:-1 8:-1 9:-0.875 10:-0.866667 11:0.607373 12:0.333333 13:-1 14:-1 15:-0.333333 
1 1 0 0 1:-0.924591 2:-1 3:-0.834211 4:0.620309 5:-0.784173 6:0.8625 7:-1 8:-1 9:-0.875 10:-0.875 11:0.776733 12:0.333333 13:-1 14:-1 15:-0.333333 
1 1 0 0 1:-1 2:-1 3:-0.82714 4:0.620309 5:-0.784173 6:0.8625 7:-1 8:-1 9:-0.875 10:-0.875 11:0.776733 12:0.333333 13:-1 14:-1 15:-0.333333 
1 1 0 0 1:-0.845014 2:-1 3:-0.82714 4:0.625438 5:-0.769784 6:0.870588 7:-1 8:-1 9:-0.875 10:-0.882353 11:0.77516 12:0.333333 13:-1 14:-1 15:-0.333333 
1 1 0 0 1:-0.905433 2:-1 3:-0.819016 4:0.639756 5:-0.755396 6:0.877778 7:-1 8:-1 9:-0.875 10:-0.888889 11:0.826307 12:0.333333 13:-1 14:-1 15:-0.333333 
1 1 0 0 1:-1 2:-1 3:-0.811644 4:0.639756 5:-0.755396 6:0.877778 7:-1 8:-1 9:-0.875 10:-0.888889 11:0.826307 12:0.333333 13:-1 14:-1 15:-0.333333 
1 1 0 0 1:-0.839119 2:-1 3:-0.811644 4:0.646972 5:-0.741007 6:0.884211 7:-1 8:-1 9:-0.875 10:-0.894737 11:0.789173 12:0.333333 13:-1 14:-1 15:-0.333333 
1 1 0 0 1:-0.911328 2:-1 3:-0.80352 4:0.658875 5:-0.726619 6:0.89 7:-1 8:-1 9:-0.875 10:-0.9 11:0.848353 12:0.333333 13:-1 14:-1 15:-0.333333 
1 1 0 0 1:-1 2:-1 3:-0.795096 4:0.658875 5:-0.726619 6:0.89 7:-1 8:-1 9:-0.875 10:-0.9 11:0.848353 12:0.333333 13:-1 14:-1 15:-0.333333 
1 1 0 0 1:-1 2:-1 3:-0.795096 4:0.579881 5:-0.726619 6:0.790476 7:-1 8:-1 9:-0.75 10:-0.809524 11:0.220633 12:-0.333333 13:-1 14:-1 15:-1 
1 1 0 0 1:-1 2:-1 3:-0.795096 4:0.579881 5:-0.726619 6:0.790476 7:-1 8:-1 9:-0.75 10:-0.809524 11:0.220633 12:-1 13:-1 14:-1 15:-1 
1 1 0 0 1:-1 2:-1 3:-0.795096 4:0.508068 5:-0.726619 6:0.7 7:-1 8:-1 9:-0.625 10:-0.727273 11:-0.371653 12:-1 13:-1 14:-1 15:-0.333333 
1 1 1 1 1:-0.937853 2:-1 3:-0.966301 4:-0.0127 5:-0.942446 6:1 7:-1 8:-1 9:-1 10:-1 11:0.27848 12:0.333333 13:-1 14:-0.333333 15:-1 
1 0 0 0 1:-1 2:-1 3:-0.964345 4:-0.0127 5:-0.942446 6:1 7:-1 8:-1 9:-1 10:-1 11:0.27848 12:-0.333333 13:-1 14:-1 15:-1 
1 1 0 0 1:-0.90396 2:-1 3:-0.964345 4:0.165404 5:-0.928058 6:1 7:-1 8:-1 9:-1 10:-1 11:0.84918 12:0.333333 13:-1 14:-1 15:-0.333333 
1 0 0 0 1:-0.933432 2:-1 3:-0.956823 4:0.268313 5:-0.913669 6:1 7:-1 8:-1 9:-1 10:-1 11:0.81876 12:0.333333 13:-1 14:-1 15:-0.333333 
1 0 0 0 1:-1 2:-1 3:-0.950805 4:0.268313 5:-0.913669 6:1 7:-1 8:-1 9:-1 10:-1 11:0.81876 12:0.333333 13:-1 14:-1 15:-0.333333 
1 0 0 0 1:-1 2:-1 3:-0.950805 4:0.0871257 5:-0.913669 6:0.685714 7:-1 8:-1 9:-0.875 10:-0.714286 11:0.220227 12:-0.333333 13:-1 14:-1 15:-1 
1 0 0 0 1:-1 2:-1 3:-0.950805 4:0.0871257 5:-0.913669 6:0.685714 7:-1 8:-1 9:-0.875 10:-0.714286 11:0.220227 12:-1 13:-1 14:-1 15:-1 
1 1 0 0 1:-1 2:-1 3:-0.950805 4:-0.048765 5:-0.913669 6:0.45 7:-1 8:-1 9:-0.75 10:-0.5 11:-0.405713 12:-1 13:-1 14:-1 15:-0.333333 
1 1 0 0.6308472040581586 1:-0.90838 2:-1 3:-0.99985 4:-1 5:-1 6:1 7:-0.953488 8:1 9:-1 10:-1 11:-1 12:-1 13:-0.333333 14:-1 15:-0.333333 
1 1 1 1 1:-0.526705 2:1 3:-0.979841 4:-0.82263 5:-0.985612 6:-0.1 7:-0.953488 9:-1 10:-1 11:-0.82263 12:-0.333333 13:-0.333333 14:-0.333333 15:0.333333 
1 1 1 1 1:-0.899539 2:-1 3:-0.951407 4:-0.346007 5:-0.971223 6:0.266667 7:-0.953488 8:-0.333333 9:-1 10:-1 11:-0.346007 12:0.333333 13:-0.333333 14:-0.333333 15:0.333333 
1 1 1 1 1:-1 2:-1 3:-0.943132 4:-0.346007 5:-0.971223 6:0.266667 7:-0.953488 8:-0.333333 9:-1 10:-1 11:-0.346007 12:0.333333 13:-1 14:-0.333333 15:-0.333333 
1 1 1 1 1:-0.909854 2:-1 3:-0.943132 4:-0.05572 5:-0.956835 6:0.45 7:-0.953488 8:-0.5 9:-1 10:-1 11:0.25904 12:0.333333 13:-1 14:-1 15:-1 
1 1 1 0 1:-1 2:-1 3:-0.934256 4:-0.05572 5:-0.956835 6:0.45 7:-0.953488 8:-0.5 9:-1 10:-1 11:0.25904 12:-0.333333 13:-1 14:-1 15:-1 
1 1 1 0 1:-0.90838 2:-1 3:-0.934256 4:0.12122 5:-0.942446 6:0.56 7:-0.953488 8:-0.6 9:-1 10:-1 11:0.750453 12:0.333333 13:-1 14:-1 15:-1 
1 1 0 0 1:-1 2:-1 3:-0.924929 4:0.12122 5:-0.942446 6:0.56 7:-0.953488 8:-0.6 9:-1 10:-1 11:0.750453 12:-0.333333 13:-1 14:-1 15:-1 
1 1 1 0 1:-0.89217 2:-1 3:-0.924929 4:0.20874 5:-0.928058 6:0.633333 7:-0.953488 8:-0.666667 9:-1 10:-1 11:0.763487 12:0.333333 13:-1 14:-1 15:-0.333333 
1 1 0 0 1:-0.90396 2:-1 3:-0.917858 4:0.279509 5:-0.913669 6:0.685714 7:-0.953488 8:-0.714286 9:-1 10:-1 11:0.72648 12:0.333333 13:-1 14:-1 15:-0.333333 
1 1 0 0 1:-1 2:-1 3:-0.912141 4:0.279509 5:-0.913669 6:0.685714 7:-0.953488 8:-0.714286 9:-1 10:-1 11:0.72648 12:0.333333 13:-1 14:-1 15:-0.333333 
1 1 0 0 1:-1 2:-1 3:-0.912141 4:0.11957 5:-0.913669 6:0.45 7:-0.953488 8:-0.75 9:-0.875 10:-0.75 11:0.11682 12:-0.333333 13:-1 14:-1 15:-1 
1 1 0 0 1:-1 2:-1 3:-0.912141 4:0.11957 5:-0.913669 6:0.45 7:-0.953488 8:-0.75 9:-0.875 10:-0.75 11:0.11682 12:-1 13:-1 14:-1 15:-1 
1 0 0 0 1:-0.895118 2:-1 3:-0.912141 4:0.179731 5:-0.899281 6:0.511111 7:-0.953488 8:-0.777778 9:-0.875 10:-0.777778 11:0.121713 12:-0.333333 13:-1 14:-1 15:-0.333333 
1 1 1 1 1:-0.833224 2:1 3:-0.909583 4:0.179484 5:-0.884892 6:0.56 7:-0.953488 8:-0.8 9:-0.875 10:-0.8 11:-0.0539067 12:0.333333 13:-1 14:-0.333333 15:0.333333 
1 1 1 1 1:-0.902486 2:1 3:-0.878742 4:0.174078 5:-0.870504 6:0.6 7:-0.953488 8:-0.818182 9:-0.875 10:-0.818182 11:0.319433 12:1 13:-1 14:0.333333 15:1 
1 1 1 1 1:-1 2:-1 3:-0.851512 4:0.0762383 5:-0.870504 6:0.45 7:-0.953488 8:-0.833333 9:-0.75 10:-0.666667 11:-0.23424 12:0.333333 13:-1 14:0.333333 15:0.333333 
1 1 0 1 1:-0.909854 2:-1 3:-0.99985 4:-1 5:-1 6:1 7:-0.953488 8:1 9:-1 10:-1 11:-1 12:-1 13:-0.333333 14:-1 15:-0.333333 
1 0 0 0 1:-1 2:-1 3:-0.968557 5:-0.985612 6:-0.1 7:-1 8:-1 9:-0.875 12:-0.333333 13:-1 14:-1 15:0.333333 
1 0 0 0 1:-0.849434 2:-1 3:-0.980141 4:0.42372 5:-0.971223 6:1 7:-1 8:-1 9:-1 10:-1 11:0.42372 12:0.333333 13:-1 14:-1 15:-0.333333 
1 0 0 0 1:-1 2:-1 3:-0.97292 4:0.42372 5:-0.971223 6:1 7:-1 8:-1 9:-1 10:-1 11:0.42372 12:0.333333 13:-1 14:-1 15:-0.333333 
1 0 0 0 1:-0.740384 2:-1 3:-0.97292 4:0.457487 5:-0.956835 6:1 7:-1 8:-1 9:-1 10:-1 11:0.457487 12:0.333333 13:-1 14:-1 15:-0.333333 
1 0 0 0 1:-1 2:-1 3:-0.978487 5:-0.985612 6:-0.1 7:-1 8:-1 9:-0.875 12:-0.333333 13:-1 14:-1 15:0.333333 
1 0 0 0 1:-0.640176 2:-1 3:-0.999549 4:-0.64782 5:-0.985612 6:1 7:-1 8:-1 9:-1 10:-1 11:-0.64782 12:-0.333333 13:-1 14:-1 15:-0.333333 
1 0 0 0 1:-0.834698 2:-1 3:-0.99985 4:-1 5:-1 6:1 7:-0.953488 8:1 9:-1 10:-1 11:-1 12:-1 13:-0.333333 14:-1 15:-0.333333 
1 0 0 0 1:-0.926064 2:-1 3:-0.980894 4:0.43607 5:-0.971223 6:1 7:-1 8:-1 9:-1 10:-1 11:0.43607 12:0.333333 13:-1 14:-1 15:-0.333333 
1 0 0 0 1:-0.737437 2:-1 3:-0.958327 4:0.572544 5:-0.928058 6:1 7:-1 8:-1 9:-1 10:-1 11:0.663527 12:0.333333 13:-1 14:-1 15:-0.333333 
1 1 1 1 1:-0.927538 2:-1 3:-0.931999 4:0.58412 5:-0.884892 6:1 7:-1 8:-1 9:-1 10:-1 11:0.603413 12:1 13:-1 14:-1 15:-0.333333 
1 0 0 0 1:-1 2:-1 3:-0.924477 4:0.58412 5:-0.884892 6:1 7:-1 8:-1 9:-1 10:-1 11:0.603413 12:0.333333 13:-1 14:-1 15:-0.333333 
1 1 1 1 1:-0.830277 2:-1 3:-0.911689 4:0.570567 5:-0.841727 6:1 7:-1 8:-1 9:-1 10:-1 11:0.534427 12:1 13:-1 14:-0.333333 15:0.333333 
1 1 1 0 1:-1 2:-1 3:-0.902813 4:0.570567 5:-0.841727 6:1 7:-1 8:-1 9:-1 10:-1 11:0.534427 12:0.333333 13:-1 14:-0.333333 15:-0.333333 
1 0 0 0 1:-1 2:-1 3:-0.902813 4:0.439687 5:-0.841727 6:0.816667 7:-1 8:-1 9:-0.875 10:-0.833333 11:0.189913 12:-1 13:-1 14:-1 15:-1 
0.1640447991397257 0 0 0 1:-0.864171 2:-1 3:-0.902813 4:0.415629 5:-0.827338 6:0.830769 7:-1 8:-1 9:-0.875 10:-0.846154 11:-0.0482333 12:-0.333333 13:-1 14:-1 15:-0.333333 
1 0 0 0 1:-1 2:-1 3:-0.85091 4:0.415629 5:-0.827338 6:0.830769 7:-1 8:-1 9:-0.875 10:-0.846154 11:-0.0482333 12:-0.333333 13:-1 14:-1 15:-0.333333 
1 0 0 0 1:-1 2:-1 3:-0.85091 4:0.415629 5:-0.827338 6:0.830769 7:-1 8:-1 9:-0.875 10:-0.846154 11:-0.0482333 12:-0.333333 13:-1 14:-1 15:-0.333333 
1 0 0 0 1:-0.842066 2:-1 3:-0.85091 4:0.438686 5:-0.81295 6:0.842857 7:-1 8:-1 9:-0.875 10:-0.857143 11:-0.04488 12:-0.333333 13:-1 14:-1 15:-0.333333 
1 0 0 0 1:-1 2:-1 3:-0.828344 4:0.438686 5:-0.81295 6:0.842857 7:-1 8:-1 9:-0.875 10:-0.857143 11:-0.04488 12:-0.333333 13:-1 14:-1 15:-0.333333 
1 1 1 1 1:-0.87596 2:-1 3:-0.828344 4:0.361632 5:-0.798561 6:0.853333 7:-1 8:-1 9:-0.875 10:-0.866667 11:0.0494133 12:0.333333 13:-1 14:-1 15:0.333333 
1 1 1 1 1:-1 2:-1 3:-0.642245 4:0.27904 5:-0.625899 6:0.706667 7:-0.906977 8:-0.866667 9:-0.75 10:-0.866667 11:0.20276 12:-0.333333 13:-1 14:-1 15:-0.333333 
1 1 1 1 1:-0.90396 2:-1 3:-0.642245 4:0.294499 5:-0.611511 6:0.716129 7:-0.906977 8:-0.870968 9:-0.75 10:-0.870968 11:0.16684 12:-0.333333 13:-1 14:-1 15:-0.333333 
1 1 1 1 1:-1 2:-1 3:-0.613811 4:0.294499 5:-0.611511 6:0.716129 7:-0.906977 8:-0.870968 9:-0.75 10:-0.870968 11:0.16684 12:-0.333333 13:-1 14:-1 15:-0.333333 
1 1 1 1 1:-1 2:-1 3:-0.613811 4:0.294499 5:-0.611511 6:0.716129 7:-0.906977 8:-0.870968 9:-0.75 10:-0.870968 11:0.16684 12:-0.333333 13:-1 14:-1 15:-0.333333 
1 1 1 1 1:-0.927538 2:-1 3:-0.613811 4:0.308463 5:-0.597122 6:0.725 7:-0.906977 8:-0.875 9:-0.75 10:-0.875 11:0.747287 12:-0.333333 13:-1 14:-1 15:-0.333333 
1 1 1 1 1:-1 2:-1 3:-0.588235 4:0.308463 5:-0.597122 6:0.725 7:-0.906977 8:-0.875 9:-0.75 10:-0.875 11:0.747287 12:-0.333333 13:-1 14:-1 15:-0.333333 
1 1 1 1 1:-0.896591 2:-1 3:-0.588235 4:0.268812 5:-0.597122 6:0.666667 7:-0.860465 8:-0.818182 9:-0.75 10:-0.878788 11:0.166533 12:-0.333333 13:-0.333333 14:-1 15:0.333333 
1 1 1 1 1:-0.76691 2:-1 3:-0.560403 4:0.292237 5:-0.539568 6:0.702703 7:-0.860465 8:-0.837838 9:-0.75 10:-0.891892 11:0.687307 12:0.333333 13:-1 14:-1 15:-0.333333 
1 1 1 1 1:-1 2:-1 3:-0.553031 4:0.292237 5:-0.539568 6:0.702703 7:-0.860465 8:-0.837838 9:-0.75 10:-0.891892 11:0.687307 12:0.333333 13:-1 14:-1 15:-0.333333 
1 1 1 1 1:-0.946695 2:-1 3:-0.553031 4:0.284301 5:-0.52518 6:0.710526 7:-0.860465 8:-0.842105 9:-0.75 10:-0.894737 11:0.396633 12:0.333333 13:-1 14:-1 15:-0.333333 
1 1 1 1 1:-0.837645 2:-1 3:-0.543253 4:0.299186 5:-0.510791 6:0.717949 7:-0.860465 8:-0.846154 9:-0.75 10:-0.897436 11:0.561133 12:0.333333 13:-1 14:-1 15:-0.333333 
1 1 1 1 1:-1 2:-1 3:-0.536182 4:0.299186 5:-0.510791 6:0.717949 7:-0.860465 8:-0.846154 9:-0.75 10:-0.897436 11:0.561133 12:0.333333 13:-1 14:-1 15:-0.333333 
1 1 1 1 1:-1 2:-1 3:-0.482473 4:0.305831 5:-0.467626 6:0.693023 7:-0.860465 8:-0.860465 9:-0.625 10:-0.860465 11:0.2068 12:-0.333333 13:-1 14:-1 15:-0.333333 
1 1 1 1 1:-1 2:-1 3:-0.455995 4:0.315166 5:-0.453237 6:0.7 7:-0.860465 8:-0.863636 9:-0.625 10:-0.863636 11:0.156047 12:-0.333333 13:-1 14:-1 15:-0.333333 
1 1 1 1 1:-0.855329 2:-1 3:-0.455995 4:0.31437 5:-0.438849 6:0.706667 7:-0.860465 8:-0.866667 9:-0.625 10:-0.866667 11:0.582493 12:-0.333333 13:-1 14:-1 15:-0.333333 
1 1 1 1 1:-0.819962 2:1 3:-0.412517 4:0.315705 5:-0.42446 6:0.713043 7:-0.860465 8:-0.869565 9:-0.625 10:-0.869565 11:0.457227 12:0.333333 13:-1 14:-0.333333 15:0.333333 
1 1 1 1 1:-1 2:1 3:-0.407251 4:0.287711 5:-0.42446 6:0.67234 7:-0.860465 8:-0.87234 9:-0.5 10:-0.829787 11:-0.11496 12:0.333333 13:-1 14:0.333333 15:1 
1 0 0 0 1:-0.794909 2:-1 3:-0.99985 4:-0.62772 5:-0.985612 6:1 7:-1 8:-1 9:-1 10:-1 11:-0.62772 12:-0.333333 13:-1 14:-1 15:-0.333333 
1 1 1 1 1:-0.946695 2:-1 3:-0.979088 4:-0.6233 5:-0.971223 6:1 7:-1 8:-1 9:-1 10:-1 11:-0.6233 12:0.333333 13:-1 14:-1 15:-0.333333 
1 1 1 1 1:-0.873013 2:1 3:-0.97638 4:-0.474087 5:-0.956835 6:1 7:-1 8:-1 9:-1 10:-1 11:-0.474087 12:1 13:-1 14:-0.333333 15:-0.333333 
1 0 0 0 1:-0.92017 2:-1 3:-0.980894 4:0.42709 5:-0.971223 6:1 7:-1 8:-1 9:-1 10:-1 11:0.42709 12:0.333333 13:-1 14:-1 15:-0.333333 
0.3891221413400623 0 0 0 1:-1 2:-1 3:-0.973672 4:0.42709 5:-0.971223 6:1 7:-1 8:-1 9:-1 10:-1 11:0.42709 12:0.333333 13:-1 14:-1 15:-0.333333 
1 0 0 0 1:-0.747753 2:-1 3:-0.973672 4:0.425347 5:-0.956835 6:1 7:-1 8:-1 9:-1 10:-1 11:0.425347 12:0.333333 13:-1 14:-1 15:-0.333333 
1 0 0 0 1:-0.498706 2:-1 3:-0.949451 4:0.595743 5:-0.913669 6:1 7:-1 8:-1 9:-1 10:-1 11:0.76614 12:0.333333 13:-1 14:-1 15:-0.333333 
1 1 1 1 1:-1 2:1 3:-0.915902 4:0.372158 5:-0.870504 6:0.6 7:-1 8:-1 9:-0.75 10:-0.636364 11:-0.41502 12:-0.333333 13:-1 14:-0.333333 15:0.333333 
1 0 0 0 1:-1 2:-1 3:-0.888972 4:0.454914 5:-0.827338 6:0.685714 7:-1 8:-1 9:-0.75 10:-0.714286 11:-0.406867 12:-1 13:-1 14:-1 15:-0.333333 
0 0 0.852028910586607 0 1:-0.40734 2:-1 3:-0.99985 4:-0.88692 5:-0.985612 6:1 7:-1 8:-1 9:-1 10:-1 11:-0.88692 12:-0.333333 13:-1 14:-1 15:-0.333333 
1 1 0 0 1:-0.946695 2:-1 3:-0.972168 4:-0.00168 5:-0.971223 6:1 7:-1 8:-1 9:-1 10:-1 11:-0.00168 12:0.333333 13:-1 14:-1 15:-0.333333 
1 1 0 0 1:-1 2:-1 3:-0.965699 4:-0.00168 5:-0.971223 6:1 7:-1 8:-1 9:-1 10:-1 11:-0.00168 12:0.333333 13:-1 14:-1 15:-0.333333 
1 0 0 0 1:-0.818488 2:-1 3:-0.99985 4:-0.69098 5:-0.985612 6:1 7:-1 8:-1 9:-1 10:-1 11:-0.69098 12:-0.333333 13:-1 14:-1 15:-0.333333 
1 1 1 1 1:-0.886276 2:-1 3:-0.978035 4:-0.41317 5:-0.971223 6:1 7:-1 8:-1 9:-1 10:-1 11:-0.41317 12:0.333333 13:-1 14:-1 15:-0.333333 
1 1 1 1 1:-0.931959 2:1 3:-0.975177 4:0.01878 5:-0.956835 6:1 7:-1 8:-1 9:-1 10:-1 11:0.01878 12:1 13:-1 14:-0.333333 15:-0.333333 
1 1 1 1 1:-1 2:-1 3:-0.968256 4:0.01878 5:-0.956835 6:1 7:-1 8:-1 9:-1 10:-1 11:0.01878 12:0.333333 13:-1 14:-0.333333 15:-1 
1 1 1 0 1:-0.92017 2:-1 3:-0.968256 4:0.234455 5:-0.942446 6:1 7:-1 8:-1 9:-1 10:-1 11:0.542933 12:0.333333 13:-1 14:-0.333333 15:-1 
1 0 0 0 1:-0.931959 2:-1 3:-0.959681 4:0.364796 5:-0.928058 6:1 7:-1 8:-1 9:-1 10:-1 11:0.88344 12:0.333333 13:-1 14:-1 15:-0.333333 
1 0 0 0 1:-0.934906 2:-1 3:-0.953062 4:0.452027 5:-0.913669 6:1 7:-1 8:-1 9:-1 10:-1 11:0.885273 12:0.333333 13:-1 14:-1 15:-0.333333 
1 0 0 0 1:-1 2:-1 3:-0.94584 4:0.452027 5:-0.913669 6:1 7:-1 8:-1 9:-1 10:-1 11:0.885273 12:0.333333 13:-1 14:-1 15:-0.333333 
1 0 0 0 1:-1 2:-1 3:-0.94584 4:0.244594 5:-0.913669 6:0.685714 7:-1 8:-1 9:-0.875 10:-0.714286 11:0.258113 12:-1 13:-1 14:-1 15:-1 
1 0 0 0 1:-1 2:-1 3:-0.892734 4:0.1713 5:-0.899281 6:0.511111 7:-1 8:-1 9:-0.75 10:-0.555556 11:-0.390153 12:-1 13:-1 14:-1 15:-0.333333 
1 0 0 0 1:-0.730069 2:-1 3:-1 4:-0.76508 5:-0.985612 6:1 7:-1 8:-1 9:-1 10:-1 11:-0.76508 12:-0.333333 13:-1 14:-1 15:-0.333333 
1 1 1 1 1:-0.873013 2:-1 3:-0.977584 4:-0.81063 5:-0.971223 6:1 7:-1 8:-1 9:-1 10:-1 11:-0.81063 12:0.333333 13:-1 14:-1 15:-0.333333 
1 0 0 0 1:-0.454496 2:-1 3:-0.99985 4:-0.7715 5:-0.985612 6:1 7:-1 8:-1 9:-1 10:-1 11:-0.7715 12:-0.333333 13:-1 14:-1 15:-0.333333 
1 0 0 0 1:-0.923117 2:-1 3:-0.974124 4:0.05251 5:-0.971223 6:1 7:-1 8:-1 9:-1 10:-1 11:0.05251 12:0.333333 13:-1 14:-1 15:-0.333333 
1 0 0 0 1:-1 2:-1 3:-0.967203 4:0.05251 5:-0.971223 6:1 7:-1 8:-1 9:-1 10:-1 11:0.05251 12:0.333333 13:-1 14:-1 15:-0.333333 
1 0 0 0 1:-0.899539 2:-1 3:-0.967203 4:0.27686 5:-0.956835 6:1 7:-1 8:-1 9:-1 10:-1 11:0.27686 12:0.333333 13:-1 14:-1 15:-0.333333 
1 0 0 0 1:-0.923117 2:-1 3:-0.960132 4:0.42822 5:-0.942446 6:1 7:-1 8:-1 9:-1 10:-1 11:0.828127 12:0.333333 13:-1 14:-1 15:-0.333333 
1 0 0 0 1:-1 2:-1 3:-0.953663 4:0.42822 5:-0.942446 6:1 7:-1 8:-1 9:-1 10:-1 11:0.828127 12:0.333333 13:-1 14:-1 15:-0.333333 
1 0 0 0 1:-0.902486 2:-1 3:-0.937867 4:0.4259 5:-0.913669 6:1 7:-1 8:-1 9:-1 10:-1 11:0.76976 12:0.333333 13:-1 14:-1 15:-0.333333 
1 0 0 0 1:-1 2:-1 3:-0.92869 4:0.4259 5:-0.913669 6:1 7:-1 8:-1 9:-1 10:-1 11:0.76976 12:0.333333 13:-1 14:-1 15:-0.333333 
0.5236133430532891 0 0 0 1:-1 2:-1 3:-0.92869 4:0.2222 5:-0.913669 6:0.685714 7:-1 8:-1 9:-0.875 10:-0.714286 11:0.145087 12:-0.333333 13:-1 14:-1 15:-1 
1 0 0 0 1:-1 2:-1 3:-0.92869 4:0.2222 5:-0.913669 6:0.685714 7:-1 8:-1 9:-0.875 10:-0.714286 11:0.145087 12:-1 13:-1 14:-1 15:-1 
1 0 0 0 1:-0.755121 2:-1 3:-1 4:-0.77432 5:-0.985612 6:1 7:-1 8:-1 9:-1 10:-1 11:-0.77432 12:-0.333333 13:-1 14:-1 15:-0.333333 
1 0 0 0 1:-0.911328 2:-1 3:-0.977734 4:0.04919 5:-0.971223 6:1 7:-1 8:-1 9:-1 10:-1 11:0.04919 12:0.333333 13:-1 14:-1 15:-0.333333 
1 0 0 0 1:-1 2:-1 3:-0.968407 4:0.04919 5:-0.971223 6:1 7:-1 8:-1 9:-1 10:-1 11:0.04919 12:0.333333 13:-1 14:-1 15:-0.333333 
1 0 0 0 1:-0.817014 2:-1 3:-0.968407 4:0.255633 5:-0.956835 6:1 7:-1 8:-1 9:-1 10:-1 11:0.255633 12:0.333333 13:-1 14:-1 15:-0.333333 
1 0 0 0 1:-0.828803 2:-1 3:-0.99985 4:-0.68372 5:-0.985612 6:1 7:-1 8:-1 9:-1 10:-1 11:-0.68372 12:-0.333333 13:-1 14:-1 15:-0.333333 
1 0 1 0 1:-0.305658 2:-1 3:-0.999699 4:-0.84158 5:-0.985612 6:1 7:-1 8:-1 9:-1 10:-1 11:-0.84158 12:-0.333333 13:-1 14:-1 15:-0.333333 
1 1 0 0 1:-0.931959 2:-1 3:-0.971115 4:0.01876 5:-0.971223 6:1 7:-1 8:-1 9:-1 10:-1 11:0.01876 12:0.333333 13:-1 14:-1 15:-0.333333 
1 0 0 0 1:-1 2:-1 3:-0.964345 4:0.01876 5:-0.971223 6:1 7:-1 8:-1 9:-1 10:-1 11:0.01876 12:0.333333 13:-1 14:-1 15:-0.333333 
1 1 1 0 1:-0.915749 2:-1 3:-0.964345 4:-0.1249 5:-0.956835 6:1 7:-1 8:-1 9:-1 10:-1 11:-0.1249 12:0.333333 13:-1 14:-1 15:-1 
1 1 1 1 1:-1 2:1 3:-0.983903 4:-0.5665 5:-0.985612 6:-0.1 7:-1 8:-1 9:-0.875 11:-0.5665 12:-0.333333 13:-1 14:-0.333333 15:0.333333 
1 1 1 1 1:-1 2:-1 3:-0.983903 4:-0.711 5:-0.985612 6:-0.466667 7:-1 8:-1 9:-0.75 10:0.333333 11:-0.711 12:-0.333333 13:-1 14:-0.333333 15:1 
1 1 1 1 1:-1 2:-1 3:-0.983903 4:-0.711 5:-0.985612 6:-0.466667 7:-1 8:-1 9:-0.75 10:0.333333 11:-0.711 12:-1 13:-1 14:-0.333333 15:0.333333 
1 1 1 1 1:-1 2:-1 3:-0.983903 4:-0.78325 5:-0.985612 6:-0.65 7:-1 8:-1 9:-0.625 10:0.5 11:-1 12:-1 13:-1 14:-1 15:0.333333 
1 0 0 0 1:-0.806699 2:-1 3:-0.974575 4:0.3064 5:-0.956835 6:1 7:-1 8:-1 9:-1 10:-1 11:0.3064 12:0.333333 13:-1 14:-1 15:-0.333333 
1 0 0 0 1:-0.831751 2:-1 3:-0.970212 4:0.16368 5:-0.942446 6:1 7:-1 8:-1 9:-1 10:-1 11:0.110773 12:0.333333 13:-1 14:-1 15:-0.333333 
1 1 1 1 1:-0.92017 2:1 3:-0.965548 4:0.288772 5:-0.928058 6:1 7:-1 8:-1 9:-1 10:-1 11:0.0801267 12:1 13:-1 14:-0.333333 15:-0.333333 
1 1 1 0 1:-1 2:-1 3:-0.963442 4:0.288772 5:-0.928058 6:1 7:-1 8:-1 9:-1 10:-1 11:0.0801267 12:0.333333 13:-1 14:-0.333333 15:-1 
1 1 1 1 1:-0.898065 2:-1 3:-0.963442 4:0.0739767 5:-0.928058 6:0.633333 7:-0.953488 8:-0.666667 9:-1 10:-1 11:-0.158447 12:-0.333333 13:-0.333333 14:-0.333333 15:-0.333333 
1 1 1 1 1:-0.923117 2:-1 3:-0.945389 4:0.247285 5:-0.899281 6:0.725 7:-0.953488 8:-0.75 9:-1 10:-1 11:0.17814 12:0.333333 13:-0.333333 14:-0.333333 15:0.333333 
1 1 1 1 1:-1 2:-1 3:-0.938318 4:0.247285 5:-0.899281 6:0.725 7:-0.953488 8:-0.75 9:-1 10:-1 11:0.17814 12:0.333333 13:-1 14:-0.333333 15:-0.333333 
1 1 1 0 1:-0.721227 2:-1 3:-0.938318 4:0.208184 5:-0.884892 6:0.755556 7:-0.953488 8:-0.777778 9:-1 10:-1 11:0.4766 12:0.333333 13:-1 14:-1 15:-0.333333 
1 1 1 0 1:-0.917222 2:-1 3:-0.926583 4:0.273432 5:-0.870504 6:0.78 7:-0.953488 8:-0.8 9:-1 10:-1 11:0.537333 12:0.333333 13:-1 14:-1 15:-0.333333 
1 1 1 0 1:-1 2:-1 3:-0.919362 4:0.273432 5:-0.870504 6:0.78 7:-0.953488 8:-0.8 9:-1 10:-1 11:0.537333 12:0.333333 13:-1 14:-1 15:-0.333333 
1 1 0 0 1:-1 2:-1 3:-0.919362 4:0.157665 5:-0.870504 6:0.6 7:-0.953488 8:-0.818182 9:-0.875 10:-0.818182 11:-0.08132 12:-0.333333 13:-1 14:-1 15:-1 
1 1 0 0 1:-1 2:-1 3:-0.919362 4:0.157665 5:-0.870504 6:0.6 7:-0.953488 8:-0.818182 9:-0.875 10:-0.818182 11:-0.08132 12:-1 13:-1 14:-1 15:-1 
1 1 0 0 1:-0.849434 2:-1 3:-0.919362 4:0.191142 5:-0.856115 6:0.633333 7:-0.953488 8:-0.833333 9:-0.875 10:-0.833333 11:0.140013 12:-0.333333 13:-1 14:-1 15:-0.333333 
1 0.2101897627474022 0 0 1:-1 2:-1 3:-0.885211 4:0.191142 5:-0.856115 6:0.633333 7:-0.953488 8:-0.833333 9:-0.875 10:-0.833333 11:0.140013 12:-0.333333 13:-1 14:-1 15:-0.333333 
1 1 0 0 1:-1 2:-1 3:-0.885211 4:0.191142 5:-0.856115 6:0.633333 7:-0.953488 8:-0.833333 9:-0.875 10:-0.833333 11:0.140013 12:-0.333333 13:-1 14:-1 15:-0.333333 
1 1 1 1 1:-0.852382 2:1 3:-0.879344 4:0.127211 5:-0.841727 6:0.528571 7:-0.906977 8:-0.714286 9:-0.875 10:-0.857143 11:0.0155467 12:-0.333333 13:-0.333333 14:-0.333333 15:0.333333 
1 1 1 1 1:-1 2:-1 3:-0.868362 4:0.127211 5:-0.841727 6:0.528571 7:-0.906977 8:-0.714286 9:-0.875 10:-0.857143 11:0.0155467 12:-0.333333 13:-0.333333 14:-0.333333 15:0.333333 
1 1 1 1 1:-1 2:-1 3:-0.868362 4:0.127211 5:-0.841727 6:0.528571 7:-0.906977 8:-0.714286 9:-0.875 10:-0.857143 11:0.0155467 12:-0.333333 13:-1 14:-0.333333 15:-0.333333 
1 1 1 0.02084545131922068 1:-0.65786 2:-1 3:-0.868362 4:0.09998 5:-0.827338 6:0.56 7:-0.906977 8:-0.733333 9:-0.875 10:-0.866667 11:-0.264667 12:-0.333333 13:-1 14:-1 15:-0.333333 
1 1 1 1 1:-1 2:-1 3:-0.816158 4:0.09998 5:-0.827338 6:0.56 7:-0.906977 8:-0.733333 9:-0.875 10:-0.866667 11:-0.264667 12:-0.333333 13:-1 14:-1 15:-0.333333 
1 1 1 1 1:-1 2:-1 3:-0.816158 4:0.09998 5:-0.827338 6:0.56 7:-0.906977 8:-0.733333 9:-0.875 10:-0.866667 11:-0.264667 12:-0.333333 13:-1 14:-1 15:-0.333333 
1 1 1 0 1:-0.802278 2:-1 3:-0.816158 4:0.123841 5:-0.81295 6:0.5875 7:-0.906977 8:-0.75 9:-0.875 10:-0.875 11:0.229253 12:-0.333333 13:-1 14:-1 15:-0.333333 
1 1 1 0 1:-1 2:-1 3:-0.782759 4:0.123841 5:-0.81295 6:0.5875 7:-0.906977 8:-0.75 9:-0.875 10:-0.875 11:0.229253 12:-0.333333 13:-1 14:-1 15:-0.333333 
1 1 1 0 1:-1 2:-1 3:-0.782759 4:0.123841 5:-0.81295 6:0.5875 7:-0.906977 8:-0.75 9:-0.875 10:-0.875 11:0.229253 12:-0.333333 13:-1 14:-1 15:-0.333333 
1 1 1 0 1:-0.819962 2:-1 3:-0.782759 4:0.146351 5:-0.798561 6:0.611765 7:-0.906977 8:-0.764706 9:-0.875 10:-0.882353 11:0.235667 12:-0.333333 13:-1 14:-1 15:-0.333333 
1 1 1 0 1:-1 2:-1 3:-0.747405 4:0.146351 5:-0.798561 6:0.611765 7:-0.906977 8:-0.764706 9:-0.875 10:-0.882353 11:0.235667 12:-0.333333 13:-1 14:-1 15:-0.333333 
1 1 1 0 1:-1 2:-1 3:-0.747405 4:0.146351 5:-0.798561 6:0.611765 7:-0.906977 8:-0.764706 9:-0.875 10:-0.882353 11:0.235667 12:-0.333333 13:-1 14:-1 15:-0.333333 
1 1 1 0 1:-0.862697 2:-1 3:-0.747405 4:0.168973 5:-0.784173 6:0.633333 7:-0.906977 8:-0.777778 9:-0.875 10:-0.888889 11:0.51394 12:-0.333333 13:-1 14:-1 15:-0.333333 
1 1 1 0 1:-1 2:-1 3:-0.705581 4:0.168973 5:-0.784173 6:0.633333 7:-0.906977 8:-0.777778 9:-0.875 10:-0.888889 11:0.51394 12:-0.333333 13:-1 14:-1 15:-0.333333 
1 1 1 1 1:-0.743332 2:-1 3:-0.705581 4:0.129485 5:-0.769784 6:0.652632 7:-0.906977 8:-0.789474 9:-0.875 10:-0.894737 11:0.159587 12:0.333333 13:-1 14:-1 15:0.333333 
1 1 1 1 1:-0.905433 2:-1 3:-0.693997 4:0.165815 5:-0.755396 6:0.67 7:-0.906977 8:-0.8 9:-0.875 10:-0.9 11:0.276113 12:0.333333 13:-1 14:-1 15:-0.333333 
1 1 1 1 1:-1 2:-1 3:-0.686926 4:0.165815 5:-0.755396 6:0.67 7:-0.906977 8:-0.8 9:-0.875 10:-0.9 11:0.276113 12:0.333333 13:-1 14:-1 15:-0.333333 
1 1 1 0.531633853407755 1:-1 2:-1 3:-0.686926 4:0.165815 5:-0.755396 6:0.67 7:-0.906977 8:-0.8 9:-0.875 10:-0.9 11:0.276113 12:-0.333333 13:-1 14:-1 15:-1 
1 1 1 1 1:-0.874487 2:-1 3:-0.686926 4:0.1103 5:-0.755396 6:0.580952 7:-0.860465 8:-0.714286 9:-0.875 10:-0.904762 11:-0.24174 12:-1 13:-0.333333 14:-1 15:-0.333333 
1 1 1 1 1:-0.762489 2:1 3:-0.641342 4:0.115404 5:-0.741007 6:0.6 7:-0.860465 8:-0.727273 9:-0.875 10:-0.909091 11:0.02622 12:-0.333333 13:-0.333333 14:-0.333333 15:0.333333 
1 1 1 1 1:-1 2:1 3:-0.60689 4:0.0669078 5:-0.741007 6:0.521739 7:-0.860465 8:-0.73913 9:-0.75 10:-0.826087 11:-0.592473 12:-0.333333 13:-0.333333 14:0.333333 15:1 
1 0 0 0 1:-0.778699 2:-1 3:-0.95592 4:0.58916 5:-0.928058 6:1 7:-1 8:-1 9:-1 10:-1 11:0.62424 12:0.333333 13:-1 14:-1 15:-0.333333 
1 0 0 0 1:-1 2:-1 3:-0.892734 4:0.397636 5:-0.870504 6:0.6 7:-1 8:-1 9:-0.75 10:-0.636364 11:-0.405173 12:-1 13:-1 14:-1 15:-0.333333 
1 1 1 0.9211898852391621 1:0.201282 2:-1 3:-0.99985 4:-0.89914 5:-0.985612 6:1 7:-1 8:-1 9:-1 10:-1 11:-0.89914 12:-0.333333 13:-1 14:-1 15:-0.333333 
1 1 0 0 1:-0.909854 2:-1 3:-0.96946 4:-0.01352 5:-0.971223 6:1 7:-1 8:-1 9:-1 10:-1 11:-0.01352 12:0.333333 13:-1 14:-1 15:-0.333333 
1 1 0 0 1:-1 2:-1 3:-0.961486 4:-0.01352 5:-0.971223 6:1 7:-1 8:-1 9:-1 10:-1 11:-0.01352 12:0.333333 13:-1 14:-1 15:-0.333333 
1 0 0 0 1:-0.930485 2:-1 3:-0.934256 4:0.2948 5:-0.913669 6:1 7:-1 8:-1 9:-1 10:-1 11:0.336873 12:0.333333 13:-1 14:-1 15:-0.333333 
1 0 0 0 1:-1 2:-1 3:-0.926283 4:0.2948 5:-0.913669 6:1 7:-1 8:-1 9:-1 10:-1 11:0.336873 12:0.333333 13:-1 14:-1 15:-0.333333 
1 0 0 0 1:-0.853855 2:-1 3:-0.926283 4:0.299143 5:-0.899281 6:1 7:-1 8:-1 9:-1 10:-1 11:0.277813 12:0.333333 13:-1 14:-1 15:-0.333333 
1 0 0 0 1:-0.92017 2:-1 3:-0.918159 4:0.363935 5:-0.884892 6:1 7:-1 8:-1 9:-1 10:-1 11:0.645953 12:0.333333 13:-1 14:-1 15:-0.333333 
1 0 0 0 1:-1 2:-1 3:-0.910335 4:0.363935 5:-0.884892 6:1 7:-1 8:-1 9:-1 10:-1 11:0.645953 12:0.333333 13:-1 14:-1 15:-0.333333 
1 0 0 0 1:-0.92017 2:-1 3:-0.910335 4:0.415307 5:-0.870504 6:1 7:-1 8:-1 9:-1 10:-1 11:0.65632 12:0.333333 13:-1 14:-1 15:-0.333333 
1 0 0 0 1:-0.93638 2:-1 3:-0.903716 4:0.457736 5:-0.856115 6:1 7:-1 8:-1 9:-1 10:-1 11:0.827787 12:0.333333 13:-1 14:-1 15:-0.333333 
1 0 0 0 1:-1 2:-1 3:-0.896645 4:0.457736 5:-0.856115 6:1 7:-1 8:-1 9:-1 10:-1 11:0.827787 12:0.333333 13:-1 14:-1 15:-0.333333 
1 0 0 0 1:-1 2:-1 3:-0.896645 4:0.325215 5:-0.856115 6:0.8 7:-1 8:-1 9:-0.875 10:-0.818182 11:0.22196 12:-0.333333 13:-1 14:-1 15:-1 
1 0 0 0 1:-1 2:-1 3:-0.896645 4:0.325215 5:-0.856115 6:0.8 7:-1 8:-1 9:-0.875 10:-0.818182 11:0.22196 12:-1 13:-1 14:-1 15:-1 
1 0 0 0 1:-1 2:-1 3:-0.896645 4:0.21478 5:-0.856115 6:0.633333 7:-1 8:-1 9:-0.75 10:-0.666667 11:-0.3868 12:-1 13:-1 14:-1 15:-0.333333 
0 0 1 0 1:-0.271764 2:-1 3:-1 4:-0.92032 5:-0.985612 6:1 7:-1 8:-1 9:-1 10:-1 11:-0.92032 12:-0.333333 13:-1 14:-1 15:-0.333333 
1 1 0 0 1:-0.931959 2:-1 3:-0.969159 4:-0.02061 5:-0.971223 6:1 7:-1 8:-1 9:-1 10:-1 11:-0.02061 12:0.333333 13:-1 14:-1 15:-0.333333 
1 1 0 0 1:-1 2:-1 3:-0.962991 4:-0.02061 5:-0.971223 6:1 7:-1 8:-1 9:-1 10:-1 11:-0.02061 12:0.333333 13:-1 14:-1 15:-0.333333 
1 1 0 0 1:-0.901012 2:-1 3:-0.99985 4:-1 5:-1 6:1 7:-0.953488 8:1 9:-1 10:-1 11:-1 12:-1 13:-0.333333 14:-1 15:-0.333333 
1 1 1 1 1:-0.847961 2:1 3:-0.979389 4:-0.62633 5:-0.985612 6:-0.1 7:-0.953488 9:-1 10:-1 11:-0.62633 12:-0.333333 13:-0.333333 14:-0.333333 15:0.333333 
1 1 1 1 1:-1 2:-1 3:-0.955168 4:-0.62633 5:-0.985612 6:-0.1 7:-0.953488 9:-1 10:-1 11:-0.62633 12:-0.333333 13:-0.333333 14:-0.333333 15:0.333333 
1 1 1 1 1:-0.846487 2:-1 3:-0.955168 4:-0.750887 5:-0.985612 6:-0.466667 7:-0.906977 8:0.333333 9:-1 10:-1 11:-0.750887 12:-0.333333 13:-0.333333 14:-0.333333 15:0.333333 
1 1 1 0 1:-0.940801 2:-1 3:-0.97954 4:-0.1324 5:-0.971223 6:1 7:-1 8:-1 9:-1 10:-1 11:-0.1324 12:0.333333 13:-1 14:-1 15:-0.333333 
1 1 1 0 1:-0.909854 2:-1 3:-0.882955 4:0.246502 5:-0.841727 6:0.661538 7:-0.906977 8:-0.692308 9:-1 10:-1 11:0.842893 12:0.333333 13:-1 14:-1 15:-0.333333 
1 1 1 0 1:-1 2:-1 3:-0.873928 4:0.246502 5:-0.841727 6:0.661538 7:-0.906977 8:-0.692308 9:-1 10:-1 11:0.842893 12:0.333333 13:-1 14:-1 15:-0.333333 
1 1 1 0 1:-1 2:-1 3:-0.873928 4:0.157466 5:-0.841727 6:0.528571 7:-0.906977 8:-0.714286 9:-0.875 10:-0.857143 11:0.229473 12:-0.333333 13:-1 14:-1 15:-1 
1 1 0 0 1:-1 2:-1 3:-0.873928 4:0.157466 5:-0.841727 6:0.528571 7:-0.906977 8:-0.714286 9:-0.875 10:-0.857143 11:0.229473 12:-1 13:-1 14:-1 15:-1 
1 1 1 0 1:-0.855329 2:-1 3:-0.873928 4:0.194912 5:-0.827338 6:0.56 7:-0.906977 8:-0.733333 9:-0.875 10:-0.866667 11:0.187353 12:-0.333333 13:-1 14:-1 15:-0.333333 
1 1 1 0 1:-1 2:-1 3:-0.826087 4:0.194912 5:-0.827338 6:0.56 7:-0.906977 8:-0.733333 9:-0.875 10:-0.866667 11:0.187353 12:-0.333333 13:-1 14:-1 15:-0.333333 
1 1 1 1 1:-0.793436 2:-1 3:-0.826087 4:0.175371 5:-0.81295 6:0.5875 7:-0.906977 8:-0.75 9:-0.875 10:-0.875 11:-0.13286 12:0.333333 13:-1 14:-1 15:0.333333 
1 1 1 1 1:-0.915749 2:-1 3:-0.813751 4:0.215289 5:-0.798561 6:0.611765 7:-0.906977 8:-0.764706 9:-0.875 10:-0.882353 11:0.485133 12:0.333333 13:-1 14:-1 15:-0.333333 
1 1 1 1 1:-1 2:-1 3:-0.806078 4:0.215289 5:-0.798561 6:0.611765 7:-0.906977 8:-0.764706 9:-0.875 10:-0.882353 11:0.485133 12:0.333333 13:-1 14:-1 15:-0.333333 
1 1 1 1 1:-0.911328 2:-1 3:-0.806078 4:0.250798 5:-0.784173 6:0.633333 7:-0.906977 8:-0.777778 9:-0.875 10:-0.888889 11:0.530227 12:0.333333 13:-1 14:-1 15:-1 
1 1 1 0 1:-1 2:-1 3:-0.7966 4:0.250798 5:-0.784173 6:0.633333 7:-0.906977 8:-0.777778 9:-0.875 10:-0.888889 11:0.530227 12:-0.333333 13:-1 14:-1 15:-1 
1 1 1 1 1:-0.861224 2:-1 3:-0.7966 4:0.272172 5:-0.769784 6:0.652632 7:-0.906977 8:-0.789474 9:-0.875 10:-0.894737 11:0.78844 12:0.333333 13:-1 14:-1 15:-0.333333 
1 1 1 1 1:-0.940801 2:-1 3:-0.788025 4:0.301976 5:-0.755396 6:0.67 7:-0.906977 8:-0.8 9:-0.875 10:-0.9 11:0.7932 12:0.333333 13:-1 14:-1 15:-0.333333 
1 1 1 1 1:-1 2:-1 3:-0.780803 4:0.301976 5:-0.755396 6:0.67 7:-0.906977 8:-0.8 9:-0.875 10:-0.9 11:0.7932 12:0.333333 13:-1 14:-1 15:-0.333333 
1 1 1 1 1:-0.893644 2:-1 3:-0.780803 4:0.321935 5:-0.741007 6:0.685714 7:-0.906977 8:-0.809524 9:-0.875 10:-0.904762 11:0.74876 12:0.333333 13:-1 14:-1 15:-0.333333 
1 1 1 1 1:-0.917222 2:-1 3:-0.772679 4:0.346525 5:-0.726619 6:0.7 7:-0.906977 8:-0.818182 9:-0.875 10:-0.909091 11:0.817427 12:0.333333 13:-1 14:-1 15:-0.333333 
1 1 1 1 1:-1 2:-1 3:-0.764405 4:0.346525 5:-0.726619 6:0.7 7:-0.906977 8:-0.818182 9:-0.875 10:-0.909091 11:0.817427 12:0.333333 13:-1 14:-1 15:-0.333333 
1 1 1 1 1:-1 2:-1 3:-0.764405 4:0.28798 5:-0.726619 6:0.617391 7:-0.906977 8:-0.826087 9:-0.75 10:-0.826087 11:0.194673 12:-0.333333 13:-1 14:-1 15:-1 
1 1 1 0 1:-1 2:-1 3:-0.764405 4:0.28798 5:-0.726619 6:0.617391 7:-0.906977 8:-0.826087 9:-0.75 10:-0.826087 11:0.194673 12:-1 13:-1 14:-1 15:-1 
1 1 1 1 1:-1 2:-1 3:-0.764405 4:0.234314 5:-0.726619 6:0.541667 7:-0.906977 8:-0.833333 9:-0.625 10:-0.75 11:-0.379033 12:-1 13:-1 14:-1 15:-0.333333 
1 0 0 0 1:-0.921643 2:-1 3:-0.981195 4:0.43723 5:-0.971223 6:1 7:-1 8:-1 9:-1 10:-1 11:0.43723 12:0.333333 13:-1 14:-1 15:-0.333333 
1 0 0 0 1:-0.861224 2:-1 3:-0.973973 4:0.471673 5:-0.956835 6:1 7:-1 8:-1 9:-1 10:-1 11:0.471673 12:0.333333 13:-1 14:-1 15:-0.333333 
1 0 0 0 1:-1 2:-1 3:-0.892734 4:0.400633 5:-0.870504 6:0.6 7:-1 8:-1 9:-0.75 10:-0.636364 11:-0.411493 12:-1 13:-1 14:-1 15:-0.333333 
1 0 0 0 1:-0.929012 2:-1 3:-0.99985 4:-0.84144 5:-0.985612 6:1 7:-1 8:-1 9:-1 10:-1 11:-0.84144 12:-0.333333 13:-1 14:-1 15:-0.333333 
1 1 1 1 1:-0.541442 2:-1 3:-0.973371 4:-0.82066 5:-0.971223 6:1 7:-1 8:-1 9:-1 10:-1 11:-0.82066 12:0.333333 13:-1 14:-1 15:-0.333333 
1 1 1 1 1:-0.805225 2:1 3:-0.967053 4:-0.269453 5:-0.956835 6:1 7:-1 8:-1 9:-1 10:-1 11:-0.269453 12:1 13:-1 14:-0.333333 15:-0.333333 
1 1 1 1 1:-1 2:-1 3:-0.960734 4:-0.269453 5:-0.956835 6:1 7:-1 8:-1 9:-1 10:-1 11:-0.269453 12:0.333333 13:-1 14:-0.333333 15:-1 
1 1 1 1 1:-0.791962 2:-1 3:-0.960734 4:-0.02703 5:-0.942446 6:1 7:-1 8:-1 9:-1 10:-1 11:0.24444 12:0.333333 13:-1 14:-0.333333 15:-1 
1 0 0 0 1:-1 2:-1 3:-0.957124 4:-0.02703 5:-0.942446 6:1 7:-1 8:-1 9:-1 10:-1 11:0.24444 12:-0.333333 13:-1 14:-1 15:-1 
1 0 0 0 1:-0.234923 2:-1 3:-0.999699 4:-0.70402 5:-0.985612 6:1 7:-1 8:-1 9:-1 10:-1 11:-0.70402 12:-0.333333 13:-1 14:-1 15:-0.333333 
1 1 1 1 1:-0.712385 2:-1 3:-0.975026 4:-0.54665 5:-0.971223 6:1 7:-1 8:-1 9:-1 10:-1 11:-0.54665 12:0.333333 13:-1 14:-1 15:-0.333333 
1 1 1 1 1:0.22043 2:-1 3:-0.99985 4:-0.98004 5:-0.985612 6:1 7:-1 8:-1 9:-1 10:-1 11:-0.98004 12:-0.333333 13:-1 14:-1 15:-0.333333 
1 0 0 0 1:-0.464812 2:-1 3:-0.99985 4:-0.73618 5:-0.985612 6:1 7:-1 8:-1 9:-1 10:-1 11:-0.73618 12:-0.333333 13:-1 14:-1 15:-0.333333 
1 1 0 0 1:-1 2:-1 3:-0.984053 4:-0.333333 5:-0.985612 6:-0.466667 7:-1 8:-1 9:-0.75 10:0.333333 11:-0.333333 12:-1 13:-1 14:-1 15:0.333333 
1 1 0.9084194006446185 1 1:-0.946695 2:-1 3:-0.999699 4:-1 5:-1 6:1 7:-0.953488 8:1 9:-1 10:-1 11:-1 12:-1 13:-0.333333 14:-1 15:-0.333333 
1 1 1 1 1:-0.687333 2:1 3:-0.982248 4:-0.77024 5:-0.985612 6:-0.1 7:-0.953488 9:-1 10:-1 11:-0.77024 12:-0.333333 13:-0.333333 14:-0.333333 15:0.333333 
1 1 1 0 1:-0.618072 2:-1 3:-0.938318 4:0.159557 5:-0.913669 6:0.685714 7:-0.953488 8:-0.714286 9:-1 10:-1 11:0.601767 12:0.333333 13:-1 14:-1 15:-0.333333 
1 1 1 0 1:-1 2:-1 3:-0.926734 4:0.159557 5:-0.913669 6:0.685714 7:-0.953488 8:-0.714286 9:-1 10:-1 11:0.601767 12:0.333333 13:-1 14:-1 15:-0.333333 
1 1 1 0 1:-0.895118 2:-1 3:-0.926734 4:0.223625 5:-0.899281 6:0.725 7:-0.953488 8:-0.75 9:-1 10:-1 11:0.565707 12:0.333333 13:-1 14:-1 15:-0.333333 
1 1 0 0 1:-0.924591 2:-1 3:-0.917707 4:0.294349 5:-0.884892 6:0.755556 7:-0.953488 8:-0.777778 9:-1 10:-1 11:0.7404 12:0.333333 13:-1 14:-1 15:-0.333333 
1 1 0 0 1:-1 2:-1 3:-0.909583 4:0.294349 5:-0.884892 6:0.755556 7:-0.953488 8:-0.777778 9:-1 10:-1 11:0.7404 12:0.333333 13:-1 14:-1 15:-0.333333 
1 1 0 0 1:-0.896591 2:-1 3:-0.909583 4:0.35025 5:-0.870504 6:0.78 7:-0.953488 8:-0.8 9:-1 10:-1 11:0.7952 12:0.333333 13:-1 14:-1 15:-0.333333 
1 1 0 0 1:-0.934906 2:-1 3:-0.899504 4:0.397451 5:-0.856115 6:0.8 7:-0.953488 8:-0.818182 9:-1 10:-1 11:0.860987 12:0.333333 13:-1 14:-1 15:-0.333333 
1 1 0 0 1:-1 2:-1 3:-0.89168 4:0.397451 5:-0.856115 6:0.8 7:-0.953488 8:-0.818182 9:-1 10:-1 11:0.860987 12:0.333333 13:-1 14:-1 15:-0.333333 
1 1 0 0 1:-1 2:-1 3:-0.89168 4:0.280997 5:-0.856115 6:0.633333 7:-0.953488 8:-0.833333 9:-0.875 10:-0.833333 11:0.24094 12:-0.333333 13:-1 14:-1 15:-1 
1 1 0 0 1:-1 2:-1 3:-0.89168 4:0.280997 5:-0.856115 6:0.633333 7:-0.953488 8:-0.833333 9:-0.875 10:-0.833333 11:0.24094 12:-1 13:-1 14:-1 15:-1 
1 1 0 0 1:-1 2:-1 3:-0.89168 4:0.182458 5:-0.856115 6:0.492308 7:-0.953488 8:-0.846154 9:-0.75 10:-0.692308 11:-0.376847 12:-1 13:-1 14:-1 15:-0.333333 
1 1 0.7116099035510093 0 1:-0.833224 2:-1 3:-0.998947 4:-1 5:-1 6:1 7:-0.953488 8:1 9:-1 10:-1 11:-1 12:-1 13:-0.333333 14:-1 15:-0.333333 
1 1 1 1 1:-0.787541 2:1 3:-0.977584 4:-1 5:-1 6:1 7:-0.906977 8:1 9:-1 10:-1 11:-1 12:-1 13:0.333333 14:-0.333333 15:0.333333 
1 1 1 1 1:-1 2:-1 3:-0.973672 4:-1 5:-1 6:1 7:-0.906977 8:1 9:-1 10:-1 11:-1 12:-1 13:0.333333 14:-0.333333 15:0.333333 
1 1 1 1 1:-0.771331 2:-1 3:-0.979389 4:-0.46051 5:-0.971223 6:1 7:-1 8:-1 9:-1 10:-1 11:-0.46051 12:0.333333 13:-1 14:-1 15:-0.333333 
1 1 1 1 1:-0.931959 2:1 3:-0.975779 4:-0.01278 5:-0.956835 6:1 7:-1 8:-1 9:-1 10:-1 11:-0.01278 12:1 13:-1 14:-0.333333 15:-0.333333 
1 1 1 1 1:-1 2:-1 3:-0.968708 4:-0.01278 5:-0.956835 6:1 7:-1 8:-1 9:-1 10:-1 11:-0.01278 12:0.333333 13:-1 14:-0.333333 15:-1 
1 1 1 0 1:-0.934906 2:-1 3:-0.968708 4:0.21188 5:-0.942446 6:1 7:-1 8:-1 9:-1 10:-1 11:0.421293 12:0.333333 13:-1 14:-0.333333 15:-1 
1 1 1 0 1:-0.65786 2:-1 3:-0.959982 4:0.07456 5:-0.928058 6:1 7:-1 8:-1 9:-1 10:-1 11:0.431273 12:0.333333 13:-1 14:-1 15:-0.333333 
1 1 0 0 1:-0.946695 2:-1 3:-0.947044 4:0.210683 5:-0.913669 6:1 7:-1 8:-1 9:-1 10:-1 11:0.434147 12:0.333333 13:-1 14:-1 15:-0.333333 
1 1 0 0 1:-1 2:-1 3:-0.939672 4:0.210683 5:-0.913669 6:1 7:-1 8:-1 9:-1 10:-1 11:0.434147 12:0.333333 13:-1 14:-1 15:-0.333333 
1 0 0 0 1:-0.884802 2:-1 3:-0.939672 4:0.294154 5:-0.899281 6:1 7:-1 8:-1 9:-1 10:-1 11:0.403853 12:0.333333 13:-1 14:-1 15:-0.333333 
1 0 0 0 1:-0.946695 2:-1 3:-0.929592 4:0.368955 5:-0.884892 6:1 7:-1 8:-1 9:-1 10:-1 11:0.859613 12:0.333333 13:-1 14:-1 15:-0.333333 
1 0 0 0 1:-1 2:-1 3:-0.922672 4:0.368955 5:-0.884892 6:1 7:-1 8:-1 9:-1 10:-1 11:0.859613 12:0.333333 13:-1 14:-1 15:-0.333333 
1 0 0 0 1:-1 2:-1 3:-0.922672 4:0.216849 5:-0.884892 6:0.755556 7:-1 8:-1 9:-0.875 10:-0.777778 11:0.22918 12:-0.333333 13:-1 14:-1 15:-1 
1 0 0 0 1:-1 2:-1 3:-0.922672 4:0.216849 5:-0.884892 6:0.755556 7:-1 8:-1 9:-0.875 10:-0.777778 11:0.22918 12:-1 13:-1 14:-1 15:-1 
1 1 0 0 1:-0.871539 2:-1 3:-0.999699 4:-1 5:-1 6:1 7:-0.953488 8:1 9:-1 10:-1 11:-1 12:-1 13:-0.333333 14:-1 15:-0.333333 
1 0 0 0 1:-0.926064 2:-1 3:-0.975478 4:0.17454 5:-0.971223 6:1 7:-1 8:-1 9:-1 10:-1 11:0.17454 12:0.333333 13:-1 14:-1 15:-0.333333 
1 0 0 0 1:-1 2:-1 3:-0.968858 4:0.17454 5:-0.971223 6:1 7:-1 8:-1 9:-1 10:-1 11:0.17454 12:0.333333 13:-1 14:-1 15:-0.333333 
1 0 0 0 1:-0.806699 2:-1 3:-0.968858 4:0.125427 5:-0.956835 6:1 7:-1 8:-1 9:-1 10:-1 11:0.125427 12:0.333333 13:-1 14:-1 15:-0.333333 
1 0 0 0 1:-0.940801 2:-1 3:-0.953513 4:0.315935 5:-0.942446 6:1 7:-1 8:-1 9:-1 10:-1 11:0.597347 12:0.333333 13:-1 14:-1 15:-0.333333 
1 0 0 0 1:-1 2:-1 3:-0.946743 4:0.315935 5:-0.942446 6:1 7:-1 8:-1 9:-1 10:-1 11:0.597347 12:0.333333 13:-1 14:-1 15:-0.333333 
1 0 0 0 1:-0.837645 2:-1 3:-0.946743 4:0.3585 5:-0.928058 6:1 7:-1 8:-1 9:-1 10:-1 11:0.48114 12:0.333333 13:-1 14:-1 15:-0.333333 
1 0 0 0 1:-0.931959 2:-1 3:-0.936061 4:0.446603 5:-0.913669 6:1 7:-1 8:-1 9:-1 10:-1 11:0.76778 12:0.333333 13:-1 14:-1 15:-0.333333 
1 0 0 0 1:-1 2:-1 3:-0.928238 4:0.446603 5:-0.913669 6:1 7:-1 8:-1 9:-1 10:-1 11:0.76778 12:0.333333 13:-1 14:-1 15:-0.333333 
1 0 0 0 1:-0.87596 2:-1 3:-0.928238 4:0.507214 5:-0.899281 6:1 7:-1 8:-1 9:-1 10:-1 11:0.762253 12:0.333333 13:-1 14:-1 15:-0.333333 
1 0 0 0 1:-0.842066 2:-1 3:-0.866707 4:0.525348 5:-0.798561 6:0.853333 7:-1 8:-1 9:-0.875 10:-0.866667 11:0.169353 12:-0.333333 13:-1 14:-1 15:-0.333333 
1 0 0 0 1:-1 2:-1 3:-0.828945 4:0.525348 5:-0.798561 6:0.853333 7:-1 8:-1 9:-0.875 10:-0.866667 11:0.169353 12:-0.333333 13:-1 14:-1 15:-0.333333 
1 0 0 0 1:-1 2:-1 3:-0.828945 4:0.525348 5:-0.798561 6:0.853333 7:-1 8:-1 9:-0.875 10:-0.866667 11:0.169353 12:-0.333333 13:-1 14:-1 15:-0.333333 
1 0 0 0 1:-0.883328 2:-1 3:-0.828945 4:0.533164 5:-0.784173 6:0.8625 7:-1 8:-1 9:-0.875 10:-0.875 11:0.0888867 12:-0.333333 13:-1 14:-1 15:-0.333333 
1 0 0 0 1:-1 2:-1 3:-0.788927 4:0.533164 5:-0.784173 6:0.8625 7:-1 8:-1 9:-0.875 10:-0.875 11:0.0888867 12:-0.333333 13:-1 14:-1 15:-0.333333 
1 1 1 0 1:-0.942274 2:-1 3:-0.77975 4:0.5458 5:-0.755396 6:0.877778 7:-1 8:-1 9:-0.875 10:-0.888889 11:0.64806 12:0.333333 13:-1 14:-1 15:-0.333333 
1 1 1 0 1:-1 2:-1 3:-0.773582 4:0.5458 5:-0.755396 6:0.877778 7:-1 8:-1 9:-0.875 10:-0.888889 11:0.64806 12:0.333333 13:-1 14:-1 15:-0.333333 
1 1 1 0 1:-0.802278 2:-1 3:-0.773582 4:0.543916 5:-0.741007 6:0.884211 7:-1 8:-1 9:-0.875 10:-0.894737 11:0.60126 12:0.333333 13:-1 14:-1 15:-0.333333 
1 1 1 0 1:-0.937853 2:-1 3:-0.763653 4:0.561352 5:-0.726619 6:0.89 7:-1 8:-1 9:-0.875 10:-0.9 11:0.765447 12:0.333333 13:-1 14:-1 15:-0.333333 
1 1 1 0 1:-1 2:-1 3:-0.75598 4:0.561352 5:-0.726619 6:0.89 7:-1 8:-1 9:-0.875 10:-0.9 11:0.765447 12:0.333333 13:-1 14:-1 15:-0.333333 
1 1 1 0 1:-0.814067 2:-1 3:-0.75598 4:0.559464 5:-0.71223 6:0.895238 7:-1 8:-1 9:-0.875 10:-0.904762 11:0.641447 12:0.333333 13:-1 14:-1 15:-0.333333 
1 1 1 0 1:-0.937853 2:-1 3:-0.7459 4:0.574616 5:-0.697842 6:0.9 7:-1 8:-1 9:-0.875 10:-0.909091 11:0.769053 12:0.333333 13:-1 14:-1 15:-0.333333 
1 1 1 0 1:-1 2:-1 3:-0.738228 4:0.574616 5:-0.697842 6:0.9 7:-1 8:-1 9:-0.875 10:-0.909091 11:0.769053 12:0.333333 13:-1 14:-1 15:-0.333333 
1 1 1 0 1:-0.849434 2:-1 3:-0.738228 4:0.587277 5:-0.683453 6:0.904348 7:-1 8:-1 9:-0.875 10:-0.913043 11:0.760107 12:0.333333 13:-1 14:-1 15:-0.333333 
1 1 1 1 1:-0.886276 2:-1 3:-0.72875 4:0.599384 5:-0.669065 6:0.908333 7:-1 8:-1 9:-0.875 10:-0.916667 11:0.878827 12:0.333333 13:-1 14:-1 15:0.333333 
1 1 1 0 1:-0.818488 2:-1 3:-0.687528 4:0.586822 5:-0.582734 6:0.858065 7:-1 8:-1 9:-0.75 10:-0.870968 11:0.164087 12:-0.333333 13:-1 14:-1 15:-0.333333 
1 1 1 0 1:-1 2:-1 3:-0.650669 4:0.586822 5:-0.582734 6:0.858065 7:-1 8:-1 9:-0.75 10:-0.870968 11:0.164087 12:-0.333333 13:-1 14:-1 15:-0.333333 
1 1 1 0.1769512056021889 1:-1 2:-1 3:-0.650669 4:0.586822 5:-0.582734 6:0.858065 7:-1 8:-1 9:-0.75 10:-0.870968 11:0.164087 12:-0.333333 13:-1 14:-1 15:-0.333333 
1 1 1 1 1:-0.918696 2:-1 3:-0.650669 4:0.572885 5:-0.568345 6:0.8625 7:-1 8:-1 9:-0.75 10:-0.875 11:-0.08646 12:-0.333333 13:-1 14:-1 15:-0.333333 
1 1 1 1 1:-1 2:-1 3:-0.626298 4:0.525222 5:-0.568345 6:0.8 7:-1 8:-1 9:-0.625 10:-0.818182 11:-0.08646 12:-0.333333 13:-1 14:-1 15:-0.333333 
1 0 0 0 1:-0.738911 2:-1 3:-0.998796 4:-0.74308 5:-0.985612 6:1 7:-1 8:-1 9:-1 10:-1 11:-0.74308 12:-0.333333 13:-1 14:-1 15:-0.333333 
1 1 1 1 1:-0.756595 2:-1 3:-0.976832 4:-0.63125 5:-0.971223 6:1 7:-1 8:-1 9:-1 10:-1 11:-0.63125 12:0.333333 13:-1 14:-1 15:-0.333333 
1 1 1 1 1:-0.929012 2:1 3:-0.972318 4:-0.126887 5:-0.956835 6:1 7:-1 8:-1 9:-1 10:-1 11:-0.126887 12:1 13:-1 14:-0.333333 15:-0.333333 
1 1 1 1 1:-1 2:-1 3:-0.964646 4:-0.126887 5:-0.956835 6:1 7:-1 8:-1 9:-1 10:-1 11:-0.126887 12:0.333333 13:-1 14:-0.333333 15:-1 
1 1 1 1 1:-0.926064 2:-1 3:-0.964646 4:0.12562 5:-0.942446 6:1 7:-1 8:-1 9:-1 10:-1 11:0.415187 12:0.333333 13:-1 14:-0.333333 15:-1 
1 1 0 0 1:-0.778699 2:-1 3:-0.953814 4:0.194236 5:-0.928058 6:1 7:-1 8:-1 9:-1 10:-1 11:0.74456 12:0.333333 13:-1 14:-1 15:-0.333333 
1 0 0 0 1:-0.929012 2:-1 3:-0.943132 4:0.309583 5:-0.913669 6:1 7:-1 8:-1 9:-1 10:-1 11:0.746053 12:0.333333 13:-1 14:-1 15:-0.333333 
1 0 0 0 1:-1 2:-1 3:-0.93546 4:0.309583 5:-0.913669 6:1 7:-1 8:-1 9:-1 10:-1 11:0.746053 12:0.333333 13:-1 14:-1 15:-0.333333 
1 0 0 0 1:-0.836172 2:-1 3:-0.93546 4:0.358514 5:-0.899281 6:1 7:-1 8:-1 9:-1 10:-1 11:0.66904 12:0.333333 13:-1 14:-1 15:-0.333333 
1 0 0 0 1:-0.933432 2:-1 3:-0.925079 4:0.424818 5:-0.884892 6:1 7:-1 8:-1 9:-1 10:-1 11:0.80912 12:0.333333 13:-1 14:-1 15:-0.333333 
1 0 0 0 1:-1 2:-1 3:-0.919061 4:0.424818 5:-0.884892 6:1 7:-1 8:-1 9:-1 10:-1 11:0.80912 12:0.333333 13:-1 14:-1 15:-0.333333 
1 0 0 0 1:-1 2:-1 3:-0.919061 4:0.266504 5:-0.884892 6:0.755556 7:-1 8:-1 9:-0.875 10:-0.777778 11:0.180347 12:-0.333333 13:-1 14:-1 15:-1 
1 0 0 0 1:-1 2:-1 3:-0.919061 4:0.266504 5:-0.884892 6:0.755556 7:-1 8:-1 9:-0.875 10:-0.777778 11:0.180347 12:-1 13:-1 14:-1 15:-1 
1 1 1 1 1:-0.943748 2:1 3:-0.915751 4:0.193156 5:-0.870504 6:0.6 7:-0.953488 8:-0.818182 9:-0.875 10:-0.818182 11:-0.424607 12:-0.333333 13:-0.333333 14:-0.333333 15:0.333333 
1 1 1 1 1:-1 2:1 3:-0.883256 4:0.0937267 5:-0.870504 6:0.45 7:-0.953488 8:-0.833333 9:-0.75 10:-0.666667 11:-0.424607 12:-0.333333 13:-0.333333 14:0.333333 15:1 
1 0 0 0 1:-0.82733 2:-1 3:-0.999699 4:-1 5:-1 6:1 7:-0.953488 8:1 9:-1 10:-1 11:-1 12:-1 13:-0.333333 14:-1 15:-0.333333 
1 0 0 0 1:-0.507548 2:-1 3:-0.998796 4:-0.74048 5:-0.985612 6:1 7:-1 8:-1 9:-1 10:-1 11:-0.74048 12:-0.333333 13:-1 14:-1 15:-0.333333 
1 1 0 0 1:-0.877434 2:-1 3:-0.999549 4:-1 5:-1 6:1 7:-0.953488 8:1 9:-1 10:-1 11:-1 12:-1 13:-0.333333 14:-1 15:-0.333333 
1 1 1 1 1:-0.90838 2:1 3:-0.984655 4:-0.64786 5:-0.985612 6:-0.1 7:-0.953488 9:-1 10:-1 11:-0.64786 12:-0.333333 13:-0.333333 14:-0.333333 15:0.333333 
0.3966277104921258 0 0 0 1:-0.62544 2:-1 3:-0.99985 4:-0.80444 5:-0.985612 6:1 7:-1 8:-1 9:-1 10:-1 11:-0.80444 12:-0.333333 13:-1 14:-1 15:-0.333333 
1 1 0 0 1:-0.909854 2:-1 3:-0.974274 4:0.00315 5:-0.971223 6:1 7:-1 8:-1 9:-1 10:-1 11:0.00315 12:0.333333 13:-1 14:-1 15:-0.333333 
1 0.4574349004322292 0 0 1:-1 2:-1 3:-0.966752 4:0.00315 5:-0.971223 6:1 7:-1 8:-1 9:-1 10:-1 11:0.00315 12:0.333333 13:-1 14:-1 15:-0.333333 
1 0 0 0 1:-0.861224 2:-1 3:-0.966752 4:0.213467 5:-0.956835 6:1 7:-1 8:-1 9:-1 10:-1 11:0.213467 12:0.333333 13:-1 14:-1 15:-0.333333 
1 1 1 1 1:-0.223134 2:-1 3:-0.943584 4:0.297888 5:-0.928058 6:1 7:-1 8:-1 9:-1 10:-1 11:0.49438 12:1 13:-1 14:-0.333333 15:0.333333 
1 1 1 0 1:-1 2:-1 3:-0.924327 4:0.297888 5:-0.928058 6:1 7:-1 8:-1 9:-1 10:-1 11:0.49438 12:0.333333 13:-1 14:-0.333333 15:-0.333333 
1 0 0 0 1:-0.73449 2:-1 3:-0.924327 4:0.33241 5:-0.913669 6:1 7:-1 8:-1 9:-1 10:-1 11:0.451353 12:0.333333 13:-1 14:-1 15:-0.333333 
1 0 0 0 1:-0.85975 2:-1 3:-0.999549 4:-0.66044 5:-0.985612 6:1 7:-1 8:-1 9:-1 10:-1 11:-0.66044 12:-0.333333 13:-1 14:-1 15:-0.333333 
