svm_type c_svc
kernel_type rbf
gamma 0.0344828
nr_class 5
total_sv 5077
rho 0.139203 0.229335 -0.792063 0.679055 0.287763 0.0187601 0.909603 -0.282625 0.98511 0.781877
label 5 4 3 2 1
probA -1.5813 -2.09618 -2.68984 -3.21709 -1.07111 -2.24207 -2.47776 -1.83353 -1.80554 -1.24888
probB 0.0924864 0.190318 0.39005 0.436751 0.234464 0.74134 0.497754 0.885379 0.322189 0.0289886
nr_sv 1125 1472 1073 760 647
SV
0 0 0 0.03960645967953436 1:1 2:-0.95718 3:1 5:0.5 6:-0.0359755 8:-1 9:-0.814815 10:-1 11:-1 12:-0.99985 13:-0.95718 14:-0.985612 15:1 16:-1 17:-1 18:-1 19:-1 20:-0.969697 21:1 22:-0.95718 23:-0.333333 24:-1 25:-1 26:-0.333333 28:-1 29:-0.333333 
1 1 0 0 1:1 2:0.87136 3:-1 5:-0.857143 6:-0.883328 8:1 9:-0.740741 10:-1 11:1 12:-0.941026 13:0.113552 14:-0.928058 15:1 16:-1 17:-1 18:-1 19:-1 20:-0.969697 21:-0.6 22:0.566767 23:0.333333 24:-1 25:-1 26:-1 28:-1 29:-0.333333 
1 1 0 0 1:-1 2:-1 3:-1 5:-1 6:-1 8:-0.333333 9:-1 10:-1 11:1 12:-0.933805 13:0.113552 14:-0.928058 15:1 16:-1 17:-1 18:-1 19:-1 20:-0.969697 21:-0.6 22:0.566767 23:0.333333 24:-1 25:-1 26:-1 28:-1 29:-0.333333 
1 1 1 1 1:1 2:0.8808 3:-1 5:-0.857143 6:-0.905433 8:1 9:-0.740741 10:-1 11:1 12:-0.918159 13:0.31791 14:-0.884892 15:1 16:-1 17:-1 18:-1 19:-1 20:-0.969697 21:-0.75 22:0.658507 23:1 24:-1 25:-1 26:-1 28:-1 29:0.333333 
1 1 0 0 1:-1 2:-1 3:-1 5:-1 6:-1 8:-0.333333 9:-1 10:-1 11:1 12:-0.909583 13:0.31791 14:-0.884892 15:1 16:-1 17:-1 18:-1 19:-1 20:-0.969697 21:-0.75 22:0.658507 23:0.333333 24:-1 25:-1 26:-1 28:-1 29:-0.333333 
1 1 0 0 1:-0.333333 2:-1 3:-1 5:-1 6:-1 8:0.333333 9:-0.740741 10:-1 11:-1 12:-0.909583 13:0.171476 14:-0.884892 15:0.755556 16:-1 17:-1 18:-0.875 19:-0.777778 20:-0.969697 21:-0.777778 22:0.0358733 23:-0.333333 24:-1 26:-1 28:-1 29:-1 
1 1 1 1 1:0.333333 2:-1 3:1 5:-0.714286 6:-0.842066 8:1 9:-0.740741 10:-1 11:1 12:-0.978487 13:-0.51886 14:-0.985612 15:-0.1 16:-0.953488 18:-1 19:-1 20:-0.939394 21:1 22:-0.51886 23:-0.333333 24:-0.333333 25:-1 26:0.333333 28:-1 29:-0.333333 
1 1 1 1 1:-1 2:-1 3:-1 5:-1 6:-1 8:-0.333333 9:-1 10:-1 11:1 12:-0.962991 13:-0.0125733 14:-0.971223 15:0.266667 16:-0.953488 17:-0.333333 18:-1 19:-1 20:-0.939394 21:0.333333 22:-0.0125733 23:-0.333333 24:-0.333333 25:-1 26:-0.333333 28:-0.333333 29:-1 
1 1 1 1 1:1 2:0.32246 3:-1 5:-0.571429 6:-0.821435 8:-1 9:-0.851852 10:-1 11:-1 12:-0.962991 13:0.071185 14:-0.956835 15:0.45 16:-0.953488 17:-0.5 18:-1 19:-1 20:-0.939394 22:0.107487 23:0.333333 24:-1 25:-1 26:-1 28:-0.333333 29:-0.333333 
1 1 0 0 1:1 2:0.84434 3:-1 5:-0.857143 6:-0.946695 8:1 9:-0.740741 10:-1 11:1 12:-0.951557 13:0.225816 14:-0.942446 15:0.56 16:-0.953488 17:-0.6 18:-1 19:-1 20:-0.939394 21:-0.2 22:0.722267 23:0.333333 24:-1 25:-1 26:-1 28:-1 29:-0.333333 
1 1 0.5057177969691483 0 1:-1 2:-1 3:-1 5:-1 6:-1 8:-0.333333 9:-1 10:-1 11:1 12:-0.944637 13:0.225816 14:-0.942446 15:0.56 16:-0.953488 17:-0.6 18:-1 19:-1 20:-0.939394 21:-0.2 22:0.722267 23:0.333333 24:-1 25:-1 26:-1 28:-1 29:-0.333333 
1 0 0 0 1:1 2:-0.3448 3:1 5:-0.857143 6:-0.878907 8:-1 9:-0.814815 10:-1 11:-1 12:-0.99985 13:-0.3448 14:-0.985612 15:1 16:-1 17:-1 18:-1 19:-1 20:-0.969697 21:1 22:-0.3448 23:-0.333333 24:-1 25:-1 26:-0.333333 28:-1 29:-0.333333 
1 1 1 1 1:1 2:0.38306 3:-1 5:-0.785714 6:-0.845014 8:-1 9:-0.888889 10:-1 11:-1 12:-0.879645 13:0.0987133 14:-0.884892 15:0.755556 16:-0.953488 17:-0.777778 18:-1 19:-1 20:-0.939394 21:-0.555556 22:0.433993 23:0.333333 24:-1 25:-1 26:-1 28:-1 29:-0.333333 
1 1 1 0 1:1 2:0.832 3:-1 5:-0.857143 6:-0.842066 8:1 9:-0.777778 10:-1 11:1 12:-0.871521 13:0.172042 14:-0.870504 15:0.78 16:-0.953488 17:-0.8 18:-1 19:-1 20:-0.939394 21:-0.6 22:0.68864 23:0.333333 24:-1 25:-1 26:-1 28:-1 29:-0.333333 
1 0 0 0 1:-0.333333 2:-1 3:-1 5:-1 6:-1 8:-1 9:-0.740741 10:-1 11:-1 12:-0.980292 14:-0.985612 15:-0.1 16:-1 17:-1 18:-0.875 20:-0.969697 23:-0.333333 24:-1 26:-0.333333 28:-1 29:0.333333 
1 0 0 0 1:1 2:0.0304 3:1 5:-0.857143 6:-0.878907 8:-1 10:-1 11:-1 12:-0.980292 13:0.0101333 14:-0.971223 15:0.266667 16:-1 17:-1 18:-0.875 19:-0.333333 20:-0.939394 21:0.333333 22:0.0101333 23:-0.333333 24:-1 26:-0.333333 28:-1 29:0.333333 
1 0 0 0 1:1 2:0.51812 3:-1 5:-0.785714 6:-0.90838 8:-1 9:-0.814815 10:-1 11:-1 12:-0.971867 13:0.470067 14:-0.956835 15:1 16:-1 17:-1 18:-1 19:-1 20:-0.969697 21:-0.333333 22:0.470067 23:0.333333 24:-1 25:-1 26:-1 28:-1 29:-0.333333 
1 1 1 1 1:1 2:0.25716 3:-1 5:-0.857143 6:-0.933432 8:1 9:-0.777778 10:-1 11:1 12:-0.96946 13:-0.313985 14:-0.956835 15:0.45 16:-1 17:-1 18:-0.875 19:-0.5 20:-0.939394 22:-0.332813 23:0.333333 24:-1 26:-0.333333 28:-1 29:0.333333 
1 1 0 0 1:1 2:0.88898 3:-1 5:-0.857143 6:-0.937853 8:1 9:-0.777778 10:-1 11:1 12:-0.944938 13:0.180789 14:-0.913669 15:0.685714 16:-1 17:-1 18:-0.875 19:-0.714286 20:-0.939394 21:-0.428571 22:0.840487 23:0.333333 24:-1 25:-1 26:-1 28:-1 29:-0.333333 
1 1 0 0 1:-1 2:-1 3:-1 5:-1 6:-1 8:-0.333333 9:-1 10:-1 11:1 12:-0.938017 13:0.180789 14:-0.913669 15:0.685714 16:-1 17:-1 18:-0.875 19:-0.714286 20:-0.939394 21:-0.428571 22:0.840487 23:0.333333 24:-1 25:-1 26:-1 28:-1 29:-0.333333 
1 1 0 0 1:1 2:0.78608 3:-1 5:-0.714286 6:-0.867118 8:-1 9:-0.814815 10:-1 11:-1 12:-0.938017 13:0.25645 14:-0.899281 15:0.725 16:-1 17:-1 18:-0.875 19:-0.75 20:-0.939394 21:-0.5 22:0.807227 23:0.333333 24:-1 25:-1 26:-1 28:-1 29:-0.333333 
1 0 0 0 1:1 2:0.88736 3:-1 5:-0.857143 6:-0.927538 8:1 9:-0.666667 10:-1 11:1 12:-0.927637 13:0.326551 14:-0.884892 15:0.755556 16:-1 17:-1 18:-0.875 19:-0.777778 20:-0.939394 21:-0.555556 22:0.85414 23:0.333333 24:-1 25:-1 26:-1 28:-1 29:-0.333333 
1 1 0 0 1:-1 2:-1 3:-1 5:-1 6:-1 8:-0.333333 9:-1 10:-1 11:1 12:-0.919813 13:0.326551 14:-0.884892 15:0.755556 16:-1 17:-1 18:-0.875 19:-0.777778 20:-0.939394 21:-0.555556 22:0.85414 23:0.333333 24:-1 25:-1 26:-1 28:-1 29:-0.333333 
1 1 0 0 1:-0.333333 2:-1 3:-1 5:-1 6:-1 8:0.333333 9:-0.740741 10:-1 11:-1 12:-0.919813 13:0.193896 14:-0.884892 15:0.56 16:-1 17:-1 18:-0.75 19:-0.6 20:-0.939394 21:-0.6 22:0.22448 23:-0.333333 24:-1 26:-1 28:-1 29:-1 
1 0 0 0 1:-1 2:-1 3:-1 5:-1 6:-1 8:-0.333333 9:-0.037037 10:-1 11:-1 12:-0.919813 13:0.193896 14:-0.884892 15:0.56 16:-1 17:-1 18:-0.75 19:-0.6 20:-0.939394 21:-0.6 22:0.22448 23:-1 24:-1 26:-1 28:-1 29:-1 
1 1 1 1 1:-1 2:-1 3:-1 5:-1 6:-1 8:-0.333333 9:-1 10:-1 11:-1 12:-0.878291 13:0.126897 14:-0.870504 15:0.45 16:-0.953488 17:-0.833333 18:-0.75 19:-0.666667 20:-0.878788 21:-0.333333 22:-0.472067 23:-0.333333 24:-0.333333 25:-1 26:0.333333 28:-0.333333 29:0.333333 
1 1 1 1 1:-1 2:-1 3:-1 5:-1 6:-1 8:-0.333333 9:-0.0740741 10:-1 11:-1 12:-0.878291 13:0.126897 14:-0.870504 15:0.45 16:-0.953488 17:-0.833333 18:-0.75 19:-0.666667 20:-0.878788 21:-0.333333 22:-0.472067 23:-0.333333 24:-1 25:-1 26:-0.333333 28:-0.333333 29:-0.333333 
1 1 0 0 1:-0.333333 2:-1 3:-1 5:-1 6:-1 8:-1 9:0.62963 10:-1 11:-1 12:-0.878291 13:0.0402123 14:-0.870504 15:0.323077 16:-0.953488 17:-0.846154 18:-0.625 19:-0.538462 20:-0.878788 21:-0.384615 22:-0.472067 23:-1 24:-1 26:-1 28:-1 29:-0.333333 
1 1 1 1 1:1 2:0.07188 3:-1 5:-0.642857 6:-0.78312 8:-1 9:-0.851852 10:-1 11:-1 12:-0.916955 13:-0.07164 14:-0.899281 15:0.511111 16:-0.953488 17:-0.777778 18:-0.875 19:-0.777778 20:-0.939394 21:-0.555556 22:0.146227 23:0.333333 24:-1 25:-1 26:-1 28:-1 29:-0.333333 
1 1 1 0 1:1 2:0.7823 3:-1 5:-0.857143 6:-0.911328 8:1 9:-0.666667 10:-1 11:1 12:-0.90176 13:0.013754 14:-0.884892 15:0.56 16:-0.953488 17:-0.8 18:-0.875 19:-0.8 20:-0.939394 21:-0.6 22:0.537113 23:0.333333 24:-1 25:-1 26:-1 28:-1 29:-0.333333 
1 1 1 0 1:-1 2:-1 3:-1 5:-1 6:-1 8:-0.333333 9:-1 10:-1 11:1 12:-0.893787 13:0.013754 14:-0.884892 15:0.56 16:-0.953488 17:-0.8 18:-0.875 19:-0.8 20:-0.939394 21:-0.6 22:0.537113 23:0.333333 24:-1 25:-1 26:-1 28:-1 29:-0.333333 
1 1 1 1 1:-0.333333 2:-1 3:-1 5:-1 6:-1 8:0.333333 9:-0.814815 10:-1 11:-1 12:-0.893787 13:-0.0784055 14:-0.884892 15:0.4 16:-0.953488 17:-0.818182 18:-0.75 19:-0.636364 20:-0.939394 21:-0.636364 22:-0.0486067 23:-0.333333 24:-1 26:-1 28:-1 29:-1 
1 1 1 0 1:-1 2:-1 3:-1 5:-1 6:-1 8:-0.333333 9:0.0740741 10:-1 11:-1 12:-0.893787 13:-0.0784055 14:-0.884892 15:0.4 16:-0.953488 17:-0.818182 18:-0.75 19:-0.636364 20:-0.939394 21:-0.636364 22:-0.0486067 23:-1 24:-1 26:-1 28:-1 29:-1 
1 1 1 0 1:1 2:0.1458 3:-1 5:-0.857143 6:-0.921643 8:-1 9:0.62963 10:-1 11:-1 12:-0.893787 13:-0.0597217 14:-0.870504 15:0.45 16:-0.953488 17:-0.833333 18:-0.75 19:-0.666667 20:-0.939394 21:-0.666667 22:-0.0239667 23:-0.333333 24:-1 26:-1 28:-1 29:-0.333333 
1 1 1 1 1:-0.333333 2:-1 3:-1 5:-1 6:-1 8:-0.333333 9:-0.592593 10:-1 11:-1 12:-0.840229 13:-0.132051 14:-0.870504 15:0.323077 16:-0.953488 17:-0.846154 18:-0.625 19:-0.538462 20:-0.939394 21:-0.692308 22:-0.618067 23:-0.333333 24:-1 26:-1 28:-1 29:-0.333333 
1 1 0 1 1:-0.333333 2:-1 3:-1 5:-1 6:-1 8:-1 9:-0.740741 10:-1 11:-1 12:-0.982248 13:-0.62875 14:-0.985612 15:-0.1 16:-1 17:-1 18:-0.875 20:-0.969697 22:-0.62875 23:-0.333333 24:-1 26:-0.333333 28:-1 29:0.333333 
1 0 0 0 1:1 2:-0.39338 3:1 5:-0.857143 6:-0.837645 8:-1 9:-0.814815 10:-1 11:-1 12:-0.99985 13:-0.39338 14:-0.985612 15:1 16:-1 17:-1 18:-1 19:-1 20:-0.969697 21:1 22:-0.39338 23:-0.333333 24:-1 25:-1 26:-0.333333 28:-1 29:-0.333333 
1 0 0 0 1:1 2:0.8718 3:-1 5:-0.857143 6:-0.90838 8:1 9:-0.814815 10:-1 11:1 12:-0.978336 13:0.23921 14:-0.971223 15:1 16:-1 17:-1 18:-1 19:-1 20:-0.969697 22:0.23921 23:0.333333 24:-1 25:-1 26:-0.333333 28:-1 29:-0.333333 
1 1 1 0 1:1 2:-0.24754 3:-1 5:-0.357143 6:-0.600388 8:-1 9:-0.777778 10:-1 11:-1 12:-0.970513 13:0.07696 14:-0.956835 15:1 16:-1 17:-1 18:-1 19:-1 20:-0.969697 21:-0.333333 22:0.07696 23:0.333333 24:-1 25:-1 26:-1 28:-1 29:-0.333333 
1 1 1 0 1:1 2:0.87128 3:-1 5:-0.857143 6:-0.940801 8:1 9:-0.703704 10:-1 11:1 12:-0.847149 13:0.226822 14:-0.841727 15:0.816667 16:-1 17:-1 18:-0.875 19:-0.833333 20:-0.969697 21:-0.833333 22:0.390807 23:0.333333 24:-1 25:-1 26:-1 28:-1 29:-0.333333 
1 1 1 0 1:-1 2:-1 3:-1 5:-1 6:-1 8:-0.333333 9:-1 10:-1 11:1 12:-0.84068 13:0.226822 14:-0.841727 15:0.816667 16:-1 17:-1 18:-0.875 19:-0.833333 20:-0.969697 21:-0.833333 22:0.390807 23:0.333333 24:-1 25:-1 26:-1 28:-1 29:-0.333333 
1 1 1 0 1:1 2:0.87418 3:-1 5:-0.857143 6:-0.943748 8:1 9:-0.703704 10:-1 11:1 12:-0.84068 13:0.276618 14:-0.827338 15:0.830769 16:-1 17:-1 18:-0.875 19:-0.846154 20:-0.969697 21:-0.846154 22:0.502827 23:0.333333 24:-1 25:-1 26:-1 28:-1 29:-1 
1 0 0 0 1:-1 2:-1 3:-1 5:-1 6:-1 8:-0.333333 9:-1 10:-1 11:1 12:-0.832706 13:0.276618 14:-0.827338 15:0.830769 16:-1 17:-1 18:-0.875 19:-0.846154 20:-0.969697 21:-0.846154 22:0.502827 23:-0.333333 24:-1 25:-1 26:-1 28:-1 29:-1 
1 1 0 0 1:1 2:0.87204 3:-1 5:-0.857143 6:-0.931959 8:1 9:-0.740741 10:-1 11:1 12:-0.832706 13:0.319149 14:-0.81295 15:0.842857 16:-1 17:-1 18:-0.875 19:-0.857143 20:-0.969697 21:-0.857143 22:0.8725 23:0.333333 24:-1 25:-1 26:-1 28:-1 29:-1 
1 0 0 0 1:-1 2:-1 3:-1 5:-1 6:-1 8:-0.333333 9:-1 10:-1 11:1 12:-0.824282 13:0.319149 14:-0.81295 15:0.842857 16:-1 17:-1 18:-0.875 19:-0.857143 20:-0.969697 21:-0.857143 22:0.8725 23:-0.333333 24:-1 25:-1 26:-1 28:-1 29:-1 
1 1 0 0 1:1 2:0.87412 3:-1 5:-0.857143 6:-0.933432 8:1 9:-0.703704 10:-1 11:1 12:-0.824282 13:0.356147 14:-0.798561 15:0.853333 16:-1 17:-1 18:-0.875 19:-0.866667 20:-0.969697 21:-0.866667 22:0.873447 23:0.333333 24:-1 25:-1 26:-1 28:-1 29:-1 
1 0 0 0 1:-1 2:-1 3:-1 5:-1 6:-1 8:-0.333333 9:-1 10:-1 11:1 12:-0.815706 13:0.356147 14:-0.798561 15:0.853333 16:-1 17:-1 18:-0.875 19:-0.866667 20:-0.969697 21:-0.866667 22:0.873447 23:-0.333333 24:-1 25:-1 26:-1 28:-1 29:-1 
1 1 1 1 1:-0.333333 2:-1 3:-1 5:-1 6:-1 8:0.333333 9:-0.777778 10:-1 11:-1 12:-0.815706 13:0.271387 14:-0.798561 15:0.725 16:-1 17:-1 18:-0.75 19:-0.75 20:-0.969697 21:-0.875 22:0.24872 23:-0.333333 24:-1 26:-1 28:-1 29:-1 
1 1 0 0 1:-1 2:-1 3:-1 5:-1 6:-1 8:-0.333333 9:-0.037037 10:-1 11:-1 12:-0.815706 13:0.271387 14:-0.798561 15:0.725 16:-1 17:-1 18:-0.75 19:-0.75 20:-0.969697 21:-0.875 22:0.24872 23:-1 24:-1 26:-1 28:-1 29:-1 
1 1 1 0 1:1 2:0.59598 3:1 5:-0.571429 6:-0.870066 8:-1 9:0.62963 10:-1 11:-1 12:-0.815706 13:0.290481 14:-0.784173 15:0.741176 16:-1 17:-1 18:-0.75 19:-0.764706 20:-0.939394 21:-0.764706 22:0.1567 23:-0.333333 24:-1 26:-0.333333 28:-1 29:-0.333333 
1 0 0 0 1:-1 2:-1 3:-1 5:-1 6:-1 8:-0.333333 9:-1 10:-1 11:-1 12:-0.775237 13:0.290481 14:-0.784173 15:0.741176 16:-1 17:-1 18:-0.75 19:-0.764706 20:-0.939394 21:-0.764706 22:0.1567 23:-0.333333 24:-1 25:-1 26:-0.333333 28:-1 29:-0.333333 
1 0 0 0 1:-1 2:-1 3:-1 5:-1 6:-1 8:-0.333333 9:0.037037 10:-1 11:-1 12:-0.775237 13:0.290481 14:-0.784173 15:0.741176 16:-1 17:-1 18:-0.75 19:-0.764706 20:-0.939394 21:-0.764706 22:0.1567 23:-0.333333 24:-1 25:-1 26:-0.333333 28:-1 29:-0.333333 
1 0 0 0 1:1 2:0.05816 3:-1 5:-0.857143 6:-0.937853 8:-1 9:0.62963 10:-1 11:-1 12:-0.775237 13:0.277574 14:-0.769784 15:0.755556 16:-1 17:-1 18:-0.75 19:-0.777778 20:-0.939394 21:-0.777778 22:-0.115287 23:-0.333333 24:-1 25:-1 26:-1 28:-1 29:-0.333333 
1 1 1 1 1:-0.333333 2:-1 3:-1 5:-1 6:-1 8:-0.333333 9:-0.592593 10:-1 11:-1 12:-0.730104 13:0.210334 14:-0.769784 15:0.652632 16:-1 17:-1 18:-0.625 19:-0.684211 20:-0.939394 21:-0.789474 22:-0.115287 23:-0.333333 24:-1 26:-1 28:-1 29:-0.333333 
1 0 0 0 1:-0.333333 2:-1 3:-1 5:-1 6:-1 8:-1 9:-0.740741 10:-1 11:-1 12:-0.97969 14:-0.985612 15:-0.1 16:-1 17:-1 18:-0.875 20:-1 21:-1 23:-0.333333 24:-1 26:-1 28:-1 29:0.333333 
1 1 0 0 1:1 2:0.88666 3:-1 5:-0.857143 6:-0.937853 8:1 9:-0.703704 10:-1 11:1 12:-0.900557 13:0.226544 14:-0.942446 15:0.56 16:-1 17:-1 18:-0.875 19:-0.6 20:-1 21:-1 22:0.377573 23:0.333333 24:-1 25:-1 26:-1 28:-1 29:-1 
1 0 0 0 1:-1 2:-1 3:-1 5:-1 6:-1 8:-0.333333 9:-1 10:-1 11:1 12:-0.89153 13:0.226544 14:-0.942446 15:0.56 16:-1 17:-1 18:-0.875 19:-0.6 20:-1 21:-1 22:0.377573 23:-0.333333 24:-1 25:-1 26:-1 28:-1 29:-1 
1 1 0 0 1:1 2:-0.13938 3:-1 5:-0.428571 6:-0.682912 8:-1 9:-0.851852 10:-1 11:-1 12:-0.971566 13:0.34962 14:-0.956835 15:1 16:-1 17:-1 18:-1 19:-1 20:-1 21:-1 22:0.34962 23:0.333333 24:-1 25:-1 26:-1 28:-1 29:-0.333333 
1 0 0 0 1:1 2:0.8795 3:-1 5:-0.857143 6:-0.914275 8:1 9:-0.703704 10:-1 11:1 12:-0.960132 13:0.48209 14:-0.942446 15:1 16:-1 17:-1 18:-1 19:-1 20:-1 21:-1 22:0.540953 23:0.333333 24:-1 25:-1 26:-1 28:-1 29:-0.333333 
1 0 0 0 1:-1 2:-1 3:-1 5:-1 6:-1 8:-0.333333 9:-1 10:-1 11:1 12:-0.95246 13:0.48209 14:-0.942446 15:1 16:-1 17:-1 18:-1 19:-1 20:-1 21:-1 22:0.540953 23:0.333333 24:-1 25:-1 26:-1 28:-1 29:-0.333333 
0.5518629395157131 0 0 0 1:1 2:-0.92514 3:1 5:0.5 6:-0.248186 8:-1 9:-0.814815 10:-1 11:-1 12:-0.99985 13:-0.92514 14:-0.985612 15:1 16:-1 17:-1 18:-1 19:-1 20:-0.969697 21:1 22:-0.92514 23:-0.333333 24:-1 25:-1 26:-0.333333 28:-1 29:-0.333333 
1 0 0 0 1:1 2:0.8733 3:-1 5:-0.857143 6:-0.912801 8:1 9:-0.703704 10:-1 11:1 12:-0.969159 13:-0.02592 14:-0.971223 15:1 16:-1 17:-1 18:-1 19:-1 20:-0.969697 22:-0.02592 23:0.333333 24:-1 25:-1 26:-0.333333 28:-1 29:-0.333333 
1 0 0 0 1:-1 2:-1 3:-1 5:-1 6:-1 8:-0.333333 9:-1 10:-1 11:1 12:-0.958778 13:-0.02592 14:-0.971223 15:1 16:-1 17:-1 18:-1 19:-1 20:-0.969697 22:-0.02592 23:0.333333 24:-1 25:-1 26:-0.333333 28:-1 29:-0.333333 
1 0 0 0 1:1 2:0.72734 3:-1 5:-0.785714 6:-0.902486 8:-1 9:-0.888889 10:-1 11:-1 12:-0.958778 13:0.225167 14:-0.956835 15:1 16:-1 17:-1 18:-1 19:-1 20:-0.969697 21:-0.333333 22:0.225167 23:0.333333 24:-1 25:-1 26:-1 28:-1 29:-0.333333 
1 0 0 0 1:1 2:0.64214 3:-1 5:-0.857143 6:-0.78312 8:-1 9:-0.777778 10:-1 11:-1 12:-0.973823 13:0.4988 14:-0.956835 15:1 16:-1 17:-1 18:-1 19:-1 20:-0.969697 21:-0.333333 22:0.4988 23:0.333333 24:-1 25:-1 26:-1 28:-1 29:-0.333333 
1 0 0 0 1:1 2:0.66278 3:-1 5:-0.857143 6:-0.797857 8:-1 9:-0.814815 10:-1 11:-1 12:-0.955619 13:0.599904 14:-0.928058 15:1 16:-1 17:-1 18:-1 19:-1 20:-0.969697 21:-0.6 22:0.715087 23:0.333333 24:-1 25:-1 26:-1 28:-1 29:-0.333333 
1 0 0 0 1:1 2:0.72108 3:-1 5:-0.785714 6:-0.825856 8:-1 9:-0.814815 10:-1 11:-1 12:-0.938017 13:0.653026 14:-0.899281 15:1 16:-1 17:-1 18:-1 19:-1 20:-0.969697 21:-0.714286 22:0.744813 23:0.333333 24:-1 25:-1 26:-1 28:-1 29:-0.333333 
0.8747984231492764 0 0 0 1:1 2:0.84018 3:-1 5:-0.857143 6:-0.821435 8:1 9:-0.740741 10:-1 11:1 12:-0.980743 13:0.40935 14:-0.971223 15:1 16:-1 17:-1 18:-1 19:-1 20:-0.969697 22:0.40935 23:0.333333 24:-1 25:-1 26:-0.333333 28:-1 29:-0.333333 
1 0 0 0 1:1 2:0.71596 3:-1 5:-0.857143 6:-0.884802 8:-1 9:-0.777778 10:-1 11:-1 12:-0.971416 13:0.511553 14:-0.956835 15:1 16:-1 17:-1 18:-1 19:-1 20:-0.969697 21:-0.333333 22:0.511553 23:0.333333 24:-1 25:-1 26:-1 28:-1 29:-0.333333 
1 0 0 0 1:1 2:0.73762 3:-1 5:-0.857143 6:-0.906907 8:-1 9:-0.814815 10:-1 11:-1 12:-0.955017 13:0.623396 14:-0.928058 15:1 16:-1 17:-1 18:-1 19:-1 20:-0.969697 21:-0.6 22:0.766093 23:0.333333 24:-1 25:-1 26:-1 28:-1 29:-0.333333 
1 0 0 0 1:0.333333 2:-1 3:1 5:-0.571429 6:-0.668176 8:-1 9:-0.814815 10:-1 11:-1 12:-0.99985 13:-1 14:-1 15:1 16:-0.953488 17:1 18:-1 19:-1 20:-0.969697 21:1 22:-1 23:-1 24:-0.333333 25:-1 26:-0.333333 28:-1 29:-0.333333 
1 0 0 0 1:1 2:0.87448 3:-1 5:-0.857143 6:-0.917222 8:1 9:-0.814815 10:-1 11:1 12:-0.976531 13:0.0657 14:-0.971223 15:1 16:-1 17:-1 18:-1 19:-1 20:-0.969697 22:0.0657 23:0.333333 24:-1 25:-1 26:-0.333333 28:-1 29:-0.333333 
1 0 0 0 1:-1 2:-1 3:-1 5:-1 6:-1 8:-0.333333 9:-1 10:-1 11:1 12:-0.968557 13:0.0657 14:-0.971223 15:1 16:-1 17:-1 18:-1 19:-1 20:-0.969697 22:0.0657 23:0.333333 24:-1 25:-1 26:-0.333333 28:-1 29:-0.333333 
1 0 0 0 1:1 2:0.48248 3:-1 5:-0.714286 6:-0.803751 8:-1 9:-0.814815 10:-1 11:-1 12:-0.968557 13:0.204627 14:-0.956835 15:1 16:-1 17:-1 18:-1 19:-1 20:-0.969697 21:-0.333333 22:0.204627 23:0.333333 24:-1 25:-1 26:-1 28:-1 29:-0.333333 
1 0 0 0 1:1 2:0.7639 3:-1 5:-0.857143 6:-0.906907 8:1 9:-0.62963 10:-1 11:1 12:-0.957725 13:0.344445 14:-0.942446 15:1 16:-1 17:-1 18:-1 19:-1 20:-0.969697 21:-0.5 22:0.706953 23:0.333333 24:-1 25:-1 26:-1 28:-1 29:-0.333333 
1 0 0 0 1:-1 2:-1 3:-1 5:-1 6:-1 8:-0.333333 9:-1 10:-1 11:1 12:-0.9493 13:0.344445 14:-0.942446 15:1 16:-1 17:-1 18:-1 19:-1 20:-0.969697 21:-0.5 22:0.706953 23:0.333333 24:-1 25:-1 26:-1 28:-1 29:-0.333333 
1 0 0 0 1:1 2:0.72778 3:-1 5:-0.785714 6:-0.890697 8:-1 9:-0.888889 10:-1 11:-1 12:-0.9493 13:0.421112 14:-0.928058 15:1 16:-1 17:-1 18:-1 19:-1 20:-0.969697 21:-0.6 22:0.658053 23:0.333333 24:-1 25:-1 26:-1 28:-1 29:-0.333333 
1 0 0 0 1:1 2:0.88278 3:-1 5:-0.857143 6:-0.917222 8:1 9:-0.740741 10:-1 11:1 12:-0.941327 13:0.498057 14:-0.913669 15:1 16:-1 17:-1 18:-1 19:-1 20:-0.969697 21:-0.666667 22:0.791487 23:0.333333 24:-1 25:-1 26:-1 28:-1 29:-0.333333 
1 0 0 0 1:1 2:0.88842 3:-1 5:-0.857143 6:-0.931959 8:1 9:-0.703704 10:-1 11:1 12:-0.921619 13:0.592877 14:-0.884892 15:1 16:-1 17:-1 18:-1 19:-1 20:-0.969697 21:-0.75 22:0.879153 23:0.333333 24:-1 25:-1 26:-1 28:-1 29:-0.333333 
1 0 0 0 1:-1 2:-1 3:-1 5:-1 6:-1 8:-0.333333 9:-1 10:-1 11:1 12:-0.912743 13:0.592877 14:-0.884892 15:1 16:-1 17:-1 18:-1 19:-1 20:-0.969697 21:-0.75 22:0.879153 23:0.333333 24:-1 25:-1 26:-1 28:-1 29:-0.333333 
1 0 0 0 1:-0.333333 2:-1 3:-1 5:-1 6:-1 8:0.333333 9:-0.740741 10:-1 11:-1 12:-0.912743 13:0.415891 14:-0.884892 15:0.755556 16:-1 17:-1 18:-0.875 19:-0.777778 20:-0.969697 21:-0.777778 22:0.25156 23:-0.333333 24:-1 26:-1 28:-1 29:-1 
1 1 0 0 1:-0.333333 2:-1 3:-1 5:-1 6:-1 8:-1 9:0.62963 10:-1 11:-1 12:-0.912743 13:0.274302 14:-0.884892 15:0.56 16:-1 17:-1 18:-0.75 19:-0.6 20:-0.969697 21:-0.8 22:-0.370527 23:-1 24:-1 25:1 26:-1 28:-1 29:-0.333333 
1 0 0 0 1:1 2:-0.29088 3:1 5:-0.785714 6:-0.923117 8:-1 9:-0.814815 10:-1 11:-1 12:-0.99985 13:-0.29088 14:-0.985612 15:1 16:-1 17:-1 18:-1 19:-1 20:-0.969697 21:1 22:-0.29088 23:-0.333333 24:-1 25:-1 26:-0.333333 28:-1 29:-0.333333 
1 0 0 0 1:-0.333333 2:-1 3:-1 5:-1 6:-1 8:0.333333 9:-0.814815 10:-1 11:-1 12:-0.930044 13:0.46142 14:-0.884892 15:0.755556 16:-1 17:-1 18:-0.875 19:-0.777778 20:-0.969697 21:-0.777778 22:0.225413 23:-0.333333 24:-1 26:-1 28:-1 29:-1 
1 0 0 0 1:0.333333 2:-1 3:1 5:-0.714286 6:-0.847961 8:-1 9:-0.814815 10:-1 11:-1 12:-0.99985 13:-1 14:-1 15:1 16:-0.953488 17:1 18:-1 19:-1 20:-0.969697 21:1 22:-1 23:-1 24:-0.333333 25:-1 26:-0.333333 28:-1 29:-0.333333 
1 0 0 0 1:-1 2:-1 3:-1 5:-1 6:-1 8:-0.333333 9:0.481481 10:-1 11:-1 12:-0.979841 13:-0.27376 14:-0.985612 15:1 16:-1 17:-1 18:-1 19:-1 20:-0.969697 21:1 22:-0.27376 23:-0.333333 24:-1 25:-1 26:-0.333333 28:-1 29:-0.333333 
1 1 1 1 1:-0.333333 2:-1 3:-1 5:-1 6:-1 8:-1 9:-0.740741 10:-1 11:-1 12:-0.979841 13:-0.63688 14:-0.985612 15:-0.1 16:-1 17:-1 18:-0.875 20:-0.969697 22:-0.63688 23:-0.333333 24:-1 26:-0.333333 28:-1 29:0.333333 
1 1 0 0 1:1 2:0.02166 3:1 5:-0.857143 6:-0.873013 8:-1 10:-1 11:-1 12:-0.979841 13:-0.417367 14:-0.971223 15:0.266667 16:-1 17:-1 18:-0.875 19:-0.333333 20:-0.939394 21:0.333333 22:-0.417367 23:-0.333333 24:-1 26:-0.333333 28:-1 29:0.333333 
1 1 0 0 1:1 2:0.88044 3:-1 5:-0.857143 6:-0.924591 8:1 9:-0.814815 10:-1 11:1 12:-0.958778 13:-0.092915 14:-0.956835 15:0.45 16:-1 17:-1 18:-0.875 19:-0.5 20:-0.939394 22:-0.0326333 23:0.333333 24:-1 26:-0.333333 28:-1 29:0.333333 
1 1 0 0 1:-1 2:-1 3:-1 5:-1 6:-1 8:-0.333333 9:-1 10:-1 11:1 12:-0.951106 13:-0.092915 14:-0.956835 15:0.45 16:-1 17:-1 18:-0.875 19:-0.5 20:-0.939394 22:-0.0326333 23:0.333333 24:-1 25:-1 26:-0.333333 28:-1 29:-0.333333 
1 1 1 1 1:1 2:-0.4718 3:-1 5:-0.857143 6:-0.878907 8:-1 9:-0.777778 10:-1 11:-1 12:-0.951106 13:-0.168692 14:-0.942446 15:0.56 16:-1 17:-1 18:-0.875 19:-0.6 20:-0.939394 21:-0.2 22:0.143433 23:0.333333 24:-1 25:-1 26:-1 28:-1 29:-0.333333 
1 0 0 0 1:1 2:0.6798 3:-1 5:-0.857143 6:-0.794909 8:1 9:-0.740741 10:-1 11:1 12:-0.97954 13:0.50778 14:-0.971223 15:1 16:-1 17:-1 18:-1 19:-1 20:-1 21:-1 22:0.50778 23:0.333333 24:-1 25:-1 26:-1 28:-1 29:-0.333333 
1 1 1 1 1:1 2:-0.4039 3:1 5:-0.857143 6:-0.923117 8:-1 9:-0.777778 10:-1 11:-1 12:-0.960433 13:0.203887 14:-0.956835 15:1 16:-1 17:-1 18:-1 19:-1 20:-0.969697 21:-0.333333 22:0.203887 23:0.333333 24:-1 25:-1 26:-0.333333 28:-1 29:-0.333333 
1 0 0 0 1:0.333333 2:-1 3:1 5:-0.642857 6:-0.793436 8:-1 9:-0.814815 10:-1 11:-1 12:-0.99985 13:-1 14:-1 15:1 16:-0.953488 17:1 18:-1 19:-1 20:-0.969697 21:1 22:-1 23:-1 24:-0.333333 25:-1 26:-0.333333 28:-1 29:-0.333333 
1 1 0 0 1:0.333333 2:-1 3:1 5:-0.857143 6:-0.902486 8:-1 9:-0.814815 10:-1 11:-1 12:-0.99985 13:-1 14:-1 15:1 16:-0.953488 17:1 18:-1 19:-1 20:-0.969697 21:1 22:-1 23:-1 24:-0.333333 25:-1 26:-0.333333 28:-1 29:-0.333333 
1 1 1 1 1:1 2:0.80976 3:-1 5:-0.857143 6:-0.946695 8:1 9:-0.814815 10:-1 11:1 12:-0.97623 13:-0.33744 14:-0.971223 15:0.266667 16:-0.953488 17:-0.333333 18:-1 19:-1 20:-0.939394 21:0.333333 22:-0.33744 23:0.333333 24:-0.333333 25:-1 26:0.333333 28:-0.333333 29:0.333333 
1 1 1 1 1:-1 2:-1 3:-1 5:-1 6:-1 8:-0.333333 9:-1 10:-1 11:1 12:-0.96961 13:-0.33744 14:-0.971223 15:0.266667 16:-0.953488 17:-0.333333 18:-1 19:-1 20:-0.939394 21:0.333333 22:-0.33744 23:0.333333 24:-1 25:-1 26:-0.333333 28:-0.333333 29:-0.333333 
1 1 1 1 1:1 2:0.59152 3:-1 5:-0.785714 6:-0.881855 8:-1 9:-0.777778 10:-1 11:-1 12:-0.96961 13:-0.1052 14:-0.956835 15:0.45 16:-0.953488 17:-0.5 18:-1 19:-1 20:-0.939394 22:0.193067 23:0.333333 24:-1 25:-1 26:-1 28:-1 29:-0.333333 
1 1 1 0 1:1 2:0.84434 3:-1 5:-0.857143 6:-0.946695 8:1 9:-0.666667 10:-1 11:1 12:-0.960132 13:0.084708 14:-0.942446 15:0.56 16:-0.953488 17:-0.6 18:-1 19:-1 20:-0.939394 21:-0.2 22:0.74854 23:0.333333 24:-1 25:-1 26:-1 28:-1 29:-0.333333 
1 1 1 0 1:-1 2:-1 3:-1 5:-1 6:-1 8:-0.333333 9:-1 10:-1 11:1 12:-0.953062 13:0.084708 14:-0.942446 15:0.56 16:-0.953488 17:-0.6 18:-1 19:-1 20:-0.939394 21:-0.2 22:0.74854 23:0.333333 24:-1 25:-1 26:-1 28:-1 29:-0.333333 
1 1 1 0 1:1 2:0.63604 3:-1 5:-0.785714 6:-0.878907 8:-1 9:-0.814815 10:-1 11:-1 12:-0.953062 13:0.176597 14:-0.928058 15:0.633333 16:-0.953488 17:-0.666667 18:-1 19:-1 20:-0.939394 21:-0.333333 22:0.690633 23:0.333333 24:-1 25:-1 26:-1 28:-1 29:-0.333333 
1 1 0 0 1:1 2:0.85938 3:-1 5:-0.857143 6:-0.946695 8:1 9:-0.666667 10:-1 11:1 12:-0.94584 13:0.274137 14:-0.913669 15:0.685714 16:-0.953488 17:-0.714286 18:-1 19:-1 20:-0.939394 21:-0.428571 22:0.77992 23:0.333333 24:-1 25:-1 26:-1 28:-1 29:-0.333333 
1 1 0 0 1:-1 2:-1 3:-1 5:-1 6:-1 8:-0.333333 9:-1 10:-1 11:1 12:-0.938468 13:0.274137 14:-0.913669 15:0.685714 16:-0.953488 17:-0.714286 18:-1 19:-1 20:-0.939394 21:-0.428571 22:0.77992 23:0.333333 24:-1 25:-1 26:-1 28:-1 29:-0.333333 
1 1 1 1 1:0.333333 2:-1 3:-1 5:-0.642857 6:-0.895118 8:-1 9:-0.740741 10:-1 11:-1 12:-0.938468 13:0.11487 14:-0.913669 15:0.45 16:-0.906977 17:-0.5 18:-1 19:-1 20:-0.939394 21:-0.5 22:0.16514 23:-0.333333 24:-0.333333 25:-1 26:-1 28:-1 29:-0.333333 
1 1 1 0 1:1 2:0.72182 3:-1 5:-0.642857 6:-0.889223 8:-1 9:-0.259259 10:-1 11:-1 12:-0.906424 13:0.16944 14:-0.870504 15:0.45 16:-0.906977 17:-0.666667 18:-0.875 19:-0.833333 20:-0.939394 21:-0.666667 22:0.188353 23:-0.333333 24:-1 26:-1 28:-1 29:-0.333333 
1 1 0 0 1:-1 2:-1 3:-1 5:-1 6:-1 8:-0.333333 9:-0.814815 10:-1 11:-1 12:-0.876787 13:0.16944 14:-0.870504 15:0.45 16:-0.906977 17:-0.666667 18:-0.875 19:-0.833333 20:-0.939394 21:-0.666667 22:0.188353 23:-0.333333 24:-1 25:-1 26:-1 28:-1 29:-0.333333 
1 1 1 1 1:1 2:0.24806 3:-1 5:-0.857143 6:-0.899539 8:-1 9:-0.814815 10:-1 11:-1 12:-0.876787 13:0.175488 14:-0.856115 15:0.492308 16:-0.906977 17:-0.692308 18:-0.875 19:-0.846154 20:-0.939394 21:-0.692308 22:-0.01004 23:0.333333 24:-1 25:-1 26:-1 28:-1 29:0.333333 
1 0 0 0 1:1 2:-0.51556 3:-1 5:-0.5 6:-0.789015 8:-1 9:-0.814815 10:-1 11:-1 12:-0.99985 13:-0.51556 14:-0.985612 15:1 16:-1 17:-1 18:-1 19:-1 20:-1 21:-1 22:-0.51556 23:-0.333333 24:-1 25:-1 26:-1 28:-1 29:-0.333333 
1 0 0 0 1:1 2:0.66138 3:-1 5:-0.857143 6:-0.911328 8:-1 9:-0.851852 10:-1 11:-1 12:-0.941778 13:0.63256 14:-0.913669 15:1 16:-1 17:-1 18:-1 19:-1 20:-1 21:-1 22:0.702607 23:0.333333 24:-1 25:-1 26:-1 28:-1 29:-0.333333 
1 1 0 0 1:0.333333 2:-1 3:-1 5:-0.785714 6:-0.862697 8:-1 9:-0.814815 10:-1 11:-1 12:-0.927336 13:0.456387 14:-0.899281 15:0.725 16:-0.953488 17:-0.75 18:-1 19:-1 20:-1 21:-1 22:0.172373 23:-0.333333 24:-0.333333 25:-1 26:-1 28:-1 29:-0.333333 
1 1 1 1 1:1 2:0.83736 3:-1 5:-0.857143 6:-0.930485 8:1 9:-0.740741 10:-1 11:1 12:-0.908229 13:0.512776 14:-0.870504 15:0.78 16:-0.953488 17:-0.8 18:-1 19:-1 20:-1 21:-1 22:0.158887 23:0.333333 24:-0.333333 25:-1 26:-1 28:-0.333333 29:0.333333 
1 1 1 1 1:-1 2:-1 3:-1 5:-1 6:-1 8:-0.333333 9:-1 10:-1 11:1 12:-0.900557 13:0.512776 14:-0.870504 15:0.78 16:-0.953488 17:-0.8 18:-1 19:-1 20:-1 21:-1 22:0.158887 23:0.333333 24:-1 25:-1 26:-1 28:-0.333333 29:-0.333333 
1 1 0 0 1:-0.333333 2:-1 3:-1 5:-1 6:-1 8:0.333333 9:-0.814815 10:-1 11:-1 12:-0.900557 13:0.375251 14:-0.870504 15:0.6 16:-0.953488 17:-0.818182 18:-0.875 19:-0.818182 20:-1 21:-1 22:0.158887 23:-0.333333 24:-1 26:-1 28:-1 29:-1 
1 0 0 0 1:-1 2:-1 3:-1 5:-1 6:-1 8:-0.333333 9:0.0740741 10:-1 11:-1 12:-0.900557 13:0.375251 14:-0.870504 15:0.6 16:-0.953488 17:-0.818182 18:-0.875 19:-0.818182 20:-1 21:-1 22:0.158887 23:-1 24:-1 26:-1 28:-1 29:-1 
1 1 1 0 1:1 2:-0.10956 3:-1 5:-0.857143 6:-0.404392 8:-1 9:-0.777778 10:-1 11:-1 12:-0.971416 13:0.23766 14:-0.956835 15:1 16:-1 17:-1 18:-1 19:-1 20:-0.969697 21:-0.333333 22:0.23766 23:0.333333 24:-1 25:-1 26:-1 28:-1 29:-0.333333 
1 1 1 1 1:1 2:-0.35038 3:1 5:-0.857143 6:-0.831751 8:1 9:-0.777778 10:-1 11:1 12:-0.954416 13:0.09065 14:-0.942446 15:1 16:-1 17:-1 18:-1 19:-1 20:-0.939394 22:0.13344 23:0.333333 24:-1 25:-1 26:-0.333333 28:-1 29:-0.333333 
1 1 1 1 1:1 2:0.87552 3:-1 5:-0.857143 6:-0.896591 8:1 9:-0.777778 10:1 11:1 12:-0.951708 13:0.247624 14:-0.928058 15:1 16:-1 17:-1 18:-1 19:-1 20:-0.939394 21:-0.2 22:0.138527 23:1 24:-1 25:-1 26:-0.333333 28:-0.333333 29:-0.333333 
1 1 1 1 1:-1 2:-1 3:-1 5:-1 6:-1 8:-0.333333 9:-1 10:-1 11:1 12:-0.943734 13:0.247624 14:-0.928058 15:1 16:-1 17:-1 18:-1 19:-1 20:-0.939394 21:-0.2 22:0.138527 23:0.333333 24:-1 25:-1 26:-0.333333 28:-0.333333 29:-1 
1 1 1 1 1:1 2:0.7156 3:-1 5:-0.857143 6:-0.868592 8:-1 9:-0.888889 10:-1 11:-1 12:-0.943734 13:0.32562 14:-0.913669 15:1 16:-1 17:-1 18:-1 19:-1 20:-0.939394 21:-0.333333 22:0.41358 23:0.333333 24:-1 25:-1 26:-1 28:-0.333333 29:-0.333333 
1 0 0 0 1:1 2:0.8647 3:-1 5:-0.857143 6:-0.858276 8:1 9:-0.703704 10:-1 11:1 12:-0.935008 13:0.402631 14:-0.899281 15:1 16:-1 17:-1 18:-1 19:-1 20:-0.939394 21:-0.428571 22:0.818607 23:0.333333 24:-1 25:-1 26:-1 28:-1 29:-0.333333 
1 0 0 0 1:-1 2:-1 3:-1 5:-1 6:-1 8:-0.333333 9:-1 10:-1 11:1 12:-0.926583 13:0.402631 14:-0.899281 15:1 16:-1 17:-1 18:-1 19:-1 20:-0.939394 21:-0.428571 22:0.818607 23:0.333333 24:-1 25:-1 26:-1 28:-1 29:-0.333333 
1 1 0 0 1:1 2:0.87652 3:-1 5:-0.857143 6:-0.89217 8:-1 9:-0.851852 10:-1 11:-1 12:-0.926583 13:0.461868 14:-0.884892 15:1 16:-1 17:-1 18:-1 19:-1 20:-0.939394 21:-0.5 22:0.81894 23:0.333333 24:-1 25:-1 26:-1 28:-1 29:-0.333333 
1 0 0 0 1:1 2:0.8793 3:-1 5:-0.857143 6:-0.899539 8:1 9:-0.703704 10:-1 11:1 12:-0.916805 13:0.508249 14:-0.870504 15:1 16:-1 17:-1 18:-1 19:-1 20:-0.939394 21:-0.555556 22:0.873507 23:0.333333 24:-1 25:-1 26:-1 28:-1 29:-0.333333 
1 0 0 0 1:-1 2:-1 3:-1 5:-1 6:-1 8:-0.333333 9:-1 10:-1 11:1 12:-0.910787 13:0.508249 14:-0.870504 15:1 16:-1 17:-1 18:-1 19:-1 20:-0.939394 21:-0.555556 22:0.873507 23:0.333333 24:-1 25:-1 26:-1 28:-1 29:-0.333333 
1 1 0 0 1:-0.333333 2:-1 3:-1 5:-1 6:-1 8:0.333333 9:-0.740741 10:-1 11:-1 12:-0.910787 13:0.357424 14:-0.870504 15:0.78 16:-1 17:-1 18:-0.875 19:-0.8 20:-0.939394 21:-0.6 22:0.25194 23:-0.333333 24:-1 26:-1 28:-1 29:-1 
1 1 0 0 1:-1 2:-1 3:-1 5:-1 6:-1 8:-0.333333 9:0.037037 10:-1 11:-1 12:-0.893335 13:0.424092 14:-0.841727 15:0.816667 16:-1 17:-1 18:-0.875 19:-0.833333 20:-0.909091 21:-0.5 22:0.17162 23:-0.333333 24:-1 25:-1 26:-1 28:-0.333333 29:-0.333333 
1 0 0 0 1:-0.333333 2:-1 3:-1 5:-1 6:-1 8:-1 9:0.62963 10:-1 11:-1 12:-0.893335 13:0.314546 14:-0.841727 15:0.661538 16:-1 17:-1 18:-0.75 19:-0.692308 20:-0.909091 21:-0.538462 22:0.17162 23:-1 24:-1 26:-1 28:-1 29:-0.333333 
1 0 0 0 1:0.333333 2:-1 3:1 5:-0.714286 6:-0.818488 8:-1 9:-0.814815 10:-1 11:-1 12:-0.99985 13:-1 14:-1 15:1 16:-0.953488 17:1 18:-1 19:-1 20:-0.969697 21:1 22:-1 23:-1 24:-0.333333 25:-1 26:-0.333333 28:-1 29:-0.333333 
1 0 0 0 1:1 2:-0.5301 3:-1 5:-0.5 6:-0.774278 8:-1 9:-0.814815 10:-1 11:-1 12:-0.99985 13:-0.5301 14:-0.985612 15:1 16:-1 17:-1 18:-1 19:-1 20:-1 21:-1 22:-0.5301 23:-0.333333 24:-1 25:-1 26:-1 28:-1 29:-0.333333 
1 0 0 0 1:1 2:0.88192 3:-1 5:-0.857143 6:-0.940801 8:1 9:-0.777778 10:-1 11:1 12:-0.978336 13:0.17591 14:-0.971223 15:1 16:-1 17:-1 18:-1 19:-1 20:-1 21:-1 22:0.17591 23:0.333333 24:-1 25:-1 26:-1 28:-1 29:-0.333333 
1 0 0 0 1:-1 2:-1 3:-1 5:-1 6:-1 8:-0.333333 9:-1 10:-1 11:1 12:-0.970663 13:0.17591 14:-0.971223 15:1 16:-1 17:-1 18:-1 19:-1 20:-1 21:-1 22:0.17591 23:0.333333 24:-1 25:-1 26:-1 28:-1 29:-0.333333 
1 0 0 0 1:1 2:0.73318 3:-1 5:-0.857143 6:-0.911328 8:-1 9:-0.888889 10:-1 11:-1 12:-0.970663 13:0.361667 14:-0.956835 15:1 16:-1 17:-1 18:-1 19:-1 20:-1 21:-1 22:0.361667 23:0.333333 24:-1 25:-1 26:-1 28:-1 29:-0.333333 
1 0 0 0 1:1 2:0.88826 3:-1 5:-0.857143 6:-0.943748 8:1 9:-0.777778 10:-1 11:1 12:-0.959681 13:0.493315 14:-0.942446 15:1 16:-1 17:-1 18:-1 19:-1 20:-1 21:-1 22:0.834453 23:0.333333 24:-1 25:-1 26:-1 28:-1 29:-0.333333 
1 0 0 0 1:-1 2:-1 3:-1 5:-1 6:-1 8:-0.333333 9:-1 10:-1 11:1 12:-0.95261 13:0.493315 14:-0.942446 15:1 16:-1 17:-1 18:-1 19:-1 20:-1 21:-1 22:0.834453 23:0.333333 24:-1 25:-1 26:-1 28:-1 29:-0.333333 
1 0 0 0 1:1 2:0.77166 3:-1 5:-0.857143 6:-0.915749 8:-1 9:-0.814815 10:-1 11:-1 12:-0.95261 13:0.548984 14:-0.928058 15:1 16:-1 17:-1 18:-1 19:-1 20:-1 21:-1 22:0.7977 23:0.333333 24:-1 25:-1 26:-1 28:-1 29:-0.333333 
1 1 1 0 1:1 2:0.25688 3:1 5:-0.571429 6:-0.850908 8:-1 9:0.62963 10:-1 11:-1 12:-0.72198 13:0.246192 14:-0.741007 15:0.6 16:-0.953488 17:-0.909091 18:-0.625 19:-0.727273 20:-0.878788 21:-0.636364 22:0.32286 23:-0.333333 24:-1 25:-1 26:-0.333333 28:-1 29:-0.333333 
1 1 1 0.5421640328530393 1:-1 2:-1 3:-1 5:-1 6:-1 8:-0.333333 9:-1 10:-1 11:-1 12:-0.699112 13:0.246192 14:-0.741007 15:0.6 16:-0.953488 17:-0.909091 18:-0.625 19:-0.727273 20:-0.878788 21:-0.636364 22:0.32286 23:-0.333333 24:-1 25:-1 26:-0.333333 28:-1 29:-0.333333 
1 1 1 0 1:-1 2:-1 3:-1 5:-1 6:-1 8:-0.333333 9:-0.111111 10:-1 11:-1 12:-0.699112 13:0.246192 14:-0.741007 15:0.6 16:-0.953488 17:-0.909091 18:-0.625 19:-0.727273 20:-0.878788 21:-0.636364 22:0.32286 23:-0.333333 24:-1 25:-1 26:-0.333333 28:-1 29:-0.333333 
1 1 1 0 1:-0.333333 2:-1 3:-1 5:-1 6:-1 8:-1 9:0.62963 10:-1 11:-1 12:-0.699112 13:0.19201 14:-0.741007 15:0.521739 16:-0.953488 17:-0.913043 18:-0.5 19:-0.652174 20:-0.878788 21:-0.652174 22:-0.175113 23:-1 24:-1 26:-1 28:-1 29:-0.333333 
1 0 0 0 1:1 2:0.86014 3:-1 5:-0.857143 6:-0.924591 8:1 9:-0.666667 10:-1 11:1 12:-0.893636 13:0.589369 14:-0.870504 15:1 16:-1 17:-1 18:-1 19:-1 20:-0.939394 21:-0.555556 22:0.730467 23:0.333333 24:-1 25:-1 26:-1 28:-1 29:-0.333333 
1 0 0 0 1:-1 2:-1 3:-1 5:-1 6:-1 8:-0.333333 9:-1 10:-1 11:1 12:-0.886866 13:0.589369 14:-0.870504 15:1 16:-1 17:-1 18:-1 19:-1 20:-0.939394 21:-0.555556 22:0.730467 23:0.333333 24:-1 25:-1 26:-1 28:-1 29:-0.333333 
1 0 0 0 1:1 2:0.85606 3:-1 5:-0.785714 6:-0.90396 8:-1 9:-0.851852 10:-1 11:-1 12:-0.886866 13:0.616038 14:-0.856115 15:1 16:-1 17:-1 18:-1 19:-1 20:-0.939394 21:-0.6 22:0.734867 23:0.333333 24:-1 25:-1 26:-1 28:-1 29:-0.333333 
1 0 0 0 1:1 2:0.87128 3:-1 5:-0.857143 6:-0.940801 8:1 9:-0.62963 10:-1 11:1 12:-0.880096 13:0.639242 14:-0.841727 15:1 16:-1 17:-1 18:-1 19:-1 20:-0.939394 21:-0.636364 22:0.862493 23:0.333333 24:-1 25:-1 26:-1 28:-1 29:-0.333333 
1 0 0 0 1:-1 2:-1 3:-1 5:-1 6:-1 8:-0.333333 9:-1 10:-1 11:1 12:-0.873176 13:0.639242 14:-0.841727 15:1 16:-1 17:-1 18:-1 19:-1 20:-0.939394 21:-0.636364 22:0.862493 23:0.333333 24:-1 25:-1 26:-1 28:-1 29:-0.333333 
1 0 0 0 1:-0.333333 2:-1 3:-1 5:-1 6:-1 8:0.333333 9:-0.740741 10:-1 11:-1 12:-0.873176 13:0.502638 14:-0.841727 15:0.816667 16:-1 17:-1 18:-0.875 19:-0.833333 20:-0.939394 21:-0.666667 22:0.242447 23:-0.333333 24:-1 26:-1 28:-1 29:-1 
1 1 0 0 1:-0.333333 2:-1 3:-1 5:-1 6:-1 8:-1 9:0.62963 10:-1 11:-1 12:-0.873176 13:0.387051 14:-0.841727 15:0.661538 16:-1 17:-1 18:-0.75 19:-0.692308 20:-0.939394 21:-0.692308 22:-0.37624 23:-1 24:-1 25:1 26:-1 28:-1 29:-0.333333 
1 1 0.7950018426163499 1 1:-0.333333 2:-1 3:-1 5:-1 6:-1 8:1 9:-0.740741 10:-1 11:1 12:-0.982699 13:-0.49887 14:-0.985612 15:-0.1 16:-1 17:-1 18:-0.875 20:-0.969697 22:-0.49887 23:-0.333333 24:-1 26:-0.333333 28:-1 29:-0.333333 
1 1 0 0 1:1 2:0.87682 3:-1 5:-0.857143 6:-0.924591 8:1 9:-0.814815 10:-1 11:1 12:-0.982699 13:-0.0403067 14:-0.971223 15:0.266667 16:-1 17:-1 18:-0.875 19:-0.333333 20:-0.969697 21:-0.333333 22:-0.0403067 23:0.333333 24:-1 26:-0.333333 28:-1 29:-0.333333 
1 1 0 0 1:-1 2:-1 3:-1 5:-1 6:-1 8:-0.333333 9:-1 10:-1 11:1 12:-0.940876 13:-0.0403067 14:-0.971223 15:0.266667 16:-1 17:-1 18:-0.875 19:-0.333333 20:-0.969697 21:-0.333333 22:-0.0403067 23:-0.333333 24:-1 26:-1 28:-1 29:-1 
1 0 0 0 1:1 2:0.71228 3:-1 5:-0.785714 6:-0.878907 8:-1 9:-0.814815 10:-1 11:-1 12:-0.940876 13:0.14784 14:-0.956835 15:0.45 16:-1 17:-1 18:-0.875 19:-0.5 20:-0.969697 21:-0.5 22:0.196367 23:0.333333 24:-1 25:-1 26:-1 28:-1 29:-0.333333 
1 0 0 0 1:1 2:0.88532 3:-1 5:-0.857143 6:-0.933432 8:1 9:-0.740741 10:-1 11:1 12:-0.932601 13:0.295336 14:-0.942446 15:0.56 16:-1 17:-1 18:-0.875 19:-0.6 20:-0.969697 21:-0.6 22:0.824807 23:0.333333 24:-1 25:-1 26:-1 28:-1 29:-0.333333 
1 0 0 0 1:-1 2:-1 3:-1 5:-1 6:-1 8:-0.333333 9:-1 10:-1 11:1 12:-0.919212 13:0.295336 14:-0.942446 15:0.56 16:-1 17:-1 18:-0.875 19:-0.6 20:-0.969697 21:-0.6 22:0.824807 23:0.333333 24:-1 25:-1 26:-1 28:-1 29:-0.333333 
1 0.1138952766826624 0 0 1:1 2:0.73706 3:-1 5:-0.785714 6:-0.905433 8:-1 9:-0.814815 10:-1 11:-1 12:-0.919212 13:0.368957 14:-0.928058 15:0.633333 16:-1 17:-1 18:-0.875 19:-0.666667 20:-0.969697 21:-0.666667 22:0.77822 23:0.333333 24:-1 25:-1 26:-1 28:-1 29:-0.333333 
1 0 0 0 1:1 2:0.88818 3:-1 5:-0.857143 6:-0.934906 8:1 9:-0.666667 10:-1 11:1 12:-0.912592 13:0.443131 14:-0.913669 15:0.685714 16:-1 17:-1 18:-0.875 19:-0.714286 20:-0.969697 21:-0.714286 22:0.836853 23:0.333333 24:-1 25:-1 26:-1 28:-1 29:-0.333333 
1 0 0 0 1:-1 2:-1 3:-1 5:-1 6:-1 8:-0.333333 9:-1 10:-1 11:1 12:-0.895893 13:0.443131 14:-0.913669 15:0.685714 16:-1 17:-1 18:-0.875 19:-0.714286 20:-0.969697 21:-0.714286 22:0.836853 23:0.333333 24:-1 25:-1 26:-1 28:-1 29:-0.333333 
1 0 0 0 1:1 2:0.78986 3:-1 5:-0.714286 6:-0.874487 8:-1 9:-0.814815 10:-1 11:-1 12:-0.895893 13:0.486473 14:-0.899281 15:0.725 16:-1 17:-1 18:-0.875 19:-0.75 20:-0.969697 21:-0.75 22:0.805033 23:0.333333 24:-1 25:-1 26:-1 28:-1 29:-0.333333 
1 0 0 0 1:1 2:0.8808 3:-1 5:-0.857143 6:-0.905433 8:1 9:-0.703704 10:-1 11:1 12:-0.888521 13:0.530287 14:-0.884892 15:0.755556 16:-1 17:-1 18:-0.875 19:-0.777778 20:-0.969697 21:-0.777778 22:0.852947 23:0.333333 24:-1 25:-1 26:-1 28:-1 29:-0.333333 
1 0 0 0 1:-1 2:-1 3:-1 5:-1 6:-1 8:-0.333333 9:-1 10:-1 11:1 12:-0.880999 13:0.530287 14:-0.884892 15:0.755556 16:-1 17:-1 18:-0.875 19:-0.777778 20:-0.969697 21:-0.777778 22:0.852947 23:0.333333 24:-1 25:-1 26:-1 28:-1 29:-0.333333 
1 1 0 0 1:-0.333333 2:-1 3:-1 5:-1 6:-1 8:0.333333 9:-0.777778 10:-1 11:-1 12:-0.880999 13:0.377258 14:-0.884892 15:0.56 16:-1 17:-1 18:-0.75 19:-0.6 20:-0.969697 21:-0.8 22:0.223553 23:-0.333333 24:-1 26:-1 28:-1 29:-1 
1 0 0 0 1:1 2:0.63668 3:1 5:-0.571429 6:-0.871539 8:-1 9:0.62963 10:-1 11:-1 12:-0.880999 13:0.400842 14:-0.870504 15:0.6 16:-1 17:-1 18:-0.75 19:-0.636364 20:-0.939394 21:-0.636364 22:0.172493 23:-0.333333 24:-1 26:-0.333333 28:-1 29:-0.333333 
1 0 0 0 1:-1 2:-1 3:-1 5:-1 6:-1 8:-0.333333 9:-1 10:-1 11:-1 12:-0.8473 13:0.400842 14:-0.870504 15:0.6 16:-1 17:-1 18:-0.75 19:-0.636364 20:-0.939394 21:-0.636364 22:0.172493 23:-0.333333 24:-1 25:-1 26:-0.333333 28:-1 29:-0.333333 
1 0 0 0 1:-1 2:-1 3:-1 5:-1 6:-1 8:-0.333333 9:0.111111 10:-1 11:-1 12:-0.8473 13:0.400842 14:-0.870504 15:0.6 16:-1 17:-1 18:-0.75 19:-0.636364 20:-0.939394 21:-0.636364 22:0.172493 23:-0.333333 24:-1 25:-1 26:-0.333333 28:-1 29:-0.333333 
1 0 0 0 1:-0.333333 2:-1 3:-1 5:-1 6:-1 8:-1 9:0.62963 10:-1 11:-1 12:-0.8473 13:0.284105 14:-0.870504 15:0.45 16:-1 17:-1 18:-0.625 19:-0.5 20:-0.939394 21:-0.666667 22:-0.45444 23:-1 24:-1 26:-1 28:-1 29:-0.333333 
1 1 1 1 1:-0.333333 2:-1 3:-1 5:-1 6:-1 8:-1 9:-0.740741 10:-1 11:-1 12:-0.977584 13:-0.62875 14:-0.985612 15:-0.1 16:-1 17:-1 18:-0.875 20:-0.969697 22:-0.62875 23:-0.333333 24:-1 26:-0.333333 28:-1 29:0.333333 
1 0 0 0 1:1 2:0.05162 3:1 5:-0.857143 6:-0.895118 8:-1 10:-1 11:-1 12:-0.977584 13:-0.40196 14:-0.971223 15:0.266667 16:-1 17:-1 18:-0.875 19:-0.333333 20:-0.939394 21:0.333333 22:-0.40196 23:-0.333333 24:-1 26:-0.333333 28:-1 29:0.333333 
1 1 0 0 1:1 2:0.8854 3:-1 5:-0.857143 6:-0.940801 8:1 9:-0.814815 10:-1 11:1 12:-0.957124 13:-0.08012 14:-0.956835 15:0.45 16:-1 17:-1 18:-0.875 19:-0.5 20:-0.939394 22:-0.0209933 23:0.333333 24:-1 26:-0.333333 28:-1 29:0.333333 
1 1 0 0 1:-1 2:-1 3:-1 5:-1 6:-1 8:-0.333333 9:-1 10:-1 11:1 12:-0.950354 13:-0.08012 14:-0.956835 15:0.45 16:-1 17:-1 18:-0.875 19:-0.5 20:-0.939394 22:-0.0209933 23:0.333333 24:-1 25:-1 26:-0.333333 28:-1 29:-0.333333 
1 1 1 0 1:1 2:0.7387 3:-1 5:-0.857143 6:-0.912801 8:-1 9:-0.851852 10:-1 11:-1 12:-0.950354 13:0.083644 14:-0.942446 15:0.56 16:-1 17:-1 18:-0.875 19:-0.6 20:-0.939394 21:-0.2 22:0.558573 23:0.333333 24:-1 25:-1 26:-1 28:-1 29:-0.333333 
1 1 1 0 1:1 2:-0.06952 3:-1 5:-0.785714 6:-0.917222 8:1 9:-0.777778 10:-1 11:1 12:-0.942681 13:0.0581167 14:-0.928058 15:0.633333 16:-1 17:-1 18:-0.875 19:-0.666667 20:-0.939394 21:-0.333333 22:0.518193 23:0.333333 24:-1 25:-1 26:-1 28:-1 29:-0.333333 
1 1 1 1 1:1 2:0.88498 3:-1 5:-0.857143 6:-0.924591 8:1 9:-0.777778 10:1 11:1 12:-0.935159 13:0.17624 14:-0.913669 15:0.685714 16:-1 17:-1 18:-0.875 19:-0.714286 20:-0.939394 21:-0.428571 22:0.518053 23:1 24:-1 25:-1 26:-1 28:-0.333333 29:-0.333333 
1 1 1 1 1:-1 2:-1 3:-1 5:-1 6:-1 8:-0.333333 9:-1 10:-1 11:1 12:-0.928238 13:0.17624 14:-0.913669 15:0.685714 16:-1 17:-1 18:-0.875 19:-0.714286 20:-0.939394 21:-0.428571 22:0.518053 23:0.333333 24:-1 25:-1 26:-1 28:-0.333333 29:-1 
1 1 1 1 1:0.333333 2:-1 3:-1 5:-0.857143 6:-0.84354 8:-1 9:-0.814815 10:-1 11:-1 12:-0.928238 13:0.02921 14:-0.913669 15:0.45 16:-0.953488 17:-0.75 18:-0.875 19:-0.75 20:-0.939394 21:-0.5 22:-0.0615133 23:-0.333333 24:-0.333333 25:-1 26:-1 28:-0.333333 29:-0.333333 
1 0 0 0 1:1 2:0.8736 3:-1 5:-0.857143 6:-0.914275 8:1 9:-0.740741 10:-1 11:1 12:-0.977433 13:0.25238 14:-0.971223 15:1 16:-1 17:-1 18:-1 19:-1 20:-0.969697 22:0.25238 23:0.333333 24:-1 25:-1 26:-0.333333 28:-1 29:-0.333333 
1 1 1 1 1:1 2:0.35498 3:1 5:-0.785714 6:-0.884802 8:-1 9:0.62963 10:-1 11:-1 12:-0.814503 13:0.309889 14:-0.726619 15:0.790476 16:-1 17:-1 18:-0.75 19:-0.809524 20:-0.848485 21:-0.52381 22:0.0735733 23:-0.333333 24:-1 26:-0.333333 28:-1 29:-0.333333 
1 1 0 0 1:0.333333 2:-1 3:1 5:-0.857143 6:-0.828803 8:-1 9:-0.814815 10:-1 11:-1 12:-0.99985 13:-1 14:-1 15:1 16:-0.953488 17:1 18:-1 19:-1 20:-0.969697 21:1 22:-1 23:-1 24:-0.333333 25:-1 26:-0.333333 28:-1 29:-0.333333 
1 0 0 0 1:1 2:0.52896 3:-1 5:-0.714286 6:-0.849434 8:-1 9:-0.851852 10:-1 11:-1 12:-0.975177 13:0.47076 14:-0.956835 15:1 16:-1 17:-1 18:-1 19:-1 20:-0.969697 21:-0.333333 22:0.47076 23:0.333333 24:-1 25:-1 26:-1 28:-1 29:-0.333333 
1 0 0 0 1:1 2:0.72186 3:-1 5:-0.785714 6:-0.881855 8:-1 9:-0.888889 10:-1 11:-1 12:-0.941778 13:0.604052 14:-0.928058 15:1 16:-1 17:-1 18:-1 19:-1 20:-0.969697 21:-0.6 22:0.712313 23:0.333333 24:-1 25:-1 26:-1 28:-1 29:-0.333333 
1 1 0 0 1:-1 2:-1 3:-1 5:-1 6:-1 8:-0.333333 9:-0.111111 10:-1 11:-1 12:-0.901309 13:0.334388 14:-0.884892 15:0.56 16:-0.953488 17:-0.8 18:-0.875 19:-0.8 20:-0.939394 21:-0.6 22:0.197647 23:-1 24:-1 26:-1 28:-1 29:-1 
1 1 1 1 1:-1 2:-1 3:-1 5:-1 6:-1 8:-0.333333 9:-0.111111 10:-1 11:-1 12:-0.86776 13:0.231462 14:-0.870504 15:0.45 16:-0.906977 17:-0.666667 18:-0.875 19:-0.833333 20:-0.878788 21:-0.333333 22:-0.522113 23:-0.333333 24:-1 25:-1 26:-0.333333 28:-0.333333 29:-0.333333 
1 1 0 0 1:-0.333333 2:-1 3:-1 5:-1 6:-1 8:-1 9:0.62963 10:-1 11:-1 12:-0.86776 13:0.136734 14:-0.870504 15:0.323077 16:-0.906977 17:-0.692308 18:-0.75 19:-0.692308 20:-0.878788 21:-0.384615 22:-0.522113 23:-1 24:-1 26:-1 28:-1 29:-0.333333 
1 1 1 1 1:1 2:0.84398 3:-1 5:-0.857143 6:-0.945222 8:1 9:-0.62963 10:-1 11:1 12:-0.940424 13:-0.023676 14:-0.942446 15:0.56 16:-0.953488 17:-0.6 18:-1 19:-1 20:-0.939394 21:-0.2 22:0.344 23:0.333333 24:-1 25:-1 26:-1 28:-0.333333 29:-1 
1 1 0 0 1:-1 2:-1 3:-1 5:-1 6:-1 8:-0.333333 9:-1 10:-1 11:1 12:-0.919362 13:-0.023676 14:-0.942446 15:0.56 16:-0.953488 17:-0.6 18:-1 19:-1 20:-0.939394 21:-0.2 22:0.344 23:-0.333333 24:-1 25:-1 26:-1 28:-1 29:-1 
1 1 1 0 1:1 2:0.40298 3:-1 5:-0.857143 6:-0.90396 8:-1 9:-0.814815 10:-1 11:-1 12:-0.919362 13:0.0474333 14:-0.928058 15:0.633333 16:-0.953488 17:-0.666667 18:-1 19:-1 20:-0.939394 21:-0.333333 22:0.69222 23:0.333333 24:-1 25:-1 26:-1 28:-1 29:-0.333333 
1 1 1 0 1:1 2:0.72728 3:-1 5:-0.857143 6:-0.939327 8:1 9:-0.703704 10:-1 11:1 12:-0.911689 13:0.144554 14:-0.913669 15:0.685714 16:-0.953488 17:-0.714286 18:-1 19:-1 20:-0.939394 21:-0.428571 22:0.65808 23:0.333333 24:-1 25:-1 26:-1 28:-1 29:-0.333333 
1 1 1 0 1:-1 2:-1 3:-1 5:-1 6:-1 8:-0.333333 9:-1 10:-1 11:1 12:-0.903866 13:0.144554 14:-0.913669 15:0.685714 16:-0.953488 17:-0.714286 18:-1 19:-1 20:-0.939394 21:-0.428571 22:0.65808 23:0.333333 24:-1 25:-1 26:-1 28:-1 29:-0.333333 
1 1 1 0 1:1 2:0.75518 3:-1 5:-0.714286 6:-0.901012 8:-1 9:-0.851852 10:-1 11:-1 12:-0.903866 13:0.220883 14:-0.899281 15:0.725 16:-0.953488 17:-0.75 18:-1 19:-1 20:-0.939394 21:-0.5 22:0.62848 23:0.333333 24:-1 25:-1 26:-1 28:-1 29:-0.333333 
1 1 0 0 1:1 2:0.86526 3:-1 5:-0.857143 6:-0.939327 8:1 9:-0.62963 10:-1 11:1 12:-0.894088 13:0.29248 14:-0.884892 15:0.755556 16:-0.953488 17:-0.777778 18:-1 19:-1 20:-0.939394 21:-0.555556 22:0.782573 23:0.333333 24:-1 25:-1 26:-1 28:-1 29:-0.333333 
1 1 1 0 1:-1 2:-1 3:-1 5:-1 6:-1 8:-0.333333 9:-1 10:-1 11:1 12:-0.885964 13:0.29248 14:-0.884892 15:0.755556 16:-0.953488 17:-0.777778 18:-1 19:-1 20:-0.939394 21:-0.555556 22:0.782573 23:0.333333 24:-1 25:-1 26:-1 28:-1 29:-0.333333 
1 1 1 1 1:-0.333333 2:-1 3:-1 5:-1 6:-1 8:0.333333 9:-0.740741 10:-1 11:-1 12:-0.885964 13:0.163232 14:-0.884892 15:0.56 16:-0.953488 17:-0.8 18:-0.875 19:-0.8 20:-0.939394 21:-0.6 22:0.206813 23:-0.333333 24:-1 26:-1 28:-1 29:-1 
1 1 0 0 1:-1 2:-1 3:-1 5:-1 6:-1 8:-0.333333 9:-0.0740741 10:-1 11:-1 12:-0.885964 13:0.163232 14:-0.884892 15:0.56 16:-0.953488 17:-0.8 18:-0.875 19:-0.8 20:-0.939394 21:-0.6 22:0.206813 23:-1 24:-1 26:-1 28:-1 29:-1 
1 1 1 1 1:-1 2:-1 3:-1 5:-1 6:-1 8:-0.333333 10:-1 11:-1 12:-0.828945 13:0.112292 14:-0.870504 15:0.45 16:-0.906977 17:-0.666667 18:-0.875 19:-0.833333 20:-0.909091 21:-0.5 22:-0.428273 23:-0.333333 24:-1 25:-1 26:-1 28:-0.333333 29:-0.333333 
1 1 1 0 1:-0.333333 2:-1 3:-1 5:-1 6:-1 8:-1 9:0.62963 10:-1 11:-1 12:-0.828945 13:0.0267308 14:-0.870504 15:0.323077 16:-0.906977 17:-0.692308 18:-0.75 19:-0.692308 20:-0.909091 21:-0.538462 22:-0.428273 23:-1 24:-1 26:-1 28:-1 29:-0.333333 
1 0 0 0 1:1 2:0.87824 3:-1 5:-0.857143 6:-0.929012 8:1 9:-0.740741 10:-1 11:1 12:-0.977283 13:-0.00305 14:-0.971223 15:1 16:-1 17:-1 18:-1 19:-1 20:-0.969697 22:-0.00305 23:0.333333 24:-1 25:-1 26:-0.333333 28:-1 29:-0.333333 
1 0 0 0 1:-1 2:-1 3:-1 5:-1 6:-1 8:-0.333333 9:-1 10:-1 11:1 12:-0.96946 13:-0.00305 14:-0.971223 15:1 16:-1 17:-1 18:-1 19:-1 20:-0.969697 22:-0.00305 23:0.333333 24:-1 25:-1 26:-0.333333 28:-1 29:-0.333333 
1 0 0 0 1:1 2:0.87646 3:-1 5:-0.857143 6:-0.911328 8:1 9:-0.703704 10:-1 11:1 12:-0.96946 13:0.29012 14:-0.956835 15:1 16:-1 17:-1 18:-1 19:-1 20:-0.969697 21:-0.333333 22:0.29012 23:0.333333 24:-1 25:-1 26:-1 28:-1 29:-1 
1 1 1 1 1:1 2:0.84896 3:-1 5:-0.857143 6:-0.934906 8:1 9:-0.703704 10:-1 11:1 12:-0.950955 13:0.50229 14:-0.913669 15:1 16:-1 17:-1 18:-1 19:-1 20:-0.939394 21:-0.333333 22:0.71446 23:1 24:-1 25:-1 26:-0.333333 28:-0.333333 29:0.333333 
1 1 1 0 1:-1 2:-1 3:-1 5:-1 6:-1 8:-0.333333 9:-1 10:-1 11:1 12:-0.942982 13:0.50229 14:-0.913669 15:1 16:-1 17:-1 18:-1 19:-1 20:-0.939394 21:-0.333333 22:0.71446 23:0.333333 24:-1 25:-1 26:-1 28:-0.333333 29:-0.333333 
1 0 0 0 1:-0.333333 2:-1 3:-1 5:-1 6:-1 8:0.333333 9:-0.703704 10:-1 11:-1 12:-0.942982 13:0.287677 14:-0.913669 15:0.685714 16:-1 17:-1 18:-0.875 19:-0.714286 20:-0.939394 21:-0.428571 22:0.22426 23:-0.333333 24:-1 26:-1 28:-1 29:-1 
1 0 0 0 1:1 2:0.6524 3:1 5:-0.857143 6:-0.90838 8:-1 9:0.62963 10:-1 11:-1 12:-0.942982 13:0.333268 14:-0.899281 15:0.725 16:-1 17:-1 18:-0.875 19:-0.75 20:-0.909091 21:-0.25 22:0.16712 23:-0.333333 24:-1 26:-0.333333 28:-1 29:-0.333333 
1 1 1 1 1:1 2:0.46332 3:1 5:-0.571429 6:-0.873013 8:-1 9:-0.333333 10:1 11:-1 12:-0.936964 13:0.347718 14:-0.884892 15:0.755556 16:-1 17:-1 18:-0.875 19:-0.777778 20:-0.878788 21:-0.111111 22:0.0385733 23:0.333333 24:-1 25:-1 26:0.333333 28:-0.333333 29:0.333333 
1 1 1 1 1:-1 2:-1 3:-1 5:-1 6:-1 8:-0.333333 9:-1 10:-1 11:-1 12:-0.904468 13:0.347718 14:-0.884892 15:0.755556 16:-1 17:-1 18:-0.875 19:-0.777778 20:-0.878788 21:-0.111111 22:0.0385733 23:0.333333 24:-1 25:-1 26:0.333333 28:-0.333333 29:0.333333 
1 1 0 0 1:-1 2:-1 3:-1 5:-1 6:-1 8:-0.333333 9:0.037037 10:-1 11:-1 12:-0.904468 13:0.347718 14:-0.884892 15:0.755556 16:-1 17:-1 18:-0.875 19:-0.777778 20:-0.878788 21:-0.111111 22:0.0385733 23:-0.333333 24:-1 25:-1 26:-0.333333 28:-0.333333 29:-0.333333 
1 0 0 0 1:1 2:0.44918 3:1 5:-0.571429 6:-0.839119 8:-1 9:0.62963 10:-1 11:-1 12:-0.904468 13:0.357864 14:-0.870504 15:0.78 16:-1 17:-1 18:-0.875 19:-0.8 20:-0.848485 22:0.521633 23:-0.333333 24:-1 25:-1 26:-0.333333 28:-1 29:-0.333333 
1 0 0 0 1:-1 2:-1 3:-1 5:-1 6:-1 8:-0.333333 9:-1 10:-1 11:-1 12:-0.87107 13:0.357864 14:-0.870504 15:0.78 16:-1 17:-1 18:-0.875 19:-0.8 20:-0.848485 22:0.521633 23:-0.333333 24:-1 25:-1 26:-0.333333 28:-1 29:-0.333333 
1 0 0 0 1:-1 2:-1 3:-1 5:-1 6:-1 8:-0.333333 9:0.148148 10:-1 11:-1 12:-0.87107 13:0.357864 14:-0.870504 15:0.78 16:-1 17:-1 18:-0.875 19:-0.8 20:-0.848485 22:0.521633 23:-0.333333 24:-1 25:-1 26:-0.333333 28:-1 29:-0.333333 
1 0 0 0 1:1 2:0.56232 3:-1 5:-0.714286 6:-0.884802 8:-1 9:-0.814815 10:-1 11:-1 12:-0.970513 13:0.479527 14:-0.956835 15:1 16:-1 17:-1 18:-1 19:-1 20:-0.969697 21:-0.333333 22:0.479527 23:0.333333 24:-1 25:-1 26:-1 28:-1 29:-0.333333 
1 0 0 0 1:1 2:0.72778 3:-1 5:-0.785714 6:-0.890697 8:-1 9:-0.814815 10:-1 11:-1 12:-0.95592 13:0.610604 14:-0.928058 15:1 16:-1 17:-1 18:-1 19:-1 20:-0.969697 21:-0.6 22:0.725587 23:0.333333 24:-1 25:-1 26:-1 28:-1 29:-0.333333 
1 0 0 0 1:1 2:-0.36968 3:1 5:-0.714286 6:-0.895118 8:1 9:-0.740741 10:-1 11:1 12:-0.980141 13:-0.17746 14:-0.971223 15:1 16:-1 17:-1 18:-1 19:-1 20:-0.939394 21:1 22:-0.17746 23:0.333333 24:-1 25:-1 26:0.333333 28:-1 29:-0.333333 
1 1 1 1 1:1 2:0.88486 3:-1 5:-0.857143 6:-0.939327 8:1 9:-0.740741 10:1 11:1 12:-0.978336 13:0.176647 14:-0.956835 15:1 16:-1 17:-1 18:-1 19:-1 20:-0.939394 21:0.333333 22:0.176647 23:1 24:-1 25:-1 26:0.333333 28:-0.333333 29:-0.333333 
1 1 1 0 1:-1 2:-1 3:-1 5:-1 6:-1 8:-0.333333 9:-1 10:-1 11:1 12:-0.971416 13:0.176647 14:-0.956835 15:1 16:-1 17:-1 18:-1 19:-1 20:-0.939394 21:0.333333 22:0.176647 23:0.333333 24:-1 25:-1 26:-0.333333 28:-0.333333 29:-1 
1 1 0.339393605292093 0 1:1 2:0.88586 3:-1 5:-0.857143 6:-0.934906 8:1 9:-0.62963 10:-1 11:1 12:-0.971416 13:0.35395 14:-0.942446 15:1 16:-1 17:-1 18:-1 19:-1 20:-0.939394 22:0.467013 23:0.333333 24:-1 25:-1 26:-1 28:-0.333333 29:-1 
1 1 1 0 1:0.333333 2:-1 3:-1 5:-0.785714 6:-0.917222 8:-1 9:-0.888889 10:-1 11:-1 12:-0.962991 13:0.08316 14:-0.942446 15:0.56 16:-0.953488 17:-0.6 18:-1 19:-1 20:-0.939394 21:-0.2 22:0.256907 23:-0.333333 24:-0.333333 25:-1 26:-1 28:-1 29:-0.333333 
1 1 1 0 1:1 2:0.84878 3:-1 5:-0.785714 6:-0.90396 8:-1 9:-0.814815 10:-1 11:-1 12:-0.941929 13:0.315065 14:-0.899281 15:0.725 16:-0.953488 17:-0.75 18:-1 19:-1 20:-0.909091 21:-0.25 22:0.701573 23:0.333333 24:-1 25:-1 26:-1 28:-1 29:-0.333333 
1 1 0 0 1:1 2:0.85916 3:-1 5:-0.857143 6:-0.921643 8:1 9:-0.666667 10:-1 11:1 12:-0.934256 13:0.37552 14:-0.884892 15:0.755556 16:-0.953488 17:-0.777778 18:-1 19:-1 20:-0.909091 21:-0.333333 22:0.84954 23:0.333333 24:-1 25:-1 26:-1 28:-1 29:-0.333333 
1 1 0 0 1:-1 2:-1 3:-1 5:-1 6:-1 8:-0.333333 9:-1 10:-1 11:1 12:-0.926283 13:0.37552 14:-0.884892 15:0.755556 16:-0.953488 17:-0.777778 18:-1 19:-1 20:-0.909091 21:-0.333333 22:0.84954 23:0.333333 24:-1 25:-1 26:-1 28:-1 29:-0.333333 
1 1 1 0 1:-0.333333 2:-1 3:-1 5:-1 6:-1 8:0.333333 9:-0.814815 10:-1 11:-1 12:-0.926283 13:0.237968 14:-0.884892 15:0.56 16:-0.953488 17:-0.8 18:-0.875 19:-0.8 20:-0.909091 21:-0.4 22:0.23598 23:-0.333333 24:-1 26:-1 28:-1 29:-1 
1 1 0 0 1:-1 2:-1 3:-1 5:-1 6:-1 8:-0.333333 9:-0.037037 10:-1 11:-1 12:-0.926283 13:0.237968 14:-0.884892 15:0.56 16:-0.953488 17:-0.8 18:-0.875 19:-0.8 20:-0.909091 21:-0.4 22:0.23598 23:-1 24:-1 26:-1 28:-1 29:-1 
1 0 0 0 1:1 2:0.33772 3:-1 5:-0.857143 6:-0.921643 8:-1 9:0.62963 10:-1 11:-1 12:-0.926283 13:0.247036 14:-0.870504 15:0.6 16:-0.953488 17:-0.818182 18:-0.875 19:-0.818182 20:-0.909091 21:-0.454545 22:0.0656267 23:-0.333333 24:-1 26:-1 28:-1 29:-0.333333 
1 1 1 1 1:-0.333333 2:-1 3:-1 5:-1 6:-1 8:-0.333333 9:-0.592593 10:-1 11:-1 12:-0.878742 13:0.143117 14:-0.870504 15:0.45 16:-0.953488 17:-0.833333 18:-0.75 19:-0.666667 20:-0.909091 21:-0.5 22:-0.554093 23:-0.333333 24:-1 26:-1 28:-1 29:-0.333333 
1 0 0 0 1:-1 2:-1 3:-1 5:-1 6:-1 8:-0.333333 9:0.481481 10:-1 11:-1 12:-0.973823 13:0.05606 14:-0.985612 15:1 16:-1 17:-1 18:-1 19:-1 20:-1 21:-1 22:0.05606 23:-0.333333 24:-1 25:-1 26:-1 28:-1 29:-0.333333 
1 1 0 1 1:-0.333333 2:-1 3:-1 5:-1 6:-1 8:-1 9:-0.740741 10:-1 11:-1 12:-0.973823 13:-0.47197 14:-0.985612 15:-0.1 16:-1 17:-1 18:-0.875 20:-1 21:-1 22:-0.47197 23:-0.333333 24:-1 26:-1 28:-1 29:0.333333 
1 0 0 0 1:1 2:0.48348 3:-1 5:-0.785714 6:-0.874487 8:-1 9:-0.851852 10:-1 11:-1 12:-0.973672 13:0.55078 14:-0.956835 15:1 16:-1 17:-1 18:-1 19:-1 20:-1 21:-1 22:0.55078 23:0.333333 24:-1 25:-1 26:-1 28:-1 29:-0.333333 
1 1 0 0 1:-0.333333 2:-1 3:-1 5:-1 6:-1 8:-1 9:0.62963 10:-1 11:-1 12:-0.893636 13:0.448737 14:-0.841727 15:0.661538 16:-1 17:-1 18:-0.75 19:-0.692308 20:-1 21:-1 22:-0.38022 23:-1 24:-1 25:1 26:-1 28:-1 29:-0.333333 
1 1 0 1 1:-0.333333 2:-1 3:-1 5:-1 6:-1 8:-1 9:-0.740741 10:-1 11:-1 12:-0.985557 13:-0.63573 14:-0.985612 15:-0.1 16:-1 17:-1 18:-0.875 20:-0.969697 22:-0.63573 23:-0.333333 24:-1 26:-0.333333 28:-1 29:0.333333 
1 1 1 1 1:1 2:-0.49382 3:1 5:-0.785714 6:-0.828803 8:-1 10:-1 11:-1 12:-0.985557 13:-0.588427 14:-0.971223 15:0.266667 16:-1 17:-1 18:-0.875 19:-0.333333 20:-0.939394 21:0.333333 22:-0.588427 23:-0.333333 24:-1 26:-0.333333 28:-1 29:0.333333 
1 1 1 1 1:1 2:0.79114 3:1 5:-0.857143 6:-0.93638 8:1 9:-0.740741 10:-1 11:1 12:-0.960132 13:-0.243535 14:-0.956835 15:0.45 16:-1 17:-1 18:-0.875 19:-0.5 20:-0.909091 21:0.5 22:-0.234227 23:0.333333 24:-1 26:0.333333 28:-1 29:0.333333 
1 0 0 0 1:-1 2:-1 3:-1 5:-1 6:-1 8:-0.333333 9:-1 10:-1 11:1 12:-0.953062 13:-0.243535 14:-0.956835 15:0.45 16:-1 17:-1 18:-0.875 19:-0.5 20:-0.909091 21:0.5 22:-0.234227 23:0.333333 24:-1 25:-1 26:0.333333 28:-1 29:-0.333333 
1 1 0 0 1:1 2:0.21138 3:-1 5:-0.857143 6:-0.909854 8:1 9:-0.814815 10:-1 11:1 12:-0.981796 13:0.27191 14:-0.971223 15:1 16:-1 17:-1 18:-1 19:-1 20:-1 21:-1 22:0.27191 23:0.333333 24:-1 25:-1 26:-1 28:-1 29:-0.333333 
1 1 1 0 1:1 2:0.88798 3:-1 5:-0.857143 6:-0.942274 8:1 9:-0.777778 10:-1 11:1 12:-0.962088 13:0.57896 14:-0.942446 15:1 16:-1 17:-1 18:-1 19:-1 20:-1 21:-1 22:0.661133 23:0.333333 24:-1 25:-1 26:-1 28:-0.333333 29:-1 
1 0 0 0 1:1 2:0.74384 3:-1 5:-0.857143 6:-0.917222 8:-1 9:-0.888889 10:-1 11:-1 12:-0.95261 13:0.611936 14:-0.928058 15:1 16:-1 17:-1 18:-1 19:-1 20:-1 21:-1 22:0.83862 23:0.333333 24:-1 25:-1 26:-1 28:-1 29:-0.333333 
1 0 0 0 1:1 2:0.7867 3:-1 5:-0.857143 6:-0.940801 8:1 9:-0.703704 10:-1 11:1 12:-0.945539 13:0.641063 14:-0.913669 15:1 16:-1 17:-1 18:-1 19:-1 20:-1 21:-1 22:0.806173 23:0.333333 24:-1 25:-1 26:-1 28:-1 29:-0.333333 
1 0 0 0 1:1 2:0.78806 3:-1 5:-0.857143 6:-0.939327 8:1 9:-0.62963 10:-1 11:1 12:-0.924929 13:0.689747 14:-0.884892 15:1 16:-1 17:-1 18:-1 19:-1 20:-1 21:-1 22:0.819433 23:0.333333 24:-1 25:-1 26:-1 28:-1 29:-0.333333 
1 0 0 0 1:1 2:0.60836 3:1 5:-0.571429 6:-0.837645 8:-1 9:0.62963 10:-1 11:-1 12:-0.916955 13:0.512634 14:-0.870504 15:0.78 16:-1 17:-1 18:-0.875 19:-0.8 20:-0.969697 21:-0.8 22:0.13214 23:-0.333333 24:-1 26:-0.333333 28:-1 29:-0.333333 
1 1 1 1 1:0.333333 2:-1 3:-1 5:-0.857143 6:-0.931959 8:-1 9:-0.814815 10:-1 11:-1 12:-0.99985 13:-1 14:-1 15:1 16:-0.953488 17:1 18:-1 19:-1 20:-1 21:-1 22:-1 23:-1 24:-0.333333 25:-1 26:-1 28:-1 29:-0.333333 
1 1 1 1 1:1 2:0.77842 3:-1 5:-0.857143 6:-0.883328 8:1 9:-0.740741 10:-1 11:1 12:-0.977433 13:-0.364473 14:-0.971223 15:0.266667 16:-0.953488 17:-0.333333 18:-1 19:-1 20:-0.969697 21:-0.333333 22:-0.364473 23:0.333333 24:-0.333333 25:-1 26:-0.333333 28:-0.333333 29:0.333333 
1 1 1 1 1:-1 2:-1 3:-1 5:-1 6:-1 8:-0.333333 9:-1 10:-1 11:1 12:-0.968708 13:-0.364473 14:-0.971223 15:0.266667 16:-0.953488 17:-0.333333 18:-1 19:-1 20:-0.969697 21:-0.333333 22:-0.364473 23:0.333333 24:-1 25:-1 26:-0.333333 28:-0.333333 29:-0.333333 
1 1 1 1 1:1 2:0.44624 3:-1 5:-0.857143 6:-0.73449 8:-1 9:-0.777778 10:-1 11:-1 12:-0.968708 13:-0.161795 14:-0.956835 15:0.45 16:-0.953488 17:-0.5 18:-1 19:-1 20:-0.969697 21:-0.5 22:0.117607 23:0.333333 24:-1 25:-1 26:-1 28:-1 29:-0.333333 
1 1 1 0 1:1 2:0.77832 3:-1 5:-0.857143 6:-0.802278 8:1 9:-0.777778 10:-1 11:1 12:-0.957424 13:0.026228 14:-0.942446 15:0.56 16:-0.953488 17:-0.6 18:-1 19:-1 20:-0.969697 21:-0.6 22:0.66766 23:0.333333 24:-1 25:-1 26:-1 28:-1 29:-0.333333 
1 1 1 0 1:-1 2:-1 3:-1 5:-1 6:-1 8:-0.333333 9:-1 10:-1 11:1 12:-0.947946 13:0.026228 14:-0.942446 15:0.56 16:-0.953488 17:-0.6 18:-1 19:-1 20:-0.969697 21:-0.6 22:0.66766 23:0.333333 24:-1 25:-1 26:-1 28:-1 29:-0.333333 
1 1 1 1 1:1 2:0.40924 3:-1 5:-0.857143 6:-0.909854 8:-1 9:-0.851852 10:-1 11:-1 12:-0.947946 13:0.0900633 14:-0.928058 15:0.633333 16:-0.953488 17:-0.666667 18:-1 19:-1 20:-0.969697 21:-0.666667 22:0.5446 23:0.333333 24:-1 25:-1 26:-1 28:-1 29:-0.333333 
1 1 1 1 1:1 2:-0.33732 3:1 5:-0.857143 6:-0.874487 8:-1 10:1 11:-1 12:-0.977885 13:-0.0801 14:-0.971223 15:1 16:-1 17:-1 18:-1 19:-1 20:-0.969697 22:-0.0801 23:0.333333 24:-1 25:-1 26:-0.333333 28:-0.333333 29:0.333333 
1 1 1 1 1:1 2:0.77244 3:-1 5:-0.857143 6:-0.873013 8:1 9:-0.740741 10:-1 11:1 12:-0.96269 13:0.20408 14:-0.956835 15:1 16:-1 17:-1 18:-1 19:-1 20:-0.969697 21:-0.333333 22:0.20408 23:1 24:-1 25:-1 26:-0.333333 28:-0.333333 29:0.333333 
1 1 1 0 1:-1 2:-1 3:-1 5:-1 6:-1 8:-0.333333 9:-1 10:-1 11:1 12:-0.954416 13:0.20408 14:-0.956835 15:1 16:-1 17:-1 18:-1 19:-1 20:-0.969697 21:-0.333333 22:0.20408 23:0.333333 24:-1 25:-1 26:-0.333333 28:-0.333333 29:-0.333333 
1 0 0 0 1:-1 2:-1 3:-1 5:-1 6:-1 8:-0.333333 9:0.296296 10:-1 11:-1 12:-0.954416 13:0.20408 14:-0.956835 15:1 16:-1 17:-1 18:-1 19:-1 20:-0.969697 21:-0.333333 22:0.20408 23:-0.333333 24:-1 25:-1 26:-1 28:-1 29:-1 
1 1 0 1 1:-0.333333 2:-1 3:-1 5:-1 6:-1 8:-1 9:-0.740741 10:-1 11:-1 12:-0.985106 13:-0.63399 14:-0.985612 15:-0.1 16:-1 17:-1 18:-0.875 20:-0.969697 22:-0.63399 23:-0.333333 24:-1 26:-0.333333 28:-1 29:0.333333 
1 1 0 0 1:1 2:0.00166 3:1 5:-0.857143 6:-0.858276 8:-1 10:-1 11:-1 12:-0.985106 13:-0.422107 14:-0.971223 15:0.266667 16:-1 17:-1 18:-0.875 19:-0.333333 20:-0.939394 21:0.333333 22:-0.422107 23:-0.333333 24:-1 26:-0.333333 28:-1 29:0.333333 
1 1 0 0 1:1 2:0.87558 3:-1 5:-0.857143 6:-0.90838 8:1 9:-0.740741 10:-1 11:1 12:-0.980593 13:-0.097685 14:-0.956835 15:0.45 16:-1 17:-1 18:-0.875 19:-0.5 20:-0.939394 22:-0.04092 23:0.333333 24:-1 26:-0.333333 28:-1 29:0.333333 
1 1 0 0 1:-1 2:-1 3:-1 5:-1 6:-1 8:-0.333333 9:-1 10:-1 11:1 12:-0.97277 13:-0.097685 14:-0.956835 15:0.45 16:-1 17:-1 18:-0.875 19:-0.5 20:-0.939394 22:-0.04092 23:0.333333 24:-1 25:-1 26:-0.333333 28:-1 29:-0.333333 
1 1 0 0 1:1 2:0.72832 3:-1 5:-0.857143 6:-0.896591 8:-1 9:-0.777778 10:-1 11:-1 12:-0.97277 13:0.067516 14:-0.942446 15:0.56 16:-1 17:-1 18:-0.875 19:-0.6 20:-0.939394 21:-0.2 22:0.535187 23:0.333333 24:-1 25:-1 26:-1 28:-1 29:-0.333333 
1 0 0 0 1:1 2:0.87868 3:-1 5:-0.857143 6:-0.906907 8:1 9:-0.703704 10:-1 11:1 12:-0.964646 13:0.20271 14:-0.928058 15:0.633333 16:-1 17:-1 18:-0.875 19:-0.666667 20:-0.939394 21:-0.333333 22:0.827527 23:0.333333 24:-1 25:-1 26:-1 28:-1 29:-0.333333 
1 1 0 0 1:-1 2:-1 3:-1 5:-1 6:-1 8:-0.333333 9:-1 10:-1 11:1 12:-0.956823 13:0.20271 14:-0.928058 15:0.633333 16:-1 17:-1 18:-0.875 19:-0.666667 20:-0.939394 21:-0.333333 22:0.827527 23:0.333333 24:-1 25:-1 26:-1 28:-1 29:-0.333333 
1 1 0 0 1:1 2:0.74082 3:-1 5:-0.857143 6:-0.90838 8:-1 9:-0.888889 10:-1 11:-1 12:-0.956823 13:0.279583 14:-0.913669 15:0.685714 16:-1 17:-1 18:-0.875 19:-0.714286 20:-0.939394 21:-0.428571 22:0.782607 23:0.333333 24:-1 25:-1 26:-1 28:-1 29:-0.333333 
1 0 0 0 1:1 2:0.87964 3:-1 5:-0.857143 6:-0.90396 8:1 9:-0.703704 10:-1 11:1 12:-0.94915 13:0.35459 14:-0.899281 15:0.725 16:-1 17:-1 18:-0.875 19:-0.75 20:-0.939394 21:-0.5 22:0.833047 23:0.333333 24:-1 25:-1 26:-1 28:-1 29:-0.333333 
1 0 0 0 1:-1 2:-1 3:-1 5:-1 6:-1 8:-0.333333 9:-1 10:-1 11:1 12:-0.941778 13:0.35459 14:-0.899281 15:0.725 16:-1 17:-1 18:-0.875 19:-0.75 20:-0.939394 21:-0.5 22:0.833047 23:0.333333 24:-1 25:-1 26:-1 28:-1 29:-0.333333 
1 1 1 0 1:0.333333 2:-1 3:-1 5:-0.785714 6:-0.862697 8:-1 9:-0.851852 10:-1 11:-1 12:-0.941778 13:0.20408 14:-0.899281 15:0.511111 16:-0.953488 17:-0.777778 18:-0.875 19:-0.777778 20:-0.939394 21:-0.555556 22:0.20682 23:-0.333333 24:-0.333333 25:-1 26:-1 28:-1 29:-0.333333 
1 1 1 1 1:1 2:0.85718 3:-1 5:-0.857143 6:-0.915749 8:-1 9:-0.851852 10:1 11:-1 12:-0.932752 13:0.26939 14:-0.884892 15:0.56 16:-0.953488 17:-0.8 18:-0.875 19:-0.8 20:-0.939394 21:-0.6 22:0.245607 23:-0.333333 24:-0.333333 25:-1 26:-1 28:-0.333333 29:0.333333 
1 1 1 1 1:1 2:0.8513 3:-1 5:-0.857143 6:-0.890697 8:1 9:-0.703704 10:-1 11:1 12:-0.927185 13:0.322291 14:-0.870504 15:0.6 16:-0.953488 17:-0.818182 18:-0.875 19:-0.818182 20:-0.939394 21:-0.636364 22:0.23616 23:0.333333 24:-0.333333 25:-1 26:-1 28:-0.333333 29:0.333333 
1 1 1 1 1:-1 2:-1 3:-1 5:-1 6:-1 8:-0.333333 9:-1 10:-1 11:1 12:-0.921017 13:0.322291 14:-0.870504 15:0.6 16:-0.953488 17:-0.818182 18:-0.875 19:-0.818182 20:-0.939394 21:-0.636364 22:0.23616 23:0.333333 24:-1 25:-1 26:-1 28:-0.333333 29:-0.333333 
1 1 1 1 1:-0.333333 2:-1 3:-1 5:-1 6:-1 8:0.333333 9:-0.703704 10:-1 11:-1 12:-0.921017 13:0.2121 14:-0.870504 15:0.45 16:-0.953488 17:-0.833333 18:-0.75 19:-0.666667 20:-0.939394 21:-0.666667 22:0.23616 23:-0.333333 24:-1 26:-1 28:-1 29:-1 
1 1 0 0 1:-1 2:-1 3:-1 5:-1 6:-1 8:-0.333333 9:-0.111111 10:-1 11:-1 12:-0.921017 13:0.2121 14:-0.870504 15:0.45 16:-0.953488 17:-0.833333 18:-0.75 19:-0.666667 20:-0.939394 21:-0.666667 22:0.23616 23:-1 24:-1 26:-1 28:-1 29:-1 
1 1 0 0 1:1 2:0.67912 3:1 5:-0.857143 6:-0.868592 8:-1 9:0.62963 10:-1 11:-1 12:-0.921017 13:0.248025 14:-0.856115 15:0.492308 16:-0.953488 17:-0.846154 18:-0.75 19:-0.692308 20:-0.909091 21:-0.538462 22:0.176807 23:-0.333333 24:-1 26:-0.333333 28:-1 29:-0.333333 
1 1 1 1 1:1 2:0.16546 3:1 5:-0.571429 6:-0.828803 8:-1 9:-0.333333 10:1 11:-1 12:-0.917557 13:0.242127 14:-0.841727 15:0.528571 16:-0.953488 17:-0.857143 18:-0.75 19:-0.714286 20:-0.878788 21:-0.428571 22:-0.0518067 23:0.333333 24:-1 25:-1 26:0.333333 28:-0.333333 29:0.333333 
1 1 1 1 1:-1 2:-1 3:-1 5:-1 6:-1 8:-0.333333 9:-0.925926 10:-1 11:-1 12:-0.88461 13:0.242127 14:-0.841727 15:0.528571 16:-0.953488 17:-0.857143 18:-0.75 19:-0.714286 20:-0.878788 21:-0.428571 22:-0.0518067 23:0.333333 24:-1 25:-1 26:0.333333 28:-0.333333 29:0.333333 
1 1 1 1 1:-1 2:-1 3:-1 5:-1 6:-1 8:-0.333333 10:-1 11:-1 12:-0.88461 13:0.242127 14:-0.841727 15:0.528571 16:-0.953488 17:-0.857143 18:-0.75 19:-0.714286 20:-0.878788 21:-0.428571 22:-0.0518067 23:-0.333333 24:-1 25:-1 26:-0.333333 28:-0.333333 29:-0.333333 
1 1 0 0 1:-0.333333 2:-1 3:-1 5:-1 6:-1 8:-1 9:0.62963 10:-1 11:-1 12:-0.88461 13:0.159319 14:-0.841727 15:0.413333 16:-0.953488 17:-0.866667 18:-0.625 19:-0.6 20:-0.878788 21:-0.466667 22:-0.0518067 23:-1 24:-1 26:-1 28:-1 29:-0.333333 
1 1 0 0 1:0.333333 2:-1 3:1 5:-0.857143 6:-0.898065 8:-1 9:-0.814815 10:-1 11:-1 12:-0.99985 13:-1 14:-1 15:1 16:-0.953488 17:1 18:-1 19:-1 20:-0.969697 21:1 22:-1 23:-1 24:-0.333333 25:-1 26:-0.333333 28:-1 29:-0.333333 
1 1 1 1 1:1 2:-0.29542 3:-1 5:-0.642857 6:-0.814067 8:-1 10:1 11:-1 12:-0.959531 13:-0.64771 14:-0.985612 15:-0.1 16:-0.953488 18:-1 19:-1 20:-0.969697 22:-0.64771 23:-0.333333 24:-0.333333 25:-1 26:-0.333333 28:-0.333333 29:0.333333 
1 1 1 1 1:1 2:0.53634 3:-1 5:-0.857143 6:-0.939327 8:1 9:-0.703704 10:-1 11:1 12:-0.925079 13:-0.10897 14:-0.956835 15:0.45 16:-0.953488 17:-0.5 18:-1 19:-1 20:-0.969697 21:-0.5 22:0.18804 23:0.333333 24:-1 25:-1 26:-1 28:-1 29:-0.333333 
1 1 1 1 1:-1 2:-1 3:-1 5:-1 6:-1 8:-0.333333 9:-1 10:-1 11:1 12:-0.918008 13:-0.10897 14:-0.956835 15:0.45 16:-0.953488 17:-0.5 18:-1 19:-1 20:-0.969697 21:-0.5 22:0.18804 23:0.333333 24:-1 25:-1 26:-1 28:-1 29:-0.333333 
1 1 1 1 1:1 2:0.46334 3:-1 5:-0.857143 6:-0.945222 8:-1 9:-0.888889 10:-1 11:-1 12:-0.918008 13:0.005492 14:-0.942446 15:0.56 16:-0.953488 17:-0.6 18:-1 19:-1 20:-0.969697 21:-0.6 22:0.44096 23:0.333333 24:-1 25:-1 26:-1 28:-1 29:-0.333333 
1 0 0 0 1:-0.333333 2:-1 3:-1 5:-1 6:-1 8:-1 9:-0.740741 10:-1 11:-1 12:-0.983 14:-0.985612 15:-0.1 16:-1 17:-1 18:-0.875 20:-0.969697 23:-0.333333 24:-1 26:-0.333333 28:-1 29:0.333333 
1 1 1 1 1:0.333333 2:-1 3:1 5:-0.928571 6:-0.905433 8:-1 10:-1 11:-1 12:-0.983 13:-0.333333 14:-0.985612 15:-0.466667 16:-0.953488 17:-0.333333 18:-0.875 19:-0.333333 20:-0.939394 21:0.333333 22:-0.333333 23:-1 24:-0.333333 26:-0.333333 28:-1 29:0.333333 
1 1 1 1 1:1 2:-0.87986 3:-1 5:0.0714286 6:-0.367551 8:-1 10:1 11:-1 12:-0.923274 13:-0.469965 14:-0.971223 15:-0.1 16:-0.953488 17:-0.5 18:-0.875 19:-0.5 20:-0.939394 22:-0.959953 23:-0.333333 24:-0.333333 26:-0.333333 28:-0.333333 29:1 
1 1 1 1 1:1 2:0.82336 3:-1 5:-0.857143 6:-0.927538 8:1 9:-0.666667 10:-1 11:1 12:-0.890176 13:-0.2113 14:-0.956835 15:0.12 16:-0.953488 17:-0.6 18:-0.875 19:-0.6 20:-0.939394 21:-0.2 22:-0.352167 23:0.333333 24:-0.333333 25:-1 26:-0.333333 28:-0.333333 29:0.333333 
1 1 1 1 1:-1 2:-1 3:-1 5:-1 6:-1 8:-0.333333 9:-1 10:-1 11:1 12:-0.882955 13:-0.2113 14:-0.956835 15:0.12 16:-0.953488 17:-0.6 18:-0.875 19:-0.6 20:-0.939394 21:-0.2 22:-0.352167 23:0.333333 24:-1 25:-1 26:-1 28:-0.333333 29:-0.333333 
1 1 1 1 1:1 2:0.25924 3:-1 5:-0.785714 6:-0.865645 8:1 9:-0.62963 10:-1 11:1 12:-0.882955 13:-0.132877 14:-0.942446 15:0.266667 16:-0.953488 17:-0.666667 18:-0.875 19:-0.666667 20:-0.939394 21:-0.333333 22:0.06758 23:0.333333 24:-1 25:-1 26:-1 28:-1 29:-1 
1 1 1 0 1:-1 2:-1 3:-1 5:-1 6:-1 8:-0.333333 9:-1 10:-1 11:1 12:-0.87122 13:-0.132877 14:-0.942446 15:0.266667 16:-0.953488 17:-0.666667 18:-0.875 19:-0.666667 20:-0.939394 21:-0.333333 22:0.06758 23:-0.333333 24:-1 25:-1 26:-1 28:-1 29:-1 
1 1 1 0 1:1 2:0.84364 3:-1 5:-0.857143 6:-0.921643 8:1 9:-0.740741 10:-1 11:1 12:-0.87122 13:0.00662571 14:-0.928058 15:0.371429 16:-0.953488 17:-0.714286 18:-0.875 19:-0.714286 20:-0.939394 21:-0.428571 22:0.64208 23:0.333333 24:-1 25:-1 26:-1 28:-1 29:-1 
1 1 0 0 1:-1 2:-1 3:-1 5:-1 6:-1 8:-0.333333 9:-1 10:-1 11:1 12:-0.862344 13:0.00662571 14:-0.928058 15:0.371429 16:-0.953488 17:-0.714286 18:-0.875 19:-0.714286 20:-0.939394 21:-0.428571 22:0.64208 23:-0.333333 24:-1 25:-1 26:-1 28:-1 29:-1 
1 1 1 0 1:1 2:0.65984 3:-1 5:-0.857143 6:-0.89217 8:-1 9:-0.777778 10:-1 11:-1 12:-0.862344 13:0.0882775 14:-0.913669 15:0.45 16:-0.953488 17:-0.75 18:-0.875 19:-0.75 20:-0.939394 21:-0.5 22:0.587573 23:0.333333 24:-1 25:-1 26:-1 28:-1 29:-0.333333 
1 1 1 0 1:1 2:0.85326 3:-1 5:-0.857143 6:-0.915749 8:1 9:-0.777778 10:-1 11:1 12:-0.85407 13:0.173276 14:-0.899281 15:0.511111 16:-0.953488 17:-0.777778 18:-0.875 19:-0.777778 20:-0.939394 21:-0.555556 22:0.78558 23:0.333333 24:-1 25:-1 26:-1 28:-1 29:-0.333333 
1 1 1 0 1:-1 2:-1 3:-1 5:-1 6:-1 8:-0.333333 9:-1 10:-1 11:1 12:-0.8473 13:0.173276 14:-0.899281 15:0.511111 16:-0.953488 17:-0.777778 18:-0.875 19:-0.777778 20:-0.939394 21:-0.555556 22:0.78558 23:0.333333 24:-1 25:-1 26:-1 28:-1 29:-0.333333 
1 1 1 1 1:-0.333333 2:-1 3:-1 5:-1 6:-1 8:0.333333 9:-0.814815 10:-1 11:-1 12:-0.8473 13:0.055948 14:-0.899281 15:0.34 16:-0.953488 17:-0.8 18:-0.75 19:-0.6 20:-0.939394 21:-0.6 22:0.171033 23:-0.333333 24:-1 26:-1 28:-1 29:-1 
1 1 0 0 1:-1 2:-1 3:-1 5:-1 6:-1 8:-0.333333 9:0.037037 10:-1 11:-1 12:-0.8473 13:0.055948 14:-0.899281 15:0.34 16:-0.953488 17:-0.8 18:-0.75 19:-0.6 20:-0.939394 21:-0.6 22:0.171033 23:-1 24:-1 26:-1 28:-1 29:-1 
1 0 0 0 1:1 2:0.74464 3:-1 5:-0.642857 6:-0.873013 8:-1 9:0.62963 10:-1 11:-1 12:-0.8473 13:0.118556 14:-0.884892 15:0.4 16:-0.953488 17:-0.818182 18:-0.75 19:-0.636364 20:-0.939394 21:-0.636364 22:0.1993 23:-0.333333 24:-1 26:-1 28:-1 29:-0.333333 
1 1 0 0 1:-1 2:-1 3:-1 5:-1 6:-1 8:-0.333333 9:-0.814815 10:-1 11:-1 12:-0.79645 13:0.118556 14:-0.884892 15:0.4 16:-0.953488 17:-0.818182 18:-0.75 19:-0.636364 20:-0.939394 21:-0.636364 22:0.1993 23:-0.333333 24:-1 25:-1 26:-1 28:-1 29:-0.333333 
1 1 1 1 1:1 2:-0.31094 3:-1 5:-0.214286 6:-0.619545 8:-1 9:-0.814815 10:-1 11:-1 12:-0.79645 13:0.082765 14:-0.870504 15:0.45 16:-0.953488 17:-0.833333 18:-0.75 19:-0.666667 20:-0.939394 21:-0.666667 22:-0.188767 23:0.333333 24:-1 25:-1 26:-1 28:-1 29:0.333333 
1 1 1 1 1:1 2:-0.78102 3:1 5:-0.5 6:-0.812593 8:1 9:-0.777778 10:-1 11:1 12:-0.781556 13:0.01632 14:-0.856115 15:0.492308 16:-0.953488 17:-0.846154 18:-0.75 19:-0.692308 20:-0.909091 21:-0.538462 22:-0.115773 23:0.333333 24:-1 25:-1 26:-0.333333 28:-1 29:-0.333333 
1 1 1 1 1:1 2:0.86862 3:-1 5:-0.857143 6:-0.905433 8:1 9:-0.740741 10:-1 11:1 12:-0.73552 13:0.266647 14:-0.769784 15:0.652632 16:-0.953488 17:-0.894737 18:-0.75 19:-0.789474 20:-0.909091 21:-0.684211 22:0.751207 23:1 24:-1 25:-1 26:-1 28:-0.333333 29:0.333333 
1 1 1 1 1:-1 2:-1 3:-1 5:-1 6:-1 8:-0.333333 9:-1 10:-1 11:1 12:-0.727847 13:0.266647 14:-0.769784 15:0.652632 16:-0.953488 17:-0.894737 18:-0.75 19:-0.789474 20:-0.909091 21:-0.684211 22:0.751207 23:0.333333 24:-1 25:-1 26:-1 28:-0.333333 29:-0.333333 
1 1 1 1 1:-0.333333 2:-1 3:-1 5:-1 6:-1 8:0.333333 9:-0.814815 10:-1 11:-1 12:-0.727847 13:0.203315 14:-0.769784 15:0.56 16:-0.953488 17:-0.9 18:-0.625 19:-0.7 20:-0.909091 21:-0.7 22:0.210073 23:-0.333333 24:-1 26:-1 28:-1 29:-1 
1 1 1 0 1:-1 2:-1 3:-1 5:-1 6:-1 8:-0.333333 9:0.037037 10:-1 11:-1 12:-0.727847 13:0.203315 14:-0.769784 15:0.56 16:-0.953488 17:-0.9 18:-0.625 19:-0.7 20:-0.909091 21:-0.7 22:0.210073 23:-1 24:-1 26:-1 28:-1 29:-1 
1 1 1 0 1:1 2:0.5359 3:-1 5:-0.714286 6:-0.867118 8:-1 9:0.62963 10:-1 11:-1 12:-0.727847 13:0.219152 14:-0.755396 15:0.580952 16:-0.953488 17:-0.904762 18:-0.625 19:-0.714286 20:-0.909091 21:-0.714286 22:0.13484 23:-0.333333 24:-1 26:-1 28:-1 29:-0.333333 
1 1 1 1 1:1 2:0.83864 3:-1 5:-0.857143 6:-0.90838 8:1 9:-0.777778 10:-1 11:1 12:-0.592899 13:0.172202 14:-0.697842 15:0.511111 16:-0.860465 17:-0.777778 18:-0.625 19:-0.777778 20:-0.878788 21:-0.703704 22:0.22498 23:0.333333 24:-1 25:-1 26:-1 28:-0.333333 29:-1 
1 1 1 1 1:-1 2:-1 3:-1 5:-1 6:-1 8:-0.333333 9:-1 10:-1 11:1 12:-0.584474 13:0.172202 14:-0.697842 15:0.511111 16:-0.860465 17:-0.777778 18:-0.625 19:-0.777778 20:-0.878788 21:-0.703704 22:0.22498 23:-0.333333 24:-1 25:-1 26:-1 28:-1 29:-1 
1 1 1 1 1:1 2:0.63632 3:-1 5:-0.642857 6:-0.755121 8:-1 9:-0.814815 10:-1 11:-1 12:-0.584474 13:0.188778 14:-0.683453 15:0.528571 16:-0.860465 17:-0.785714 18:-0.625 19:-0.785714 20:-0.878788 21:-0.714286 22:0.77042 23:0.333333 24:-1 25:-1 26:-1 28:-1 29:-0.333333 
1 1 1 1 1:1 2:-0.31424 3:1 5:-0.714286 6:-0.89217 8:1 9:-0.740741 10:-1 11:1 12:-0.573191 13:0.171432 14:-0.669065 15:0.544828 16:-0.860465 17:-0.793103 18:-0.625 19:-0.793103 20:-0.848485 21:-0.655172 22:0.386907 23:0.333333 24:-1 25:-1 26:-0.333333 28:-1 29:-0.333333 
1 1 1 1 1:-1 2:-1 3:-1 5:-1 6:-1 8:-0.333333 9:0.148148 10:-1 11:-1 12:-0.554686 13:0.133036 14:-0.640288 15:0.466667 16:-0.813953 17:-0.757576 18:-0.5 19:-0.757576 20:-0.787879 21:-0.575758 22:-0.432527 23:-1 24:-1 26:-1 28:-1 29:-1 
1 1 1 1 1:1 2:0.70586 3:-1 5:-0.857143 6:-0.911328 8:1 9:-0.777778 10:-1 11:1 12:-0.482323 13:0.172536 14:-0.582734 15:0.524324 16:-0.813953 17:-0.783784 18:-0.5 19:-0.783784 20:-0.787879 21:-0.621622 22:0.427247 23:0.333333 24:-1 25:-1 26:-1 28:-1 29:-1 
1 1 1 1 1:-1 2:-1 3:-1 5:-1 6:-1 8:-0.333333 9:-1 10:-1 11:1 12:-0.473597 13:0.172536 14:-0.582734 15:0.524324 16:-0.813953 17:-0.783784 18:-0.5 19:-0.783784 20:-0.787879 21:-0.621622 22:0.427247 23:-0.333333 24:-1 25:-1 26:-1 28:-1 29:-1 
1 1 1 1 1:0.333333 2:-1 3:-1 5:-0.785714 6:-0.931959 8:1 9:-0.814815 10:-1 11:1 12:-0.980894 13:-0.34105 14:-0.985612 15:-0.1 16:-0.953488 18:-1 19:-1 20:-1 21:-1 22:-0.34105 23:-0.333333 24:-0.333333 25:-1 26:-1 28:-1 29:-0.333333 
1 1 0 0 1:1 2:-0.43662 3:1 5:-0.571429 6:-0.836172 8:1 9:-0.740741 10:-1 11:1 12:-0.978637 13:-0.40704 14:-0.971223 15:1 16:-1 17:-1 18:-1 19:-1 20:-0.939394 21:1 22:-0.40704 23:0.333333 24:-1 25:-1 26:0.333333 28:-1 29:-0.333333 
1 1 1 1 1:1 2:0.88156 3:-1 5:-0.857143 6:-0.927538 8:1 9:-0.814815 10:1 11:1 12:-0.975779 13:0.0224933 14:-0.956835 15:1 16:-1 17:-1 18:-1 19:-1 20:-0.939394 21:0.333333 22:0.0224933 23:1 24:-1 25:-1 26:0.333333 28:-0.333333 29:-0.333333 
1 1 1 0 1:-1 2:-1 3:-1 5:-1 6:-1 8:-0.333333 9:-1 10:-1 11:1 12:-0.969309 13:0.0224933 14:-0.956835 15:1 16:-1 17:-1 18:-1 19:-1 20:-0.939394 21:0.333333 22:0.0224933 23:0.333333 24:-1 25:-1 26:-0.333333 28:-0.333333 29:-1 
1 1 1 0 1:1 2:0.89028 3:-1 5:-0.857143 6:-0.942274 8:1 9:-0.777778 10:-1 11:1 12:-0.949902 13:0.454507 14:-0.913669 15:1 16:-1 17:-1 18:-1 19:-1 20:-0.939394 21:-0.333333 22:0.88652 23:0.333333 24:-1 25:-1 26:-1 28:-0.333333 29:-1 
1 0 0 0 1:1 2:0.88786 3:-1 5:-0.857143 6:-0.931959 8:-1 9:-0.851852 10:-1 11:-1 12:-0.94238 13:0.516414 14:-0.899281 15:1 16:-1 17:-1 18:-1 19:-1 20:-0.939394 21:-0.428571 22:0.8871 23:0.333333 24:-1 25:-1 26:-1 28:-1 29:-0.333333 
1 1 0 0 1:1 2:0.80398 3:1 5:-0.857143 6:-0.942274 8:1 9:-0.703704 10:-1 11:1 12:-0.932752 13:0.55236 14:-0.884892 15:1 16:-1 17:-1 18:-1 19:-1 20:-0.909091 21:-0.25 22:0.860707 23:0.333333 24:-1 25:-1 26:-0.333333 28:-1 29:-0.333333 
1 0.1939375707660976 0 0 1:-0.333333 2:-1 3:-1 5:-1 6:-1 8:0.333333 9:-0.740741 10:-1 11:-1 12:-0.928238 13:0.379876 14:-0.884892 15:0.755556 16:-1 17:-1 18:-0.875 19:-0.777778 20:-0.909091 21:-0.333333 22:0.230613 23:-0.333333 24:-1 26:-0.333333 28:-1 29:-1 
1 1 1 1 1:1 2:0.55076 3:1 5:-0.642857 6:-0.847961 8:-1 9:-0.333333 10:1 11:-1 12:-0.923725 13:0.430135 14:-0.856115 15:0.8 16:-1 17:-1 18:-0.875 19:-0.818182 20:-0.848485 21:-0.0909091 22:0.1042 23:0.333333 24:-1 25:-1 26:0.333333 28:-0.333333 29:0.333333 
1 1 1 1 1:-1 2:-1 3:-1 5:-1 6:-1 8:-0.333333 9:-1 10:-1 11:-1 12:-0.891831 13:0.430135 14:-0.856115 15:0.8 16:-1 17:-1 18:-0.875 19:-0.818182 20:-0.848485 21:-0.0909091 22:0.1042 23:0.333333 24:-1 25:-1 26:0.333333 28:-0.333333 29:0.333333 
1 1 0 0 1:-1 2:-1 3:-1 5:-1 6:-1 8:-0.333333 9:-0.111111 10:-1 11:-1 12:-0.891831 13:0.430135 14:-0.856115 15:0.8 16:-1 17:-1 18:-0.875 19:-0.818182 20:-0.848485 21:-0.0909091 22:0.1042 23:-0.333333 24:-1 25:-1 26:-0.333333 28:-0.333333 29:-0.333333 
1 0 0 0 1:-0.333333 2:-1 3:-1 5:-1 6:-1 8:-1 9:0.62963 10:-1 11:-1 12:-0.891831 13:0.310957 14:-0.856115 15:0.633333 16:-1 17:-1 18:-0.75 19:-0.666667 20:-0.848485 21:-0.166667 22:0.1042 23:-1 24:-1 26:-1 28:-1 29:-0.333333 
1 0 0 0 1:-0.333333 2:-1 3:-1 5:-1 6:-1 8:-1 9:-0.740741 10:-1 11:-1 12:-0.981345 14:-0.985612 15:-0.1 16:-1 17:-1 18:-0.875 20:-0.969697 23:-0.333333 24:-1 26:-0.333333 28:-1 29:0.333333 
1 1 0 0 1:-0.333333 2:-1 3:-1 5:-1 6:-1 8:-1 10:-1 11:-1 12:-0.981345 13:-0.333333 14:-0.985612 15:-0.466667 16:-1 17:-1 18:-0.75 19:0.333333 20:-0.969697 21:-0.333333 22:-0.333333 23:-1 24:-1 25:1 26:-1 28:-1 29:0.333333 
1 1 1 1 1:1 2:-0.9465 3:-1 5:-0.285714 6:-0.149451 8:-1 9:-0.814815 10:-1 11:-1 12:-0.989318 13:-0.9465 14:-0.985612 15:1 16:-1 17:-1 18:-1 19:-1 20:-1 21:-1 22:-0.9465 23:-0.333333 24:-1 25:-1 26:-1 28:-1 29:-0.333333 
1 0 0 0 1:1 2:0.44404 3:-1 5:-0.785714 6:-0.906907 8:1 9:-0.740741 10:-1 11:1 12:-0.978938 13:0.19007 14:-0.971223 15:1 16:-1 17:-1 18:-1 19:-1 20:-0.969697 22:0.19007 23:0.333333 24:-1 25:-1 26:-0.333333 28:-1 29:-0.333333 
0.5798508316356566 0 0 0 1:-1 2:-1 3:-1 5:-1 6:-1 8:-0.333333 9:0.296296 10:-1 11:-1 12:-0.971867 13:0.19007 14:-0.971223 15:1 16:-1 17:-1 18:-1 19:-1 20:-0.969697 22:0.19007 23:-0.333333 24:-1 25:-1 26:-1 28:-1 29:-1 
1 0 0 0 1:-0.333333 2:-1 3:-1 5:-1 6:-1 8:-1 9:-0.814815 10:-1 11:-1 12:-0.971867 13:-0.20662 14:-0.971223 15:0.266667 16:-1 17:-1 18:-0.875 19:-0.333333 20:-0.969697 21:-0.333333 22:-0.20662 23:-1 24:-1 26:-1 28:-1 29:-0.333333 
1 0 0 0 1:1 2:0.8791 3:-1 5:-0.857143 6:-0.931959 8:1 9:-0.814815 10:-1 11:1 12:-0.975478 13:-0.0033 14:-0.971223 15:1 16:-1 17:-1 18:-1 19:-1 20:-0.969697 22:-0.0033 23:0.333333 24:-1 25:-1 26:-0.333333 28:-1 29:-0.333333 
1 0 0 0 1:-1 2:-1 3:-1 5:-1 6:-1 8:-0.333333 9:-1 10:-1 11:1 12:-0.968557 13:-0.0033 14:-0.971223 15:1 16:-1 17:-1 18:-1 19:-1 20:-0.969697 22:-0.0033 23:0.333333 24:-1 25:-1 26:-0.333333 28:-1 29:-0.333333 
1 1 1 0 1:1 2:0.18828 3:-1 5:-0.785714 6:-0.880381 8:-1 9:-0.777778 10:-1 11:-1 12:-0.968557 13:0.06056 14:-0.956835 15:1 16:-1 17:-1 18:-1 19:-1 20:-0.969697 21:-0.333333 22:0.06056 23:0.333333 24:-1 25:-1 26:-1 28:-1 29:-0.333333 
1 0 0 0 1:1 2:0.87922 3:-1 5:-0.857143 6:-0.912801 8:1 9:-0.740741 10:-1 11:1 12:-0.958177 13:0.265225 14:-0.942446 15:1 16:-1 17:-1 18:-1 19:-1 20:-0.969697 21:-0.5 22:0.648867 23:0.333333 24:-1 25:-1 26:-1 28:-1 29:-0.333333 
1 0 0 0 1:-1 2:-1 3:-1 5:-1 6:-1 8:-0.333333 9:-1 10:-1 11:1 12:-0.951557 13:0.265225 14:-0.942446 15:1 16:-1 17:-1 18:-1 19:-1 20:-0.969697 21:-0.5 22:0.648867 23:0.333333 24:-1 25:-1 26:-1 28:-1 29:-0.333333 
1 0 0 0 1:-1 2:-1 3:-1 5:-1 6:-1 8:-0.333333 9:0.259259 10:-1 11:-1 12:-0.951557 13:0.265225 14:-0.942446 15:1 16:-1 17:-1 18:-1 19:-1 20:-0.969697 21:-0.5 22:0.648867 23:-0.333333 24:-1 25:-1 26:-1 28:-1 29:-1 
1 0 0 0 1:1 2:0.88566 3:-1 5:-0.857143 6:-0.92017 8:1 9:-0.666667 10:-1 11:1 12:-0.900406 13:0.351678 14:-0.870504 15:1 16:-1 17:-1 18:-1 19:-1 20:-0.939394 21:-0.555556 22:0.837447 23:0.333333 24:-1 25:-1 26:-1 28:-1 29:-0.333333 
1 1 0 0 1:-1 2:-1 3:-1 5:-1 6:-1 8:-0.333333 9:-1 10:-1 11:1 12:-0.893486 13:0.351678 14:-0.870504 15:1 16:-1 17:-1 18:-1 19:-1 20:-0.939394 21:-0.555556 22:0.837447 23:0.333333 24:-1 25:-1 26:-1 28:-1 29:-0.333333 
1 1 1 0 1:1 2:0.7497 3:-1 5:-0.857143 6:-0.915749 8:-1 9:-0.814815 10:-1 11:-1 12:-0.893486 13:0.39148 14:-0.856115 15:1 16:-1 17:-1 18:-1 19:-1 20:-0.939394 21:-0.6 22:0.79166 23:0.333333 24:-1 25:-1 26:-1 28:-1 29:-0.333333 
1 0 0 0 1:1 2:0.88716 3:-1 5:-0.857143 6:-0.923117 8:1 9:-0.777778 10:-1 11:1 12:-0.886415 13:0.436542 14:-0.841727 15:1 16:-1 17:-1 18:-1 19:-1 20:-0.939394 21:-0.636364 22:0.84084 23:0.333333 24:-1 25:-1 26:-1 28:-1 29:-0.333333 
1 1 0 0 1:-1 2:-1 3:-1 5:-1 6:-1 8:-0.333333 9:-1 10:-1 11:1 12:-0.879795 13:0.436542 14:-0.841727 15:1 16:-1 17:-1 18:-1 19:-1 20:-0.939394 21:-0.636364 22:0.84084 23:0.333333 24:-1 25:-1 26:-1 28:-1 29:-0.333333 
1 1 0 0 1:1 2:0.80982 3:-1 5:-0.714286 6:-0.90838 8:-1 9:-0.777778 10:-1 11:-1 12:-0.879795 13:0.467648 14:-0.827338 15:1 16:-1 17:-1 18:-1 19:-1 20:-0.939394 21:-0.666667 22:0.81556 23:0.333333 24:-1 25:-1 26:-1 28:-1 29:-0.333333 
1 0.336879017387995 0 0 1:1 2:0.88844 3:-1 5:-0.857143 6:-0.926064 8:1 9:-0.666667 10:-1 11:1 12:-0.869415 13:0.500017 14:-0.81295 15:1 16:-1 17:-1 18:-1 19:-1 20:-0.939394 21:-0.692308 22:0.861807 23:0.333333 24:-1 25:-1 26:-1 28:-1 29:-0.333333 
1 1 0 0 1:-1 2:-1 3:-1 5:-1 6:-1 8:-0.333333 9:-1 10:-1 11:1 12:-0.861893 13:0.500017 14:-0.81295 15:1 16:-1 17:-1 18:-1 19:-1 20:-0.939394 21:-0.692308 22:0.861807 23:0.333333 24:-1 25:-1 26:-1 28:-1 29:-0.333333 
1 1 0 0 1:-0.333333 2:-1 3:-1 5:-1 6:-1 8:0.333333 9:-0.703704 10:-1 11:-1 12:-0.861893 13:0.392873 14:-0.81295 15:0.842857 16:-1 17:-1 18:-0.875 19:-0.857143 20:-0.939394 21:-0.714286 22:0.232753 23:-0.333333 24:-1 26:-1 28:-1 29:-1 
1 0 0 0 1:-1 2:-1 3:-1 5:-1 6:-1 8:-0.333333 9:-0.0740741 10:-1 11:-1 12:-0.861893 13:0.392873 14:-0.81295 15:0.842857 16:-1 17:-1 18:-0.875 19:-0.857143 20:-0.939394 21:-0.714286 22:0.232753 23:-1 24:-1 26:-1 28:-1 29:-1 
1 0 0 0 1:1 2:-0.48272 3:-1 5:-0.428571 6:-0.821435 8:-1 9:-0.814815 10:-1 11:-1 12:-0.99985 13:-0.48272 14:-0.985612 15:1 16:-1 17:-1 18:-1 19:-1 20:-1 21:-1 22:-0.48272 23:-0.333333 24:-1 25:-1 26:-1 28:-1 29:-0.333333 
1 1 1 1 1:1 2:0.89098 3:-1 5:-0.857143 6:-0.942274 8:1 9:-0.740741 10:-1 11:1 12:-0.944787 13:0.415091 14:-0.899281 15:1 16:-1 17:-1 18:-1 19:-1 20:-0.969697 21:-0.714286 22:0.71422 23:1 24:-1 25:-1 26:-1 28:-1 29:-0.333333 
1 0 0 0 1:-1 2:-1 3:-1 5:-1 6:-1 8:-0.333333 9:-1 10:-1 11:1 12:-0.938017 13:0.415091 14:-0.899281 15:1 16:-1 17:-1 18:-1 19:-1 20:-0.969697 21:-0.714286 22:0.71422 23:0.333333 24:-1 25:-1 26:-1 28:-1 29:-0.333333 
1 1 0 0 1:-0.333333 2:-1 3:-1 5:-1 6:-1 8:0.333333 9:-0.703704 10:-1 11:-1 12:-0.938017 13:0.238205 14:-0.899281 15:0.725 16:-1 17:-1 18:-0.875 19:-0.75 20:-0.969697 21:-0.75 22:0.142487 23:-0.333333 24:-1 26:-1 28:-1 29:-1 
1 0 0 0 1:1 2:0.2155 3:1 5:-0.642857 6:-0.850908 8:-1 9:0.62963 10:-1 11:-1 12:-0.938017 13:0.235682 14:-0.884892 15:0.755556 16:-1 17:-1 18:-0.875 19:-0.777778 20:-0.939394 21:-0.555556 22:0.0354933 23:-0.333333 24:-1 26:-0.333333 28:-1 29:-0.333333 
1 0 0 0 1:-1 2:-1 3:-1 5:-1 6:-1 8:-0.333333 9:-0.925926 10:-1 11:-1 12:-0.899955 13:0.235682 14:-0.884892 15:0.755556 16:-1 17:-1 18:-0.875 19:-0.777778 20:-0.939394 21:-0.555556 22:0.0354933 23:-0.333333 24:-1 25:-1 26:-0.333333 28:-1 29:-0.333333 
1 0 0 0 1:-1 2:-1 3:-1 5:-1 6:-1 8:-0.333333 9:0.037037 10:-1 11:-1 12:-0.899955 13:0.235682 14:-0.884892 15:0.755556 16:-1 17:-1 18:-0.875 19:-0.777778 20:-0.939394 21:-0.555556 22:0.0354933 23:-0.333333 24:-1 25:-1 26:-0.333333 28:-1 29:-0.333333 
1 0 0 0 1:-1 2:-1 3:-1 5:-1 6:-1 8:-0.333333 9:-0.814815 10:-1 11:-1 12:-0.854822 13:0.292014 14:-0.870504 15:0.78 16:-1 17:-1 18:-0.875 19:-0.8 20:-0.939394 21:-0.6 22:0.00483333 23:-0.333333 24:-1 25:-1 26:-1 28:-1 29:-0.333333 
1 1 1 1 1:1 2:0.0145 3:-1 5:-0.428571 6:-0.791962 8:-1 9:-0.814815 10:-1 11:-1 12:-0.854822 13:0.266785 14:-0.856115 15:0.8 16:-1 17:-1 18:-0.875 19:-0.818182 20:-0.939394 21:-0.636364 22:0.343 23:0.333333 24:-1 25:-1 26:-1 28:-1 29:0.333333 
1 1 0 0 1:1 2:0.88926 3:-1 5:-0.857143 6:-0.930485 8:1 9:-0.703704 10:-1 11:1 12:-0.843087 13:0.318658 14:-0.841727 15:0.816667 16:-1 17:-1 18:-0.875 19:-0.833333 20:-0.939394 21:-0.666667 22:0.567587 23:0.333333 24:-1 25:-1 26:-1 28:-1 29:-0.333333 
1 1 1 0 1:-1 2:-1 3:-1 5:-1 6:-1 8:-0.333333 9:-1 10:-1 11:1 12:-0.836618 13:0.318658 14:-0.841727 15:0.816667 16:-1 17:-1 18:-0.875 19:-0.833333 20:-0.939394 21:-0.666667 22:0.567587 23:0.333333 24:-1 25:-1 26:-1 28:-1 29:-0.333333 
1 1 0 0 1:1 2:0.8903 3:-1 5:-0.857143 6:-0.933432 8:1 9:-0.62963 10:-1 11:1 12:-0.836618 13:0.362631 14:-0.827338 15:0.830769 16:-1 17:-1 18:-0.875 19:-0.846154 20:-0.939394 21:-0.692308 22:0.59802 23:0.333333 24:-1 25:-1 26:-1 28:-1 29:-1 
1 0 0 0 1:-1 2:-1 3:-1 5:-1 6:-1 8:-0.333333 9:-1 10:-1 11:1 12:-0.827291 13:0.362631 14:-0.827338 15:0.830769 16:-1 17:-1 18:-0.875 19:-0.846154 20:-0.939394 21:-0.692308 22:0.59802 23:-0.333333 24:-1 25:-1 26:-1 28:-1 29:-1 
1 0 0 0 1:0.333333 2:-1 3:1 5:-0.714286 6:-0.706491 8:-1 9:-0.814815 10:-1 11:-1 12:-0.99985 13:-1 14:-1 15:1 16:-0.953488 17:1 18:-1 19:-1 20:-0.969697 21:1 22:-1 23:-1 24:-0.333333 25:-1 26:-0.333333 28:-1 29:-0.333333 
1 0 0 0 1:-0.333333 2:-1 3:-1 5:-1 6:-1 8:-1 9:-0.740741 10:-1 11:-1 12:-0.980141 14:-0.985612 15:-0.1 16:-1 17:-1 18:-0.875 20:-1 21:-1 23:-0.333333 24:-1 26:-1 28:-1 29:0.333333 
1 0 0 0 1:1 2:-0.25784 3:-1 5:-0.5 6:-0.728595 8:-1 9:-0.814815 10:-1 11:-1 12:-0.99985 13:-0.25784 14:-0.985612 15:1 16:-1 17:-1 18:-1 19:-1 20:-1 21:-1 22:-0.25784 23:-0.333333 24:-1 25:-1 26:-1 28:-1 29:-0.333333 
1 1 0 0 1:1 2:0.65816 3:-1 5:-0.857143 6:-0.87596 8:-1 9:-0.814815 10:-1 11:-1 12:-0.921167 13:0.375857 14:-0.884892 15:1 16:-1 17:-1 18:-1 19:-1 20:-0.939394 21:-0.5 22:0.710987 23:0.333333 24:-1 25:-1 26:-1 28:-1 29:-0.333333 
1 1 0 0 1:1 2:0.4795 3:-1 5:-0.714286 6:-0.862697 8:1 9:-0.777778 10:-1 11:1 12:-0.916353 13:0.387373 14:-0.870504 15:1 16:-1 17:-1 18:-1 19:-1 20:-0.939394 21:-0.555556 22:0.651773 23:0.333333 24:-1 25:-1 26:-1 28:-1 29:-0.333333 
1 0 0 0 1:-0.333333 2:-1 3:-1 5:-1 6:-1 8:-1 9:-0.740741 10:-1 11:-1 12:-0.980292 14:-0.985612 15:-0.1 16:-1 17:-1 18:-0.875 20:-1 21:-1 23:-0.333333 24:-1 26:-1 28:-1 29:0.333333 
1 1 0 0 1:1 2:0.03164 3:1 5:-0.857143 6:-0.880381 8:-1 10:-1 11:-1 12:-0.980292 13:0.0105467 14:-0.971223 15:0.266667 16:-1 17:-1 18:-0.875 19:-0.333333 20:-0.969697 21:-0.333333 22:0.0105467 23:-0.333333 24:-1 26:-0.333333 28:-1 29:0.333333 
1 1 0 0 1:1 2:0.88016 3:-1 5:-0.857143 6:-0.923117 8:1 9:-0.740741 10:-1 11:1 12:-0.946442 13:0.22795 14:-0.956835 15:0.45 16:-1 17:-1 18:-0.875 19:-0.5 20:-0.969697 21:-0.5 22:-0.0294 23:0.333333 24:-1 26:-0.333333 28:-1 29:0.333333 
1 0 0 0 1:-1 2:-1 3:-1 5:-1 6:-1 8:-0.333333 9:-1 10:-1 11:1 12:-0.939371 13:0.22795 14:-0.956835 15:0.45 16:-1 17:-1 18:-0.875 19:-0.5 20:-0.969697 21:-0.5 22:-0.0294 23:0.333333 24:-1 25:-1 26:-0.333333 28:-1 29:-0.333333 
1 0 0 0 1:1 2:0.79584 3:-1 5:-0.785714 6:-0.868592 8:-1 9:-0.777778 10:-1 11:-1 12:-0.939371 13:0.341528 14:-0.942446 15:0.56 16:-1 17:-1 18:-0.875 19:-0.6 20:-0.969697 21:-0.6 22:0.569213 23:0.333333 24:-1 25:-1 26:-1 28:-1 29:-0.333333 
1 0 0 0 1:0.333333 2:-1 3:1 5:-0.642857 6:-0.874487 8:-1 9:-0.814815 10:-1 11:-1 12:-0.99985 13:-1 14:-1 15:1 16:-0.953488 17:1 18:-1 19:-1 20:-0.969697 21:1 22:-1 23:-1 24:-0.333333 25:-1 26:-0.333333 28:-1 29:-0.333333 
1 1 1 1 1:1 2:0.493 3:-1 5:-0.785714 6:-0.884802 8:-1 9:-0.888889 10:-1 11:-1 12:-0.963141 13:-0.095868 14:-0.956835 15:0.12 16:-0.906977 17:-0.2 18:-1 19:-1 20:-0.939394 21:-0.2 22:0.506887 23:0.333333 24:-1 25:-1 26:-1 28:-1 29:-0.333333 
1 1 1 0 1:1 2:0.77754 3:-1 5:-0.857143 6:-0.896591 8:1 9:-0.740741 10:-1 11:1 12:-0.954566 13:0.0497 14:-0.942446 15:0.266667 16:-0.906977 17:-0.333333 18:-1 19:-1 20:-0.939394 21:-0.333333 22:0.6689 23:0.333333 24:-1 25:-1 26:-1 28:-1 29:-0.333333 
1 1 1 0 1:-1 2:-1 3:-1 5:-1 6:-1 8:-0.333333 9:-1 10:-1 11:1 12:-0.947044 13:0.0497 14:-0.942446 15:0.266667 16:-0.906977 17:-0.333333 18:-1 19:-1 20:-0.939394 21:-0.333333 22:0.6689 23:0.333333 24:-1 25:-1 26:-1 28:-1 29:-0.333333 
1 0 0 0 1:1 2:0.88048 3:-1 5:-0.857143 6:-0.906907 8:1 9:-0.703704 10:-1 11:1 12:-0.940876 13:0.467209 14:-0.899281 15:1 16:-1 17:-1 18:-1 19:-1 20:-0.969697 21:-0.714286 22:0.87644 23:0.333333 24:-1 25:-1 26:-1 28:-1 29:-0.333333 
1 0 0 0 1:-1 2:-1 3:-1 5:-1 6:-1 8:-0.333333 9:-1 10:-1 11:1 12:-0.933504 13:0.467209 14:-0.899281 15:1 16:-1 17:-1 18:-1 19:-1 20:-0.969697 21:-0.714286 22:0.87644 23:0.333333 24:-1 25:-1 26:-1 28:-1 29:-0.333333 
1 0.1486958580126908 0 0 1:-0.333333 2:-1 3:-1 5:-1 6:-1 8:0.333333 9:-0.740741 10:-1 11:-1 12:-0.933504 13:0.283807 14:-0.899281 15:0.725 16:-1 17:-1 18:-0.875 19:-0.75 20:-0.969697 21:-0.75 22:0.25098 23:-0.333333 24:-1 26:-1 28:-1 29:-1 
1 0 0 0 1:1 2:0.76166 3:-1 5:-0.785714 6:-0.887749 8:-1 9:-0.814815 10:-1 11:-1 12:-0.927336 13:0.637194 14:-0.856115 15:1 16:-1 17:-1 18:-1 19:-1 20:-0.969697 21:-0.8 22:0.803633 23:0.333333 24:-1 25:-1 26:-1 28:-1 29:-0.333333 
1 0 0 0 1:1 2:0.79006 3:-1 5:-0.857143 6:-0.939327 8:1 9:-0.62963 10:-1 11:1 12:-0.917256 13:0.651091 14:-0.841727 15:1 16:-1 17:-1 18:-1 19:-1 20:-0.969697 21:-0.818182 22:0.813873 23:0.333333 24:-1 25:-1 26:-1 28:-1 29:-0.333333 
0.7303024149358707 0 0 0 1:-1 2:-1 3:-1 5:-1 6:-1 8:-0.333333 9:-1 10:-1 11:1 12:-0.908981 13:0.651091 14:-0.841727 15:1 16:-1 17:-1 18:-1 19:-1 20:-0.969697 21:-0.818182 22:0.813873 23:0.333333 24:-1 25:-1 26:-1 28:-1 29:-0.333333 
1 0 0 0 1:-0.333333 2:-1 3:-1 5:-1 6:-1 8:0.333333 9:-0.703704 10:-1 11:-1 12:-0.908981 13:0.5135 14:-0.841727 15:0.816667 16:-1 17:-1 18:-0.875 19:-0.833333 20:-0.969697 21:-0.833333 22:0.183907 23:-0.333333 24:-1 26:-1 28:-1 29:-1 
1 0 0 0 1:1 2:0.63782 3:1 5:-0.571429 6:-0.870066 8:-1 9:0.62963 10:-1 11:-1 12:-0.908981 13:0.523063 14:-0.827338 15:0.830769 16:-1 17:-1 18:-0.875 19:-0.846154 20:-0.939394 21:-0.692308 22:0.142627 23:-0.333333 24:-1 26:-0.333333 28:-1 29:-0.333333 
1 0 0 0 1:1 2:0.7734 3:-1 5:-0.857143 6:-0.942274 8:1 9:-0.740741 10:-1 11:1 12:-0.980743 13:0.39158 14:-0.971223 15:1 16:-1 17:-1 18:-1 19:-1 20:-0.969697 22:0.39158 23:0.333333 24:-1 25:-1 26:-0.333333 28:-1 29:-0.333333 
1 1 1 1 1:0.333333 2:-1 3:-1 5:-0.857143 6:-0.923117 8:-1 9:-0.777778 10:-1 11:-1 12:-0.973371 13:-0.07228 14:-0.971223 15:0.266667 16:-0.953488 17:-0.333333 18:-1 19:-1 20:-0.969697 21:-0.333333 22:-0.07228 23:-0.333333 24:-0.333333 25:-1 26:-1 28:-1 29:-0.333333 
1 1 1 0 1:1 2:0.85704 3:-1 5:-0.785714 6:-0.906907 8:-1 9:-0.814815 10:-1 11:-1 12:-0.921619 13:0.398908 14:-0.870504 15:0.78 16:-0.953488 17:-0.8 18:-1 19:-1 20:-0.969697 21:-0.8 22:0.766767 23:0.333333 24:-1 25:-1 26:-1 28:-1 29:-0.333333 
1 1 1 1 1:0.333333 2:-1 3:1 5:-0.857143 6:-0.931959 8:1 9:-0.740741 10:-1 11:1 12:-0.911689 13:0.271735 14:-0.870504 15:0.6 16:-0.906977 17:-0.636364 18:-1 19:-1 20:-0.939394 21:-0.636364 22:0.200567 23:-0.333333 24:-0.333333 25:-1 26:-0.333333 28:-1 29:-0.333333 
1 1 1 1 1:1 2:0.7017 3:1 5:-0.857143 6:-0.889223 8:1 9:-0.333333 10:1 11:1 12:-0.909282 13:0.307565 14:-0.856115 15:0.633333 16:-0.906977 17:-0.666667 18:-1 19:-1 20:-0.909091 21:-0.5 22:0.186247 23:0.333333 24:-0.333333 25:-1 26:0.333333 28:-0.333333 29:-0.333333 
1 1 1 1 1:-1 2:-1 3:-1 5:-1 6:-1 8:-0.333333 9:-1 10:-1 11:1 12:-0.898902 13:0.307565 14:-0.856115 15:0.633333 16:-0.906977 17:-0.666667 18:-1 19:-1 20:-0.909091 21:-0.5 22:0.186247 23:-0.333333 24:-0.333333 25:-1 26:0.333333 28:-0.333333 29:-1 
1 1 1 1 1:-0.333333 2:-1 3:-1 5:-1 6:-1 8:0.333333 9:-0.777778 10:-1 11:-1 12:-0.898902 13:0.206983 14:-0.856115 15:0.492308 16:-0.906977 17:-0.692308 18:-0.875 19:-0.846154 20:-0.909091 21:-0.538462 22:-0.432767 23:-0.333333 24:-1 26:-0.333333 28:-0.333333 29:-1 
1 1 0.5631888264847582 0 1:-1 2:-1 3:-1 5:-1 6:-1 8:-0.333333 9:0.0740741 10:-1 11:-1 12:-0.898902 13:0.206983 14:-0.856115 15:0.492308 16:-0.906977 17:-0.692308 18:-0.875 19:-0.846154 20:-0.909091 21:-0.538462 22:-0.432767 23:-1 24:-1 26:-1 28:-1 29:-1 
1 1 1 0 1:1 2:-0.75718 3:-1 5:-0.571429 6:-0.743332 8:-1 9:-0.814815 10:-1 11:-1 12:-1 13:-0.75718 14:-0.985612 15:1 16:-1 17:-1 18:-1 19:-1 20:-1 21:-1 22:-0.75718 23:-0.333333 24:-1 25:-1 26:-1 28:-1 29:-0.333333 
1 1 1 1 1:1 2:0.8796 3:-1 5:-0.857143 6:-0.921643 8:1 9:-0.814815 10:-1 11:1 12:-0.969159 13:-0.00629333 14:-0.956835 15:1 16:-1 17:-1 18:-1 19:-1 20:-1 21:-1 22:-0.00629333 23:1 24:-1 25:-1 26:-1 28:-1 29:-0.333333 
1 1 1 -0 1:-1 2:-1 3:-1 5:-1 6:-1 8:-0.333333 9:-1 10:-1 11:1 12:-0.960734 13:-0.00629333 14:-0.956835 15:1 16:-1 17:-1 18:-1 19:-1 20:-1 21:-1 22:-0.00629333 23:0.333333 24:-1 25:-1 26:-1 28:-1 29:-1 
1 0 0 0 1:0.333333 2:-1 3:1 5:-0.714286 6:-0.87596 8:-1 9:-0.814815 10:-1 11:-1 12:-0.99985 13:-1 14:-1 15:1 16:-0.953488 17:1 18:-1 19:-1 20:-0.969697 21:1 22:-1 23:-1 24:-0.333333 25:-1 26:-0.333333 28:-1 29:-0.333333 
1 1 1 1 1:1 2:-0.31724 3:1 5:-0.857143 6:-0.890697 8:-1 10:1 11:-1 12:-0.988867 13:-0.65862 14:-0.985612 15:-0.1 16:-0.953488 18:-1 19:-1 20:-0.939394 21:1 22:-0.65862 23:-0.333333 24:-0.333333 25:-1 26:0.333333 28:-0.333333 29:0.333333 
1 0 0 0 1:-0.333333 2:-1 3:-1 5:-1 6:-1 8:-1 9:-0.740741 10:-1 11:-1 12:-0.97969 14:-0.985612 15:-0.1 16:-1 17:-1 18:-0.875 20:-0.969697 23:-0.333333 24:-1 26:-0.333333 28:-1 29:0.333333 
1 0 0 0 1:1 2:0.8833 3:-1 5:-0.857143 6:-0.945222 8:1 9:-0.740741 10:-1 11:1 12:-0.978487 13:0.38624 14:-0.971223 15:1 16:-1 17:-1 18:-1 19:-1 20:-1 21:-1 22:0.38624 23:0.333333 24:-1 25:-1 26:-1 28:-1 29:-0.333333 
1 0 0 0 1:-1 2:-1 3:-1 5:-1 6:-1 8:-0.333333 9:-1 10:-1 11:1 12:-0.971416 13:0.38624 14:-0.971223 15:1 16:-1 17:-1 18:-1 19:-1 20:-1 21:-1 22:0.38624 23:0.333333 24:-1 25:-1 26:-1 28:-1 29:-0.333333 
1 0 0 0 1:1 2:0.72662 3:-1 5:-0.857143 6:-0.889223 8:-1 9:-0.888889 10:-1 11:-1 12:-0.95592 13:0.620236 14:-0.928058 15:1 16:-1 17:-1 18:-1 19:-1 20:-1 21:-1 22:0.776233 23:0.333333 24:-1 25:-1 26:-1 28:-1 29:-0.333333 
1 1 0 0 1:0.333333 2:-1 3:-1 5:-0.857143 6:-0.93638 8:1 9:-0.62963 10:-1 11:1 12:-0.928539 13:0.481583 14:-0.899281 15:0.725 16:-0.953488 17:-0.75 18:-1 19:-1 20:-1 21:-1 22:0.250493 23:-0.333333 24:-0.333333 25:-1 26:-1 28:-1 29:-0.333333 
1 1 0 0 1:-1 2:-1 3:-1 5:-1 6:-1 8:-0.333333 9:0.0740741 10:-1 11:-1 12:-0.904769 13:0.3689 14:-0.884892 15:0.56 16:-0.953488 17:-0.8 18:-0.875 19:-0.8 20:-1 21:-1 22:-0.387887 23:-1 24:-1 26:-1 28:-1 29:-1 
1 1 0 0 1:-0.333333 2:-1 3:-1 5:-1 6:-1 8:-1 9:0.62963 10:-1 11:-1 12:-0.904769 13:0.244455 14:-0.884892 15:0.4 16:-0.953488 17:-0.818182 18:-0.75 19:-0.636364 20:-1 21:-1 22:-0.387887 23:-1 24:-1 25:1 26:-1 28:-1 29:-0.333333 
1 0 0 0 1:1 2:0.75306 3:-1 5:-0.857143 6:-0.906907 8:1 9:-0.703704 10:-1 11:1 12:-0.974124 13:-0.03618 14:-0.971223 15:1 16:-1 17:-1 18:-1 19:-1 20:-0.969697 22:-0.03618 23:0.333333 24:-1 25:-1 26:-0.333333 28:-1 29:-0.333333 
1 0 0 0 1:-1 2:-1 3:-1 5:-1 6:-1 8:-0.333333 9:-1 10:-1 11:1 12:-0.966301 13:-0.03618 14:-0.971223 15:1 16:-1 17:-1 18:-1 19:-1 20:-0.969697 22:-0.03618 23:0.333333 24:-1 25:-1 26:-0.333333 28:-1 29:-0.333333 
1 0 0 0 1:1 2:-0.31698 3:1 5:-0.785714 6:-0.902486 8:-1 9:-0.814815 10:-1 11:-1 12:-0.99985 13:-0.31698 14:-0.985612 15:1 16:-1 17:-1 18:-1 19:-1 20:-0.969697 21:1 22:-0.31698 23:-0.333333 24:-1 25:-1 26:-0.333333 28:-1 29:-0.333333 
1 1 1 1 1:1 2:0.7825 3:-1 5:-0.857143 6:-0.940801 8:1 9:-0.740741 10:-1 11:1 12:-0.962389 13:0.3364 14:-0.942446 15:1 16:-1 17:-1 18:-1 19:-1 20:-0.969697 21:-0.5 22:0.554193 23:1 24:-1 25:-1 26:-1 28:-1 29:-0.333333 
1 0 0 0 1:1 2:0.87966 3:-1 5:-0.857143 6:-0.933432 8:1 9:-0.703704 10:-1 11:1 12:-0.977734 13:0.35138 14:-0.971223 15:1 16:-1 17:-1 18:-1 19:-1 20:-1 21:-1 22:0.35138 23:0.333333 24:-1 25:-1 26:-1 28:-1 29:-0.333333 
1 0 0 0 1:-1 2:-1 3:-1 5:-1 6:-1 8:-0.333333 9:-1 10:-1 11:1 12:-0.96961 13:0.35138 14:-0.971223 15:1 16:-1 17:-1 18:-1 19:-1 20:-1 21:-1 22:0.35138 23:0.333333 24:-1 25:-1 26:-1 28:-1 29:-0.333333 
1 1 0 0 1:0.333333 2:-1 3:1 5:-0.857143 6:-0.906907 8:-1 9:-0.814815 10:-1 11:-1 12:-1 13:-1 14:-1 15:1 16:-0.953488 17:1 18:-1 19:-1 20:-0.969697 21:1 22:-1 23:-1 24:-0.333333 25:-1 26:-0.333333 28:-1 29:-0.333333 
1 1 1 1 1:1 2:-0.57058 3:-1 5:-0.285714 6:-0.613651 8:-1 10:1 11:-1 12:-0.978186 13:-0.78529 14:-0.985612 15:-0.1 16:-0.953488 18:-1 19:-1 20:-0.969697 22:-0.78529 23:-0.333333 24:-0.333333 25:-1 26:-0.333333 28:-0.333333 29:0.333333 
1 1 1 1 1:1 2:0.80716 3:-1 5:-0.857143 6:-0.940801 8:1 9:-0.777778 10:-1 11:1 12:-0.952008 13:-0.254473 14:-0.971223 15:0.266667 16:-0.953488 17:-0.333333 18:-1 19:-1 20:-0.969697 21:-0.333333 22:-0.254473 23:0.333333 24:-0.333333 25:-1 26:-0.333333 28:-0.333333 29:0.333333 
1 1 1 1 1:-1 2:-1 3:-1 5:-1 6:-1 8:-0.333333 9:-1 10:-1 11:1 12:-0.945238 13:-0.254473 14:-0.971223 15:0.266667 16:-0.953488 17:-0.333333 18:-1 19:-1 20:-0.969697 21:-0.333333 22:-0.254473 23:0.333333 24:-1 25:-1 26:-1 28:-0.333333 29:-0.333333 
1 1 1 0 1:1 2:0.8301 3:-1 5:-0.857143 6:-0.943748 8:1 9:-0.777778 10:-1 11:1 12:-0.945238 13:0.01667 14:-0.956835 15:0.45 16:-0.953488 17:-0.5 18:-1 19:-1 20:-0.969697 21:-0.5 22:0.35556 23:0.333333 24:-1 25:-1 26:-1 28:-1 29:-1 
1 1 0.2249449044532329 0 1:1 2:0.84216 3:-1 5:-0.857143 6:-0.940801 8:1 9:-0.62963 10:-1 11:1 12:-0.937114 13:0.181768 14:-0.942446 15:0.56 16:-0.953488 17:-0.6 18:-1 19:-1 20:-0.969697 21:-0.6 22:0.826473 23:0.333333 24:-1 25:-1 26:-1 28:-1 29:-1 
1 1 1 0 1:-1 2:-1 3:-1 5:-1 6:-1 8:-0.333333 9:-1 10:-1 11:1 12:-0.929592 13:0.181768 14:-0.942446 15:0.56 16:-0.953488 17:-0.6 18:-1 19:-1 20:-0.969697 21:-0.6 22:0.826473 23:0.333333 24:-1 25:-1 26:-1 28:-1 29:-1 
1 1 1 1 1:1 2:0.71316 3:-1 5:-0.857143 6:-0.905433 8:-1 9:-0.814815 10:-1 11:-1 12:-0.831352 13:0.293764 14:-0.798561 15:0.725 16:-0.953488 17:-0.875 18:-0.875 19:-0.875 20:-0.939394 21:-0.75 22:0.82154 23:0.333333 24:-1 25:-1 26:-1 28:-1 29:-0.333333 
1 1 1 1 1:1 2:0.88026 3:-1 5:-0.857143 6:-0.945222 8:1 9:-0.777778 10:-1 11:1 12:-0.825184 13:0.328264 14:-0.784173 15:0.741176 16:-0.953488 17:-0.882353 18:-0.875 19:-0.882353 20:-0.939394 21:-0.764706 22:0.823 23:1 24:-1 25:-1 26:-1 28:-1 29:-0.333333 
1 1 1 0 1:-1 2:-1 3:-1 5:-1 6:-1 8:-0.333333 9:-1 10:-1 11:1 12:-0.818264 13:0.328264 14:-0.784173 15:0.741176 16:-0.953488 17:-0.882353 18:-0.875 19:-0.882353 20:-0.939394 21:-0.764706 22:0.823 23:0.333333 24:-1 25:-1 26:-1 28:-1 29:-0.333333 
1 1 1 1 1:1 2:0.7115 3:-1 5:-0.857143 6:-0.896591 8:-1 9:-0.851852 10:-1 11:-1 12:-0.818264 13:0.349554 14:-0.769784 15:0.755556 16:-0.953488 17:-0.888889 18:-0.875 19:-0.888889 20:-0.939394 21:-0.777778 22:0.768307 23:0.333333 24:-1 25:-1 26:-1 28:-1 29:-0.333333 
1 1 1 0 1:1 2:0.88152 3:-1 5:-0.857143 6:-0.943748 8:1 9:-0.703704 10:-1 11:1 12:-0.810591 13:0.377553 14:-0.755396 15:0.768421 16:-0.953488 17:-0.894737 18:-0.875 19:-0.894737 20:-0.939394 21:-0.789474 22:0.824427 23:0.333333 24:-1 25:-1 26:-1 28:-1 29:-0.333333 
1 1 1 0 1:-1 2:-1 3:-1 5:-1 6:-1 8:-0.333333 9:-1 10:-1 11:1 12:-0.803972 13:0.377553 14:-0.755396 15:0.768421 16:-0.953488 17:-0.894737 18:-0.875 19:-0.894737 20:-0.939394 21:-0.789474 22:0.824427 23:0.333333 24:-1 25:-1 26:-1 28:-1 29:-0.333333 
1 1 1 1 1:-0.333333 2:-1 3:-1 5:-1 6:-1 8:0.333333 9:-0.740741 10:-1 11:-1 12:-0.803972 13:0.308675 14:-0.755396 15:0.67 16:-0.953488 17:-0.9 18:-0.75 19:-0.8 20:-0.939394 21:-0.8 22:0.197673 23:-0.333333 24:-1 26:-1 28:-1 29:-1 
1 1 0 0 1:-1 2:-1 3:-1 5:-1 6:-1 8:-0.333333 10:-1 11:-1 12:-0.803972 13:0.308675 14:-0.755396 15:0.67 16:-0.953488 17:-0.9 18:-0.75 19:-0.8 20:-0.939394 21:-0.8 22:0.197673 23:-1 24:-1 26:-1 28:-1 29:-1 
1 1 1 1 1:-0.333333 2:-1 3:-1 5:-1 6:-1 8:-1 9:0.62963 10:-1 11:-1 12:-0.803972 13:0.246357 14:-0.755396 15:0.580952 16:-0.953488 17:-0.904762 18:-0.625 19:-0.714286 20:-0.939394 21:-0.809524 22:-0.372827 23:-1 24:-1 25:1 26:-1 28:-1 29:-0.333333 
0.7105763709213646 0 0 0 1:-1 2:-1 3:-1 5:-1 6:-1 8:-0.333333 9:-0.814815 10:-1 11:-1 12:-0.860539 13:0.601213 14:-0.841727 15:0.816667 16:-1 17:-1 18:-0.875 19:-0.833333 20:-0.969697 21:-0.833333 22:0.224013 23:-0.333333 24:-1 25:-1 26:-1 28:-1 29:-0.333333 
1 1 1 1 1:1 2:0.38018 3:-1 5:-0.857143 6:-0.880381 8:-1 9:-0.814815 10:-1 11:-1 12:-0.860539 13:0.584211 14:-0.827338 15:0.830769 16:-1 17:-1 18:-0.875 19:-0.846154 20:-0.969697 21:-0.846154 22:0.0561133 23:0.333333 24:-1 25:-1 26:-1 28:-1 29:0.333333 
1 1 0 0 1:1 2:0.71222 3:-1 5:-0.785714 6:-0.911328 8:1 9:-0.814815 10:-1 11:1 12:-0.850158 13:0.593354 14:-0.81295 15:0.842857 16:-1 17:-1 18:-0.875 19:-0.857143 20:-0.969697 21:-0.857143 22:0.626853 23:0.333333 24:-1 25:-1 26:-1 28:-1 29:-0.333333 
1 0 0 0 1:-1 2:-1 3:-1 5:-1 6:-1 8:-0.333333 9:-1 10:-1 11:1 12:-0.842636 13:0.593354 14:-0.81295 15:0.842857 16:-1 17:-1 18:-0.875 19:-0.857143 20:-0.969697 21:-0.857143 22:0.626853 23:0.333333 24:-1 25:-1 26:-1 28:-1 29:-0.333333 
1 1 0 0 1:1 2:0.72972 3:-1 5:-0.857143 6:-0.880381 8:-1 9:-0.777778 10:-1 11:-1 12:-0.842636 13:0.602445 14:-0.798561 15:0.853333 16:-1 17:-1 18:-0.875 19:-0.866667 20:-0.969697 21:-0.866667 22:0.607373 23:0.333333 24:-1 25:-1 26:-1 28:-1 29:-0.333333 
1 1 0 0 1:1 2:0.88826 3:-1 5:-0.857143 6:-0.924591 8:1 9:-0.703704 10:-1 11:1 12:-0.834211 13:0.620309 14:-0.784173 15:0.8625 16:-1 17:-1 18:-0.875 19:-0.875 20:-0.969697 21:-0.875 22:0.776733 23:0.333333 24:-1 25:-1 26:-1 28:-1 29:-0.333333 
1 1 0 0 1:-1 2:-1 3:-1 5:-1 6:-1 8:-0.333333 9:-1 10:-1 11:1 12:-0.82714 13:0.620309 14:-0.784173 15:0.8625 16:-1 17:-1 18:-0.875 19:-0.875 20:-0.969697 21:-0.875 22:0.776733 23:0.333333 24:-1 25:-1 26:-1 28:-1 29:-0.333333 
1 1 1 0 1:1 2:0.7075 3:-1 5:-0.785714 6:-0.845014 8:-1 9:-0.888889 10:-1 11:-1 12:-0.82714 13:0.625438 14:-0.769784 15:0.870588 16:-1 17:-1 18:-0.875 19:-0.882353 20:-0.969697 21:-0.882353 22:0.77516 23:0.333333 24:-1 25:-1 26:-1 28:-1 29:-0.333333 
1 1 0 0 1:1 2:0.88316 3:-1 5:-0.857143 6:-0.905433 8:1 9:-0.740741 10:-1 11:1 12:-0.819016 13:0.639756 14:-0.755396 15:0.877778 16:-1 17:-1 18:-0.875 19:-0.888889 20:-0.969697 21:-0.888889 22:0.826307 23:0.333333 24:-1 25:-1 26:-1 28:-1 29:-0.333333 
1 1 0 0 1:-1 2:-1 3:-1 5:-1 6:-1 8:-0.333333 9:-1 10:-1 11:1 12:-0.811644 13:0.639756 14:-0.755396 15:0.877778 16:-1 17:-1 18:-0.875 19:-0.888889 20:-0.969697 21:-0.888889 22:0.826307 23:0.333333 24:-1 25:-1 26:-1 28:-1 29:-0.333333 
1 1 1 0 1:1 2:0.77686 3:-1 5:-0.642857 6:-0.839119 8:-1 9:-0.851852 10:-1 11:-1 12:-0.811644 13:0.646972 14:-0.741007 15:0.884211 16:-1 17:-1 18:-0.875 19:-0.894737 20:-0.969697 21:-0.894737 22:0.789173 23:0.333333 24:-1 25:-1 26:-1 28:-1 29:-0.333333 
1 1 0 0 1:1 2:0.88504 3:-1 5:-0.857143 6:-0.911328 8:1 9:-0.703704 10:-1 11:1 12:-0.80352 13:0.658875 14:-0.726619 15:0.89 16:-1 17:-1 18:-0.875 19:-0.9 20:-0.969697 21:-0.9 22:0.848353 23:0.333333 24:-1 25:-1 26:-1 28:-1 29:-0.333333 
1 1 0 0 1:-1 2:-1 3:-1 5:-1 6:-1 8:-0.333333 9:-1 10:-1 11:1 12:-0.795096 13:0.658875 14:-0.726619 15:0.89 16:-1 17:-1 18:-0.875 19:-0.9 20:-0.969697 21:-0.9 22:0.848353 23:0.333333 24:-1 25:-1 26:-1 28:-1 29:-0.333333 
